{"learner":{"attributes":{"best_iteration":"9","best_ntree_limit":"10"},"feature_names":[],"feature_types":[],"gradient_booster":{"model":{"gbtree_model_param":{"num_parallel_tree":"1","num_trees":"10","size_leaf_vector":"0"},"tree_info":[0,0,0,0,0,0,0,0,0,0],"trees":[{"base_weights":[1.1150947E0,8.852697E-1,2.2913544E0,7.5004196E-1,1.2660791E0,2.0008621E0,3.1000872E0,5.8603895E-1,8.5669166E-1,1.0478569E0,1.3611304E0,1.8620324E0,2.296052E0,2.9324658E0,3.9413476E0,4.7939736E-1,6.773823E-1,5.8894914E-1,9.320357E-1,1.0423392E0,1.7380261E0,1.2985512E0,1.5317909E0,1.7961986E0,2.016228E0,2.1189017E0,2.376543E0,2.6544034E0,3.1301713E0,3.637164E-1,4.5515375E0,4.3818244E-1,5.6355697E-1,5.9211373E-1,7.164764E-1,8.204551E-1,4.8381943E-1,7.784561E-1,1.0067422E0,9.874068E-1,1.0984927E0,5.2087974E-2,1.7815061E0,1.2854571E0,1.7910367E0,1.4785542E0,1.6556365E0,1.7225163E0,1.9154673E0,1.976409E0,2.2024617E0,2.0783336E0,2.2616205E0,2.75577E0,2.3484395E0,2.4758677E-1,2.7269707E0,3.2758498E-1,3.0333562E0,4.715829E-1,3.95659E-1,3.594137E-1,4.947007E-1,4.5453057E-1,6.433764E-1,5.363688E-1,6.791749E-1,6.600296E-1,7.711402E-1,7.658423E-1,9.0420383E-1,4.124087E-1,6.6035426E-1,7.182608E-1,1.4278405E0,8.596963E-1,1.0945617E0,9.16264E-1,1.028056E0,1.0430521E0,1.257398E0,5.693501E-2,1.8080056E-1,1.2557336E0,1.3902565E0,1.6224109E0,2.0684795E0,1.4477657E0,1.6519122E0,1.4720973E0,1.7368402E0,1.9299213E0,1.692367E0,1.8283527E0,2.0170915E0,2.227763E0,1.9469635E0,1.9607441E-1,2.2874606E0,2.0180614E0,2.233104E0,2.274066E0,8.8334644E-1,2.512095E0,2.9254928E-1,2.290478E0,2.4689934E0,2.667102E0,2.8434548E-1,2.830175E-1,3.1397805E0,3.385758E-1,4.2450854E-1,4.892377E-1,1.5597212E0,4.2806306E-1,6.8549997E-1,5.3370047E-1,7.217333E-1,4.8081797E-1,6.507075E-1,6.282331E-1,7.987754E-1,6.8119854E-1,5.294795E-1,6.9840777E-1,9.2442983E-1,6.433084E-1,8.426695E-1,7.828115E-1,1.0165321E0,3.2564774E-1,5.558622E-1,9.748508E-1,4.9485227E-1,1.6106142E0,6.907063E-1,1.1014352E0,1.741466E0,8.186576E-1,1.849677E0,1.2603927E0,9.107291E-1,8.6063695E-1,9.852677E-1,1.3856312E0,1.0083557E0,1.0157236E0,1.2666559E0,1.2324703E0,1.7019E-1,1.2069079E0,1.3450743E0,1.5077565E0,1.2576513E0,-2.5E-2,1.6304809E0,2.0780866E-1,2.9930616E-2,1.3970166E0,1.5332581E0,1.964791E0,1.6251903E0,1.2203914E-1,1.5812039E0,1.6498748E0,1.8195881E0,1.9719967E0,1.7541255E0,1.609601E0,1.7407337E0,1.7397093E0,1.9400568E0,1.9338366E0,2.3023682E0,1.6050422E-1,2.2526336E-1,1.8469899E0,1.9959812E0,1.371641E-1,2.2967683E-1,1.963691E0,2.227042E0,2.0608936E-1,2.3552139E-1,1.0642377E0,2.2843244E0,2.6391983E-2,1.20832436E-1,9.65736E-3,2.5328E-1,2.1198018E0,2.332009E0,2.2219992E-1,2.5845141E0,2.5447078E0,2.763763E-1,3.0205044E-1,3.2792315E-1,3.2091954E-1,4.1329545E-1,6.8601125E-1,3.9370316E-1,4.0408057E-1,5.439651E-1,1.5907247E0,2.9930616E-2,3.6874282E-1,5.1238596E-1,6.2466884E-1,8.44789E-1,5.000595E-1,6.5314233E-1,6.1899894E-1,8.4972906E-1,4.496413E-1,5.659982E-1,8.864569E-1,5.3021854E-1,5.845464E-1,7.060776E-1,7.792341E-1,1.3584761E-1,6.4924306E-1,8.70861E-1,4.934173E-1,1.202896E0,6.758862E-1,9.771874E-1,9.04237E-1,1.1130193E0,6.3533103E-1,9.68851E-1,8.181002E-1,1.087903E0,9.29046E-1,6.8067265E-1,1.3097175E0,9.3750066E-1,8.8374203E-1,3.12694E-1,5.1887596E-1,9.485401E-1,8.68427E-1,1.2537769E0,4.088354E-1,7.0103645E-1,2.4573646E0,1.2370787E0,5.364922E-1,8.0981266E-1,7.7333117E-1,1.1769012E0,2.0902822E0,1.3599575E0,6.865013E-1,9.609042E-1,1.5871483E0,2.1059277E0,1.6849188E0,1.1476387E0,7.668099E-1,1.6687255E0,9.5874774E-1,8.0705994E-1,9.252423E-1,1.2117931E0,1.1356311E0,1.4635317E-1,9.387579E-1,1.0550146E0,9.3065417E-1,1.0458046E0,1.1681732E0,1.4275855E0,1.186395E0,1.4199221E0,1.1411602E0,1.2680218E0,1.2965902E0,1.4626938E0,1.2604496E0,1.6053445E0,1.151921E0,1.4319955E0,1.4953354E-1,1.7055078E-1,1.3540416E0,1.4828787E0,1.3994412E0,1.6303362E0,2.0873094E0,1.4074811E-1,1.4157786E0,1.6499253E-1,1.5291928E0,1.8021336E-1,1.7138284E0,1.51384E-1,1.6246445E0,1.8835782E-1,4.431472E-2,1.974113E0,1.7658623E-1,9.65736E-3,1.5052409E0,1.67541E0,1.6553814E0,1.8011906E0,1.78615E0,1.5295881E0,2.0582974E0,1.8393648E-1,2.0240102E0,1.7870846E-1,2.6969764E0,2.1982965E0,1.8563344E0,8.502498E-1,1.9174569E0,2.151617E0,1.7740558E0,1.9931715E0,2.2373143E-1,9.65736E-3,3.287077E-2,1.7408589E-1,2.2875257E0,5.5471897E-2,2.4038923E-1,2.0594504E0,2.5480744E-1,2.2996767E0,2.5040436E-1,2.7357492E-1,2.862973E-1,2.4737139E-1,2.65741E-1,3.3382004E-1,3.6140022E-1,4.7571626E-1,1.1247516E0,6.089527E-1,3.2904905E-1,4.5293725E-1,3.9572203E-1,1.0311406E0,6.128007E-1,3.9144236E-1,8.8866904E-2,1.6915558E-1,3.352061E-1,4.6834406E-1,8.2506293E-1,4.8543072E-1,5.7475066E-1,8.590811E-1,3.4405804E-1,8.8335323E-1,3.9831114E-1,5.2254355E-1,6.1919874E-1,9.4827336E-1,7.90596E-1,5.3930205E-1,7.93797E-1,1.1110725E0,4.441959E-1,6.006086E-1,4.7458887E-1,5.950727E-1,7.895596E-1,1.0022203E0,4.7741213E-1,6.020033E-1,6.851081E-1,5.707851E-1,6.395107E-1,8.3865416E-1,1.1177969E0,7.536925E-1,5.9766215E-1,6.867917E-1,7.897284E-1,1.2072763E0,4.181948E-1,5.5328363E-1,9.65736E-3,1.2258449E0,5.621027E-1,7.148968E-1,8.534592E-1,1.1336539E0,8.8184375E-1,1.1062071E0,1.1969398E0,8.6848634E-1,2.5193042E-1,6.4140666E-1,2.6391983E-2,1.0362593E0,7.7765954E-1,9.2418563E-1,5.671026E-1,1.1442966E0,8.267786E-2,9.9922574E-1,7.406882E-1,6.4277416E-1,1.2677231E-1,1.6511089E-1,8.664566E-1,1.038016E0,3.2252258E-1,7.8488964E-1,2.5484952E-1,3.5108355E-1,3.4562576E-1,5.747637E-1,7.2609055E-1,1.2095544E0,1.0331556E0,8.0593216E-1,1.3879678E0,9.882453E-2,3.0225757E-1,4.9672896E-1,4.7934005E-1,8.247567E-1,1.950478E0,2.8308134E0,2.0885465E-1,1.3201629E0,6.930431E-1,4.3192577E-1,7.1278435E-1,9.82961E-1,5.166875E-1,8.75287E-1,2.038236E0,1.1153593E0,1.880477E0,2.7339785E0,1.6472828E0,1.1097224E0,8.5199815E-1,5.8718586E-1,9.325073E-1,1.4129125E0,1.2374593E0,1.6489553E0,1.5155987E0,2.206856E-1,1.3047876E0,3.1040454E-1,1.0654781E0,1.3222833E0,7.134251E-1,9.752777E-1,1.5028495E0,2.1599443E0,9.21096E-1,1.0954599E0,7.171042E-1,8.9590263E-1,7.8555715E-1,9.836717E-1,1.2448919E-1,9.318535E-1,9.1655713E-1,1.2617468E0,9.66928E-1,6.930413E-1,9.348665E-1,1.1389086E0,8.396242E-1,1.0018076E0,1.0141468E0,1.1795653E0,1.1895325E0,6.632172E-2,1.7205422E0,1.296127E0,1.03689924E-1,1.2139008E0,1.4273547E0,3.990749E-2,1.25284E0,1.1048329E0,1.1963894E0,1.4221414E0,1.2356213E0,1.4529326E0,1.3174176E0,1.5929644E0,1.1519418E0,1.347098E0,1.485462E0,1.8156104E0,1.0455862E0,1.2296644E0,1.3530072E0,1.57472E-1,1.4967783E-1,1.30991E0,1.6229101E0,1.4259177E0,1.4062861E0,-3.3333335E-2,1.5907121E0,1.8043985E0,8.003991E-2,2.1427286E-1,1.16216145E-1,1.6216987E-1,1.6109361E-1,1.4155072E0,1.6210089E0,1.8040735E0,4.431472E-2,1.6292882E-1,1.8928221E0,2.0713396E-1,1.625924E0,1.418141E0,9.4794405E-1,1.678783E0,1.2334459E0,1.6660035E0,1.7439624E0,1.9088658E0,1.6900572E-1,1.896311E-1,1.321777E-1,1.6447845E0,1.8319918E-1,2.1395662E-1,1.8283038E-1,2.1453564E-1,2.715001E-1,7.897208E-2,3.990749E-2,2.2106493E0,1.8721126E0,1.3851313E-1,1.1011689E0,-1.02284275E-1,1.8518339E0,2.037325E0,2.2364353E-1,1.797579E-1,1.798024E0,2.6391983E-2,1.7315124E0,2.0191605E-1,-2.5E-2,2.9930616E-2,6.458797E-2,2.2902463E-1,2.0709686E0,1.3199775E0,2.307952E0,1.7972362E0,2.4417464E-2,3.5112716E-2,3.0067453E-2,3.537949E-2,3.9459433E-2,3.0547112E-2,3.5459794E-2,5.037426E-2,2.6391983E-2,1.2288761E-1,6.620525E-2,4.864046E-2,4.6864E-2,3.172777E-2,5.8294952E-2,4.2974666E-2,2.736319E-2,4.2442705E-2,1.287648E-2,1.08700685E-1,5.6735523E-2,8.6053066E-2,5.9084095E-2,3.697634E-2,-1.6722264E-2,3.4276683E-2,4.56406E-2,9.0113156E-2,7.253571E-2,1.24858655E-1,4.1077062E-2,5.6439396E-2,6.086892E-2,3.338976E-2,1.3261274E-1,6.0595628E-2,1.4486039E-2,4.949689E-2,5.2716013E-2,9.0793766E-2,6.941981E-2,3.72215E-2,5.823776E-2,4.9101196E-2,5.023375E-2,6.7707054E-2,9.65736E-3,9.773167E-2,7.562281E-2,1.4754896E-1,4.99227E-2,7.5629614E-2,7.587706E-2,1.0099917E-1,9.606582E-2,1.3341777E-1,4.9651574E-2,4.274059E-2,4.405074E-2,7.4602626E-2,6.2065046E-2,3.944589E-2,5.7781916E-2,7.077893E-2,8.14599E-2,6.0131937E-2,1.13640845E-1,9.077167E-2,5.09949E-2,4.4116274E-2,6.350609E-2,5.4993507E-2,8.335985E-3,7.155144E-2,5.1731367E-2,6.0432952E-2,6.0491513E-2,8.64738E-2,6.9151044E-2,9.270667E-2,1.1653663E-1,6.1436813E-2,8.193991E-2,6.59637E-2,6.4949624E-2,4.8012692E-2,6.4333774E-2,7.8443035E-2,7.0221476E-2,8.281103E-2,1.0490971E-1,1.4028534E-1,5.9859015E-2,3.8349755E-2,5.835554E-2,4.4557307E-2,1.7177205E-1,1.13371424E-1,4.278474E-2,5.8296602E-2,7.7152364E-2,6.15075E-2,7.243288E-2,9.118126E-2,9.870123E-2,1.3817059E-1,7.822938E-2,9.241211E-2,9.450563E-2,1.316592E-1,1.383956E-1,1.1115471E-1,5.82623E-2,1.0151905E-1,3.993329E-2,-1.2274113E-2,6.868452E-2,5.8489203E-2,1.08895384E-1,9.65736E-3,7.196015E-2,8.372217E-2,9.481655E-2,6.4239085E-2,9.65736E-3,5.958684E-2,1.1628908E-1,6.2818274E-2,5.2716013E-2,1.0106119E-1,6.9813155E-2,9.1029994E-2,6.0354467E-2,7.123477E-2,-1.0228428E-2,8.7220244E-2,1.0183107E-1,1.7723222E-1,1.8579212E-1,7.189544E-2,4.3001696E-2,2.4381762E-2,2.9339766E-2,3.8418323E-2,5.497827E-2,2.784713E-2,9.8840505E-2,5.163048E-2,4.946656E-2,7.893347E-2,1.9645254E-1,1.04595505E-1,1.1173606E-1,9.425899E-2,7.476931E-2,9.450304E-2,1.4099945E-1,6.426846E-2,1.1379383E-1,2.8799698E-2,4.7275316E-2,8.688895E-2,5.0466895E-2,2.70472E-2,7.4972115E-2,9.479344E-2,2.3941337E-1,1.6224903E-1,1.2602575E-1,2.887394E-1,7.404956E-2,-4.4999998E-2,1.0485772E-1,1.433812E-1,6.224628E-2,1.2869695E-1,2.163764E-2,5.7252508E-2,4.5390934E-2,7.4172236E-2,1.2397704E-1,5.67041E-2,6.79775E-2,4.30785E-2,2.6457576E-2,9.225049E-2,1.1758985E-1,2.2495604E-1,1.0076032E-1,1.4362822E-1,2.7349649E-2,1.9354217E-1,5.2087974E-2,2.8201535E-1,1.2906124E-1,1.8776622E-1,9.276921E-2,1.18372045E-1,6.3258566E-2,1.4649758E-1,3.934935E-2,7.00363E-2,1.1552773E-1,8.5441224E-2,1.2420974E-1,1.5008257E-1,1.3078232E-1,3.4759294E-2,4.431472E-2,1.6532642E-1,1.6587758E-1,1.00609615E-1,1.1485534E-1,1.5789366E-1,8.1738286E-2,1.1734201E-1,1.16454855E-1,1.6167632E-1,6.446106E-2,8.6091444E-2,8.811312E-2,1.3524018E-1,1.148757E-1,1.563204E-1,1.6180271E-1,2.2231936E-1,9.5554836E-2,7.920422E-2,1.129781E-1,5.4679062E-2,5.4588992E-2,7.714816E-2,8.1856064E-2,9.526848E-2,7.462251E-2,1.16419576E-1,9.927664E-2,4.9696233E-2,9.669315E-2,3.990749E-2,1.0554045E-1,3.167038E-2,1.3705233E-1,8.0178626E-2,9.508739E-2,1.1511035E-1,6.0742427E-2,7.4202046E-2,9.759659E-2,7.026743E-2,1.11518614E-1,1.3176578E-1,8.432645E-2,-2.5E-2,6.372874E-2,1.01353444E-1,1.00302316E-1,1.21602595E-1,1.3507508E-1,9.914313E-2,8.4008925E-2,1.2135913E-1,8.8000804E-2,1.8721704E-1,8.748115E-2,1.3281822E-1,1.126328E-1,1.253101E-1,1.7538558E-1,1.3843028E-1,1.2304932E-1,1.3529061E-1,9.2316546E-2,1.1833095E-1,1.1777607E-1,1.4888912E-1,1.3367741E-1,1.605262E-1,1.1981779E-1,1.310611E-1,1.3873872E-1,1.5741768E-1,1.327785E-1,7.878914E-2,1.4779538E-1,1.657891E-1,1.0332592E-1,1.2381142E-1,1.2518972E-1,1.4298117E-1,1.4071019E-1,1.5467356E-1,4.431472E-2,1.8175793E-1,9.800818E-2,1.1669401E-1,2.9930616E-2,1.2307413E-1,1.3560523E-1,4.949689E-2,1.1072051E-1,1.3724406E-1,1.5039013E-1,1.7611249E-1,2.6391983E-2,1.4298193E-1,8.864913E-2,1.4180987E-1,1.5927978E-1,6.301239E-2,1.8114069E-1,4.431472E-2,3.5981383E-2,1.4281997E-1,6.941666E-2,1.6310881E-1,4.431472E-2,1.808756E-1,1.8955235E-1,5.5471897E-2,1.0828556E-1,1.6405578E-1,1.16974846E-1,1.5020518E-1,-2.5E-2,1.189268E-1,8.0012016E-2,1.6806008E-1,1.6330495E-2,1.4652066E-1,1.9599004E-1,1.6489616E-1,1.6709027E-1,1.8717945E-1,1.7952617E-1,2.0059307E-1,1.6515568E-1,4.431472E-2,2.1072118E-1,2.5402486E-1,2.0153955E-1,1.8363832E-1,9.65736E-3,1.2308862E-1,-2.5E-2,9.65736E-3,6.8712376E-2,1.8554984E-1,1.1872957E-1,2.044982E-1,1.3809559E-1,1.8611817E-1,1.7481728E-1,2.9930616E-2,8.61173E-2,2.0748942E-1,4.7529936E-2,1.6631001E-1,2.2723423E-1,2.4094044E-1,4.431472E-2,1.8266214E-1],"categories":[],"categories_nodes":[],"categories_segments":[],"categories_sizes":[],"default_left":[1,1,0,0,0,0,0,0,0,0,0,0,0,0,0,0,0,0,0,0,0,0,0,0,0,0,0,0,0,0,0,0,0,0,0,0,0,0,0,0,0,0,0,0,0,0,0,0,0,0,0,0,0,0,0,0,0,0,0,0,0,0,0,0,0,0,0,0,0,0,0,0,0,0,0,0,0,0,0,0,0,0,0,0,0,0,0,0,0,0,0,0,0,0,0,0,0,0,0,0,0,0,0,0,0,0,0,0,0,0,0,0,0,0,0,0,0,0,0,0,0,0,0,0,0,0,0,0,0,0,0,0,0,0,0,0,0,0,0,0,0,0,0,0,0,0,0,0,0,0,0,0,0,0,0,0,0,0,0,0,0,0,0,0,0,0,0,0,0,0,0,0,0,0,0,0,0,0,0,0,0,0,0,0,0,0,0,0,0,0,0,0,0,0,0,0,0,0,0,0,0,0,0,0,0,0,0,0,0,0,0,0,0,0,0,0,0,0,0,0,0,0,0,0,0,0,0,0,0,0,0,0,0,0,0,0,0,0,0,0,0,0,0,0,0,0,0,0,0,0,0,0,0,0,0,0,0,0,0,0,0,0,0,0,0,0,0,0,0,0,0,0,0,0,0,0,0,0,0,0,0,0,0,0,0,0,0,0,0,0,0,0,0,0,0,0,0,0,0,0,0,0,0,0,0,0,0,0,0,0,0,0,0,0,0,0,0,0,0,0,0,0,0,0,0,0,0,0,0,0,0,0,0,0,0,0,0,0,0,0,0,0,0,0,0,0,0,0,0,0,0,0,0,0,0,0,0,0,0,0,0,0,0,0,0,0,0,0,0,0,0,0,0,0,0,0,0,0,0,0,0,0,0,0,0,0,0,0,0,0,0,0,0,0,0,0,0,0,0,0,0,0,0,0,0,0,0,0,0,0,0,0,0,0,0,0,0,0,0,0,0,0,0,0,0,0,0,0,0,0,0,0,0,0,0,0,0,0,0,0,0,0,0,0,0,0,0,0,0,0,0,0,0,0,0,0,0,0,0,0,0,0,0,0,0,0,0,0,0,0,0,0,0,0,0,0,0,0,0,0,0,0,0,0,0,0,0,0,0,0,0,0,0,0,0,0,0,0,0,0,0,0,0,0,0,0,0,0,0,0,0,0,0,0,0,0,0,0,0,0,0,0,0,0,0,0,0,0,0,0,0,0,0,0,0,0,0,0,0,0,0,0,0,0,0,0,0,0,0,0,0,0,0,0,0,0,0,0,0,0,0,0,0,0,0,0,0,0,0,0,0,0,0,0,0,0,0,0,0,0,0,0,0,0,0,0,0,0,0,0,0,0,0,0,0,0,0,0,0,0,0,0,0,0,0,0,0,0,0,0,0,0,0,0,0,0,0,0,0,0,0,0,0,0,0,0,0,0,0,0,0,0,0,0,0,0,0,0,0,0,0,0,0,0,0,0,0,0,0,0,0,0,0,0,0,0,0,0,0,0,0,0,0,0,0,0,0,0,0,0,0,0,0,0,0,0,0,0,0,0,0,0,0,0,0,0,0,0,0,0,0,0,0,0,0,0,0,0,0,0,0,0,0,0,0,0,0,0,0,0,0,0,0,0,0,0,0,0,0,0,0,0,0,0,0,0,0,0,0,0,0,0,0,0,0,0,0,0,0,0,0,0,0,0,0,0,0,0,0,0,0,0,0,0,0,0,0,0,0,0,0,0,0,0,0,0,0,0,0,0,0,0,0,0,0,0,0,0,0,0,0,0,0,0,0,0,0,0,0,0,0,0,0,0,0,0,0,0,0,0,0,0,0,0,0,0,0,0,0,0,0,0,0,0,0,0,0,0,0,0,0,0,0,0,0,0,0,0,0,0,0,0,0,0,0,0,0,0,0,0,0,0,0,0,0,0,0,0,0,0,0,0,0,0,0,0,0,0,0,0,0,0,0,0,0,0,0,0,0,0,0,0,0,0,0,0,0,0,0,0,0,0,0,0,0,0,0,0,0,0,0,0,0,0,0,0,0,0,0,0,0,0,0,0,0,0,0,0,0,0,0,0,0,0,0,0,0,0,0,0,0,0,0,0,0],"id":0,"left_children":[1,3,5,7,9,11,13,15,17,19,21,23,25,27,29,31,33,35,37,39,41,43,45,47,49,51,53,55,57,-1,59,61,63,65,67,69,71,73,75,77,79,-1,81,83,85,87,89,91,93,95,97,99,101,103,105,-1,107,-1,109,-1,-1,111,113,115,117,119,121,123,125,127,129,131,133,135,137,139,141,143,145,147,149,-1,-1,151,153,155,157,159,161,163,165,167,169,171,173,175,177,-1,179,181,183,185,187,189,-1,191,193,195,-1,-1,197,199,201,203,205,207,209,211,213,215,217,219,221,223,225,227,229,231,233,235,237,239,241,243,245,247,249,251,253,255,257,259,261,263,265,267,269,271,273,275,-1,277,279,281,283,-1,285,-1,-1,287,289,291,293,-1,295,297,299,301,303,305,307,309,311,313,315,-1,-1,317,319,-1,-1,321,323,-1,-1,325,327,-1,-1,-1,-1,329,331,-1,333,335,-1,-1,-1,337,339,341,343,345,347,349,-1,351,353,355,357,359,361,363,365,367,369,371,373,375,377,379,-1,381,383,385,387,389,391,393,395,397,399,401,403,405,407,409,411,413,415,417,419,421,423,425,427,429,431,433,435,437,439,441,443,445,447,449,451,453,455,457,459,461,463,465,467,469,-1,471,473,475,477,479,481,483,485,487,489,491,493,495,497,499,501,-1,-1,503,505,507,509,511,-1,513,-1,515,-1,517,-1,519,-1,-1,521,-1,-1,523,525,527,529,531,533,535,-1,537,-1,539,541,543,545,547,549,551,553,-1,-1,555,-1,557,-1,-1,559,-1,561,-1,-1,-1,-1,563,565,567,569,571,573,575,577,579,581,583,585,-1,-1,587,589,591,593,595,597,599,601,603,605,607,609,611,613,615,617,619,621,623,625,627,629,631,633,635,637,639,641,643,645,647,649,651,653,655,657,-1,659,661,663,665,667,669,671,673,675,677,679,-1,681,683,685,687,689,-1,691,693,695,-1,-1,697,699,-1,701,703,705,707,709,711,713,715,717,719,-1,721,723,725,727,729,731,733,735,737,739,741,743,745,747,749,751,753,755,757,759,761,763,765,767,769,771,773,-1,775,-1,777,779,781,783,785,787,789,791,793,795,797,799,-1,801,803,805,807,809,811,813,815,817,819,821,823,-1,825,827,-1,829,831,-1,833,835,837,839,841,843,845,847,849,851,853,855,857,859,861,-1,-1,863,865,867,869,-1,871,873,-1,-1,-1,-1,-1,875,877,879,-1,-1,881,-1,883,885,887,889,891,893,895,897,-1,-1,-1,899,-1,-1,-1,-1,-1,-1,-1,901,903,-1,905,907,909,911,-1,-1,913,-1,915,-1,-1,-1,-1,-1,917,919,921,923,-1,-1,-1,-1,-1,-1,-1,-1,-1,-1,-1,-1,-1,-1,-1,-1,-1,-1,-1,-1,-1,-1,-1,-1,-1,-1,-1,-1,-1,-1,-1,-1,-1,-1,-1,-1,-1,-1,-1,-1,-1,-1,-1,-1,-1,-1,-1,-1,-1,-1,-1,-1,-1,-1,-1,-1,-1,-1,-1,-1,-1,-1,-1,-1,-1,-1,-1,-1,-1,-1,-1,-1,-1,-1,-1,-1,-1,-1,-1,-1,-1,-1,-1,-1,-1,-1,-1,-1,-1,-1,-1,-1,-1,-1,-1,-1,-1,-1,-1,-1,-1,-1,-1,-1,-1,-1,-1,-1,-1,-1,-1,-1,-1,-1,-1,-1,-1,-1,-1,-1,-1,-1,-1,-1,-1,-1,-1,-1,-1,-1,-1,-1,-1,-1,-1,-1,-1,-1,-1,-1,-1,-1,-1,-1,-1,-1,-1,-1,-1,-1,-1,-1,-1,-1,-1,-1,-1,-1,-1,-1,-1,-1,-1,-1,-1,-1,-1,-1,-1,-1,-1,-1,-1,-1,-1,-1,-1,-1,-1,-1,-1,-1,-1,-1,-1,-1,-1,-1,-1,-1,-1,-1,-1,-1,-1,-1,-1,-1,-1,-1,-1,-1,-1,-1,-1,-1,-1,-1,-1,-1,-1,-1,-1,-1,-1,-1,-1,-1,-1,-1,-1,-1,-1,-1,-1,-1,-1,-1,-1,-1,-1,-1,-1,-1,-1,-1,-1,-1,-1,-1,-1,-1,-1,-1,-1,-1,-1,-1,-1,-1,-1,-1,-1,-1,-1,-1,-1,-1,-1,-1,-1,-1,-1,-1,-1,-1,-1,-1,-1,-1,-1,-1,-1,-1,-1,-1,-1,-1,-1,-1,-1,-1,-1,-1,-1,-1,-1,-1,-1,-1,-1,-1,-1,-1,-1,-1,-1,-1,-1,-1,-1,-1,-1,-1,-1,-1,-1,-1,-1,-1,-1,-1,-1,-1,-1,-1,-1,-1,-1,-1,-1,-1,-1,-1,-1,-1,-1,-1,-1,-1,-1,-1,-1,-1,-1,-1,-1,-1,-1,-1,-1,-1,-1,-1,-1,-1,-1,-1,-1,-1,-1,-1,-1,-1,-1,-1,-1,-1,-1,-1,-1,-1],"loss_changes":[3.918203E4,6.2433047E3,5.559547E3,1.5646562E3,6.576406E2,7.1014844E2,8.7104297E2,3.4318164E2,1.0932383E3,3.491797E1,2.3435156E2,1.1679297E2,7.441797E1,2.788203E2,1.7592285E2,5.6198242E1,6.2885742E1,2.894702E2,4.846797E2,2.8438477E1,3.0411835E0,1.0216016E2,3.666211E1,6.9833984E1,2.1907227E1,5.432129E0,3.4271484E1,2.1453125E1,3.303711E1,0E0,1.4672363E1,4.8472168E1,4.6230713E1,2.8638672E1,3.965625E1,1.6312744E1,1.0301257E2,5.404082E2,3.6660156E2,1.3078125E1,4.0305664E1,0E0,1.2833405E0,4.741797E1,1.6152954E1,1.9800781E1,2.389795E1,2.8961914E1,2.4367188E1,1.7325195E1,8.150391E0,8.3203125E0,4.440918E0,3.321167E0,1.9259766E1,0E0,3.1425781E0,0E0,3.0988281E1,0E0,0E0,6.053833E0,3.6240845E1,1.354071E1,2.6118164E1,2.2857788E1,1.3687866E1,1.7356934E1,7.301636E1,2.07052E1,1.913977E1,7.245477E1,1.2225098E2,3.1061865E2,1.1826318E2,4.3104736E2,5.419746E2,5.9538574E0,2.027832E1,2.0149902E1,1.1387329E1,0E0,0E0,5.2058594E1,5.2294434E1,4.3967896E0,1.9954834E0,1.3212402E1,1.9906006E0,1.3202393E1,5.8132324E0,1.3266602E0,1.5244141E1,1.3625977E1,3.0058105E1,1.0307617E0,9.192383E0,0E0,6.7700195E-1,6.9890137E0,3.0529785E0,2.185791E0,6.875987E-1,5.4069214E0,0E0,1.2224609E1,2.6927246E1,5.1762695E0,0E0,0E0,1.00703125E1,4.4399414E0,8.623383E0,2.9276123E1,7.7436066E-1,9.980255E0,1.7106094E0,4.852783E0,2.3090698E1,6.275696E0,3.3332153E1,5.157776E0,6.5100403E0,3.2847656E1,2.1238602E1,2.749878E1,7.078247E0,1.6542053E0,7.4488525E0,9.927521E0,1.6289307E1,2.6031433E1,3.1430847E1,2.3014832E1,2.7149933E1,1.1683447E2,2.2549072E2,1.3401611E1,7.660376E1,1.915586E2,2.5114014E1,4.4629395E2,9.2086035E2,4.4249268E0,9.539124E0,1.4150696E0,8.4921875E0,7.0388184E0,4.323242E0,8.299683E0,0E0,3.0564453E1,2.2853027E1,4.2359863E1,2.8581299E1,0E0,1.1639404E-1,0E0,0E0,6.2280273E0,1.4710205E1,6.64978E-2,6.5270996E-1,0E0,1.6221924E0,2.6949463E0,4.648926E0,7.88208E-1,2.4363098E0,8.988281E0,1.1637695E1,6.7041016E0,5.1555176E0,1.1349121E1,7.3360596E0,0E0,0E0,6.599365E0,1.7273438E1,0E0,0E0,9.4750977E-1,4.138977E0,0E0,0E0,3.4320002E0,7.687988E-1,0E0,0E0,0E0,0E0,3.3649902E0,7.678711E0,0E0,2.569336E0,3.4924316E0,0E0,0E0,0E0,1.9100952E0,1.9628067E0,3.2030792E0,3.642395E0,1.2590332E1,4.0181274E1,6.912308E-1,0E0,3.841339E0,6.653961E0,1.5071869E0,8.7400055E-1,2.1024628E0,2.2178192E0,1.3249359E1,1.0768188E1,1.217041E0,1.4583588E0,3.706726E0,2.7072296E0,1.0689087E0,4.6176147E0,4.9599E0,0E0,8.734985E0,2.0663635E1,3.618927E0,1.0241089E0,1.8032349E1,5.479126E0,7.7218018E0,3.0852509E0,1.8323975E0,6.293583E-1,4.6954956E0,2.9635468E0,1.24086E0,4.7920227E-1,1.7202759E-1,3.3780518E0,1.644838E1,7.811493E0,1.927301E1,1.0037506E1,5.2514954E0,6.5386353E0,1.0097916E1,1.2057129E1,1.624768E1,2.2363007E1,8.7492676E1,1.1585986E2,2.452217E0,2.2534424E1,3.672461E1,1.8878845E1,8.667822E1,6.1858887E1,2.5631104E0,9.226929E0,1.0548984E3,1.0480176E2,7.838672E1,1.06591064E2,7.6171875E-1,4.5203247E0,4.3201904E0,3.3169556E-1,3.9405823E-3,0E0,7.5046387E0,1.6473999E1,4.515381E0,8.564453E0,1.7996216E0,3.1230469E0,2.5819092E0,1.1224365E0,1.4227051E1,4.378369E1,2.758252E1,2.1728271E1,3.3842773E0,3.045044E1,7.196045E0,4.8026123E0,0E0,0E0,7.4816895E0,3.5406494E0,7.0751953E0,2.3162842E0,7.0983887E-1,0E0,1.666626E0,0E0,6.4697266E-1,0E0,4.765625E-1,0E0,1.5585327E-1,0E0,0E0,1.340332E-1,0E0,0E0,4.610962E0,9.091797E-1,3.2648926E0,6.819824E0,5.1154785E0,2.1828918E0,2.2784424E0,0E0,1.2535156E1,0E0,2.1697998E-2,4.918579E0,3.8676758E0,2.5027218E0,5.4536133E0,1.3366455E1,3.760315E0,1.1687012E0,0E0,0E0,3.009269E-1,0E0,1.5991211E-1,0E0,0E0,7.3291016E-1,0E0,2.9042969E0,0E0,0E0,0E0,0E0,9.031334E-1,1.3978729E0,5.55233E-1,8.26149E-1,1.1098137E0,3.2870102E-1,6.3510895E-1,1.2992172E0,8.466583E0,1.4732246E0,2.9357178E1,4.9688416E0,0E0,0E0,3.472374E0,1.1335449E0,1.8391342E0,4.325302E0,9.738426E-1,2.5066109E0,1.0866505E-1,1.1756897E-2,1.1855316E0,1.268631E0,1.3776779E0,5.7349586E-1,6.2987823E0,5.5879517E0,4.231476E0,3.34935E0,1.3215637E0,1.0682621E0,1.6629181E0,5.498047E-1,5.6126404E-1,1.2384186E0,3.1757355E-1,2.204895E-1,2.1725807E0,1.3626709E0,2.5391235E0,1.85672E0,3.6169052E-1,3.3344116E0,1.1854492E1,1.1061157E1,1.5715637E0,3.2305908E0,2.1677322E0,1.2822571E0,0E0,4.6531677E-2,2.7336426E0,1.6986206E1,7.7124023E-1,3.8742065E0,6.583496E0,5.1296387E0,8.092346E-1,1.7150803E0,8.7742746E-1,1.7604675E0,0E0,7.366123E-1,2.5789795E0,1.7086792E0,1.3194656E-1,3.2511902E-1,0E0,3.5949707E-1,4.9051666E-1,2.9333496E-1,0E0,0E0,2.0763245E0,1.7113647E0,0E0,4.3242836E0,2.6449966E0,3.9657288E0,6.605953E0,3.6220642E1,1.1317177E0,8.443771E0,1.5933228E-1,2.801117E0,1.4741821E0,0E0,5.5951843E0,4.9250793E0,7.3641586E-1,1.969696E0,3.682251E0,2.0483398E0,7.6889796E0,6.0585327E0,8.91582E1,9.740112E1,3.299951E1,2.651526E2,1.8349075E-1,2.0051765E0,2.821724E0,1.373407E1,2.0396606E1,1.264386E1,8.423035E0,1.0166473E0,2.663147E2,7.246008E1,7.9632324E1,2.475708E0,1.79953E0,1.9216919E-1,8.113785E-1,0E0,6.457544E1,0E0,1.3398486E2,1.0792383E2,5.690088E1,5.0148438E1,1.9810303E1,7.988037E0,4.703064E-1,6.815796E-1,2.613968E0,6.298828E-1,1.9459534E0,1.436554E0,0E0,6.586075E-3,1.2482214E0,1.01924896E-1,2.0307617E0,7.3459625E-2,6.194702E0,2.855713E0,1.674469E0,1.3161926E0,2.9818115E0,1.2670288E1,9.057007E-1,0E0,3.4504166E0,1.8862915E-1,0E0,1.2764893E0,6.786194E-1,0E0,4.30542E-1,4.0422607E1,1.3606689E1,1.820752E1,4.6745605E0,4.642456E0,2.253296E0,2.470581E0,1.1752319E0,4.6209717E-1,1.8710938E0,4.7265625E-1,2.354004E0,2.1972656E-1,3.817749E-1,0E0,0E0,1.3095215E1,7.234497E-1,2.0255127E0,2.1506348E0,0E0,2.4060059E-1,4.56604E-1,0E0,0E0,0E0,0E0,0E0,1.36203E0,8.295288E-1,4.537964E-1,0E0,0E0,4.8828125E-4,0E0,3.6120605E-1,6.371643E0,2.3209658E0,2.7319336E-1,7.945278E0,2.5529785E0,7.024414E0,2.585083E0,0E0,0E0,0E0,1.876831E-1,0E0,0E0,0E0,0E0,0E0,0E0,0E0,3.477295E0,5.888672E-1,0E0,9.2363644E-1,1.12266704E-1,2.0073242E0,2.0812988E-1,0E0,0E0,4.5898438E-1,0E0,1.1231537E0,0E0,0E0,0E0,0E0,0E0,1.0803223E-1,1.8179846E0,5.4003906E-1,4.638214E-1,0E0,0E0,0E0,0E0,0E0,0E0,0E0,0E0,0E0,0E0,0E0,0E0,0E0,0E0,0E0,0E0,0E0,0E0,0E0,0E0,0E0,0E0,0E0,0E0,0E0,0E0,0E0,0E0,0E0,0E0,0E0,0E0,0E0,0E0,0E0,0E0,0E0,0E0,0E0,0E0,0E0,0E0,0E0,0E0,0E0,0E0,0E0,0E0,0E0,0E0,0E0,0E0,0E0,0E0,0E0,0E0,0E0,0E0,0E0,0E0,0E0,0E0,0E0,0E0,0E0,0E0,0E0,0E0,0E0,0E0,0E0,0E0,0E0,0E0,0E0,0E0,0E0,0E0,0E0,0E0,0E0,0E0,0E0,0E0,0E0,0E0,0E0,0E0,0E0,0E0,0E0,0E0,0E0,0E0,0E0,0E0,0E0,0E0,0E0,0E0,0E0,0E0,0E0,0E0,0E0,0E0,0E0,0E0,0E0,0E0,0E0,0E0,0E0,0E0,0E0,0E0,0E0,0E0,0E0,0E0,0E0,0E0,0E0,0E0,0E0,0E0,0E0,0E0,0E0,0E0,0E0,0E0,0E0,0E0,0E0,0E0,0E0,0E0,0E0,0E0,0E0,0E0,0E0,0E0,0E0,0E0,0E0,0E0,0E0,0E0,0E0,0E0,0E0,0E0,0E0,0E0,0E0,0E0,0E0,0E0,0E0,0E0,0E0,0E0,0E0,0E0,0E0,0E0,0E0,0E0,0E0,0E0,0E0,0E0,0E0,0E0,0E0,0E0,0E0,0E0,0E0,0E0,0E0,0E0,0E0,0E0,0E0,0E0,0E0,0E0,0E0,0E0,0E0,0E0,0E0,0E0,0E0,0E0,0E0,0E0,0E0,0E0,0E0,0E0,0E0,0E0,0E0,0E0,0E0,0E0,0E0,0E0,0E0,0E0,0E0,0E0,0E0,0E0,0E0,0E0,0E0,0E0,0E0,0E0,0E0,0E0,0E0,0E0,0E0,0E0,0E0,0E0,0E0,0E0,0E0,0E0,0E0,0E0,0E0,0E0,0E0,0E0,0E0,0E0,0E0,0E0,0E0,0E0,0E0,0E0,0E0,0E0,0E0,0E0,0E0,0E0,0E0,0E0,0E0,0E0,0E0,0E0,0E0,0E0,0E0,0E0,0E0,0E0,0E0,0E0,0E0,0E0,0E0,0E0,0E0,0E0,0E0,0E0,0E0,0E0,0E0,0E0,0E0,0E0,0E0,0E0,0E0,0E0,0E0,0E0,0E0,0E0,0E0,0E0,0E0,0E0,0E0,0E0,0E0,0E0,0E0,0E0,0E0,0E0,0E0,0E0,0E0,0E0,0E0,0E0,0E0,0E0,0E0,0E0,0E0,0E0,0E0,0E0,0E0,0E0,0E0,0E0,0E0,0E0,0E0,0E0,0E0,0E0,0E0,0E0,0E0,0E0,0E0,0E0,0E0,0E0,0E0,0E0,0E0,0E0,0E0,0E0,0E0,0E0,0E0,0E0,0E0,0E0,0E0,0E0,0E0,0E0,0E0,0E0,0E0,0E0,0E0,0E0,0E0,0E0,0E0,0E0],"parents":[2147483647,0,0,1,1,2,2,3,3,4,4,5,5,6,6,7,7,8,8,9,9,10,10,11,11,12,12,13,13,14,14,15,15,16,16,17,17,18,18,19,19,20,20,21,21,22,22,23,23,24,24,25,25,26,26,27,27,28,28,30,30,31,31,32,32,33,33,34,34,35,35,36,36,37,37,38,38,39,39,40,40,42,42,43,43,44,44,45,45,46,46,47,47,48,48,49,49,50,50,51,51,52,52,53,53,54,54,56,56,58,58,61,61,62,62,63,63,64,64,65,65,66,66,67,67,68,68,69,69,70,70,71,71,72,72,73,73,74,74,75,75,76,76,77,77,78,78,79,79,80,80,83,83,84,84,85,85,86,86,87,87,88,88,89,89,90,90,91,91,92,92,93,93,94,94,95,95,96,96,98,98,99,99,100,100,101,101,102,102,103,103,105,105,106,106,107,107,110,110,111,111,112,112,113,113,114,114,115,115,116,116,117,117,118,118,119,119,120,120,121,121,122,122,123,123,124,124,125,125,126,126,127,127,128,128,129,129,130,130,131,131,132,132,133,133,134,134,135,135,136,136,137,137,138,138,139,139,140,140,141,141,142,142,143,143,144,144,145,145,146,146,147,147,148,148,149,149,151,151,152,152,153,153,154,154,156,156,159,159,160,160,161,161,162,162,164,164,165,165,166,166,167,167,168,168,169,169,170,170,171,171,172,172,173,173,174,174,177,177,178,178,181,181,182,182,185,185,186,186,191,191,192,192,194,194,195,195,199,199,200,200,201,201,202,202,203,203,204,204,205,205,207,207,208,208,209,209,210,210,211,211,212,212,213,213,214,214,215,215,216,216,217,217,218,218,219,219,220,220,221,221,223,223,224,224,225,225,226,226,227,227,228,228,229,229,230,230,231,231,232,232,233,233,234,234,235,235,236,236,237,237,238,238,239,239,240,240,241,241,242,242,243,243,244,244,245,245,246,246,247,247,248,248,249,249,250,250,251,251,252,252,253,253,254,254,255,255,256,256,257,257,258,258,259,259,260,260,261,261,262,262,263,263,264,264,265,265,266,266,267,267,269,269,270,270,271,271,272,272,273,273,274,274,275,275,276,276,277,277,278,278,279,279,280,280,281,281,282,282,283,283,284,284,287,287,288,288,289,289,290,290,291,291,293,293,295,295,297,297,299,299,302,302,305,305,306,306,307,307,308,308,309,309,310,310,311,311,313,313,315,315,316,316,317,317,318,318,319,319,320,320,321,321,322,322,325,325,327,327,330,330,332,332,337,337,338,338,339,339,340,340,341,341,342,342,343,343,344,344,345,345,346,346,347,347,348,348,351,351,352,352,353,353,354,354,355,355,356,356,357,357,358,358,359,359,360,360,361,361,362,362,363,363,364,364,365,365,366,366,367,367,368,368,369,369,370,370,371,371,372,372,373,373,374,374,375,375,376,376,377,377,378,378,379,379,380,380,381,381,382,382,383,383,384,384,385,385,386,386,388,388,389,389,390,390,391,391,392,392,393,393,394,394,395,395,396,396,397,397,398,398,400,400,401,401,402,402,403,403,404,404,406,406,407,407,408,408,411,411,412,412,414,414,415,415,416,416,417,417,418,418,419,419,420,420,421,421,422,422,423,423,425,425,426,426,427,427,428,428,429,429,430,430,431,431,432,432,433,433,434,434,435,435,436,436,437,437,438,438,439,439,440,440,441,441,442,442,443,443,444,444,445,445,446,446,447,447,448,448,449,449,450,450,451,451,453,453,455,455,456,456,457,457,458,458,459,459,460,460,461,461,462,462,463,463,464,464,465,465,466,466,468,468,469,469,470,470,471,471,472,472,473,473,474,474,475,475,476,476,477,477,478,478,479,479,481,481,482,482,484,484,485,485,487,487,488,488,489,489,490,490,491,491,492,492,493,493,494,494,495,495,496,496,497,497,498,498,499,499,500,500,501,501,504,504,505,505,506,506,507,507,509,509,510,510,516,516,517,517,518,518,521,521,523,523,524,524,525,525,526,526,527,527,528,528,529,529,530,530,534,534,542,542,543,543,545,545,546,546,547,547,548,548,551,551,553,553,559,559,560,560,561,561,562,562],"right_children":[2,4,6,8,10,12,14,16,18,20,22,24,26,28,30,32,34,36,38,40,42,44,46,48,50,52,54,56,58,-1,60,62,64,66,68,70,72,74,76,78,80,-1,82,84,86,88,90,92,94,96,98,100,102,104,106,-1,108,-1,110,-1,-1,112,114,116,118,120,122,124,126,128,130,132,134,136,138,140,142,144,146,148,150,-1,-1,152,154,156,158,160,162,164,166,168,170,172,174,176,178,-1,180,182,184,186,188,190,-1,192,194,196,-1,-1,198,200,202,204,206,208,210,212,214,216,218,220,222,224,226,228,230,232,234,236,238,240,242,244,246,248,250,252,254,256,258,260,262,264,266,268,270,272,274,276,-1,278,280,282,284,-1,286,-1,-1,288,290,292,294,-1,296,298,300,302,304,306,308,310,312,314,316,-1,-1,318,320,-1,-1,322,324,-1,-1,326,328,-1,-1,-1,-1,330,332,-1,334,336,-1,-1,-1,338,340,342,344,346,348,350,-1,352,354,356,358,360,362,364,366,368,370,372,374,376,378,380,-1,382,384,386,388,390,392,394,396,398,400,402,404,406,408,410,412,414,416,418,420,422,424,426,428,430,432,434,436,438,440,442,444,446,448,450,452,454,456,458,460,462,464,466,468,470,-1,472,474,476,478,480,482,484,486,488,490,492,494,496,498,500,502,-1,-1,504,506,508,510,512,-1,514,-1,516,-1,518,-1,520,-1,-1,522,-1,-1,524,526,528,530,532,534,536,-1,538,-1,540,542,544,546,548,550,552,554,-1,-1,556,-1,558,-1,-1,560,-1,562,-1,-1,-1,-1,564,566,568,570,572,574,576,578,580,582,584,586,-1,-1,588,590,592,594,596,598,600,602,604,606,608,610,612,614,616,618,620,622,624,626,628,630,632,634,636,638,640,642,644,646,648,650,652,654,656,658,-1,660,662,664,666,668,670,672,674,676,678,680,-1,682,684,686,688,690,-1,692,694,696,-1,-1,698,700,-1,702,704,706,708,710,712,714,716,718,720,-1,722,724,726,728,730,732,734,736,738,740,742,744,746,748,750,752,754,756,758,760,762,764,766,768,770,772,774,-1,776,-1,778,780,782,784,786,788,790,792,794,796,798,800,-1,802,804,806,808,810,812,814,816,818,820,822,824,-1,826,828,-1,830,832,-1,834,836,838,840,842,844,846,848,850,852,854,856,858,860,862,-1,-1,864,866,868,870,-1,872,874,-1,-1,-1,-1,-1,876,878,880,-1,-1,882,-1,884,886,888,890,892,894,896,898,-1,-1,-1,900,-1,-1,-1,-1,-1,-1,-1,902,904,-1,906,908,910,912,-1,-1,914,-1,916,-1,-1,-1,-1,-1,918,920,922,924,-1,-1,-1,-1,-1,-1,-1,-1,-1,-1,-1,-1,-1,-1,-1,-1,-1,-1,-1,-1,-1,-1,-1,-1,-1,-1,-1,-1,-1,-1,-1,-1,-1,-1,-1,-1,-1,-1,-1,-1,-1,-1,-1,-1,-1,-1,-1,-1,-1,-1,-1,-1,-1,-1,-1,-1,-1,-1,-1,-1,-1,-1,-1,-1,-1,-1,-1,-1,-1,-1,-1,-1,-1,-1,-1,-1,-1,-1,-1,-1,-1,-1,-1,-1,-1,-1,-1,-1,-1,-1,-1,-1,-1,-1,-1,-1,-1,-1,-1,-1,-1,-1,-1,-1,-1,-1,-1,-1,-1,-1,-1,-1,-1,-1,-1,-1,-1,-1,-1,-1,-1,-1,-1,-1,-1,-1,-1,-1,-1,-1,-1,-1,-1,-1,-1,-1,-1,-1,-1,-1,-1,-1,-1,-1,-1,-1,-1,-1,-1,-1,-1,-1,-1,-1,-1,-1,-1,-1,-1,-1,-1,-1,-1,-1,-1,-1,-1,-1,-1,-1,-1,-1,-1,-1,-1,-1,-1,-1,-1,-1,-1,-1,-1,-1,-1,-1,-1,-1,-1,-1,-1,-1,-1,-1,-1,-1,-1,-1,-1,-1,-1,-1,-1,-1,-1,-1,-1,-1,-1,-1,-1,-1,-1,-1,-1,-1,-1,-1,-1,-1,-1,-1,-1,-1,-1,-1,-1,-1,-1,-1,-1,-1,-1,-1,-1,-1,-1,-1,-1,-1,-1,-1,-1,-1,-1,-1,-1,-1,-1,-1,-1,-1,-1,-1,-1,-1,-1,-1,-1,-1,-1,-1,-1,-1,-1,-1,-1,-1,-1,-1,-1,-1,-1,-1,-1,-1,-1,-1,-1,-1,-1,-1,-1,-1,-1,-1,-1,-1,-1,-1,-1,-1,-1,-1,-1,-1,-1,-1,-1,-1,-1,-1,-1,-1,-1,-1,-1,-1,-1,-1,-1,-1,-1,-1,-1,-1,-1,-1,-1,-1,-1,-1,-1,-1,-1,-1,-1,-1,-1,-1,-1,-1,-1,-1,-1,-1,-1,-1,-1,-1,-1,-1,-1,-1,-1,-1,-1,-1,-1,-1,-1,-1,-1,-1,-1,-1,-1,-1,-1,-1,-1,-1],"split_conditions":[1E1,4E0,2.8E1,3E0,5E0,1.7E1,7.9E1,2E0,1.242E3,7.715E3,8E0,1.4E1,2E1,3.9E1,1.338E2,2.5E1,1.24E3,4E0,1.371E3,2.6E1,2E0,7.715E3,5.338E3,5.338E3,6.489E3,4.3E1,1.83E2,1.9E1,1.918E3,3.637164E-1,2.3E2,1.24E3,1.371E3,2.6E1,2.1E1,4.654E3,4.654E3,6.601E3,1.61E3,1.284E3,3.916E3,5.2087974E-2,1.158E3,5.338E3,1E1,3.901E3,1.25E3,3.28E2,2.425E3,3.28E2,9E0,6.489E3,4.8077E4,2.3E1,6.489E3,2.4758677E-1,6.489E3,3.2758498E-1,2.2E1,4.715829E-1,3.95659E-1,4.654E3,7.715E3,6.601E3,1.238E3,4.654E3,3.695E3,6.489E3,2.554E3,2.6E1,1.9E1,2.3E1,1.129E3,2.3E2,8.94E3,7.715E3,4.1843E4,1.8E1,1.309E3,6.601E3,4.8E1,5.693501E-2,1.8080056E-1,2.131E3,6.298E3,1.155E3,1.61E3,3.6E1,5.3E1,2.2E1,1.6E1,3.7361E4,2.7E1,2.6E1,2.4E1,4E0,2.3E1,1.9607441E-1,3.64E2,2.163E3,1.2E1,4.8E1,1.353E3,4E0,2.9254928E-1,1.8E1,1.2E1,3.8E1,2.8434548E-1,2.830175E-1,5.2E1,2.1E1,1.129E3,2.554E3,1.693E3,6.93E2,2.72E2,3.7E1,2.554E3,2.2E1,1.129E3,3.9E1,4.8E1,5.338E3,2.425E3,6.601E3,2.131E3,6.609E3,6.603E3,1.129E3,1.129E3,3.11E2,1.298E3,2E1,1.8E1,2.031E3,4.65E2,3.333E3,9.5E1,1.7E1,8E0,2.131E3,4.591E3,1.212E3,6.234E3,7E0,2.554E3,3.631E3,7.724E3,2.425E3,1.7019E-1,2.9E1,3.539E3,1.15E3,2.8E1,-2.5E-2,5E0,2.0780866E-1,2.9930616E-2,2.132E3,2.554E3,3.5309E4,1.25E2,1.2203914E-1,4.4E1,1.296E3,1.153E3,1.051E3,1.353E3,2.035E3,3.539E3,6.298E3,6.298E3,2.041E3,1.296E3,1.6050422E-1,2.2526336E-1,4.8077E4,5.338E3,1.371641E-1,2.2967683E-1,1.3E1,4.5111E4,2.0608936E-1,2.3552139E-1,1.8E1,1.675E3,2.6391983E-2,1.20832436E-1,9.65736E-3,2.5328E-1,3.6E2,1.182E3,2.2219992E-1,2.5E1,3.6E2,2.763763E-1,3.0205044E-1,3.2792315E-1,1.125E3,1.169E3,1.074E3,1.3E1,4.8417E4,6.489E3,3E0,2.9930616E-2,4.6E1,1.083E3,7.724E3,2.9E1,2.746E3,5.4E1,2.338E3,1.298E3,3.901E3,1.125E3,1.3E1,1.7E1,4.83E2,2.746E3,1.129E3,1.3584761E-1,2.554E3,1.25E3,1.2E1,1.62E2,6.05E2,4.1E1,4E1,3.7574E4,1.109E3,1.3E1,3.695E3,1.064E3,1.1E1,1.15E3,3.7E1,2.9E1,6E0,1.2E1,7.69E2,1.169E3,1.238E3,1.419E3,1.15E3,1.15E3,4.1E1,6.7E1,2.22E2,3.294E4,2.025E3,3.919E3,6.8E1,6.618E3,1.309E3,4.8077E4,4E0,4E0,3.5516E4,3.249E3,3.539E3,2E1,1.589E3,5.338E3,3.697E3,2.5E1,1.274E3,1.4635317E-1,2.338E3,2.033E3,3.7E1,2.554E3,6.618E3,3.2861E4,4.654E3,1.666E3,1.182E3,3.916E3,6.601E3,2E1,6E0,1.7E1,6E0,3.8E1,1.4953354E-1,1.7055078E-1,1.182E3,3.0549E4,2.864E3,2.131E3,4E0,1.4074811E-1,4.2E1,1.6499253E-1,1.33E3,1.8021336E-1,2.425E3,1.51384E-1,1.7E1,1.8835782E-1,4.431472E-2,1.2E1,1.7658623E-1,9.65736E-3,1.182E3,4.22E2,4.22E2,2.083E3,1.5E1,1.1E1,1.074E3,1.8393648E-1,9E0,1.7870846E-1,5.1E1,2.94E2,6.298E3,1.591E3,4.5E1,6.298E3,6.298E3,2.518E3,2.2373143E-1,9.65736E-3,4.3215E4,1.7408589E-1,1.051E3,5.5471897E-2,2.4038923E-1,6.298E3,2.5480744E-1,4.5111E4,2.5040436E-1,2.7357492E-1,2.862973E-1,2.4737139E-1,1.9E1,1.2E1,1.465E3,1.19E3,9E0,1.591E3,1.081E3,1.082E3,5.41E2,1.155E3,5.338E3,1.081E3,8.8866904E-2,1.6915558E-1,6.4E1,1.579E3,4.5E1,3.5E1,2.55E2,3.2861E4,6.607E3,3.23E2,4.42E2,1.155E3,2.746E3,3.45E2,4.8077E4,4.2E1,3.9E1,3.539E3,1.254E3,1.3E1,1.083E3,1.286E3,1.675E3,1.262E3,1.414E3,1.27E3,9.72E2,2.746E3,6.604E3,4.3E1,1.283E3,1.238E3,2.338E3,2.035E3,9E0,1E1,4.94E2,1.591E3,9.65736E-3,1.252E3,3.919E3,2.338E3,1.22E2,7.724E3,3.916E3,4.361E3,3.0549E4,3.539E3,1.446E3,1.216E3,2.6391983E-2,3.697E3,3.7E1,1.282E3,6.604E3,5.9E1,8.267786E-2,1.059E3,1.287E3,1.28E3,1.2677231E-1,1.6511089E-1,2.81E2,1.298E3,3.2252258E-1,3.901E3,1.153E3,1.169E3,1.081E3,1.087E3,6.607E3,1.212E3,1.26E3,1.4E1,1.289E3,9.882453E-2,1.62E2,3.911E3,1.666E3,2.7E1,3.5651E4,4E0,5.6E1,2.856E3,2.06E2,3.06E2,4.91E3,4.3069E4,3.57E2,2E1,3.3E1,1.46E2,2E1,8E0,3.4E1,3.2E1,1.284E3,3.919E3,1.309E3,2.4E1,1.693E3,1.154E3,1.495E3,2.206856E-1,3E1,3.1040454E-1,3.0555E4,1.8E1,2.6E1,2.5E1,4E0,4E0,5.169E3,1.284E3,1.1E1,1.1E1,1.298E3,1.759E3,1.2448919E-1,1.696E3,6E0,1.289E3,4.8077E4,1.275E3,3.5727E4,4.3285E4,3.906E3,3.88E2,4.6772E4,3.7574E4,1.109E3,6.632172E-2,2.9E1,3.3871E4,1.03689924E-1,3E1,4.75E2,3.990749E-2,7E0,2.025E3,6.4E1,1.284E3,2.132E3,3.0549E4,4.502E3,2.7E1,2.8E1,3E1,9E0,2.81E2,2.2E1,2E0,1.759E3,1.57472E-1,1.4967783E-1,3.333E3,2.3E1,2E0,3.7E1,-3.3333335E-2,2.085E3,2.851E3,8.003991E-2,2.1427286E-1,1.16216145E-1,1.6216987E-1,1.6109361E-1,1.152E3,3.64E2,1.153E3,4.431472E-2,1.6292882E-1,7.5E1,2.0713396E-1,1.053E3,2.025E3,2.044E3,1.129E3,3.8E1,3.45E2,4.3E1,3.916E3,1.6900572E-1,1.896311E-1,1.321777E-1,4.502E3,1.8319918E-1,2.1395662E-1,1.8283038E-1,2.1453564E-1,2.715001E-1,7.897208E-2,3.990749E-2,3.8E1,4.17E2,1.3851313E-1,1.7E1,1.256E3,3.98E2,4.01E2,2.2364353E-1,1.797579E-1,6.33E2,2.6391983E-2,2.409E3,2.0191605E-1,-2.5E-2,2.9930616E-2,6.458797E-2,2.2902463E-1,2.18E2,1.257E3,4.3069E4,2.1E1,2.4417464E-2,3.5112716E-2,3.0067453E-2,3.537949E-2,3.9459433E-2,3.0547112E-2,3.5459794E-2,5.037426E-2,2.6391983E-2,1.2288761E-1,6.620525E-2,4.864046E-2,4.6864E-2,3.172777E-2,5.8294952E-2,4.2974666E-2,2.736319E-2,4.2442705E-2,1.287648E-2,1.08700685E-1,5.6735523E-2,8.6053066E-2,5.9084095E-2,3.697634E-2,-1.6722264E-2,3.4276683E-2,4.56406E-2,9.0113156E-2,7.253571E-2,1.24858655E-1,4.1077062E-2,5.6439396E-2,6.086892E-2,3.338976E-2,1.3261274E-1,6.0595628E-2,1.4486039E-2,4.949689E-2,5.2716013E-2,9.0793766E-2,6.941981E-2,3.72215E-2,5.823776E-2,4.9101196E-2,5.023375E-2,6.7707054E-2,9.65736E-3,9.773167E-2,7.562281E-2,1.4754896E-1,4.99227E-2,7.5629614E-2,7.587706E-2,1.0099917E-1,9.606582E-2,1.3341777E-1,4.9651574E-2,4.274059E-2,4.405074E-2,7.4602626E-2,6.2065046E-2,3.944589E-2,5.7781916E-2,7.077893E-2,8.14599E-2,6.0131937E-2,1.13640845E-1,9.077167E-2,5.09949E-2,4.4116274E-2,6.350609E-2,5.4993507E-2,8.335985E-3,7.155144E-2,5.1731367E-2,6.0432952E-2,6.0491513E-2,8.64738E-2,6.9151044E-2,9.270667E-2,1.1653663E-1,6.1436813E-2,8.193991E-2,6.59637E-2,6.4949624E-2,4.8012692E-2,6.4333774E-2,7.8443035E-2,7.0221476E-2,8.281103E-2,1.0490971E-1,1.4028534E-1,5.9859015E-2,3.8349755E-2,5.835554E-2,4.4557307E-2,1.7177205E-1,1.13371424E-1,4.278474E-2,5.8296602E-2,7.7152364E-2,6.15075E-2,7.243288E-2,9.118126E-2,9.870123E-2,1.3817059E-1,7.822938E-2,9.241211E-2,9.450563E-2,1.316592E-1,1.383956E-1,1.1115471E-1,5.82623E-2,1.0151905E-1,3.993329E-2,-1.2274113E-2,6.868452E-2,5.8489203E-2,1.08895384E-1,9.65736E-3,7.196015E-2,8.372217E-2,9.481655E-2,6.4239085E-2,9.65736E-3,5.958684E-2,1.1628908E-1,6.2818274E-2,5.2716013E-2,1.0106119E-1,6.9813155E-2,9.1029994E-2,6.0354467E-2,7.123477E-2,-1.0228428E-2,8.7220244E-2,1.0183107E-1,1.7723222E-1,1.8579212E-1,7.189544E-2,4.3001696E-2,2.4381762E-2,2.9339766E-2,3.8418323E-2,5.497827E-2,2.784713E-2,9.8840505E-2,5.163048E-2,4.946656E-2,7.893347E-2,1.9645254E-1,1.04595505E-1,1.1173606E-1,9.425899E-2,7.476931E-2,9.450304E-2,1.4099945E-1,6.426846E-2,1.1379383E-1,2.8799698E-2,4.7275316E-2,8.688895E-2,5.0466895E-2,2.70472E-2,7.4972115E-2,9.479344E-2,2.3941337E-1,1.6224903E-1,1.2602575E-1,2.887394E-1,7.404956E-2,-4.4999998E-2,1.0485772E-1,1.433812E-1,6.224628E-2,1.2869695E-1,2.163764E-2,5.7252508E-2,4.5390934E-2,7.4172236E-2,1.2397704E-1,5.67041E-2,6.79775E-2,4.30785E-2,2.6457576E-2,9.225049E-2,1.1758985E-1,2.2495604E-1,1.0076032E-1,1.4362822E-1,2.7349649E-2,1.9354217E-1,5.2087974E-2,2.8201535E-1,1.2906124E-1,1.8776622E-1,9.276921E-2,1.18372045E-1,6.3258566E-2,1.4649758E-1,3.934935E-2,7.00363E-2,1.1552773E-1,8.5441224E-2,1.2420974E-1,1.5008257E-1,1.3078232E-1,3.4759294E-2,4.431472E-2,1.6532642E-1,1.6587758E-1,1.00609615E-1,1.1485534E-1,1.5789366E-1,8.1738286E-2,1.1734201E-1,1.16454855E-1,1.6167632E-1,6.446106E-2,8.6091444E-2,8.811312E-2,1.3524018E-1,1.148757E-1,1.563204E-1,1.6180271E-1,2.2231936E-1,9.5554836E-2,7.920422E-2,1.129781E-1,5.4679062E-2,5.4588992E-2,7.714816E-2,8.1856064E-2,9.526848E-2,7.462251E-2,1.16419576E-1,9.927664E-2,4.9696233E-2,9.669315E-2,3.990749E-2,1.0554045E-1,3.167038E-2,1.3705233E-1,8.0178626E-2,9.508739E-2,1.1511035E-1,6.0742427E-2,7.4202046E-2,9.759659E-2,7.026743E-2,1.11518614E-1,1.3176578E-1,8.432645E-2,-2.5E-2,6.372874E-2,1.01353444E-1,1.00302316E-1,1.21602595E-1,1.3507508E-1,9.914313E-2,8.4008925E-2,1.2135913E-1,8.8000804E-2,1.8721704E-1,8.748115E-2,1.3281822E-1,1.126328E-1,1.253101E-1,1.7538558E-1,1.3843028E-1,1.2304932E-1,1.3529061E-1,9.2316546E-2,1.1833095E-1,1.1777607E-1,1.4888912E-1,1.3367741E-1,1.605262E-1,1.1981779E-1,1.310611E-1,1.3873872E-1,1.5741768E-1,1.327785E-1,7.878914E-2,1.4779538E-1,1.657891E-1,1.0332592E-1,1.2381142E-1,1.2518972E-1,1.4298117E-1,1.4071019E-1,1.5467356E-1,4.431472E-2,1.8175793E-1,9.800818E-2,1.1669401E-1,2.9930616E-2,1.2307413E-1,1.3560523E-1,4.949689E-2,1.1072051E-1,1.3724406E-1,1.5039013E-1,1.7611249E-1,2.6391983E-2,1.4298193E-1,8.864913E-2,1.4180987E-1,1.5927978E-1,6.301239E-2,1.8114069E-1,4.431472E-2,3.5981383E-2,1.4281997E-1,6.941666E-2,1.6310881E-1,4.431472E-2,1.808756E-1,1.8955235E-1,5.5471897E-2,1.0828556E-1,1.6405578E-1,1.16974846E-1,1.5020518E-1,-2.5E-2,1.189268E-1,8.0012016E-2,1.6806008E-1,1.6330495E-2,1.4652066E-1,1.9599004E-1,1.6489616E-1,1.6709027E-1,1.8717945E-1,1.7952617E-1,2.0059307E-1,1.6515568E-1,4.431472E-2,2.1072118E-1,2.5402486E-1,2.0153955E-1,1.8363832E-1,9.65736E-3,1.2308862E-1,-2.5E-2,9.65736E-3,6.8712376E-2,1.8554984E-1,1.1872957E-1,2.044982E-1,1.3809559E-1,1.8611817E-1,1.7481728E-1,2.9930616E-2,8.61173E-2,2.0748942E-1,4.7529936E-2,1.6631001E-1,2.2723423E-1,2.4094044E-1,4.431472E-2,1.8266214E-1],"split_indices":[6,6,6,6,6,6,6,6,0,10,6,6,6,6,6,9,0,6,10,9,9,10,10,10,10,9,10,9,10,0,8,0,10,9,9,10,10,2,2,0,10,0,2,10,9,2,0,10,0,10,9,10,0,6,10,0,10,0,9,0,0,10,10,2,0,10,10,10,10,9,9,9,0,8,0,10,0,9,0,2,9,0,0,2,10,2,2,9,10,9,9,0,9,9,9,9,9,0,8,2,9,8,8,9,0,9,9,9,0,0,6,9,0,10,8,10,10,9,10,9,0,9,9,10,0,2,2,2,2,0,0,8,2,9,9,2,10,0,10,9,9,2,10,0,10,9,10,0,0,0,0,9,10,0,9,0,9,0,0,2,10,0,10,0,9,2,2,2,8,2,10,10,10,2,2,0,0,0,10,0,0,9,0,0,0,6,8,0,0,0,0,8,0,0,9,8,0,0,0,0,0,2,9,0,10,9,0,9,2,0,9,10,9,10,2,2,0,9,9,8,10,0,0,10,0,9,8,10,9,9,0,0,9,10,0,9,0,9,9,10,9,10,0,8,8,0,0,8,8,10,0,0,0,10,2,0,0,6,6,0,10,10,9,8,10,10,9,2,0,10,2,9,10,2,0,10,8,0,10,2,9,6,9,6,9,0,0,0,0,2,2,9,0,9,0,8,0,0,0,9,0,0,6,0,0,0,10,10,2,9,6,2,0,9,0,9,8,10,8,9,10,10,10,0,0,0,0,2,0,0,10,0,0,0,0,0,0,9,9,8,10,9,8,2,2,10,2,10,2,0,0,10,8,9,9,10,0,2,8,8,2,10,8,0,9,9,10,2,9,2,2,8,2,8,2,0,10,2,9,2,8,10,2,9,9,8,8,0,2,0,10,10,0,10,10,0,10,8,0,0,10,9,2,2,9,0,2,2,2,0,0,8,2,0,2,2,0,2,10,2,0,2,9,2,0,8,2,8,9,0,6,8,2,10,10,0,0,8,9,9,10,9,9,9,9,0,0,0,9,8,2,8,0,9,0,0,9,9,9,6,6,10,2,9,9,2,8,0,8,9,2,0,2,0,0,2,10,0,0,0,0,9,0,0,9,8,0,6,0,9,0,10,0,2,9,9,9,9,8,9,9,8,0,0,0,9,9,9,0,2,2,0,0,0,0,0,2,8,2,0,0,9,0,2,0,2,0,9,8,9,10,0,0,0,2,0,0,0,0,0,0,0,9,8,0,9,2,10,10,0,0,8,0,10,0,0,0,0,0,10,2,0,9,0,0,0,0,0,0,0,0,0,0,0,0,0,0,0,0,0,0,0,0,0,0,0,0,0,0,0,0,0,0,0,0,0,0,0,0,0,0,0,0,0,0,0,0,0,0,0,0,0,0,0,0,0,0,0,0,0,0,0,0,0,0,0,0,0,0,0,0,0,0,0,0,0,0,0,0,0,0,0,0,0,0,0,0,0,0,0,0,0,0,0,0,0,0,0,0,0,0,0,0,0,0,0,0,0,0,0,0,0,0,0,0,0,0,0,0,0,0,0,0,0,0,0,0,0,0,0,0,0,0,0,0,0,0,0,0,0,0,0,0,0,0,0,0,0,0,0,0,0,0,0,0,0,0,0,0,0,0,0,0,0,0,0,0,0,0,0,0,0,0,0,0,0,0,0,0,0,0,0,0,0,0,0,0,0,0,0,0,0,0,0,0,0,0,0,0,0,0,0,0,0,0,0,0,0,0,0,0,0,0,0,0,0,0,0,0,0,0,0,0,0,0,0,0,0,0,0,0,0,0,0,0,0,0,0,0,0,0,0,0,0,0,0,0,0,0,0,0,0,0,0,0,0,0,0,0,0,0,0,0,0,0,0,0,0,0,0,0,0,0,0,0,0,0,0,0,0,0,0,0,0,0,0,0,0,0,0,0,0,0,0,0,0,0,0,0,0,0,0,0,0,0,0,0,0,0,0,0,0,0,0,0,0,0,0,0,0,0,0,0,0,0,0,0,0,0,0,0,0,0,0,0,0,0,0,0,0,0,0,0,0,0,0,0,0,0,0,0,0,0,0,0,0,0,0,0,0,0,0,0,0,0],"split_type":[0,0,0,0,0,0,0,0,0,0,0,0,0,0,0,0,0,0,0,0,0,0,0,0,0,0,0,0,0,0,0,0,0,0,0,0,0,0,0,0,0,0,0,0,0,0,0,0,0,0,0,0,0,0,0,0,0,0,0,0,0,0,0,0,0,0,0,0,0,0,0,0,0,0,0,0,0,0,0,0,0,0,0,0,0,0,0,0,0,0,0,0,0,0,0,0,0,0,0,0,0,0,0,0,0,0,0,0,0,0,0,0,0,0,0,0,0,0,0,0,0,0,0,0,0,0,0,0,0,0,0,0,0,0,0,0,0,0,0,0,0,0,0,0,0,0,0,0,0,0,0,0,0,0,0,0,0,0,0,0,0,0,0,0,0,0,0,0,0,0,0,0,0,0,0,0,0,0,0,0,0,0,0,0,0,0,0,0,0,0,0,0,0,0,0,0,0,0,0,0,0,0,0,0,0,0,0,0,0,0,0,0,0,0,0,0,0,0,0,0,0,0,0,0,0,0,0,0,0,0,0,0,0,0,0,0,0,0,0,0,0,0,0,0,0,0,0,0,0,0,0,0,0,0,0,0,0,0,0,0,0,0,0,0,0,0,0,0,0,0,0,0,0,0,0,0,0,0,0,0,0,0,0,0,0,0,0,0,0,0,0,0,0,0,0,0,0,0,0,0,0,0,0,0,0,0,0,0,0,0,0,0,0,0,0,0,0,0,0,0,0,0,0,0,0,0,0,0,0,0,0,0,0,0,0,0,0,0,0,0,0,0,0,0,0,0,0,0,0,0,0,0,0,0,0,0,0,0,0,0,0,0,0,0,0,0,0,0,0,0,0,0,0,0,0,0,0,0,0,0,0,0,0,0,0,0,0,0,0,0,0,0,0,0,0,0,0,0,0,0,0,0,0,0,0,0,0,0,0,0,0,0,0,0,0,0,0,0,0,0,0,0,0,0,0,0,0,0,0,0,0,0,0,0,0,0,0,0,0,0,0,0,0,0,0,0,0,0,0,0,0,0,0,0,0,0,0,0,0,0,0,0,0,0,0,0,0,0,0,0,0,0,0,0,0,0,0,0,0,0,0,0,0,0,0,0,0,0,0,0,0,0,0,0,0,0,0,0,0,0,0,0,0,0,0,0,0,0,0,0,0,0,0,0,0,0,0,0,0,0,0,0,0,0,0,0,0,0,0,0,0,0,0,0,0,0,0,0,0,0,0,0,0,0,0,0,0,0,0,0,0,0,0,0,0,0,0,0,0,0,0,0,0,0,0,0,0,0,0,0,0,0,0,0,0,0,0,0,0,0,0,0,0,0,0,0,0,0,0,0,0,0,0,0,0,0,0,0,0,0,0,0,0,0,0,0,0,0,0,0,0,0,0,0,0,0,0,0,0,0,0,0,0,0,0,0,0,0,0,0,0,0,0,0,0,0,0,0,0,0,0,0,0,0,0,0,0,0,0,0,0,0,0,0,0,0,0,0,0,0,0,0,0,0,0,0,0,0,0,0,0,0,0,0,0,0,0,0,0,0,0,0,0,0,0,0,0,0,0,0,0,0,0,0,0,0,0,0,0,0,0,0,0,0,0,0,0,0,0,0,0,0,0,0,0,0,0,0,0,0,0,0,0,0,0,0,0,0,0,0,0,0,0,0,0,0,0,0,0,0,0,0,0,0,0,0,0,0,0,0,0,0,0,0,0,0,0,0,0,0,0,0,0,0,0,0,0,0,0,0,0,0,0,0,0,0,0,0,0,0,0,0,0,0,0,0,0,0,0,0,0,0,0,0,0,0,0,0,0,0,0,0,0,0,0,0,0,0,0,0,0,0,0,0,0,0,0,0,0,0,0,0,0,0,0,0,0,0,0,0,0,0,0,0,0,0,0,0,0,0,0,0,0,0,0,0,0,0,0,0,0,0,0,0,0,0,0,0,0,0,0,0,0,0,0,0,0,0,0,0,0,0,0,0,0,0,0,0,0,0,0,0,0,0,0,0,0,0,0,0,0,0,0,0,0,0,0,0,0,0,0,0,0,0,0,0,0,0,0,0,0,0,0,0,0,0,0,0,0,0,0,0,0,0,0],"sum_hessian":[1.44946E5,1.21256E5,2.369E4,8.9483E4,3.1773E4,1.7432E4,6.258E3,3.5263E4,5.422E4,9.644E3,2.2129E4,1.1861E4,5.571E3,5.222E3,1.036E3,1.6272E4,1.8991E4,1.1909E4,4.2311E4,9.57E3,7.4E1,1.6198E4,5.931E3,8.321E3,3.54E3,1.749E3,3.822E3,2.176E3,3.046E3,6.96E2,3.4E2,1.0927E4,5.345E3,5.975E3,1.3016E4,3.717E3,8.192E3,1.385E4,2.8461E4,4.847E3,4.723E3,3E0,7.1E1,1.5782E4,4.16E2,4.157E3,1.774E3,5.153E3,3.168E3,2.926E3,6.14E2,1.374E3,3.75E2,2.57E2,3.565E3,6.39E2,1.537E3,1.203E3,1.843E3,2.61E2,7.9E1,4.568E3,6.359E3,2.262E3,3.083E3,3.647E3,2.328E3,6.41E3,6.606E3,2.256E3,1.461E3,5.835E3,2.357E3,1.2677E4,1.173E3,1.0646E4,1.7815E4,1.771E3,3.076E3,3.507E3,1.216E3,2E0,6.9E1,1.2305E4,3.477E3,2.63E2,1.53E2,3.538E3,6.19E2,5.5E2,1.224E3,6.46E2,4.507E3,1.716E3,1.452E3,2.99E2,2.627E3,1.66E2,4.48E2,9.99E2,3.75E2,3.71E2,4E0,1.12E2,1.45E2,2.421E3,1.144E3,1.031E3,5.06E2,6.43E2,1.2E3,3.465E3,1.103E3,6.328E3,3.1E1,2.032E3,2.3E2,1.288E3,1.795E3,2.458E3,1.189E3,1.637E3,6.91E2,5.512E3,8.98E2,4.484E3,2.122E3,8.73E2,1.383E3,7.06E2,7.55E2,3.638E3,2.197E3,8.11E2,1.546E3,3.78E2,1.2299E4,5.77E2,5.96E2,1.0224E4,4.22E2,9.363E3,8.452E3,9.88E2,7.83E2,1.57E2,2.919E3,3.13E3,3.77E2,1.155E3,6.1E1,7.966E3,4.339E3,1.838E3,1.639E3,1E0,2.62E2,1.52E2,1E0,2.231E3,1.307E3,4.3E1,5.76E2,1.7E2,3.8E2,6.07E2,6.17E2,5.13E2,1.33E2,1.675E3,2.832E3,9.66E2,7.5E2,1.13E3,3.22E2,1.4E1,2.85E2,8.77E2,1.75E3,6E0,4.42E2,8.01E2,1.98E2,1.63E2,2.12E2,4E0,3.67E2,2E0,2E0,1E0,1.11E2,4.84E2,1.937E3,3.71E2,7.73E2,4.67E2,5.64E2,6.59E2,5.41E2,2.807E3,6.58E2,1.14E2,9.89E2,2.479E3,3.849E3,3E1,1E0,1.196E3,8.36E2,1.7E2,6E1,1.009E3,2.79E2,9.99E2,7.96E2,1.804E3,6.54E2,4E2,7.89E2,1.054E3,5.83E2,6.7E2,2.1E1,4.721E3,7.91E2,8.54E2,4.4E1,4.152E3,3.32E2,1.922E3,2E2,8.55E2,1.8E1,1.261E3,1.22E2,2.87E2,4.19E2,1.57E2,5.98E2,8.1E1,3.557E3,2.01E3,1.87E2,5.9E2,2.21E2,1.093E3,4.53E2,1.14E2,2.64E2,5.362E3,6.937E3,1.1E2,4.67E2,3.09E2,2.87E2,5.303E3,4.921E3,2.12E2,2.1E2,1.962E3,7.401E3,7.105E3,1.347E3,3.43E2,6.45E2,6.23E2,1.6E2,4.1E1,1.16E2,1.18E3,1.739E3,8.26E2,2.304E3,2.39E2,1.38E2,9.33E2,2.22E2,3.847E3,4.119E3,3.081E3,1.258E3,5.24E2,1.314E3,1.025E3,6.14E2,1.01E2,1.61E2,1.498E3,7.33E2,5.56E2,7.51E2,3.3E1,1E1,6.7E1,5.09E2,3.14E2,6.6E1,4.05E2,2.02E2,1.59E2,4.58E2,1E0,5.12E2,1.32E2,1E0,6.57E2,1.018E3,1.186E3,1.646E3,7.85E2,1.81E2,3.36E2,4.14E2,6.92E2,4.38E2,6.2E1,2.6E2,8.68E2,9E0,1.172E3,5.78E2,1.16E2,6.85E2,1.97E2,1E0,2E0,2E0,3.66E2,1E0,7.8E1,4.06E2,2.42E2,1.695E3,5.16E2,2.57E2,7.8E1,3.89E2,5.36E2,2.271E3,3.63E2,2.95E2,1.5E1,9.9E1,4.76E2,5.13E2,2.448E3,3.1E1,2.65E3,1.199E3,5E0,2.5E1,8.98E2,2.98E2,6.4E1,7.72E2,1.43E2,2.7E1,5E0,5.5E1,1.86E2,8.23E2,2.53E2,2.6E1,3.14E2,6.85E2,6.59E2,1.37E2,1.745E3,5.9E1,1.62E2,4.92E2,2.22E2,1.78E2,4.59E2,3.3E2,1.21E2,9.33E2,3.92E2,1.91E2,4.4E1,6.26E2,1.996E3,2.725E3,6.4E2,1.51E2,3.82E2,4.72E2,1E0,4.3E1,1.064E3,3.088E3,1.89E2,1.43E2,1.735E3,1.87E2,1.46E2,5.4E1,1.4E1,8.41E2,2E0,1.6E1,9.19E2,3.42E2,1.3E1,1.09E2,1.22E2,1.65E2,1.55E2,2.64E2,1.44E2,1.3E1,3.56E2,2.42E2,2E0,7.9E1,1.422E3,2.135E3,4.92E2,1.518E3,1.03E2,8.4E1,1.58E2,4.32E2,1.44E2,7.7E1,4.96E2,5.97E2,1.64E2,2.89E2,5.1E1,6.3E1,2E1,2.44E2,2.145E3,3.217E3,4.449E3,2.488E3,3.3E1,7.7E1,2.9E1,4.38E2,2.36E2,7.3E1,1.31E2,1.56E2,1.986E3,3.317E3,4.633E3,2.88E2,3.5E1,1.77E2,3.3E1,1.77E2,1.549E3,4.13E2,5.038E3,2.363E3,5.66E3,1.445E3,1.01E3,3.37E2,2.75E2,6.8E1,3.25E2,3.2E2,1.88E2,4.35E2,1.4E2,2E1,1.8E1,2.3E1,1.056E3,1.24E2,7.2E2,1.019E3,3.68E2,4.58E2,1.87E3,4.34E2,2.28E2,1.1E1,3.9E1,9.9E1,1.51E2,7.82E2,2.2E2,2E0,9.36E2,2.911E3,2.818E3,1.301E3,2.223E3,8.58E2,6E2,6.58E2,2.39E2,2.85E2,8.42E2,4.72E2,4.39E2,5.86E2,4.02E2,2.12E2,3.46E2,1.152E3,2.04E2,5.29E2,5.54E2,2E0,6.2E2,1.31E2,2E0,3.1E1,3.3E1,3.4E1,1.75E2,1.39E2,2.09E2,1.96E2,1E0,1.58E2,2.9E2,2.22E2,2.68E2,3.89E2,6E0,1.012E3,3.2E1,1.154E3,1.086E3,5.6E2,4.28E2,3.57E2,6.9E1,1.12E2,9.5E1,2.41E2,2.71E2,4.21E2,6.1E1,1E0,2E0,2.58E2,8.37E2,3.1E1,7E0,2E0,7.68E2,4.04E2,4.62E2,1.16E2,1.14E2,2E0,6.8E1,6.17E2,1E0,1E0,1E0,3.65E2,3.98E2,8E0,1.664E3,3.1E1,4.31E2,1.05E2,8.6E2,1.411E3,2.24E2,1.39E2,5.8E1,2.37E2,2E0,1.3E1,6.6E1,3.3E1,3.4E1,4.42E2,7.4E1,4.39E2,4.68E2,1.98E3,2E0,2.9E1,2.242E3,4.08E2,1.15E2,1.084E3,1.3E1,8.85E2,2.92E2,6E0,5.4E1,1E1,4E2,3.72E2,1.24E2,1.9E1,8E0,1.9E1,3E0,2E0,5E0,5E1,1.3E1,1.73E2,2.78E2,5.45E2,8.7E1,1.66E2,1E0,2.5E1,3.01E2,1.3E1,5.81E2,1.04E2,5.71E2,8.8E1,8.5E1,5.2E1,4.17E2,1.328E3,3E1,2.9E1,5.5E1,1.07E2,4.32E2,6E1,1.93E2,2.9E1,6.9E1,1.09E2,2.35E2,2.24E2,1.95E2,1.35E2,6E0,1.15E2,3.66E2,5.67E2,3.43E2,4.9E1,7.5E1,1.16E2,3.9E1,5E0,3.64E2,2.62E2,1.382E3,6.14E2,1.891E3,8.34E2,2.01E2,4.39E2,8.7E1,6.4E1,5.9E1,3.23E2,3.65E2,1.07E2,4E0,3.9E1,1.46E2,9.18E2,1.966E3,1.122E3,6.3E1,1.26E2,9.3E1,5E1,5.23E2,1.212E3,1.09E2,7.8E1,4.1E1,1.05E2,2E1,3.4E1,1E1,4E0,4.6E2,3.81E2,1.5E1,1E0,4.72E2,4.47E2,3.13E2,2.9E1,1E0,1.2E1,1.04E2,5E0,5E0,1.6E2,1.28E2,2.7E1,1.75E2,8.9E1,2E0,3.54E2,2.38E2,4E0,3E0,7.6E1,8.2E1,1.34E3,7.82E2,1.353E3,1.2E2,3.72E2,1.86E2,1.332E3,2.4E1,7.9E1,1.3E1,7.1E1,7.6E1,8.2E1,3.09E2,1.23E2,1.39E2,5E0,7E0,4.89E2,5.63E2,3.4E1,1.45E2,1.9E1,1.84E2,1.05E2,1.9E1,3.2E1,3E0,6E1,1.1E1,9E0,7.5E1,1.69E2,1.919E3,2.26E2,1.271E3,1.946E3,4.49E2,4E3,1.537E3,9.51E2,9E0,2.4E1,6E0,7.1E1,7E0,2.2E1,3.31E2,1.07E2,8E0,2.28E2,3E0,7E1,5.4E1,7.7E1,4.9E1,1.07E2,1.464E3,5.22E2,1.225E3,2.092E3,1.199E3,3.434E3,1.03E2,1.85E2,3.2E1,3E0,1E0,1.76E2,2.4E1,9E0,9.9E2,5.59E2,1.53E3,3.508E3,1.542E3,8.21E2,3.863E3,1.797E3,1.159E3,2.86E2,1.5E2,8.6E2,3.8E1,2.99E2,2.12E2,6.3E1,6.3E1,5E0,8.1E1,2.44E2,1.42E2,1.78E2,1.73E2,1.5E1,4.26E2,9E0,1.8E1,2E0,1.4E1,4E0,1.7E1,6E0,9.77E2,7.9E1,5E1,7.4E1,6.09E2,1.11E2,9.06E2,1.13E2,3.67E2,1E0,1.6E1,4.42E2,1.778E3,9.2E1,2.24E2,2.1E2,1.7E1,2.11E2,7E0,3.2E1,9E0,9E1,2.51E2,5.31E2,2.1E1,1.99E2,7.76E2,1.6E2,8.82E2,2.029E3,2.654E3,1.64E2,8.93E2,4.08E2,1.494E3,7.29E2,5.65E2,2.93E2,5.87E2,1.3E1,2.46E2,4.12E2,1.06E2,1.33E2,1.4E2,1.45E2,3.8E2,4.62E2,1E0,4.71E2,2.91E2,1.48E2,1E0,5.85E2,4E2,2E0,2.76E2,8.76E2,1.16E2,8.8E1,2E0,5.27E2,1.4E1,5.4E2,6.18E2,2E0,1.3E2,1E0,2E0,1.37E2,3E0,2.06E2,1E0,1.95E2,2.89E2,1E0,9E0,2.59E2,1.02E2,2.87E2,1E0,5E0,3E0,1.009E3,6E0,2.6E1,5.7E1,1.097E3,7E2,3.86E2,2.67E2,2.93E2,1.11E2,1E0,2.02E2,5.6E1,1.56E2,6.81E2,1E0,6E0,1E0,1E0,3E0,7.65E2,5E0,3.99E2,1.8E1,9.6E1,6.7E1,1E0,2E0,3.96E2,3E0,5E0,1.249E3,4.15E2,1E0,3E1],"tree_param":{"num_deleted":"0","num_feature":"11","num_nodes":"925","size_leaf_vector":"0"}},{"base_weights":[1.004203E0,7.975995E-1,2.063503E0,6.760385E-1,1.1395309E0,1.7866993E0,2.74416E0,5.292134E-1,7.717778E-1,1.0174623E0,1.2790706E0,1.6336901E0,1.9736899E0,2.5999424E0,3.5396342E0,4.3309253E-1,6.1075944E-1,5.280601E-1,8.407245E-1,9.4411945E-1,1.1148229E0,1.2108928E0,1.3803477E0,1.5975397E0,1.6848563E0,1.8633345E0,2.117112E0,2.35499E0,2.8176286E0,3.2644362E0,4.1089807E0,3.9591584E-1,5.0862783E-1,5.3251356E-1,6.4652073E-1,7.389187E-1,4.326348E-1,8.1609136E-1,1.2611382E0,9.3084496E-1,1.1204447E0,1.019594E0,1.1606342E0,1.1923478E0,1.3924407E0,1.381301E0,-2.7971148E-2,1.483407E0,1.6278613E0,1.7191203E0,1.5969384E0,1.7358266E0,1.888284E0,1.936701E0,2.150743E0,2.1972778E0,2.424577E0,2.756896E0,2.9464478E0,3.1666645E-1,3.4827211E-1,4.2798492E-1,3.5365763E-1,3.274926E-1,4.4519246E-1,5.0613767E-1,1.3035765E0,4.781575E-1,6.167806E-1,5.9006023E-1,6.8970424E-1,6.7276365E-1,8.10739E-1,3.873083E-1,5.9162563E-1,7.3276556E-1,8.734301E-1,2.263121E0,1.211825E0,9.007738E-1,9.85633E-1,1.0641167E0,1.2648375E0,8.7312084E-1,1.0620984E0,1.412494E0,1.1395516E0,1.1368406E0,1.2214853E0,1.3068564E0,1.4422203E0,1.3659666E0,1.5022964E0,-3.1111112E-2,2.6449254E-1,1.2677152E0,1.5347908E0,1.7255976E0,1.5826663E0,1.5905849E0,1.742873E0,1.5136544E0,1.7520183E0,1.5817715E0,1.7926141E0,1.8664645E0,2.0040128E0,1.9432782E-1,1.0450001E0,2.099674E0,2.2338855E0,2.4936531E-1,2.1750724E0,2.3084353E-1,2.468853E0,2.6750972E0,2.8651568E-1,2.8972278E0,3.1653097E0,2.9644617E-1,3.6673817E-1,5.3581154E-1,4.2025638E-1,4.8688418E-1,5.910681E-1,1.4097475E-1,3.7358648E-1,5.601055E-1,4.5228562E-1,5.112502E-1,6.4633805E-1,8.2063395E-1,5.8462834E-1,8.526266E-1,6.6611415E-1,7.75257E-1,5.9850246E-1,7.9294527E-1,1.0513939E0,5.609261E-1,3.39395E-1,8.373682E-1,5.418916E-1,7.935689E-1,5.4814595E-1,1.0410858E0,7.582295E-1,2.9605094E-1,2.060757E0,1.0273191E0,1.3418502E0,8.0040556E-1,9.317266E-1,1.0935175E0,9.758707E-1,9.7958374E-1,1.1089333E0,1.1711874E0,1.4025899E0,1.0170641E0,7.296702E-1,1.1985366E0,1.0315056E0,1.240625E0,1.5000421E-1,7.550842E-1,1.1487855E0,1.0706295E0,1.2134836E0,1.4978039E0,1.2002498E0,1.275271E0,1.6028161E-1,1.4442065E-1,2.2059733E-2,1.3040946E0,1.3921162E0,1.43885E0,1.5963064E0,7.182298E-2,-3.21491E-2,1.2988694E-1,9.183748E-1,1.6438949E-1,1.4461032E0,1.624173E0,1.8811255E0,1.4715371E0,1.6081815E0,9.6160537E-1,1.6091728E0,1.6712363E0,1.7869835E0,1.4053012E0,1.6450645E0,1.6120433E0,1.8782798E0,1.9385165E-1,1.4330853E0,1.8552311E-1,1.635003E0,1.7504126E0,1.8935727E0,2.0095878E0,3.1578955E-1,1.2559354E-1,1.4733051E-1,2.1053991E0,1.4766014E0,2.4729271E-1,2.2026167E0,1.8679122E0,2.2313862E-1,2.5723836E0,2.350626E0,2.5634837E-1,2.7715763E-1,2.6619525E0,2.9440984E-1,1.977065E-1,3.205188E-1,2.1503592E-1,3.078333E-1,2.8908926E-1,3.8553602E-1,5.0802416E-1,1.1484365E0,3.527617E-1,4.6353495E-1,4.3552628E-1,5.1245683E-1,3.6974692E-1,6.122874E-1,2.2799105E-3,5.3758062E-2,3.7272912E-1,7.680025E-1,4.306523E-1,5.3361994E-1,5.500632E-1,4.2358235E-1,9.7473836E-1,6.363476E-1,1.0329992E0,7.5363535E-1,5.5267835E-1,6.0699046E-1,8.380686E-1,1.4442592E0,6.514194E-1,8.8615745E-1,5.1740307E-1,8.265192E-1,5.46652E-1,6.6479236E-1,5.5695844E-1,8.03016E-1,9.321924E-1,1.4230365E-1,2.2613356E-1,8.1025094E-1,3.0914626E-1,4.9871418E-1,6.858016E-1,1.0171186E0,2.9047328E-1,5.87627E-1,7.4611104E-1,8.7958604E-1,-1.137091E-1,6.109188E-1,8.1758374E-1,1.0898252E0,5.9217703E-1,8.483126E-1,1.7408255E-1,2.3338532E0,1.076664E0,7.3918074E-1,1.1860316E0,1.7086868E0,8.975866E-1,6.880752E-1,9.803396E-1,8.9689285E-1,1.1010708E0,3.442867E-1,9.578254E-1,1.0364218E0,8.2724315E-1,1.0294691E0,1.1704482E0,9.626615E-1,1.2058427E0,5.569436E-1,1.6903149E-1,1.2115742E-1,5.639081E-2,1.0271343E0,6.089536E-1,7.7314997E-1,9.8926795E-1,1.3337356E0,1.008269E0,1.3004513E0,1.2965093E0,9.1941245E-2,6.759278E-1,1.02167204E-1,1.1327527E0,1.270405E0,1.151757E-1,1.0102328E0,1.363361E0,1.1792122E0,1.3665737E0,1.751288E-1,8.268136E-1,1.2085195E0,1.436011E-1,1.2278749E0,1.2338917E0,1.4670224E0,1.5352337E0,1.3410208E0,4.9060282E-1,1.4423561E-1,1.5566842E-1,1.9144595E0,5.100785E-1,1.039606E0,1.3944983E0,1.5704483E0,1.6704057E0,1.458989E0,1.6453744E0,1.9732785E0,1.3783097E0,1.593687E0,1.5729684E0,1.7273458E0,4.6653068E-1,1.3364794E0,1.6124777E-1,6.101132E-2,1.7865111E-1,1.5553216E0,1.8249698E0,1.7021042E0,1.41106E0,4.881764E-1,1.1624492E0,1.6686954E0,1.4730223E0,1.722687E-1,2.088838E-1,1.5717472E0,1.202596E0,1.6104233E0,1.0652542E0,1.679978E-1,1.9059621E-1,1.524928E0,2.0108116E0,1.8062794E0,2.0530775E0,1.7937888E0,8.36316E-2,-3.6263168E-2,-7.1711245E-4,1.9556144E-2,2.1080964E0,9.9211395E-1,5.083492E-1,1.5606105E-1,2.2595756E0,2.0826764E0,-3.737934E-2,1.8883457E0,2.4569633E0,2.7074233E-1,2.2747753E0,2.526241E0,5.9035814E-1,2.702127E-1,3.3688262E-1,1.8444721E-1,5.7928354E-1,2.9678586E-1,2.1859007E-1,3.214188E-1,8.059639E-1,3.775753E-1,4.3820438E-1,5.995422E-1,4.7813788E-1,1.2026508E0,3.8393858E-1,2.4902484E-1,6.5790594E-1,4.4521487E-1,5.046118E-1,3.9999115E-1,6.799904E-1,4.747895E-1,3.1006882E-1,6.901922E-1,8.5585856E-1,5.9981835E-1,4.6882758E-1,3.3250338E-1,5.8763266E-1,8.0393964E-1,4.2421436E-1,6.171801E-1,8.775863E-2,5.284776E-1,4.1380376E-1,5.838686E-1,1.8104397E-1,4.3011174E-1,1.0065398E-1,5.6317072E-2,5.805947E-1,6.9413394E-1,6.338601E-2,1.2195287E0,8.396546E-1,5.8215183E-1,5.0811917E-1,5.8919257E-1,6.632379E-1,5.868568E-1,8.107054E-1,1.14604585E-1,2.2916347E-2,1.4935558E0,5.5462664E-1,6.75653E-1,7.4960685E-1,1.0589997E0,5.935212E-1,2.956374E-1,9.040553E-1,7.314469E-1,6.160218E-1,5.193107E-1,6.126903E-1,8.0145764E-1,4.7600517E-1,6.517278E-2,8.530999E-1,7.654102E-1,5.8391255E-1,9.765806E-1,2.1074045E-1,1.6892728E0,7.269989E-1,9.4025165E-1,2.968081E-1,6.656261E-1,4.297807E-1,6.5046984E-1,5.3022677E-1,7.3840845E-1,1.207226E0,7.604729E-1,2.7731204E-1,5.901539E-1,1.1701468E0,5.5039954E-1,8.1996703E-1,5.3848124E-1,1.0348634E0,7.4228173E-1,3.4267923E-1,-3.1151015E-1,5.553193E-1,7.2326523E-1,7.364541E-1,1.1364728E0,1.2956415E0,1.004962E0,4.649142E-1,6.9025695E-1,9.744116E-1,6.289756E-1,1.4504696E0,2.4351645E-1,8.5895485E-1,1.1409494E0,9.044592E-2,6.4387804E-1,-5.720124E-2,1.2096308E0,1.8559022E0,1.1149673E0,8.561668E-1,9.4748586E-1,6.289143E-1,7.480593E-1,9.281386E-1,1.0956982E0,7.820942E-1,9.2902213E-1,1.1070685E0,2.3423494E-1,4.2810068E-2,4.642242E-3,8.9531094E-1,9.79957E-1,6.737223E-1,1.0438352E0,9.372073E-1,6.7364687E-1,8.852743E-2,1.1057688E0,1.1842968E0,4.9067058E-2,7.5197786E-1,1.0534176E0,1.0026362E0,1.329881E0,2.1970534E-1,6.327388E-2,2.377815E-2,1.0292722E0,6.38279E-1,2.7623647E-1,1.3970439E-1,7.789304E-1,9.931197E-2,2.4041811E-2,1.2197538E-1,1.4885468E0,9.380502E-1,1.064632E0,1.1540377E0,1.6487235E-1,3.727921E-2,1.3015638E-1,2.4071652E-1,7.109999E-1,1.1659851E0,1.0357915E0,1.475568E0,1.1087108E0,8.9817697E-1,1.0561545E0,1.2394823E0,1.4872334E0,1.136371E0,1.2514547E-1,7.098324E-1,1.3798684E0,8.4019035E-1,2.6562577E-2,1.3037546E0,1.1701552E0,1.2349317E-1,6.6756797E-1,1.3566923E0,1.1352876E0,1.531763E-1,1.3940408E0,1.48079E0,1.6505966E0,1.2741698E0,1.3764989E0,2.1378517E-3,7.145257E-2,2.5668652E-3,1.9954649E-1,6.0254794E-2,1.8593661E-1,7.13343E-1,1.3571808E-1,1.2464236E0,1.42919E0,1.4016795E-1,1.6990954E0,1.5218092E0,1.77465E-1,1.0966318E0,1.5628147E0,1.6586797E0,4.2721346E-1,3.606991E-2,1.976662E0,6.4824216E-2,1.3853878E0,1.3699595E0,1.6378228E-1,1.5427314E0,1.7139449E0,1.4990221E-1,1.860375E0,6.156075E-2,1.2866755E-2,5.558736E-2,1.5040357E-1,1.2169262E0,1.5783162E0,2.1162228E-1,1.8030554E0,1.6629882E0,1.9273381E0,1.5432819E0,1.3672736E0,-3.3354517E-2,8.7326534E-2,1.3949683E-1,7.749337E-1,9.1627604E-1,1.6810182E-1,1.4913218E0,4.5743175E-2,1.9990191E-1,1.6219476E-1,1.2611499E0,5.2054125E-1,5.861654E-1,1.7018628E0,1.23325065E-1,3.3695066E-1,1.0286455E0,1.5672401E0,1.9088123E0,2.109289E0,1.8151956E0,1.0203769E0,1.9692187E-1,2.2723308E-1,1.3017919E0,1.9158676E0,2.0241485E0,2.1455598E0,-3.7664004E-2,1.3411927E0,7.5728126E-2,5.2425265E-4,2.1322027E-1,2.3759968E0,1.9540342E0,2.2111528E0,1.9855716E0,1.4511092E0,3.0097444E-2,2.4617076E-1,2.28432E0,6.8886995E-2,2.533655E-1,5.8476686E-2,2.0083013E-1,-5.517233E-2,2.7667198E-2,4.0468633E-2,1.2118864E-2,2.401923E-2,9.847968E-2,5.365601E-2,3.8260635E-2,2.8769696E-2,2.4245335E-2,-8.485561E-3,3.4904838E-2,2.7520284E-2,1.005662E-1,5.5253487E-2,6.8147235E-2,3.7304465E-2,4.7484033E-2,3.6708474E-2,6.773814E-2,5.3529304E-2,8.400068E-4,9.450757E-2,2.5627961E-2,1.2159219E-1,3.612331E-2,1.404331E-1,3.3788916E-2,2.1928083E-2,5.5210914E-2,7.6351926E-2,4.39341E-2,9.816026E-2,2.5616447E-2,5.2206803E-2,3.870688E-2,5.811221E-2,6.623506E-2,1.8982792E-1,4.2459983E-2,5.250449E-2,3.3558413E-2,-2.3310266E-2,7.3439516E-2,7.987872E-3,6.474471E-2,9.511942E-2,6.111004E-2,4.5171216E-2,2.8385028E-2,5.0097644E-2,-1.583801E-2,3.3907276E-2,5.943361E-2,5.584365E-3,8.919416E-2,7.117509E-2,4.4981293E-2,3.8856026E-2,6.318682E-2,2.131886E-2,4.1690495E-2,5.3721365E-2,-7.456899E-4,4.25609E-2,5.6411713E-2,1.0646975E-1,3.1951324E-3,3.194862E-2,4.578411E-2,3.5030607E-2,6.473416E-2,5.4179896E-2,6.494987E-2,8.23036E-2,5.3218763E-2,1.3215177E-1,8.820391E-2,5.789533E-2,3.18275E-2,6.33114E-2,5.7011664E-2,3.6620606E-2,1.0827576E-1,5.7579663E-2,6.449321E-2,1.21788315E-1,4.8352998E-2,6.2199134E-2,8.5944444E-2,7.6027624E-2,3.730045E-2,1.5329003E-1,6.64795E-2,4.3110974E-2,6.88146E-2,4.7917295E-2,3.677884E-2,7.72867E-2,1.4412232E-1,9.826303E-2,5.5092063E-2,7.5935036E-2,-3.1093655E-3,4.0176857E-2,8.250912E-2,1.0699149E-1,1.2462395E-1,7.18839E-2,5.790776E-2,8.3499745E-2,5.2422624E-2,1.2350763E-2,7.5413845E-2,6.01671E-2,1.0168781E-2,8.060232E-2,5.4490246E-2,2.9928898E-2,7.4370734E-2,8.9862995E-2,7.027855E-2,8.748183E-2,6.214419E-2,6.6780183E-3,9.953687E-2,5.7583418E-2,1.668664E-2,2.8491942E-2,2.6766723E-1,9.5645845E-2,1.321381E-1,7.155542E-2,9.863094E-2,5.687007E-2,2.4765722E-2,3.532579E-2,2.1300001E-1,6.0689457E-2,4.0588986E-2,7.704028E-2,6.330309E-2,1.0412961E-1,8.8855035E-5,5.8061875E-2,7.846405E-2,4.7648907E-2,1.0588924E-1,1.5770322E-1,2.9492555E-2,8.3537675E-2,1.7557632E-2,3.1532288E-2,2.2534134E-2,7.350033E-2,1.2890987E-1,7.726269E-2,5.0382007E-2,7.365584E-2,7.4567385E-2,1.6664578E-1,3.4581877E-2,6.8170965E-2,8.769947E-2,1.22196056E-1,6.1300427E-2,8.031737E-2,7.0817195E-2,2.4404962E-2,-4.238624E-2,3.494101E-2,5.1013608E-2,7.161709E-2,9.830209E-2,6.9033615E-2,5.533075E-2,8.591421E-2,8.23626E-2,1.187593E-1,1.09967686E-1,1.8543021E-1,1.0517241E-1,7.24185E-2,3.7130646E-2,5.1032167E-2,7.592777E-2,5.6186277E-2,8.2235865E-2,1.498534E-1,9.15879E-2,3.9920416E-2,1.8045431E-1,3.7685715E-2,5.4751705E-2,9.003021E-2,9.974746E-2,1.2475268E-1,1.11208834E-1,5.8535066E-2,6.117652E-2,-4.426649E-2,9.9835865E-2,1.3524376E-1,-4.413603E-2,1.8800245E-1,9.093865E-2,1.1986601E-1,8.1916295E-2,9.9297516E-2,3.586946E-2,9.518712E-2,6.1058104E-2,9.127701E-2,5.118627E-2,7.75855E-2,8.792248E-2,1.02310516E-1,1.5123762E-1,1.0350507E-1,4.6439763E-2,7.975358E-2,9.85628E-2,8.793729E-2,9.838272E-2,1.15426436E-1,6.621537E-2,-3.108013E-2,1.1002206E-1,8.447682E-2,1.1400248E-1,9.521004E-2,2.9979637E-2,7.3695175E-2,1.256779E-1,1.0283829E-1,9.554079E-2,2.4109637E-2,4.0883083E-2,8.052811E-2,1.0245611E-1,1.394779E-1,1.11769974E-1,1.3357964E-1,8.168622E-2,-1.691525E-2,1.0768332E-1,4.2126607E-2,1.029916E-1,4.655381E-2,4.3896295E-2,1.3515402E-1,6.3412725E-3,2.661453E-2,9.951903E-2,1.1724161E-1,8.39377E-2,5.9484858E-2,1.4434983E-2,5.9972145E-2,-2.9900407E-2,5.0856065E-2,4.6088856E-2,7.883208E-2,1.5016702E-1,2.3246745E-2,1.6539022E-2,9.415054E-2,1.0289549E-1,1.1792828E-1,7.475703E-2,1.25208E-1,3.933322E-2,7.048068E-3,7.36437E-2,1.8215617E-2,9.603619E-2,1.1813291E-1,9.3898505E-2,1.12681605E-1,1.3887976E-1,1.7106281E-1,1.1751461E-1,9.1226175E-2,9.0126745E-2,5.041531E-3,9.2353456E-2,1.14507094E-1,5.724516E-2,1.2514876E-1,1.3127708E-1,1.6599357E-1,1.09548226E-1,1.2225353E-1,2.6218505E-3,8.193983E-2,1.240793E-1,1.4334233E-1,3.375305E-2,8.466114E-2,1.1759982E-1,1.3329455E-1,9.6100256E-2,1.19425796E-1,3.6664696E-3,8.1612766E-2,1.2827663E-1,1.4419249E-1,9.8293245E-2,1.1879144E-1,2.2840122E-2,1.3980806E-1,1.5773685E-1,1.3179252E-1,1.6801949E-1,1.2197912E-1,1.22642376E-1,1.3762812E-1,1.00738265E-1,1.3827048E-1,3.8086176E-3,2.4081875E-2,8.294716E-2,3.3178236E-2,2.4081875E-2,1.2562285E-1,1.4810902E-1,1.2750481E-1,9.960513E-2,1.7340839E-1,1.5248224E-1,3.586443E-2,7.347279E-2,1.706662E-1,6.378995E-2,1.5714101E-1,1.6649494E-1,3.5911717E-2,7.2193745E-4,6.336009E-2,1.8825243E-1,2.0950949E-1,1.3961522E-1,8.570927E-2,1.4299844E-1,3.9720766E-2,6.382782E-2,1.544684E-1,1.7215508E-1,-3.4477618E-2,1.8832554E-1,1.093297E-1,-3.320279E-2,3.5132803E-2,6.7538194E-2,1.3632052E-1,1.724812E-1,1.5084545E-1,1.8330996E-1,1.6874518E-1,1.6688643E-1,8.779341E-2,5.436307E-2,1.9415767E-1,2.2420356E-2,1.5555839E-1,1.12937525E-1,1.4285003E-1,8.175859E-2,2.1685809E-2,1.3434339E-1,-1.0107908E-2,8.2757376E-2,1.5307583E-1,4.8816793E-2,-3.3244807E-2,6.128042E-2,1.3080949E-1,2.0074643E-2,8.800189E-2,1.404202E-3,9.266311E-2,1.7259508E-1,-4.196167E-4,-3.430591E-2,6.7797355E-2,1.5523456E-1,8.2602635E-2,1.5724626E-1,2.0653123E-2,1.9249889E-1,1.1360698E-1,1.209466E-1,2.1157646E-1,1.7624772E-1,1.9231993E-1,1.10834025E-1,-2.375E-2,1.3916378E-1,-3.3740863E-2,2.1498513E-1,1.5831684E-1,2.20807E-1,1.9575535E-1,2.2645819E-1,2.0773606E-1,5.5716455E-2,1.6781567E-1,2.379941E-1,5.766804E-2,1.7341225E-1,2.0752373E-1,2.2248422E-1,8.124506E-2,-2.7219802E-3,2.0057698E-1,5.9821345E-2,1.5734296E-1,2.2879E-1,3.2953005E-2,4.9960513E-2,-3.9627463E-2],"categories":[],"categories_nodes":[],"categories_segments":[],"categories_sizes":[],"default_left":[1,1,0,0,0,0,0,0,0,0,0,0,0,0,0,0,0,0,0,0,0,0,0,0,0,0,0,0,0,0,0,0,0,0,0,0,0,0,0,0,0,0,0,0,0,0,0,0,0,0,0,0,0,0,0,0,0,0,0,0,0,0,0,0,0,0,0,0,0,0,0,0,0,0,0,0,0,0,0,0,0,0,0,0,0,0,0,0,0,0,0,0,0,0,0,0,0,0,0,0,0,0,0,0,0,0,0,0,0,0,0,0,0,0,0,0,0,0,0,0,0,0,0,0,0,0,0,0,0,0,0,0,0,0,0,0,0,0,0,0,0,0,0,0,0,0,0,0,0,0,0,0,0,0,0,0,0,0,0,0,0,0,0,0,0,0,0,0,0,0,0,0,0,0,0,0,0,0,0,0,0,0,0,0,0,0,0,0,0,0,0,0,0,0,0,0,0,0,0,0,0,0,0,0,0,0,0,0,0,0,0,0,0,0,0,0,0,0,0,0,0,0,0,0,0,0,0,0,0,0,0,0,0,0,0,0,0,0,0,0,0,0,0,0,0,0,0,0,0,0,0,0,0,0,0,0,0,0,0,0,0,0,0,0,0,0,0,0,0,0,0,0,0,0,0,0,0,0,0,0,0,0,0,0,0,0,0,0,0,0,0,0,0,0,0,0,0,0,0,0,0,0,0,0,0,0,0,0,0,0,0,0,0,0,0,0,0,0,0,0,0,0,0,0,0,0,0,0,0,0,0,0,0,0,0,0,0,0,0,0,0,0,0,0,0,0,0,0,0,0,0,0,0,0,0,0,0,0,0,0,0,0,0,0,0,0,0,0,0,0,0,0,0,0,0,0,0,0,0,0,0,0,0,0,0,0,0,0,0,0,0,0,0,0,0,0,0,0,0,0,0,0,0,0,0,0,0,0,0,0,0,0,0,0,0,0,0,0,0,0,0,0,0,0,0,0,0,0,0,0,0,0,0,0,0,0,0,0,0,0,0,0,0,0,0,0,0,0,0,0,0,0,0,0,0,0,0,0,0,0,0,0,0,0,0,0,0,0,0,0,0,0,0,0,0,0,0,0,0,0,0,0,0,0,0,0,0,0,0,0,0,0,0,0,0,0,0,0,0,0,0,0,0,0,0,0,0,0,0,0,0,0,0,0,0,0,0,0,0,0,0,0,0,0,0,0,0,0,0,0,0,0,0,0,0,0,0,0,0,0,0,0,0,0,0,0,0,0,0,0,0,0,0,0,0,0,0,0,0,0,0,0,0,0,0,0,0,0,0,0,0,0,0,0,0,0,0,0,0,0,0,0,0,0,0,0,0,0,0,0,0,0,0,0,0,0,0,0,0,0,0,0,0,0,0,0,0,0,0,0,0,0,0,0,0,0,0,0,0,0,0,0,0,0,0,0,0,0,0,0,0,0,0,0,0,0,0,0,0,0,0,0,0,0,0,0,0,0,0,0,0,0,0,0,0,0,0,0,0,0,0,0,0,0,0,0,0,0,0,0,0,0,0,0,0,0,0,0,0,0,0,0,0,0,0,0,0,0,0,0,0,0,0,0,0,0,0,0,0,0,0,0,0,0,0,0,0,0,0,0,0,0,0,0,0,0,0,0,0,0,0,0,0,0,0,0,0,0,0,0,0,0,0,0,0,0,0,0,0,0,0,0,0,0,0,0,0,0,0,0,0,0,0,0,0,0,0,0,0,0,0,0,0,0,0,0,0,0,0,0,0,0,0,0,0,0,0,0,0,0,0,0,0,0,0,0,0,0,0,0,0,0,0,0,0,0,0,0,0,0,0,0,0,0,0,0,0,0,0,0,0,0,0,0,0,0,0,0,0,0,0,0,0,0,0,0,0,0,0,0,0,0,0,0,0,0,0,0,0,0,0,0,0,0,0,0,0,0,0,0,0,0,0,0,0,0,0,0,0,0,0,0,0,0,0,0,0,0,0,0,0,0,0,0,0,0,0,0,0,0,0,0,0,0,0,0,0,0,0,0,0,0,0,0,0,0,0,0,0,0,0,0,0,0,0,0,0,0,0,0,0,0,0,0,0,0,0,0,0,0,0,0,0,0,0,0,0,0,0,0,0,0,0,0,0,0,0,0,0,0,0,0,0,0,0,0,0,0,0,0,0,0,0,0,0,0,0,0,0,0,0,0,0,0,0,0,0,0,0,0,0,0,0,0,0,0,0,0,0,0,0,0,0,0,0,0,0,0,0,0,0,0,0,0,0,0,0,0,0,0,0,0,0,0,0,0,0,0,0,0,0,0,0,0,0,0,0,0,0,0,0,0,0,0,0,0,0,0,0,0,0,0,0,0,0,0,0,0,0,0,0,0,0,0,0,0,0,0,0,0,0,0,0,0,0,0,0,0,0,0,0,0,0,0,0,0,0,0,0,0,0,0,0,0,0],"id":1,"left_children":[1,3,5,7,9,11,13,15,17,19,21,23,25,27,29,31,33,35,37,39,41,43,45,47,49,51,53,55,57,59,61,63,65,67,69,71,73,75,77,79,81,83,85,87,89,91,93,95,97,99,101,103,105,107,109,111,113,115,117,-1,-1,-1,-1,119,121,123,125,127,129,131,133,135,137,139,141,143,145,147,149,151,153,155,157,159,161,163,165,167,169,171,173,175,177,-1,179,181,183,185,187,189,191,193,195,197,199,201,203,-1,205,207,209,-1,211,-1,213,215,-1,217,219,221,223,225,227,229,231,-1,233,235,237,239,241,243,245,247,249,251,253,255,257,259,261,263,265,267,269,271,273,-1,275,277,279,281,283,285,287,289,291,293,295,297,299,301,303,305,-1,307,309,311,313,315,317,319,-1,-1,-1,321,323,325,327,-1,-1,-1,329,-1,331,333,335,337,339,341,343,345,347,349,351,353,355,-1,357,-1,359,361,363,365,367,369,-1,371,373,-1,375,377,-1,379,381,-1,-1,383,-1,-1,-1,385,387,389,391,393,395,397,399,401,403,405,407,-1,-1,409,411,413,415,417,419,421,423,425,427,429,431,433,435,437,439,441,443,445,447,449,451,453,-1,455,457,459,461,463,465,467,469,471,473,475,477,479,481,483,485,-1,487,489,491,493,495,497,499,501,503,505,507,509,511,513,515,517,519,521,523,-1,-1,-1,525,527,529,531,533,535,537,539,-1,541,-1,543,545,-1,547,549,551,553,-1,555,557,-1,559,561,563,565,567,569,-1,-1,571,573,575,577,579,581,583,585,587,589,591,593,595,597,599,-1,-1,-1,601,603,605,607,609,611,613,615,-1,-1,617,619,621,623,-1,-1,625,627,629,631,633,-1,-1,-1,-1,635,637,639,-1,641,643,-1,645,647,-1,649,651,653,-1,655,657,659,661,663,665,667,669,671,673,675,677,679,681,683,685,687,689,691,693,695,697,699,701,703,705,707,709,711,713,-1,715,717,719,721,723,-1,-1,725,727,-1,729,731,733,735,737,739,741,743,-1,-1,745,747,749,751,753,755,757,759,761,763,765,767,769,771,-1,773,775,777,779,781,783,785,787,789,791,793,795,797,799,801,803,805,807,809,811,813,815,817,819,821,823,825,827,829,831,833,835,837,839,841,843,845,-1,847,849,-1,851,853,855,857,859,861,863,865,867,869,871,873,875,877,879,-1,-1,881,883,885,887,889,891,-1,893,895,-1,897,899,901,903,905,-1,-1,907,909,911,913,915,-1,-1,-1,917,919,921,923,-1,-1,-1,925,927,929,931,933,935,937,939,941,943,945,-1,947,949,951,-1,953,955,-1,957,959,961,-1,963,965,967,969,971,-1,-1,-1,-1,-1,973,975,-1,977,979,-1,981,983,-1,985,987,989,991,-1,993,-1,995,997,-1,999,1001,-1,1003,-1,1005,-1,-1,1007,1009,-1,1011,1013,1015,1017,1019,-1,-1,-1,1021,1023,-1,1025,-1,1027,-1,1029,1031,1033,1035,-1,1037,1039,1041,1043,1045,1047,1049,-1,-1,1051,1053,1055,1057,-1,1059,-1,-1,-1,1061,1063,1065,1067,1069,-1,-1,1071,1073,-1,-1,-1,-1,-1,-1,-1,-1,-1,-1,-1,-1,-1,-1,-1,-1,-1,-1,-1,-1,-1,-1,-1,-1,-1,-1,-1,-1,-1,-1,-1,-1,-1,-1,-1,-1,-1,-1,-1,-1,-1,-1,-1,-1,-1,-1,-1,-1,-1,-1,-1,-1,-1,-1,-1,-1,-1,-1,-1,-1,-1,-1,-1,-1,-1,-1,-1,-1,-1,-1,-1,-1,-1,-1,-1,-1,-1,-1,-1,-1,-1,-1,-1,-1,-1,-1,-1,-1,-1,-1,-1,-1,-1,-1,-1,-1,-1,-1,-1,-1,-1,-1,-1,-1,-1,-1,-1,-1,-1,-1,-1,-1,-1,-1,-1,-1,-1,-1,-1,-1,-1,-1,-1,-1,-1,-1,-1,-1,-1,-1,-1,-1,-1,-1,-1,-1,-1,-1,-1,-1,-1,-1,-1,-1,-1,-1,-1,-1,-1,-1,-1,-1,-1,-1,-1,-1,-1,-1,-1,-1,-1,-1,-1,-1,-1,-1,-1,-1,-1,-1,-1,-1,-1,-1,-1,-1,-1,-1,-1,-1,-1,-1,-1,-1,-1,-1,-1,-1,-1,-1,-1,-1,-1,-1,-1,-1,-1,-1,-1,-1,-1,-1,-1,-1,-1,-1,-1,-1,-1,-1,-1,-1,-1,-1,-1,-1,-1,-1,-1,-1,-1,-1,-1,-1,-1,-1,-1,-1,-1,-1,-1,-1,-1,-1,-1,-1,-1,-1,-1,-1,-1,-1,-1,-1,-1,-1,-1,-1,-1,-1,-1,-1,-1,-1,-1,-1,-1,-1,-1,-1,-1,-1,-1,-1,-1,-1,-1,-1,-1,-1,-1,-1,-1,-1,-1,-1,-1,-1,-1,-1,-1,-1,-1,-1,-1,-1,-1,-1,-1,-1,-1,-1,-1,-1,-1,-1,-1,-1,-1,-1,-1,-1,-1,-1,-1,-1,-1,-1,-1,-1,-1,-1,-1,-1,-1,-1,-1,-1,-1,-1,-1,-1,-1,-1,-1,-1,-1,-1,-1,-1,-1,-1,-1,-1,-1,-1,-1,-1,-1,-1,-1,-1,-1,-1,-1,-1,-1,-1,-1,-1,-1,-1,-1,-1,-1,-1,-1,-1,-1,-1,-1,-1,-1,-1,-1,-1,-1,-1,-1,-1,-1,-1,-1,-1,-1,-1,-1,-1,-1,-1,-1,-1,-1,-1,-1,-1,-1,-1,-1,-1,-1,-1,-1,-1,-1,-1,-1,-1,-1,-1,-1,-1,-1,-1,-1,-1,-1,-1,-1,-1,-1,-1,-1,-1,-1,-1,-1,-1,-1,-1,-1,-1,-1,-1],"loss_changes":[3.1613938E4,5.0238438E3,4.4370156E3,1.2532148E3,5.3870703E2,4.763828E2,7.725117E2,2.7566602E2,9.066113E2,1.19734375E2,1.0044336E2,1.4373047E1,1.1537695E2,3.0114453E2,1.5000586E2,4.5181396E1,5.2941406E1,2.392439E2,4.3470508E2,2.1552734E1,3.0498047E1,2.8125977E1,8.017578E0,1.6358398E1,8.706055E0,1.0302734E1,1.5680664E1,2.4545898E1,1.5746094E1,4.081543E0,1.772705E1,3.638623E1,9.885254E0,2.7091553E1,3.1447266E1,1.7072266E1,5.885681E1,1.8927148E2,1.1223682E2,1.3913574E1,4.11145E0,1.3808838E1,2.4387695E1,1.1605469E1,1.583252E0,8.96582E0,4.9632734E-1,1.0799805E1,1.615625E1,5.538574E0,1.1296875E1,3.3845215E0,5.2470703E0,1.0424805E0,6.9785156E0,1.303711E-1,3.9628906E0,1.0834961E1,1.203125E0,0E0,0E0,0E0,0E0,5.4229736E0,1.4001953E1,8.39856E0,1.0531445E0,7.461853E0,6.9716797E0,6.6202393E0,2.7861572E1,1.4271484E1,6.758423E0,5.2907288E1,2.1753174E1,1.8151855E2,4.538828E2,9.140747E0,5.1880127E1,1.7310059E1,2.2746582E0,7.662964E-1,7.1813965E-1,1.0366913E1,6.4020996E0,3.7666016E0,1.5189453E1,1.280835E1,2.9037598E1,8.5388184E-1,9.067383E-1,6.7314453E0,1.6278076E0,0E0,1.0285519E0,1.27771E0,6.5637207E0,1.80979E1,5.9589844E0,3.5500488E0,4.239746E0,7.7977295E0,3.5290527E0,7.8305054E0,2.0196533E0,6.151367E0,4.5512695E0,0E0,2.17768E0,3.0234375E0,2.2519531E0,0E0,9.548828E0,0E0,1.0428711E1,5.8710938E0,0E0,9.628906E-1,1.5290527E0,2.2884674E0,2.8092957E0,2.2483063E1,1.4272339E1,5.4714355E0,4.3618774E0,0E0,1.6032487E-1,3.3565613E1,4.645874E0,1.5261536E0,5.3673096E0,1.0427017E0,3.6241455E0,6.8168945E0,2.0330322E1,1.0279083E1,3.5102844E0,3.485962E0,3.9452057E0,1.14924866E2,2.3965942E1,7.5846863E0,1.7238403E1,4.9109863E1,1.6704504E2,1.03521484E2,2.0827393E2,0E0,3.5385132E0,1.2313293E1,7.222412E1,1.4414246E1,6.632324E0,1.0639648E0,2.1967773E0,5.011139E-1,1.680603E0,1.7763824E0,1.7442932E0,6.3464355E-1,9.6209717E-1,7.9889526E0,8.075439E0,1.1774597E0,0E0,1.6095543E0,7.169922E0,6.186157E0,4.972168E0,9.947937E0,1.4086914E1,4.0802002E-1,0E0,0E0,0E0,1.6318848E1,2.4983398E1,6.3220215E-1,2.468872E-1,0E0,0E0,0E0,5.586815E-1,0E0,1.1340332E0,3.817627E0,8.115601E0,4.180542E0,7.256836E0,2.1603518E0,4.0942383E-1,9.073486E0,1.4106445E0,1.4025879E0,1.6526489E0,2.772827E-1,8.915466E0,0E0,3.9901123E0,0E0,2.1565552E0,1.7541504E1,2.1206055E1,1.4697266E0,1.3626833E0,2.9270187E-2,0E0,3.0161133E0,7.5216293E-1,0E0,1.5791016E0,6.6148376E0,0E0,4.367676E0,2.7783203E0,0E0,0E0,1.0306091E1,0E0,0E0,0E0,1.1119089E0,6.503479E0,8.2774734E-1,5.0775146E0,8.0312195E0,1.5326691E0,6.162552E0,1.0418274E1,3.3529663E0,1.7908325E1,1.4688663E0,2.1896667E0,0E0,0E0,1.6184387E0,2.191681E0,2.3728638E0,5.58548E-1,1.3936386E0,1.8026352E-1,1.1375046E-1,5.312317E0,1.3116226E0,1.0010338E0,3.4313965E0,3.2913818E0,6.756531E0,9.1563034E-1,1.3851807E1,8.694031E0,2.1371422E0,4.307129E0,8.90152E-1,2.998001E0,2.344799E-1,2.3323364E0,8.675003E-1,0E0,1.2932137E1,7.866455E0,1.831491E1,8.057892E0,9.834366E-1,5.766205E0,7.6322365E-1,2.7113678E1,1.20135254E2,9.15271E1,3.1612408E1,2.2528809E1,4.3661743E1,1.3608789E2,6.0990356E1,2.495835E2,0E0,4.057312E-1,1.000647E1,1.5913391E0,2.6914673E1,3.158142E1,7.0788574E-1,1.8113403E0,1.0069336E1,8.848633E0,1.0508423E0,7.998726E-2,2.2519531E0,1.065979E0,1.9626999E-1,4.5133972E-1,1.4429321E0,1.0816879E0,1.3888092E0,6.5472364E-2,0E0,0E0,0E0,1.923523E-1,5.749817E-1,6.125107E-1,1.4485168E-1,1.660553E0,4.4907227E0,4.0123596E0,2.8366089E-2,0E0,1.1567955E0,0E0,1.1391602E1,1.5149963E1,0E0,3.5179443E0,1.7166443E0,1.8276367E0,1.1945801E0,0E0,5.950699E-1,1.5927734E1,0E0,7.3150635E-2,1.1948853E1,9.47876E-2,3.6230469E0,4.7280273E0,2.9993474E-1,0E0,0E0,3.620842E0,9.777677E-2,6.8967056E-1,1.449585E-1,7.4490356E-1,7.1048584E0,5.321533E0,1.7712402E0,1.3112793E0,7.8131104E-1,8.660889E-2,5.2250977E0,1.3369995E1,5.331253E-1,2.1030903E-1,0E0,0E0,0E0,1.5809326E0,2.2734375E0,7.418213E-1,1.6522217E-1,1.5570167E0,5.408783E-1,1.2227173E0,9.532776E-1,0E0,0E0,5.254013E0,2.01931E0,6.4013824E0,1.29739E0,0E0,0E0,3.4905396E0,6.289551E0,7.9648438E0,3.7990723E0,3.512207E0,0E0,0E0,0E0,0E0,9.9121094E-1,3.3719645E0,3.717481E-1,0E0,4.0092773E0,7.8637695E-1,0E0,2.560089E0,3.2687988E0,0E0,9.4646E0,1.1668701E0,7.5856533E0,0E0,1.4115E-1,8.6658573E-1,9.615383E-1,1.5599365E0,9.402075E-1,2.461586E-1,9.120045E-1,1.9212036E0,1.7537994E0,2.433014E0,1.3080914E0,3.540268E-1,3.3921143E1,1.1153393E0,2.450058E0,8.23938E0,1.9827042E0,2.024414E0,1.008963E1,5.734741E0,1.1315231E0,2.9204655E-1,1.9878387E-1,1.1442566E0,6.487217E-1,1.1082115E0,2.2347832E-1,2.1235046E0,1.7637634E0,2.865944E-1,0E0,3.335724E-1,3.7118244E-1,2.077568E0,1.1363627E-1,1.8926048E-1,0E0,0E0,2.0031128E0,4.4480896E0,0E0,5.585289E-1,2.0757294E-1,2.9606152E-1,8.941376E0,7.6677856E0,7.8346252E0,8.419312E0,1.4136353E0,0E0,0E0,3.0997086E-1,1.6314697E1,1.1565186E1,1.7406616E0,3.6921082E0,2.9516602E-1,1.2955177E0,3.9237976E0,1.1032257E0,9.321976E-1,8.3800507E-1,1.058197E-1,3.397522E-1,3.482771E-1,0E0,2.6737366E0,5.654419E0,2.107997E-1,3.6705017E-2,1.8563557E0,1.7813568E0,2.3605347E0,4.6584473E0,1.1204956E1,1.0748016E1,4.171196E0,1.0242767E0,1.2265062E0,1.1155396E0,2.553894E0,1.8807793E0,8.224602E-1,3.0995917E-1,2.597725E0,1.0077698E1,3.63385E2,5.6775024E1,5.8858154E1,1.7621094E1,3.648302E0,1.8266535E1,1.7513428E1,9.688232E0,3.0398315E1,4.57135E0,2.4899316E2,7.242334E1,8.910797E0,2.4138428E1,4.5637305E2,2.1750732E2,1.9809093E0,0E0,1.8635712E0,7.9761353E0,0E0,1.84272E0,4.9123273E0,2.5743408E1,1.7842163E1,2.6919556E-1,1.2723389E0,4.951477E-1,1.1600037E0,1.6643677E0,5.0184326E0,1.2788269E1,2.4455566E0,4.8188477E0,3.1854248E-1,9.05492E-1,0E0,0E0,5.315674E0,6.3165283E0,1.5735388E-1,8.233032E-1,9.9061966E-2,5.0738907E-1,0E0,4.72023E-1,6.2576294E-1,0E0,2.1104832E0,5.233154E-1,1.798706E-1,6.417084E-1,4.897669E-3,0E0,0E0,9.188843E-2,1.1206055E-1,2.5473702E-1,6.3752276E-1,2.1904755E-1,0E0,0E0,0E0,9.53125E-1,1.5155029E0,1.9035034E0,2.4513245E0,0E0,0E0,0E0,1.8012285E-1,9.420357E-1,8.027588E0,7.8153076E0,2.1114197E0,2.673645E0,6.331482E-1,6.135681E0,2.6055908E-1,1.1653442E0,1.0213013E0,0E0,5.028217E-1,3.1341553E-2,5.6365967E-2,0E0,3.515625E0,1.6067871E1,0E0,4.3871093E-1,1.2440796E0,3.8355103E0,0E0,7.7786255E-1,8.396851E0,1.7885742E0,2.9974365E0,2.668457E0,0E0,0E0,0E0,0E0,0E0,1.5171178E-2,1.6789675E-1,0E0,4.764099E-1,4.8754883E-1,0E0,1.6685486E-1,3.9239502E-1,0E0,8.680824E0,1.3439941E-1,6.324158E-1,2.5547022E-1,0E0,1.8115234E-1,0E0,6.288452E-1,2.059517E0,0E0,1.7163086E0,5.557312E0,0E0,3.7680664E0,0E0,4.6685115E-1,0E0,0E0,1.6934624E0,1.6761475E0,0E0,1.1962891E-2,3.2946777E-1,1.2661743E-1,1.1116791E0,2.8146362E0,0E0,0E0,0E0,3.6928177E-2,3.177791E0,0E0,9.8431396E-1,0E0,7.761241E-1,0E0,1.0550156E0,6.2805283E-1,1.5452952E0,2.9661255E0,0E0,1.1601807E0,1.0521793E0,1.2528687E0,4.2508545E0,4.3017578E-1,4.4907227E0,2.254877E0,0E0,0E0,3.8568802E0,2.668396E0,2.303955E0,4.679199E0,0E0,3.8593674E-1,0E0,0E0,0E0,8.345947E-1,7.458496E-1,1.0070801E0,4.2013855E0,1.8755684E0,0E0,0E0,2.4301758E0,7.9904145E-1,0E0,0E0,0E0,0E0,0E0,0E0,0E0,0E0,0E0,0E0,0E0,0E0,0E0,0E0,0E0,0E0,0E0,0E0,0E0,0E0,0E0,0E0,0E0,0E0,0E0,0E0,0E0,0E0,0E0,0E0,0E0,0E0,0E0,0E0,0E0,0E0,0E0,0E0,0E0,0E0,0E0,0E0,0E0,0E0,0E0,0E0,0E0,0E0,0E0,0E0,0E0,0E0,0E0,0E0,0E0,0E0,0E0,0E0,0E0,0E0,0E0,0E0,0E0,0E0,0E0,0E0,0E0,0E0,0E0,0E0,0E0,0E0,0E0,0E0,0E0,0E0,0E0,0E0,0E0,0E0,0E0,0E0,0E0,0E0,0E0,0E0,0E0,0E0,0E0,0E0,0E0,0E0,0E0,0E0,0E0,0E0,0E0,0E0,0E0,0E0,0E0,0E0,0E0,0E0,0E0,0E0,0E0,0E0,0E0,0E0,0E0,0E0,0E0,0E0,0E0,0E0,0E0,0E0,0E0,0E0,0E0,0E0,0E0,0E0,0E0,0E0,0E0,0E0,0E0,0E0,0E0,0E0,0E0,0E0,0E0,0E0,0E0,0E0,0E0,0E0,0E0,0E0,0E0,0E0,0E0,0E0,0E0,0E0,0E0,0E0,0E0,0E0,0E0,0E0,0E0,0E0,0E0,0E0,0E0,0E0,0E0,0E0,0E0,0E0,0E0,0E0,0E0,0E0,0E0,0E0,0E0,0E0,0E0,0E0,0E0,0E0,0E0,0E0,0E0,0E0,0E0,0E0,0E0,0E0,0E0,0E0,0E0,0E0,0E0,0E0,0E0,0E0,0E0,0E0,0E0,0E0,0E0,0E0,0E0,0E0,0E0,0E0,0E0,0E0,0E0,0E0,0E0,0E0,0E0,0E0,0E0,0E0,0E0,0E0,0E0,0E0,0E0,0E0,0E0,0E0,0E0,0E0,0E0,0E0,0E0,0E0,0E0,0E0,0E0,0E0,0E0,0E0,0E0,0E0,0E0,0E0,0E0,0E0,0E0,0E0,0E0,0E0,0E0,0E0,0E0,0E0,0E0,0E0,0E0,0E0,0E0,0E0,0E0,0E0,0E0,0E0,0E0,0E0,0E0,0E0,0E0,0E0,0E0,0E0,0E0,0E0,0E0,0E0,0E0,0E0,0E0,0E0,0E0,0E0,0E0,0E0,0E0,0E0,0E0,0E0,0E0,0E0,0E0,0E0,0E0,0E0,0E0,0E0,0E0,0E0,0E0,0E0,0E0,0E0,0E0,0E0,0E0,0E0,0E0,0E0,0E0,0E0,0E0,0E0,0E0,0E0,0E0,0E0,0E0,0E0,0E0,0E0,0E0,0E0,0E0,0E0,0E0,0E0,0E0,0E0,0E0,0E0,0E0,0E0,0E0,0E0,0E0,0E0,0E0,0E0,0E0,0E0,0E0,0E0,0E0,0E0,0E0,0E0,0E0,0E0,0E0,0E0,0E0,0E0,0E0,0E0,0E0,0E0,0E0,0E0,0E0,0E0,0E0,0E0,0E0,0E0,0E0,0E0,0E0,0E0,0E0,0E0,0E0,0E0,0E0,0E0,0E0,0E0,0E0,0E0,0E0,0E0,0E0,0E0,0E0,0E0,0E0,0E0,0E0,0E0,0E0,0E0,0E0,0E0,0E0,0E0,0E0,0E0,0E0,0E0,0E0,0E0,0E0,0E0,0E0,0E0,0E0,0E0,0E0,0E0,0E0,0E0,0E0,0E0,0E0,0E0,0E0,0E0,0E0,0E0,0E0,0E0,0E0,0E0,0E0,0E0,0E0,0E0,0E0,0E0,0E0,0E0,0E0,0E0],"parents":[2147483647,0,0,1,1,2,2,3,3,4,4,5,5,6,6,7,7,8,8,9,9,10,10,11,11,12,12,13,13,14,14,15,15,16,16,17,17,18,18,19,19,20,20,21,21,22,22,23,23,24,24,25,25,26,26,27,27,28,28,29,29,30,30,31,31,32,32,33,33,34,34,35,35,36,36,37,37,38,38,39,39,40,40,41,41,42,42,43,43,44,44,45,45,46,46,47,47,48,48,49,49,50,50,51,51,52,52,53,53,54,54,55,55,56,56,57,57,58,58,63,63,64,64,65,65,66,66,67,67,68,68,69,69,70,70,71,71,72,72,73,73,74,74,75,75,76,76,77,77,78,78,79,79,80,80,81,81,82,82,83,83,84,84,85,85,86,86,87,87,88,88,89,89,90,90,91,91,92,92,94,94,95,95,96,96,97,97,98,98,99,99,100,100,101,101,102,102,103,103,104,104,105,105,106,106,108,108,109,109,110,110,112,112,114,114,115,115,117,117,118,118,119,119,120,120,121,121,122,122,123,123,124,124,126,126,127,127,128,128,129,129,130,130,131,131,132,132,133,133,134,134,135,135,136,136,137,137,138,138,139,139,140,140,141,141,142,142,143,143,144,144,145,145,146,146,148,148,149,149,150,150,151,151,152,152,153,153,154,154,155,155,156,156,157,157,158,158,159,159,160,160,161,161,162,162,163,163,165,165,166,166,167,167,168,168,169,169,170,170,171,171,175,175,176,176,177,177,178,178,182,182,184,184,185,185,186,186,187,187,188,188,189,189,190,190,191,191,192,192,193,193,194,194,195,195,196,196,198,198,200,200,201,201,202,202,203,203,204,204,205,205,207,207,208,208,210,210,211,211,213,213,214,214,217,217,221,221,222,222,223,223,224,224,225,225,226,226,227,227,228,228,229,229,230,230,231,231,232,232,235,235,236,236,237,237,238,238,239,239,240,240,241,241,242,242,243,243,244,244,245,245,246,246,247,247,248,248,249,249,250,250,251,251,252,252,253,253,254,254,255,255,256,256,257,257,259,259,260,260,261,261,262,262,263,263,264,264,265,265,266,266,267,267,268,268,269,269,270,270,271,271,272,272,273,273,274,274,276,276,277,277,278,278,279,279,280,280,281,281,282,282,283,283,284,284,285,285,286,286,287,287,288,288,289,289,290,290,291,291,292,292,293,293,294,294,298,298,299,299,300,300,301,301,302,302,303,303,304,304,305,305,307,307,309,309,310,310,312,312,313,313,314,314,315,315,317,317,318,318,320,320,321,321,322,322,323,323,324,324,325,325,328,328,329,329,330,330,331,331,332,332,333,333,334,334,335,335,336,336,337,337,338,338,339,339,340,340,341,341,342,342,346,346,347,347,348,348,349,349,350,350,351,351,352,352,353,353,356,356,357,357,358,358,359,359,362,362,363,363,364,364,365,365,366,366,371,371,372,372,373,373,375,375,376,376,378,378,379,379,381,381,382,382,383,383,385,385,386,386,387,387,388,388,389,389,390,390,391,391,392,392,393,393,394,394,395,395,396,396,397,397,398,398,399,399,400,400,401,401,402,402,403,403,404,404,405,405,406,406,407,407,408,408,409,409,410,410,411,411,412,412,413,413,414,414,416,416,417,417,418,418,419,419,420,420,423,423,424,424,426,426,427,427,428,428,429,429,430,430,431,431,432,432,433,433,436,436,437,437,438,438,439,439,440,440,441,441,442,442,443,443,444,444,445,445,446,446,447,447,448,448,449,449,451,451,452,452,453,453,454,454,455,455,456,456,457,457,458,458,459,459,460,460,461,461,462,462,463,463,464,464,465,465,466,466,467,467,468,468,469,469,470,470,471,471,472,472,473,473,474,474,475,475,476,476,477,477,478,478,479,479,480,480,481,481,482,482,483,483,484,484,485,485,486,486,487,487,489,489,490,490,492,492,493,493,494,494,495,495,496,496,497,497,498,498,499,499,500,500,501,501,502,502,503,503,504,504,505,505,506,506,509,509,510,510,511,511,512,512,513,513,514,514,516,516,517,517,519,519,520,520,521,521,522,522,523,523,526,526,527,527,528,528,529,529,530,530,534,534,535,535,536,536,537,537,541,541,542,542,543,543,544,544,545,545,546,546,547,547,548,548,549,549,550,550,551,551,553,553,554,554,555,555,557,557,558,558,560,560,561,561,562,562,564,564,565,565,566,566,567,567,568,568,574,574,575,575,577,577,578,578,580,580,581,581,583,583,584,584,585,585,586,586,588,588,590,590,591,591,593,593,594,594,596,596,598,598,601,601,602,602,604,604,605,605,606,606,607,607,608,608,612,612,613,613,615,615,617,617,619,619,620,620,621,621,622,622,624,624,625,625,626,626,627,627,628,628,629,629,630,630,633,633,634,634,635,635,636,636,638,638,642,642,643,643,644,644,645,645,646,646,649,649,650,650],"right_children":[2,4,6,8,10,12,14,16,18,20,22,24,26,28,30,32,34,36,38,40,42,44,46,48,50,52,54,56,58,60,62,64,66,68,70,72,74,76,78,80,82,84,86,88,90,92,94,96,98,100,102,104,106,108,110,112,114,116,118,-1,-1,-1,-1,120,122,124,126,128,130,132,134,136,138,140,142,144,146,148,150,152,154,156,158,160,162,164,166,168,170,172,174,176,178,-1,180,182,184,186,188,190,192,194,196,198,200,202,204,-1,206,208,210,-1,212,-1,214,216,-1,218,220,222,224,226,228,230,232,-1,234,236,238,240,242,244,246,248,250,252,254,256,258,260,262,264,266,268,270,272,274,-1,276,278,280,282,284,286,288,290,292,294,296,298,300,302,304,306,-1,308,310,312,314,316,318,320,-1,-1,-1,322,324,326,328,-1,-1,-1,330,-1,332,334,336,338,340,342,344,346,348,350,352,354,356,-1,358,-1,360,362,364,366,368,370,-1,372,374,-1,376,378,-1,380,382,-1,-1,384,-1,-1,-1,386,388,390,392,394,396,398,400,402,404,406,408,-1,-1,410,412,414,416,418,420,422,424,426,428,430,432,434,436,438,440,442,444,446,448,450,452,454,-1,456,458,460,462,464,466,468,470,472,474,476,478,480,482,484,486,-1,488,490,492,494,496,498,500,502,504,506,508,510,512,514,516,518,520,522,524,-1,-1,-1,526,528,530,532,534,536,538,540,-1,542,-1,544,546,-1,548,550,552,554,-1,556,558,-1,560,562,564,566,568,570,-1,-1,572,574,576,578,580,582,584,586,588,590,592,594,596,598,600,-1,-1,-1,602,604,606,608,610,612,614,616,-1,-1,618,620,622,624,-1,-1,626,628,630,632,634,-1,-1,-1,-1,636,638,640,-1,642,644,-1,646,648,-1,650,652,654,-1,656,658,660,662,664,666,668,670,672,674,676,678,680,682,684,686,688,690,692,694,696,698,700,702,704,706,708,710,712,714,-1,716,718,720,722,724,-1,-1,726,728,-1,730,732,734,736,738,740,742,744,-1,-1,746,748,750,752,754,756,758,760,762,764,766,768,770,772,-1,774,776,778,780,782,784,786,788,790,792,794,796,798,800,802,804,806,808,810,812,814,816,818,820,822,824,826,828,830,832,834,836,838,840,842,844,846,-1,848,850,-1,852,854,856,858,860,862,864,866,868,870,872,874,876,878,880,-1,-1,882,884,886,888,890,892,-1,894,896,-1,898,900,902,904,906,-1,-1,908,910,912,914,916,-1,-1,-1,918,920,922,924,-1,-1,-1,926,928,930,932,934,936,938,940,942,944,946,-1,948,950,952,-1,954,956,-1,958,960,962,-1,964,966,968,970,972,-1,-1,-1,-1,-1,974,976,-1,978,980,-1,982,984,-1,986,988,990,992,-1,994,-1,996,998,-1,1000,1002,-1,1004,-1,1006,-1,-1,1008,1010,-1,1012,1014,1016,1018,1020,-1,-1,-1,1022,1024,-1,1026,-1,1028,-1,1030,1032,1034,1036,-1,1038,1040,1042,1044,1046,1048,1050,-1,-1,1052,1054,1056,1058,-1,1060,-1,-1,-1,1062,1064,1066,1068,1070,-1,-1,1072,1074,-1,-1,-1,-1,-1,-1,-1,-1,-1,-1,-1,-1,-1,-1,-1,-1,-1,-1,-1,-1,-1,-1,-1,-1,-1,-1,-1,-1,-1,-1,-1,-1,-1,-1,-1,-1,-1,-1,-1,-1,-1,-1,-1,-1,-1,-1,-1,-1,-1,-1,-1,-1,-1,-1,-1,-1,-1,-1,-1,-1,-1,-1,-1,-1,-1,-1,-1,-1,-1,-1,-1,-1,-1,-1,-1,-1,-1,-1,-1,-1,-1,-1,-1,-1,-1,-1,-1,-1,-1,-1,-1,-1,-1,-1,-1,-1,-1,-1,-1,-1,-1,-1,-1,-1,-1,-1,-1,-1,-1,-1,-1,-1,-1,-1,-1,-1,-1,-1,-1,-1,-1,-1,-1,-1,-1,-1,-1,-1,-1,-1,-1,-1,-1,-1,-1,-1,-1,-1,-1,-1,-1,-1,-1,-1,-1,-1,-1,-1,-1,-1,-1,-1,-1,-1,-1,-1,-1,-1,-1,-1,-1,-1,-1,-1,-1,-1,-1,-1,-1,-1,-1,-1,-1,-1,-1,-1,-1,-1,-1,-1,-1,-1,-1,-1,-1,-1,-1,-1,-1,-1,-1,-1,-1,-1,-1,-1,-1,-1,-1,-1,-1,-1,-1,-1,-1,-1,-1,-1,-1,-1,-1,-1,-1,-1,-1,-1,-1,-1,-1,-1,-1,-1,-1,-1,-1,-1,-1,-1,-1,-1,-1,-1,-1,-1,-1,-1,-1,-1,-1,-1,-1,-1,-1,-1,-1,-1,-1,-1,-1,-1,-1,-1,-1,-1,-1,-1,-1,-1,-1,-1,-1,-1,-1,-1,-1,-1,-1,-1,-1,-1,-1,-1,-1,-1,-1,-1,-1,-1,-1,-1,-1,-1,-1,-1,-1,-1,-1,-1,-1,-1,-1,-1,-1,-1,-1,-1,-1,-1,-1,-1,-1,-1,-1,-1,-1,-1,-1,-1,-1,-1,-1,-1,-1,-1,-1,-1,-1,-1,-1,-1,-1,-1,-1,-1,-1,-1,-1,-1,-1,-1,-1,-1,-1,-1,-1,-1,-1,-1,-1,-1,-1,-1,-1,-1,-1,-1,-1,-1,-1,-1,-1,-1,-1,-1,-1,-1,-1,-1,-1,-1,-1,-1,-1,-1,-1,-1,-1,-1,-1,-1,-1,-1,-1,-1,-1,-1,-1,-1,-1,-1,-1,-1,-1,-1,-1,-1,-1,-1,-1,-1,-1,-1,-1,-1,-1,-1,-1,-1,-1,-1,-1,-1,-1,-1,-1,-1,-1,-1,-1,-1,-1,-1,-1,-1,-1,-1,-1,-1,-1,-1,-1,-1,-1,-1],"split_conditions":[1E1,4E0,2.6E1,3E0,6E0,1.5E1,7.9E1,2E0,1.242E3,5E0,8E0,1.2E1,2E1,3.9E1,1.338E2,2.5E1,1.24E3,4E0,2E0,2E0,1.284E3,2E0,1.974E3,1.284E3,3.5309E4,1.2E1,1.2E1,1.9E1,3.5E1,2E0,2.2E2,1.24E3,4.8417E4,2.6E1,1.9E1,2.6E1,2.7E1,3.294E4,2.031E3,3.1E1,4.1E1,1.8E1,1.309E3,1.284E3,3.1E1,2E0,3.0813E4,2.1E1,5.328E3,1.1E1,4.3285E4,1.309E3,2E0,4.8077E4,2.3E1,1.182E3,2.233E3,1.298E3,6.6E1,3.1666645E-1,3.4827211E-1,4.2798492E-1,3.5365763E-1,1.6E1,1.309E3,4.3E1,1.285E3,1.144E3,1.125E3,2.54E2,1.309E3,1.15E3,6.604E3,1.144E3,5.59E2,3.0813E4,4.1938E4,3.169E4,7.724E3,1.242E3,4.63E2,2.025E3,7.724E3,1.212E3,1.129E3,1E1,2.025E3,3E1,1.309E3,6.618E3,4.5111E4,1.284E3,5.921E3,-3.1111112E-2,5.4E1,1.25E3,1.182E3,2.425E3,1.295E3,1.129E3,1.284E3,3.9E1,2.6E1,1.242E3,5.328E3,1.284E3,1.974E3,1.9432782E-1,1.283E3,4.8077E4,3.43E2,2.4936531E-1,1.309E3,2.3084353E-1,3.0532E4,4.8E1,2.8651568E-1,2.425E3,4.4E1,1.125E3,1.125E3,1.284E3,4.91E3,1.232E3,1.109E3,1.4097475E-1,1.295E3,1.125E3,2.2E1,1.238E3,1.129E3,2.025E3,1.1E1,1.284E3,2E0,1.125E3,1.9E1,1.109E3,1.232E3,1.125E3,1.24E3,1.182E3,1.125E3,7.724E3,3.1423E4,1.61E3,4.3068E4,2.9605094E-1,4.1E1,6.618E3,3.6E1,1.182E3,3.0549E4,5.004E3,4.8E1,2.94E2,4.045E4,6.616E3,3.2861E4,1.125E3,1.242E3,1.125E3,3.918E3,1.287E3,1.5000421E-1,4.5E1,4.3285E4,1.182E3,1.129E3,1.8E1,2.025E3,2.11E2,1.6028161E-1,1.4442065E-1,2.2059733E-2,3.9E1,3.919E3,3.901E3,5.5E1,7.182298E-2,-3.21491E-2,1.2988694E-1,1.268E3,1.6438949E-1,1.61E3,1.309E3,8E0,3.6E1,4.3285E4,1.351E3,4.502E3,1.182E3,2.142E3,1.696E3,3.5484E4,1.351E3,4.4088E4,1.9385165E-1,1.274E3,1.8552311E-1,2.036E3,1.182E3,4.767E3,3.7361E4,5.4E1,1.267E3,1.4733051E-1,1.974E3,6.28E2,2.4729271E-1,3.0532E4,4E0,2.2313862E-1,3E1,5.1E1,2.5634837E-1,2.7715763E-1,4.4E1,2.9440984E-1,1.977065E-1,3.205188E-1,6.78E2,1.144E3,1.9E1,1.129E3,1.4E1,3E0,3.144E3,3.0552E4,1.083E3,1.309E3,1.25E3,4.24E2,2.2799105E-3,5.3758062E-2,1.16E3,7E0,2E0,3.4E2,1.064E3,1.246E3,1.283E3,3.4E1,1.284E3,3.918E3,2.425E3,1.309E3,3.8E1,1.152E3,4.767E3,7.724E3,1.465E3,1.129E3,1.182E3,1.24E3,4.8E1,1.16E3,1.064E3,1.4230365E-1,1.1E1,1.5E1,2E0,1.6E1,1.064E3,1.23E3,5.8E1,1.129E3,3.144E3,3.0549E4,1.291E3,3.4E1,3.7574E4,2.087E3,2E1,4.3316E4,1.7408255E-1,3.3871E4,4E0,5.707E3,3.901E3,6.618E3,2.1E1,1.24E3,2.425E3,3.5305E4,4.6772E4,4.3039E4,1.24E3,1.109E3,1.22E3,1.169E3,6.652E3,3.911E3,6.607E3,6.652E3,1.6903149E-1,1.2115742E-1,5.639081E-2,1.053E3,1.675E3,1.154E3,1.703E3,2.8E1,3E1,1.238E3,3E0,9.1941245E-2,1.153E3,1.02167204E-1,4.1843E4,4.3316E4,1.151757E-1,1.242E3,1.125E3,4.3E1,3.64E2,1.751288E-1,1.693E3,3.0549E4,1.436011E-1,4.3316E4,1.182E3,1.182E3,2.425E3,2.3E1,1.169E3,1.4423561E-1,1.5566842E-1,1.61E3,1.26E3,1.7E1,1.24E3,1.238E3,1.5E1,2.025E3,4.502E3,1.053E3,1.059E3,1.151E3,2E0,1.5E1,1.414E3,1.38E3,1.6124777E-1,6.101132E-2,1.7865111E-1,1.22E3,3.94E2,6.612E3,1.262E3,1.278E3,2.157E3,4.8E1,1.441E3,1.722687E-1,2.088838E-1,4.5111E4,1.272E3,5E0,1.1E1,1.679978E-1,1.9059621E-1,2E1,2.233E3,1.631E3,3.2934E4,4.8E1,8.36316E-2,-3.6263168E-2,-7.1711245E-4,1.9556144E-2,2.233E3,4.1E1,1.159E3,1.5606105E-1,2.233E3,3.6E1,-3.737934E-2,3.4E1,1.055E3,2.7074233E-1,1.974E3,6.614E3,1.212E3,2.702127E-1,1.3E1,1.2E1,1.071E3,1.25E3,1.29E3,1.465E3,1.396E3,3.43E2,1.25E3,1.351E3,1.351E3,3.73E2,2.425E3,1.072E3,3.0531E4,4.8417E4,9.72E2,6.605E3,1.284E3,2.051E3,1.181E3,6.1E1,3.82E2,4.4088E4,1.5E1,1.164E3,3.908E3,1.351E3,1.212E3,1.238E3,8.775863E-2,1.057E3,1.052E3,5.5E1,4.1E1,1.278E3,1.0065398E-1,5.6317072E-2,1.16E3,1.232E3,6.338601E-2,3.911E3,4.3084E4,5.707E3,2.025E3,3.144E3,1.284E3,4.91E3,1.351E3,1.14604585E-1,2.2916347E-2,2E1,3.144E3,5.001E3,2.4E1,3.2303E4,1.269E3,1.529E3,1.7E1,2.35E2,1.169E3,1.1E1,4.2E2,2.54E2,1.032E3,6.517278E-2,1.125E3,1.238E3,5.7E1,5.9E1,1.9E1,1.98E2,1.056E3,1.129E3,1.5E1,3.901E3,3.911E3,1.61E3,1.083E3,1.16E3,4.1E1,3.23E2,1.064E3,1.162E3,1.419E3,1.238E3,2.425E3,3.919E3,3.0531E4,1.7E1,4E0,2.131E3,3.2861E4,4.38E2,1.5E1,9E0,3.661E4,2.856E3,4.2434E4,4.3064E4,4.3285E4,1.61E3,3.2861E4,2.4351645E-1,3.908E3,3.333E3,9.044592E-2,1.1E1,5.6E1,1.4E1,3.901E3,4.1E1,1.589E3,9.72E2,1.696E3,1.1E1,2.1E1,3.144E3,2.056E3,4.1938E4,3.73E2,3.4E1,4.2810068E-2,4.642242E-3,1.129E3,1.309E3,5.2E1,1.16E3,6.616E3,1.25E3,8.852743E-2,6.611E3,3.3871E4,4.9067058E-2,3.2E1,4E1,6.605E3,1.109E3,4.3E1,6.327388E-2,2.377815E-2,1.16E3,6.31E2,1.275E3,1.25E3,6E0,9.931197E-2,2.4041811E-2,1.2197538E-1,1.693E3,2.81E2,1.242E3,2.9E1,1.6487235E-1,3.727921E-2,1.3015638E-1,1.152E3,3.921E3,1.071E3,4.3068E4,2.1E1,2.044E3,1.298E3,1.8E1,3.2E1,3.6E1,1.242E3,1.2514547E-1,3E0,8E0,3.73E2,2.6562577E-2,1.072E3,3.294E4,1.2349317E-1,5E0,2.7E1,2E1,1.531763E-1,1.052E3,1.309E3,1.296E3,4.3285E4,1.056E3,2.1378517E-3,7.145257E-2,2.5668652E-3,1.9954649E-1,6.0254794E-2,1.261E3,1.529E3,1.3571808E-1,2.2E1,1.25E3,1.4016795E-1,2.35E2,4.502E3,1.77465E-1,1.1E1,2E0,3.144E3,2E0,3.606991E-2,1.7E1,6.4824216E-2,1.291E3,1.074E3,1.6378228E-1,3E0,1.974E3,1.4990221E-1,4.5111E4,6.156075E-2,1.257E3,5.558736E-2,1.5040357E-1,3.2E1,6.17E2,2.1162228E-1,3.919E3,7.6E1,2.025E3,8E0,2.045E3,-3.3354517E-2,8.7326534E-2,1.3949683E-1,6.75E2,4.6E1,1.6810182E-1,6E0,4.5743175E-2,2.056E3,1.6219476E-1,1.284E3,1.273E3,6.33E2,3.921E3,1.23325065E-1,3.5727E4,1.258E3,1.29E3,1.309E3,3.64E2,4.3285E4,4.1938E4,1.9692187E-1,2.2723308E-1,1.9E1,2.94E2,1.182E3,5.707E3,-3.7664004E-2,4.4E1,7.5728126E-2,5.2425265E-4,2.1322027E-1,6.614E3,4.3069E4,7.5E1,1.22E3,1.251E3,3.0097444E-2,2.4617076E-1,1.631E3,5.4E1,2.533655E-1,5.8476686E-2,2.0083013E-1,-5.517233E-2,2.7667198E-2,4.0468633E-2,1.2118864E-2,2.401923E-2,9.847968E-2,5.365601E-2,3.8260635E-2,2.8769696E-2,2.4245335E-2,-8.485561E-3,3.4904838E-2,2.7520284E-2,1.005662E-1,5.5253487E-2,6.8147235E-2,3.7304465E-2,4.7484033E-2,3.6708474E-2,6.773814E-2,5.3529304E-2,8.400068E-4,9.450757E-2,2.5627961E-2,1.2159219E-1,3.612331E-2,1.404331E-1,3.3788916E-2,2.1928083E-2,5.5210914E-2,7.6351926E-2,4.39341E-2,9.816026E-2,2.5616447E-2,5.2206803E-2,3.870688E-2,5.811221E-2,6.623506E-2,1.8982792E-1,4.2459983E-2,5.250449E-2,3.3558413E-2,-2.3310266E-2,7.3439516E-2,7.987872E-3,6.474471E-2,9.511942E-2,6.111004E-2,4.5171216E-2,2.8385028E-2,5.0097644E-2,-1.583801E-2,3.3907276E-2,5.943361E-2,5.584365E-3,8.919416E-2,7.117509E-2,4.4981293E-2,3.8856026E-2,6.318682E-2,2.131886E-2,4.1690495E-2,5.3721365E-2,-7.456899E-4,4.25609E-2,5.6411713E-2,1.0646975E-1,3.1951324E-3,3.194862E-2,4.578411E-2,3.5030607E-2,6.473416E-2,5.4179896E-2,6.494987E-2,8.23036E-2,5.3218763E-2,1.3215177E-1,8.820391E-2,5.789533E-2,3.18275E-2,6.33114E-2,5.7011664E-2,3.6620606E-2,1.0827576E-1,5.7579663E-2,6.449321E-2,1.21788315E-1,4.8352998E-2,6.2199134E-2,8.5944444E-2,7.6027624E-2,3.730045E-2,1.5329003E-1,6.64795E-2,4.3110974E-2,6.88146E-2,4.7917295E-2,3.677884E-2,7.72867E-2,1.4412232E-1,9.826303E-2,5.5092063E-2,7.5935036E-2,-3.1093655E-3,4.0176857E-2,8.250912E-2,1.0699149E-1,1.2462395E-1,7.18839E-2,5.790776E-2,8.3499745E-2,5.2422624E-2,1.2350763E-2,7.5413845E-2,6.01671E-2,1.0168781E-2,8.060232E-2,5.4490246E-2,2.9928898E-2,7.4370734E-2,8.9862995E-2,7.027855E-2,8.748183E-2,6.214419E-2,6.6780183E-3,9.953687E-2,5.7583418E-2,1.668664E-2,2.8491942E-2,2.6766723E-1,9.5645845E-2,1.321381E-1,7.155542E-2,9.863094E-2,5.687007E-2,2.4765722E-2,3.532579E-2,2.1300001E-1,6.0689457E-2,4.0588986E-2,7.704028E-2,6.330309E-2,1.0412961E-1,8.8855035E-5,5.8061875E-2,7.846405E-2,4.7648907E-2,1.0588924E-1,1.5770322E-1,2.9492555E-2,8.3537675E-2,1.7557632E-2,3.1532288E-2,2.2534134E-2,7.350033E-2,1.2890987E-1,7.726269E-2,5.0382007E-2,7.365584E-2,7.4567385E-2,1.6664578E-1,3.4581877E-2,6.8170965E-2,8.769947E-2,1.22196056E-1,6.1300427E-2,8.031737E-2,7.0817195E-2,2.4404962E-2,-4.238624E-2,3.494101E-2,5.1013608E-2,7.161709E-2,9.830209E-2,6.9033615E-2,5.533075E-2,8.591421E-2,8.23626E-2,1.187593E-1,1.09967686E-1,1.8543021E-1,1.0517241E-1,7.24185E-2,3.7130646E-2,5.1032167E-2,7.592777E-2,5.6186277E-2,8.2235865E-2,1.498534E-1,9.15879E-2,3.9920416E-2,1.8045431E-1,3.7685715E-2,5.4751705E-2,9.003021E-2,9.974746E-2,1.2475268E-1,1.11208834E-1,5.8535066E-2,6.117652E-2,-4.426649E-2,9.9835865E-2,1.3524376E-1,-4.413603E-2,1.8800245E-1,9.093865E-2,1.1986601E-1,8.1916295E-2,9.9297516E-2,3.586946E-2,9.518712E-2,6.1058104E-2,9.127701E-2,5.118627E-2,7.75855E-2,8.792248E-2,1.02310516E-1,1.5123762E-1,1.0350507E-1,4.6439763E-2,7.975358E-2,9.85628E-2,8.793729E-2,9.838272E-2,1.15426436E-1,6.621537E-2,-3.108013E-2,1.1002206E-1,8.447682E-2,1.1400248E-1,9.521004E-2,2.9979637E-2,7.3695175E-2,1.256779E-1,1.0283829E-1,9.554079E-2,2.4109637E-2,4.0883083E-2,8.052811E-2,1.0245611E-1,1.394779E-1,1.11769974E-1,1.3357964E-1,8.168622E-2,-1.691525E-2,1.0768332E-1,4.2126607E-2,1.029916E-1,4.655381E-2,4.3896295E-2,1.3515402E-1,6.3412725E-3,2.661453E-2,9.951903E-2,1.1724161E-1,8.39377E-2,5.9484858E-2,1.4434983E-2,5.9972145E-2,-2.9900407E-2,5.0856065E-2,4.6088856E-2,7.883208E-2,1.5016702E-1,2.3246745E-2,1.6539022E-2,9.415054E-2,1.0289549E-1,1.1792828E-1,7.475703E-2,1.25208E-1,3.933322E-2,7.048068E-3,7.36437E-2,1.8215617E-2,9.603619E-2,1.1813291E-1,9.3898505E-2,1.12681605E-1,1.3887976E-1,1.7106281E-1,1.1751461E-1,9.1226175E-2,9.0126745E-2,5.041531E-3,9.2353456E-2,1.14507094E-1,5.724516E-2,1.2514876E-1,1.3127708E-1,1.6599357E-1,1.09548226E-1,1.2225353E-1,2.6218505E-3,8.193983E-2,1.240793E-1,1.4334233E-1,3.375305E-2,8.466114E-2,1.1759982E-1,1.3329455E-1,9.6100256E-2,1.19425796E-1,3.6664696E-3,8.1612766E-2,1.2827663E-1,1.4419249E-1,9.8293245E-2,1.1879144E-1,2.2840122E-2,1.3980806E-1,1.5773685E-1,1.3179252E-1,1.6801949E-1,1.2197912E-1,1.22642376E-1,1.3762812E-1,1.00738265E-1,1.3827048E-1,3.8086176E-3,2.4081875E-2,8.294716E-2,3.3178236E-2,2.4081875E-2,1.2562285E-1,1.4810902E-1,1.2750481E-1,9.960513E-2,1.7340839E-1,1.5248224E-1,3.586443E-2,7.347279E-2,1.706662E-1,6.378995E-2,1.5714101E-1,1.6649494E-1,3.5911717E-2,7.2193745E-4,6.336009E-2,1.8825243E-1,2.0950949E-1,1.3961522E-1,8.570927E-2,1.4299844E-1,3.9720766E-2,6.382782E-2,1.544684E-1,1.7215508E-1,-3.4477618E-2,1.8832554E-1,1.093297E-1,-3.320279E-2,3.5132803E-2,6.7538194E-2,1.3632052E-1,1.724812E-1,1.5084545E-1,1.8330996E-1,1.6874518E-1,1.6688643E-1,8.779341E-2,5.436307E-2,1.9415767E-1,2.2420356E-2,1.5555839E-1,1.12937525E-1,1.4285003E-1,8.175859E-2,2.1685809E-2,1.3434339E-1,-1.0107908E-2,8.2757376E-2,1.5307583E-1,4.8816793E-2,-3.3244807E-2,6.128042E-2,1.3080949E-1,2.0074643E-2,8.800189E-2,1.404202E-3,9.266311E-2,1.7259508E-1,-4.196167E-4,-3.430591E-2,6.7797355E-2,1.5523456E-1,8.2602635E-2,1.5724626E-1,2.0653123E-2,1.9249889E-1,1.1360698E-1,1.209466E-1,2.1157646E-1,1.7624772E-1,1.9231993E-1,1.10834025E-1,-2.375E-2,1.3916378E-1,-3.3740863E-2,2.1498513E-1,1.5831684E-1,2.20807E-1,1.9575535E-1,2.2645819E-1,2.0773606E-1,5.5716455E-2,1.6781567E-1,2.379941E-1,5.766804E-2,1.7341225E-1,2.0752373E-1,2.2248422E-1,8.124506E-2,-2.7219802E-3,2.0057698E-1,5.9821345E-2,1.5734296E-1,2.2879E-1,3.2953005E-2,4.9960513E-2,-3.9627463E-2],"split_indices":[6,6,6,6,6,6,6,6,0,6,6,6,6,6,6,9,0,6,5,5,0,5,3,0,0,9,9,9,9,5,8,0,0,9,9,9,9,0,2,9,9,9,0,0,9,5,0,9,0,9,0,0,5,0,6,0,0,2,6,0,0,0,0,9,0,9,2,0,0,8,0,0,2,0,8,0,0,0,0,0,8,0,0,0,0,9,0,9,0,2,0,0,0,0,8,0,0,0,2,0,0,9,9,0,0,0,3,0,2,0,8,0,0,0,0,6,0,0,8,0,0,0,0,0,0,0,2,0,9,8,0,0,9,0,5,0,9,0,0,0,0,0,0,0,0,2,0,0,8,2,9,0,0,2,9,8,0,2,0,0,0,0,2,2,0,9,0,0,0,9,0,8,0,0,0,9,0,2,9,0,0,0,2,0,2,0,9,9,0,3,2,0,2,8,0,3,0,0,2,0,2,0,0,0,8,2,0,3,8,0,0,9,0,9,9,0,0,8,0,0,0,8,0,9,0,9,9,0,0,2,0,2,8,0,0,2,9,5,8,0,8,2,9,0,2,0,0,9,2,0,0,8,0,0,0,9,0,0,0,5,9,5,9,0,0,9,0,0,0,2,9,0,2,9,0,0,0,6,0,2,2,9,0,0,0,0,0,0,0,0,0,2,2,2,2,0,0,0,2,8,2,8,9,9,0,9,0,2,0,0,0,0,0,0,9,8,0,8,0,0,0,0,0,0,9,0,0,0,2,2,9,0,0,9,0,2,2,2,2,5,9,8,8,0,0,0,0,8,2,2,2,2,8,8,0,0,0,2,9,9,0,0,9,0,8,0,8,0,0,0,0,0,8,2,0,0,9,0,6,2,0,3,2,0,0,9,9,2,2,2,8,8,8,0,3,3,8,0,2,0,0,0,2,0,2,2,9,8,0,9,2,2,3,0,0,0,2,2,9,9,2,0,0,0,0,0,2,0,0,0,0,0,0,3,0,0,9,0,2,9,0,2,8,9,8,0,5,8,8,8,0,0,0,9,9,9,8,2,0,9,2,2,2,2,0,9,8,0,2,8,0,0,0,0,9,6,2,0,8,9,9,0,2,0,0,0,2,0,0,2,0,0,9,8,9,2,9,8,0,8,9,9,0,2,0,8,9,0,0,0,0,9,0,2,0,0,2,0,0,9,9,2,0,9,0,0,0,8,2,0,9,0,0,0,8,8,0,9,0,0,0,2,2,2,0,9,2,2,9,9,9,0,0,9,9,8,0,2,0,0,9,9,9,0,2,0,2,0,2,0,0,0,0,0,2,8,0,9,0,0,8,2,0,5,9,0,9,0,9,0,2,2,0,9,3,0,0,0,2,0,0,9,8,0,0,9,0,9,2,0,0,0,8,8,0,9,0,2,0,0,2,8,2,0,0,2,2,0,8,0,0,0,0,6,8,0,0,0,8,0,0,0,2,0,9,0,2,0,0,8,8,0,0,0,0,0,0,0,0,0,0,0,0,0,0,0,0,0,0,0,0,0,0,0,0,0,0,0,0,0,0,0,0,0,0,0,0,0,0,0,0,0,0,0,0,0,0,0,0,0,0,0,0,0,0,0,0,0,0,0,0,0,0,0,0,0,0,0,0,0,0,0,0,0,0,0,0,0,0,0,0,0,0,0,0,0,0,0,0,0,0,0,0,0,0,0,0,0,0,0,0,0,0,0,0,0,0,0,0,0,0,0,0,0,0,0,0,0,0,0,0,0,0,0,0,0,0,0,0,0,0,0,0,0,0,0,0,0,0,0,0,0,0,0,0,0,0,0,0,0,0,0,0,0,0,0,0,0,0,0,0,0,0,0,0,0,0,0,0,0,0,0,0,0,0,0,0,0,0,0,0,0,0,0,0,0,0,0,0,0,0,0,0,0,0,0,0,0,0,0,0,0,0,0,0,0,0,0,0,0,0,0,0,0,0,0,0,0,0,0,0,0,0,0,0,0,0,0,0,0,0,0,0,0,0,0,0,0,0,0,0,0,0,0,0,0,0,0,0,0,0,0,0,0,0,0,0,0,0,0,0,0,0,0,0,0,0,0,0,0,0,0,0,0,0,0,0,0,0,0,0,0,0,0,0,0,0,0,0,0,0,0,0,0,0,0,0,0,0,0,0,0,0,0,0,0,0,0,0,0,0,0,0,0,0,0,0,0,0,0,0,0,0,0,0,0,0,0,0,0,0,0,0,0,0,0,0,0,0,0,0,0,0,0,0,0,0,0,0,0,0,0,0,0,0,0,0,0,0,0,0,0,0,0,0,0,0,0,0,0,0,0,0,0,0,0,0,0,0,0,0,0,0,0,0,0,0,0,0,0,0,0,0,0,0,0,0,0,0,0,0,0,0,0,0,0,0,0,0,0,0,0,0,0,0,0,0,0,0,0,0,0,0,0,0],"split_type":[0,0,0,0,0,0,0,0,0,0,0,0,0,0,0,0,0,0,0,0,0,0,0,0,0,0,0,0,0,0,0,0,0,0,0,0,0,0,0,0,0,0,0,0,0,0,0,0,0,0,0,0,0,0,0,0,0,0,0,0,0,0,0,0,0,0,0,0,0,0,0,0,0,0,0,0,0,0,0,0,0,0,0,0,0,0,0,0,0,0,0,0,0,0,0,0,0,0,0,0,0,0,0,0,0,0,0,0,0,0,0,0,0,0,0,0,0,0,0,0,0,0,0,0,0,0,0,0,0,0,0,0,0,0,0,0,0,0,0,0,0,0,0,0,0,0,0,0,0,0,0,0,0,0,0,0,0,0,0,0,0,0,0,0,0,0,0,0,0,0,0,0,0,0,0,0,0,0,0,0,0,0,0,0,0,0,0,0,0,0,0,0,0,0,0,0,0,0,0,0,0,0,0,0,0,0,0,0,0,0,0,0,0,0,0,0,0,0,0,0,0,0,0,0,0,0,0,0,0,0,0,0,0,0,0,0,0,0,0,0,0,0,0,0,0,0,0,0,0,0,0,0,0,0,0,0,0,0,0,0,0,0,0,0,0,0,0,0,0,0,0,0,0,0,0,0,0,0,0,0,0,0,0,0,0,0,0,0,0,0,0,0,0,0,0,0,0,0,0,0,0,0,0,0,0,0,0,0,0,0,0,0,0,0,0,0,0,0,0,0,0,0,0,0,0,0,0,0,0,0,0,0,0,0,0,0,0,0,0,0,0,0,0,0,0,0,0,0,0,0,0,0,0,0,0,0,0,0,0,0,0,0,0,0,0,0,0,0,0,0,0,0,0,0,0,0,0,0,0,0,0,0,0,0,0,0,0,0,0,0,0,0,0,0,0,0,0,0,0,0,0,0,0,0,0,0,0,0,0,0,0,0,0,0,0,0,0,0,0,0,0,0,0,0,0,0,0,0,0,0,0,0,0,0,0,0,0,0,0,0,0,0,0,0,0,0,0,0,0,0,0,0,0,0,0,0,0,0,0,0,0,0,0,0,0,0,0,0,0,0,0,0,0,0,0,0,0,0,0,0,0,0,0,0,0,0,0,0,0,0,0,0,0,0,0,0,0,0,0,0,0,0,0,0,0,0,0,0,0,0,0,0,0,0,0,0,0,0,0,0,0,0,0,0,0,0,0,0,0,0,0,0,0,0,0,0,0,0,0,0,0,0,0,0,0,0,0,0,0,0,0,0,0,0,0,0,0,0,0,0,0,0,0,0,0,0,0,0,0,0,0,0,0,0,0,0,0,0,0,0,0,0,0,0,