{"learner":{"attributes":{"best_iteration":"9","best_ntree_limit":"10"},"feature_names":[],"feature_types":[],"gradient_booster":{"model":{"gbtree_model_param":{"num_parallel_tree":"1","num_trees":"10","size_leaf_vector":"0"},"tree_info":[0,0,0,0,0,0,0,0,0,0],"trees":[{"base_weights":[9.6022624E-1,7.789271E-1,2.0170977E0,7.0114243E-1,1.1294073E0,1.7734201E0,3.1064556E0,5.827321E-1,8.9252836E-1,9.8645467E-1,1.2191267E0,1.6146849E0,2.144899E0,2.8543227E0,4.0545974E0,5.51162E-1,9.786011E-1,1.0973577E0,7.852638E-1,1.0845441E0,9.264038E-1,1.1126635E0,1.2703635E0,1.4598093E0,1.7180182E0,2.0139182E0,2.2683802E0,2.577789E0,3.111243E0,3.6783457E-1,4.7536254E-1,4.8594016E-1,7.727564E-1,8.1622994E-1,1.4723972E0,1.0412021E0,1.7770563E0,6.8205804E-1,1.1065942E0,1.0151373E0,1.1886375E0,8.864046E-1,1.0870354E0,1.2615993E0,1.0585637E0,1.2074548E0,1.5343009E0,1.4117231E0,1.6179049E0,1.6018553E0,1.7732764E0,2.207989E0,1.9452528E0,2.1466715E0,2.403836E0,2.4567007E-1,2.782418E-1,3.1778948E0,2.7580009E0,4.2152473E-1,6.20671E-1,7.176834E-1,1.1008855E0,7.236858E-1,1.0412802E0,1.3277617E0,1.7912315E0,7.8943163E-1,1.2277455E0,9.561395E-1,3.1733507E-1,8.907851E-1,5.289047E-1,4.107318E-1,1.2564757E0,9.885586E-1,1.283546E0,1.1677488E0,1.9215074E-1,8.2150054E-1,9.867348E-1,9.389891E-1,1.4419408E0,1.141066E0,1.316654E0,9.6616465E-1,1.1331028E0,1.1708274E0,1.3589046E0,1.4747596E0,1.851078E-1,1.2845905E0,1.4607247E0,1.582709E0,1.9826046E0,1.7945988E0,1.5737615E0,1.7406081E0,1.8989327E0,2.2449791E-1,1.3950205E0,1.690498E0,1.9974813E0,2.0527914E0,2.3829467E0,2.239817E-1,2.4999665E-1,1.1165366E0,3.1874925E-1,2.7715775E-1,6.458797E-2,3.6049673E-1,5.0448304E-1,5.141699E-1,6.905817E-1,8.392193E-1,6.0784036E-1,9.985857E-1,1.7940338E0,5.638124E-1,7.624045E-1,9.872283E-1,1.4354397E0,1.4082576E0,9.128493E-1,1.6799572E0,2.316763E-1,6.022316E-1,1.2943425E0,1.19139E0,1.7945114E0,1.2165618E-1,1.2017038E0,7.01445E-1,9.779131E-1,2.2796957E-1,5.193819E-1,6.639981E-1,1.9464435E-1,3.1670326E-1,1.0656677E0,8.61416E-1,1.028242E0,1.3898315E-1,1.0263511E0,1.1354431E0,1.330853E0,7.2133857E-1,9.193908E-1,1.2254446E0,9.03521E-1,7.77486E-1,1.1006911E0,1.3518744E0,1.682089E-1,1.14452116E-1,2.9930616E-2,1.1551617E0,1.3924028E0,9.4177705E-1,1.1980197E0,1.0178562E0,1.2055942E0,1.1203914E0,1.2937677E0,1.2493752E0,1.4128423E0,1.3172367E0,1.5300826E0,1.0592897E0,1.3194805E0,1.356665E0,1.510891E0,1.5867391E0,4.949689E-2,2.0075522E-1,5.5471897E-2,7.327042E-2,1.8165004E-1,1.3041475E0,1.597536E0,1.6279043E0,1.7745641E0,1.7740043E-1,1.9886135E-1,1.5277551E0,3.990749E-2,5.9086293E-2,1.7024122E-1,1.4265873E0,2.0206394E0,1.8642182E0,2.1450918E0,2.4031198E-1,5.4635245E-1,2.9930616E-2,1.2891781E-1,4.9745756E-1,3.3906353E-1,4.0792E-1,5.535723E-1,4.7887075E-1,6.2405163E-1,6.5058094E-1,8.4067816E-1,7.164456E-1,1.023261E0,5.3918815E-1,7.334713E-1,7.298658E-1,1.1126816E0,1.3097363E0,2.1554236E0,5.871113E-1,3.496752E-1,7.865184E-1,5.314551E-1,1.0298884E0,7.303823E-1,1.462446E-1,9.65736E-3,1.4781375E-1,1.24931864E-1,6.3962555E-1,1.0756159E0,1.7816457E-1,1.2822077E0,4.8193797E-1,7.548973E-1,1.001229E0,1.4421276E0,1.0057586E0,1.2567576E0,1.6754714E0,2.3155168E-1,-1.1348965E-1,7.2311264E-1,1.0179286E0,1.6037828E0,6.5031564E-1,9.145133E-1,6.694345E-1,1.016968E0,4.552507E-1,6.964673E-1,3.8181227E-1,1.0033786E0,1.1538495E-1,4.7361383E-1,8.307353E-1,1.4245807E0,9.015723E-1,6.292437E-1,1.0599262E0,9.238337E-1,2.6391983E-2,1.0836667E0,1.0420492E0,1.2083697E0,1.135812E0,1.4926225E-1,6.834183E-1,7.8585815E-1,8.777582E-1,1.160924E0,1.066806E0,1.4206233E0,-2.5E-2,9.06273E-1,1.287648E-1,7.850259E-1,1.1306679E0,3.2249933E-1,1.4248475E0,9.564991E-1,1.5710618E-1,1.1156815E-1,1.306001E-1,1.6658007E-1,8.939216E-1,1.0392065E0,4.5533323E-1,1.248328E0,6.5573804E-2,1.0310808E0,1.0966985E0,1.2526973E0,1.0726894E0,1.305339E0,1.3686414E0,1.1020769E0,1.3272723E0,1.0647728E0,1.4497827E0,1.2586625E0,3.287077E-2,1.3326992E0,1.3833562E-1,1.5816739E-1,1.06672004E-1,2.9930616E-2,1.3261518E-1,5.672564E-2,1.5662268E-1,1.3060392E0,1.4326961E0,1.6099906E0,1.6544958E0,1.492825E-1,1.0038505E0,1.4118913E0,1.4208722E0,1.6388403E0,1.5159743E0,1.8521829E-1,1.6559638E0,1.8712147E0,2.9930616E-2,1.6122227E0,2.21184E-1,1.2035519E0,1.9608881E0,2.159312E-1,7.774015E-1,1.8739821E0,5.693501E-2,2.154585E-1,7.229551E-2,9.65736E-3,3.347117E-1,9.9962515E-1,3.1455958E-1,4.3357077E-1,2.406235E-1,4.455134E-1,1.4513481E0,5.116279E-1,-4.0000003E-2,4.8109546E-1,-1.566117E-2,6.309832E-1,6.004032E-1,7.470378E-1,7.833447E-1,1.0555241E0,6.7512923E-1,1.1494049E0,9.8345804E-1,1.2899369E0,5.7861984E-1,4.689317E-1,2.2215602E0,7.201973E-1,1.1134311E0,6.792122E-1,9.875428E-1,1.2650902E0,1.9746916E0,1.1305639E0,1.2653985E0,2.3795882E-1,1.8238088E-1,6.001694E-1,4.9996194E-1,2.8850248E-1,1.0781432E0,7.697163E-1,3.2409588E-1,6.1604645E-2,9.862632E-1,1.1616192E0,4.262102E-1,7.885048E-1,4.7377822E-1,7.30756E-1,4.5533323E-1,1.145471E0,-2.5E-2,1.3482153E-1,5.779279E-1,3.415978E-1,2.064898E0,7.302711E-1,8.615548E-1,1.2278733E0,1.0795825E0,1.5965501E0,8.2341576E-1,1.057445E0,1.1661148E0,1.3990096E0,1.8317546E0,1.4621553E0,9.7908825E-3,-4.0821946E-1,9.4393164E-1,1.6095598E-1,1.2454338E0,7.7929074E-1,1.6966043E-1,1.0276301E0,5.8019596E-1,6.8919164E-1,8.703164E-1,1.5907578E-1,8.4333545E-1,3.0966502E-1,9.273711E-1,1.159744E0,3.9566293E-1,5.212942E-1,5.52578E-1,8.1427056E-1,7.4000144E-1,2.373749E-1,3.8668752E-1,1.267139E0,-7.1927956E-3,2.7891076E-1,3.8201508E-1,6.1742134E-2,7.314271E-1,1.0192763E0,1.3663242E0,1.9288514E0,9.569799E-1,8.0810785E-1,2.746494E-1,8.8424814E-1,1.1584694E0,1.026643E0,2.6391983E-2,9.316553E-1,2.9930616E-2,1.10676445E-1,1.0777091E0,6.707904E-1,1.04967594E-1,1.2619271E0,1.1747559E0,2.6391983E-2,7.761739E-1,6.376819E-1,7.483889E-1,9.4864655E-1,8.960687E-1,7.286787E-2,5.9415346E-1,1.2098114E0,1.08744286E-1,6.935512E-1,1.4556779E-1,8.7214E-2,8.894556E-1,1.2236916E-1,4.431472E-2,-2.5E-2,6.896604E-1,8.278172E-1,1.245447E0,1.01312995E-1,1.4486039E-2,4.1951347E-2,7.731445E-1,1.4584336E-1,2.9314718E-1,1.12508915E-1,8.797319E-1,1.2873653E-1,8.5744053E-1,1.1626698E0,9.65736E-3,5.2087974E-2,9.65736E-3,1.2698623E0,1.0570577E0,8.441195E-1,1.1156765E0,6.901734E-1,1.1039662E0,1.2980847E0,1.240246E0,1.0513712E0,1.2063571E0,1.4101717E0,1.2976941E0,1.758103E0,9.6810013E-1,1.2144848E0,1.0766809E0,1.3731848E-1,9.65736E-3,1.0783919E0,1.3423269E0,1.5497721E0,2.0314598E-1,1.282511E-1,-2.5E-2,2.9930616E-2,1.3457234E-1,4.7529936E-1,1.2002106E0,1.3899522E-1,1.3378725E0,1.5035628E-1,1.6289212E-1,1.2512115E0,1.0099455E-1,1.6729246E0,1.0407007E0,9.65736E-3,1.427838E-1,2.9930616E-2,2.9930616E-2,1.4262465E-1,1.5223804E0,1.7083877E0,1.7663999E0,1.441392E-1,1.5210007E-1,1.7863776E-1,1.9857808E0,1.8191469E-1,8.8914394E-2,1.8983899E-1,-3.3333335E-2,1.3584203E0,1.7094913E0,2.0113091E0,1.0695287E-1,9.65736E-3,1.2863837E-1,1.9038478E-1,1.387603E-3,3.7979938E-2,8.745755E-2,1.1659362E-1,2.2652233E-2,3.318855E-2,3.502784E-2,5.1167924E-2,1.833941E-2,4.945625E-2,3.992997E-2,6.52117E-2,1.3548358E-1,1.964452E-1,4.5772392E-2,6.632804E-2,4.6300203E-2,5.496911E-2,-3.75E-2,3.4759294E-2,7.12147E-2,5.7612557E-2,5.5092495E-2,7.0746645E-2,5.995019E-2,7.964804E-2,7.272529E-2,8.616475E-2,9.5874846E-2,1.1537897E-1,7.996415E-2,5.706188E-2,8.834801E-2,1.6059828E-1,1.02706544E-1,7.825025E-2,1.0735054E-1,1.5526018E-1,5.4543264E-2,7.133575E-2,5.764244E-2,4.3676656E-2,6.458797E-2,2.376527E-1,7.024556E-2,1.3198724E-1,1.1572542E-1,9.65736E-3,5.1199008E-2,7.077481E-2,1.7565584E-1,9.434274E-2,1.1798479E-1,1.9639103E-1,2.3482473E-1,5.693501E-2,9.65736E-3,1.15660325E-1,4.949689E-2,1.3604794E-1,3.4759294E-2,-2.842641E-3,9.65736E-3,6.025497E-2,9.65736E-3,5.7666566E-2,2.1084035E-2,3.8042292E-2,1.184436E-1,4.5339804E-2,7.413738E-2,8.674584E-2,5.0341617E-2,1.9176472E-2,1.0130657E-1,7.0506334E-2,1.2653239E-1,9.334638E-2,5.1360883E-2,1.4486039E-2,8.8288315E-2,4.882748E-2,3.287077E-3,5.6810535E-2,8.1094556E-2,3.4759294E-2,1.287648E-2,6.301239E-2,1.19034134E-1,3.5981383E-2,6.2746696E-2,4.475322E-2,4.815593E-2,2.7595317E-2,2.9930616E-2,2.1981966E-1,6.774145E-2,8.9418724E-2,7.634818E-2,1.0891267E-1,8.052682E-2,1.3860975E-1,5.951975E-2,1.1683259E-1,1.3006376E-1,1.7481485E-1,8.59414E-2,5.585443E-2,1.1266994E-1,9.492095E-2,1.4603877E-1,1.12739764E-1,1.4077407E-1,8.294691E-2,2.1745609E-1,1.618533E-1,1.6040932E-1,1.1332214E-1,-5.6080804E-3,6.652441E-2,-4.4999998E-2,-2.017132E-2,1.1819973E-1,3.7424024E-2,4.91434E-2,-3.3333335E-2,1.4000905E-1,1.0180261E-1,9.515454E-2,5.853892E-2,2.9930616E-2,1.0705318E-1,3.49692E-2,5.985083E-2,8.262921E-2,6.668719E-2,6.947988E-2,9.389945E-2,-3.75E-2,8.6718164E-2,2.215738E-2,5.6758236E-2,7.7387914E-2,9.928654E-2,1.1077813E-1,1.7866516E-1,3.314885E-2,4.9450807E-2,4.270384E-2,6.095965E-2,8.943751E-2,3.2158192E-2,9.830541E-2,6.909898E-2,-4.283011E-4,9.485724E-2,5.971083E-2,-1.3692215E-2,5.3612858E-2,2.3175864E-2,8.645488E-2,1.4574352E-1,6.165466E-3,-2.6730303E-2,1.704217E-2,3.708215E-2,2.952282E-2,4.5654073E-2,8.208758E-2,5.8663923E-2,1.1135149E-1,8.878974E-2,1.3749734E-1,6.623078E-2,1.9400762E-1,5.5471897E-2,9.776325E-2,5.0490487E-2,8.560899E-2,4.681941E-2,3.860436E-2,-1.00346925E-2,6.355362E-2,1.1487601E-1,2.9930616E-2,1.1642412E-1,4.1711155E-2,1.0428369E-1,4.9677316E-2,9.445602E-2,1.10384144E-1,7.184064E-2,7.324109E-2,-2.5E-2,1.8827032E-1,1.2204186E-1,1.1903274E-1,2.9930616E-2,4.6808157E-2,8.130189E-2,6.530436E-2,4.3912333E-2,3.342233E-2,7.651532E-2,9.989106E-2,5.6435067E-2,8.7424144E-2,1.04512E-1,6.961278E-2,3.181472E-2,1.2572157E-1,6.1034262E-2,8.640585E-2,-2.5E-2,9.328208E-2,6.900183E-2,4.6786442E-2,7.8756206E-2,8.982464E-2,6.798133E-2,6.175193E-2,1.2745886E-1,2.6391983E-2,9.617769E-2,4.91434E-2,-2.5E-2,1.4097168E-1,8.715137E-2,1.0230284E-1,6.869754E-2,7.5138554E-2,1.2041285E-1,9.064438E-2,1.3398044E-1,1.0778721E-1,8.2395054E-2,9.005561E-2,2.8023949E-2,1.2198311E-1,1.01608835E-1,8.3894506E-2,-2.5E-2,1.2702513E-1,8.9550175E-2,1.0948495E-1,1.3641518E-1,8.530173E-2,1.3026743E-1,8.596971E-2,1.0627496E-1,1.1409073E-1,1.4216352E-1,1.2765728E-1,1.5013133E-1,1.3759463E-1,1.18517116E-1,2.9930616E-2,1.7737718E-1,1.07328944E-1,6.808122E-2,1.3405815E-1,1.0933661E-1,1.3900807E-1,9.13157E-2,1.10551715E-1,6.319282E-2,1.349838E-1,9.65736E-3,1.10040285E-1,1.5985698E-1,-2.5E-2,5.5471897E-2,-2.5E-2,8.003991E-2,9.209306E-2,1.2417563E-1,1.5657936E-1,1.2769894E-1,5.9396267E-2,1.3784012E-1,1.4500427E-1,1.7381988E-1,1.3833837E-1,7.460687E-2,1.225514E-1,1.5771104E-1,2.9930616E-2,1.711316E-1,2.9930616E-2,1.7880256E-1,7.396253E-2,1.9948621E-1,1.3946016E-1,2.9930616E-2,1.0938535E-1,1.7634524E-1,2.1916087E-1,1.9257537E-1],"categories":[],"categories_nodes":[],"categories_segments":[],"categories_sizes":[],"default_left":[1,1,0,0,0,0,0,0,0,0,0,0,0,0,0,0,0,0,0,0,0,0,0,0,0,0,0,0,0,0,0,1,0,0,0,0,0,0,0,0,0,0,0,0,0,0,0,0,0,0,0,0,0,0,0,0,0,0,0,0,0,0,0,0,0,0,0,0,0,0,0,0,0,0,0,0,0,0,0,0,0,0,0,0,0,0,0,0,0,0,0,0,0,0,0,0,0,0,0,0,0,0,0,0,0,0,0,0,0,0,0,0,0,0,0,0,0,0,0,0,0,0,0,1,0,1,0,0,0,0,0,0,0,0,0,0,0,0,0,0,0,0,0,0,0,0,0,0,0,0,0,0,0,0,0,0,0,0,0,0,0,0,0,0,0,0,0,0,0,0,0,0,0,0,0,0,0,0,0,0,0,0,0,0,0,0,0,0,0,0,0,0,0,0,0,0,0,0,0,0,0,0,0,0,0,0,0,0,0,0,0,0,0,0,0,0,0,0,0,0,0,0,0,0,0,0,0,0,0,0,0,0,0,0,0,0,0,0,0,0,0,0,0,0,0,0,0,0,1,0,0,0,0,0,0,0,0,0,0,0,0,0,0,0,0,0,0,0,0,0,0,0,0,0,0,0,0,0,0,0,0,0,0,0,0,0,0,0,0,0,0,0,0,0,0,0,0,0,0,0,0,0,0,0,0,0,0,0,0,0,0,0,0,0,0,0,0,0,0,0,0,0,0,0,0,0,0,0,0,0,0,0,0,0,0,0,0,0,0,0,0,0,0,0,0,0,0,0,0,0,0,0,0,0,0,0,0,0,0,0,0,0,0,0,1,0,0,0,0,0,0,0,0,0,1,1,0,0,0,0,0,0,0,0,0,0,0,0,0,0,0,0,0,0,0,0,0,0,0,0,0,0,0,0,0,0,1,0,0,0,0,0,0,0,0,0,0,0,0,0,0,0,0,0,0,0,0,0,0,0,0,0,0,0,0,0,0,0,0,0,0,0,0,0,0,0,0,0,0,0,0,0,0,0,0,0,0,0,0,0,0,0,0,0,0,0,0,0,0,0,0,0,0,0,0,0,0,0,0,0,0,0,0,0,0,0,0,0,0,0,0,0,0,0,0,0,0,0,0,0,0,0,0,0,0,0,0,0,0,0,0,0,0,0,0,0,0,0,0,0,0,0,0,0,0,0,0,0,0,0,0,0,0,0,0,0,0,0,0,0,0,0,0,0,0,0,0,0,0,0,0,0,0,0,0,0,0,0,0,0,0,0,0,0,0,0,0,0,0,0,0,0,0,0,0,0,0,0,0,0,0,0,0,0,0,0,0,0,0,0,0,0,0,0,0,0,0,0,0,0,0,0,0,0,0,0,0,0,0,0,0,0,0,0,0,0,0,0,0,0,0,0,0,0,0,0,0,0,0,0,0,0,0,0,0,0,0,0,0,0,0,0,0,0,0,0,0,0,0,0,0,0,0,0,0,0,0,0,0,0,0,0,0,0,0,0,0,0,0,0,0,0,0,0,0,0,0,0,0,0,0,0,0,0,0,0,0,0,0,0,0,0,0,0,0,0,0,0,0,0,0,0,0,0,0,0,0,0,0,0,0,0,0,0,0,0,0,0,0,0,0,0,0,0,0,0,0,0,0,0,0,0,0,0,0,0,0,0,0,0,0,0,0,0,0,0,0,0,0,0,0,0,0,0,0,0,0,0,0,0,0,0,0,0,0,0,0,0,0,0,0,0,0,0,0,0,0,0,0,0,0,0,0,0,0,0,0,0,0,0,0,0,0,0,0,0,0,0,0,0,0,0,0,0,0,0,0,0,0,0,0,0,0,0,0,0,0,0,0,0,0,0,0,0,0,0,0,0,0,0,0],"id":0,"left_children":[1,3,5,7,9,11,13,15,17,19,21,23,25,27,29,31,33,35,37,39,41,43,45,47,49,51,53,55,57,-1,-1,59,61,63,65,67,69,71,73,75,77,79,81,83,85,87,89,91,93,95,97,99,101,103,105,-1,-1,107,109,111,113,115,117,119,121,123,125,127,129,131,-1,133,135,137,139,141,143,145,-1,147,149,151,153,155,157,159,161,163,165,167,-1,169,171,173,175,177,179,181,183,-1,185,187,189,191,193,-1,-1,195,-1,-1,-1,197,199,201,203,205,207,209,211,213,215,217,219,221,223,225,-1,227,229,231,233,235,237,239,241,-1,243,245,247,-1,249,251,253,-1,255,257,259,261,263,265,267,269,271,273,-1,-1,-1,275,277,279,281,283,285,287,289,291,293,295,297,299,301,303,305,307,-1,-1,-1,-1,-1,309,311,313,315,-1,-1,317,-1,-1,-1,319,321,323,325,-1,327,-1,-1,329,331,333,335,337,339,341,343,345,347,349,351,353,355,357,359,361,363,365,367,369,371,-1,-1,-1,-1,373,375,-1,377,379,381,383,385,387,389,391,-1,393,395,397,399,401,403,405,407,409,411,413,415,417,419,421,423,425,427,429,431,-1,433,435,437,439,-1,441,443,445,447,449,451,-1,453,455,457,459,461,463,465,-1,-1,-1,-1,467,469,471,473,-1,475,477,479,481,483,485,487,489,491,493,495,497,499,-1,-1,-1,-1,-1,-1,-1,501,503,505,507,-1,509,511,513,515,517,-1,519,521,-1,523,-1,525,527,-1,529,531,-1,-1,-1,-1,533,535,537,539,541,543,545,547,-1,549,551,553,555,557,559,561,563,565,567,569,571,573,575,577,579,581,583,585,587,589,591,-1,593,595,597,599,601,603,605,-1,607,609,611,613,615,617,619,621,-1,-1,623,625,627,629,631,633,635,637,639,641,643,645,647,649,651,653,655,657,659,661,-1,663,665,667,669,-1,671,673,675,677,679,681,683,685,687,689,691,693,695,697,699,-1,701,703,705,707,709,711,713,715,717,719,-1,721,-1,-1,723,725,-1,727,729,-1,731,733,735,737,739,-1,741,743,-1,745,-1,-1,747,-1,-1,-1,749,751,753,-1,-1,-1,755,-1,757,-1,759,-1,761,763,-1,-1,-1,765,767,769,771,773,775,777,779,781,783,785,787,789,791,793,795,-1,-1,797,799,801,803,-1,-1,-1,-1,805,807,-1,809,-1,-1,811,-1,813,815,-1,-1,-1,-1,-1,817,819,821,-1,-1,-1,823,-1,-1,-1,-1,825,827,829,-1,-1,-1,-1,-1,-1,-1,-1,-1,-1,-1,-1,-1,-1,-1,-1,-1,-1,-1,-1,-1,-1,-1,-1,-1,-1,-1,-1,-1,-1,-1,-1,-1,-1,-1,-1,-1,-1,-1,-1,-1,-1,-1,-1,-1,-1,-1,-1,-1,-1,-1,-1,-1,-1,-1,-1,-1,-1,-1,-1,-1,-1,-1,-1,-1,-1,-1,-1,-1,-1,-1,-1,-1,-1,-1,-1,-1,-1,-1,-1,-1,-1,-1,-1,-1,-1,-1,-1,-1,-1,-1,-1,-1,-1,-1,-1,-1,-1,-1,-1,-1,-1,-1,-1,-1,-1,-1,-1,-1,-1,-1,-1,-1,-1,-1,-1,-1,-1,-1,-1,-1,-1,-1,-1,-1,-1,-1,-1,-1,-1,-1,-1,-1,-1,-1,-1,-1,-1,-1,-1,-1,-1,-1,-1,-1,-1,-1,-1,-1,-1,-1,-1,-1,-1,-1,-1,-1,-1,-1,-1,-1,-1,-1,-1,-1,-1,-1,-1,-1,-1,-1,-1,-1,-1,-1,-1,-1,-1,-1,-1,-1,-1,-1,-1,-1,-1,-1,-1,-1,-1,-1,-1,-1,-1,-1,-1,-1,-1,-1,-1,-1,-1,-1,-1,-1,-1,-1,-1,-1,-1,-1,-1,-1,-1,-1,-1,-1,-1,-1,-1,-1,-1,-1,-1,-1,-1,-1,-1,-1,-1,-1,-1,-1,-1,-1,-1,-1,-1,-1,-1,-1,-1,-1,-1,-1,-1,-1,-1,-1,-1,-1,-1,-1,-1,-1,-1,-1,-1,-1,-1,-1,-1,-1,-1,-1,-1,-1,-1,-1,-1,-1,-1,-1,-1,-1,-1,-1,-1,-1,-1,-1,-1,-1,-1,-1,-1,-1,-1,-1,-1,-1,-1,-1,-1,-1,-1,-1,-1,-1,-1,-1,-1],"loss_changes":[1.1233473E4,1.3636973E3,2.2733984E3,9.277871E2,1.1537012E2,4.1036523E2,3.6326953E2,3.1576367E2,3.4309473E2,1.9670166E1,2.9023438E1,7.624609E1,2.9364258E1,8.021973E1,6.851904E1,3.3842627E2,1.4857117E2,2.0342188E2,3.400962E2,8.380737E0,1.3069092E1,1.3337158E1,6.0578125E1,1.2738281E1,1.6070312E1,9.390625E0,1.2513184E1,8.130615E0,6.2802734E0,0E0,0E0,1.5694531E2,9.551099E1,2.8570923E1,1.8880615E1,2.3245215E2,4.657788E2,2.482981E2,2.599131E2,4.459778E0,5.793274E0,1.0611084E1,2.129184E1,1.6829224E0,8.148071E0,1.527832E1,1.085022E1,7.611328E0,2.6896973E0,2.3737793E0,4.850586E0,4.716919E0,6.8286133E0,7.840332E0,2.2685547E0,0E0,0E0,6.9467773E0,1.3355103E0,6.1877686E1,4.3253662E1,6.0445312E1,5.2382996E1,5.7664185E0,7.27536E0,9.435486E0,4.353363E0,1.9941235E2,5.6648438E1,5.2927887E1,0E0,5.3621338E1,7.3691895E1,2.4169838E1,7.4540967E2,2.8225708E0,4.5973969E-1,1.1920166E0,0E0,9.83783E0,1.2479675E1,7.1616516E0,4.296875E-1,1.1695862E-1,2.3427734E0,2.2982178E0,4.9301147E0,1.3779053E1,1.6967773E0,3.309204E0,0E0,1.9981079E0,3.650879E0,1.0512695E0,1.6879272E-1,1.3436584E0,3.3393555E0,3.1923828E0,9.425049E-1,0E0,1.2410622E0,7.8900146E-1,5.459717E0,3.2766113E0,4.503845E0,0E0,0E0,1.7849255E-1,0E0,0E0,0E0,2.057367E1,2.4390137E1,8.719238E0,2.066504E1,4.8186157E1,2.0321411E1,1.9668701E1,1.41539E1,7.8754807E-1,4.0539856E0,3.214264E0,1.5581894E0,1.1187744E0,1.7579498E0,2.5691223E0,0E0,2.8046448E1,2.3333984E1,3.1304443E1,6.6638794E0,8.567864E0,1.3145905E1,1.0745972E1,2.645044E1,0E0,5.0424683E1,1.9153656E1,5.2740917E0,0E0,1.5641113E2,1.1201935E0,8.568115E-1,0E0,7.6277924E-1,1.7035522E0,7.972412E-1,7.694092E-1,4.3908997E0,3.8720093E0,1.8487244E0,6.6685486E-1,3.157837E0,1.4069061E0,0E0,0E0,0E0,3.6956787E-2,2.9032288E0,1.6494141E0,1.4492111E0,7.174072E-1,9.1900635E-1,1.4030029E1,8.65332E0,1.4914856E0,3.6798096E-1,3.2528687E0,1.1879883E0,3.6483765E-2,1.1044922E0,1.8267822E0,3.3347168E0,1.8371582E-1,0E0,0E0,0E0,0E0,0E0,9.769516E-1,3.3118896E0,6.7315063E0,1.0770996E1,0E0,0E0,7.626209E-1,0E0,0E0,0E0,2.2418327E0,7.705078E-1,8.181763E-2,2.8720703E0,0E0,1.6847807E-1,0E0,0E0,7.7631744E1,1.4020081E1,1.0924103E1,1.2879651E2,3.641449E0,2.5019073E0,1.3074341E1,8.288391E0,2.2514648E1,7.9022217E0,4.042053E0,1.511087E1,3.1683884E0,7.6574097E0,3.0097198E0,7.762512E0,8.3127594E-1,5.8015585E-2,2.7225952E0,1.1860657E0,6.243286E-1,6.362896E-1,0E0,0E0,0E0,0E0,1.3990402E-3,9.0830994E-1,0E0,3.1689072E0,1.1495605E1,2.0429047E1,5.1151123E0,1.943872E1,5.764282E0,2.3911865E1,2.0556335E0,0E0,1.6027124E0,1.9583607E0,6.630234E0,1.518753E0,1.8981628E0,4.563217E0,1.575531E1,2.4470947E1,1.2713562E1,1.9653442E1,5.6705E0,1.4474609E1,3.7904396E0,4.622841E-1,2.0449646E1,1.90448E1,1.3793945E-2,2.4698353E0,1.84906E-1,4.612503E-1,0E0,6.731224E-2,1.8984222E0,6.9821167E-1,1.0481529E0,0E0,9.6440125E-1,4.5505524E-1,6.109009E-1,1.387001E0,1.6082764E-2,1.724701E-1,0E0,1.6340332E0,4.6801773E-1,6.160736E-2,6.94397E-1,5.9863567E-2,6.01593E-1,1.6832047E0,0E0,0E0,0E0,0E0,9.777832E-1,2.952774E0,6.7273974E-2,1.1174774E0,0E0,4.6273804E-1,3.332367E-1,6.258545E-1,3.6826172E0,1.972168E0,1.1672302E1,1.8965149E0,1.0926819E-1,7.529526E-1,1.1859741E0,1.8036194E0,3.009269E-1,1.1917725E0,0E0,0E0,0E0,0E0,0E0,0E0,0E0,9.9591064E-1,7.838745E-1,8.770752E-2,1.078064E0,0E0,6.6846275E-1,4.9523163E-1,5.013733E-1,2.4207764E0,2.2913818E0,0E0,6.998657E0,3.1884766E-1,0E0,5.88192E-1,0E0,6.165165E0,2.050293E0,0E0,4.9337697E-1,6.0424805E-2,0E0,0E0,0E0,0E0,1.0438988E1,3.8260498E0,7.3349E0,7.992111E0,4.61792E0,1.3402679E1,4.9151917E0,2.6574768E1,0E0,1.9298706E0,1.0440665E0,2.0652618E0,9.373169E0,6.46698E0,1.9559326E0,3.487854E-1,1.5041931E1,1.2179672E1,5.821289E0,4.5298004E0,4.051178E0,1.7017365E0,1.7429733E-1,8.009857E0,8.6860275E-1,5.013428E-1,7.197357E0,1.0013672E1,2.8628101E0,8.845062E-1,2.7889442E-1,0E0,2.5367618E-1,1.4797974E-1,9.901619E-2,4.8288822E-2,1.9199944E0,1.265564E0,4.9670434E-1,0E0,1.079483E0,4.9878693E-1,1.9608402E-1,8.4399414E-1,4.3881083E-1,1.1755562E-1,2.0426786E-1,5.940323E-1,0E0,0E0,3.0394592E0,3.1287537E0,2.1662788E0,5.1905212E0,1.9359894E0,3.698204E0,4.290985E0,9.524414E0,1.0455704E0,3.015686E0,1.2207886E1,2.6416016E0,2.1817017E0,1.2169495E0,1.4189332E0,2.1392345E-2,1.1851368E0,1.1439219E0,1.036583E0,1.8144073E0,0E0,2.3294449E-2,1.0865784E0,1.0922241E0,1.6258392E0,0E0,5.322258E0,1.80546E0,1.1616577E1,2.2973877E1,1.0810028E1,1.26736145E1,4.2110565E1,1.2845764E1,4.9716187E0,1.1122826E1,5.471773E-1,3.6431046E0,1.9684443E0,7.4448013E-1,9.159088E-2,0E0,9.167023E0,3.8151245E0,3.1385498E0,6.5216064E-2,3.466797E-1,6.2670135E-1,6.235521E-1,3.883047E-1,1.375122E-1,2.7433777E0,0E0,2.8839874E-1,0E0,0E0,8.8768005E-1,1.3178949E0,0E0,2.1600647E0,1.6174316E-1,0E0,8.5676575E-1,4.3308258E-1,8.5517883E-1,5.438423E-2,4.136963E-1,0E0,3.6933422E-3,1.1934662E0,0E0,1.5030739E0,0E0,0E0,3.5768738E0,0E0,0E0,0E0,8.040943E-1,4.5259094E-1,4.755249E-1,0E0,0E0,0E0,3.225057E-1,0E0,6.6135305E-1,0E0,3.7426758E-1,0E0,1.4142265E0,8.3447266E-1,0E0,0E0,0E0,3.1036377E-2,2.8121948E-1,9.8874474E-1,1.6082764E-1,1.4685769E0,1.5663223E0,1.5678711E0,2.5632172E0,1.8016357E0,1.0410461E0,1.0473633E-1,2.1643066E0,1.1834259E0,2.2308044E0,1.6842651E-1,6.3093185E-2,0E0,0E0,7.645416E-2,1.3106079E0,1.552063E0,6.1662143E-1,0E0,0E0,0E0,0E0,1.1432786E0,4.8083496E-1,0E0,5.9542847E-1,0E0,0E0,8.5318756E-1,0E0,7.529297E-1,1.1891384E0,0E0,0E0,0E0,0E0,0E0,1.9829102E0,1.0557861E0,1.2098236E0,0E0,0E0,0E0,7.312622E-1,0E0,0E0,0E0,0E0,4.2562866E-1,6.9548035E-1,1.2556152E0,0E0,0E0,0E0,0E0,0E0,0E0,0E0,0E0,0E0,0E0,0E0,0E0,0E0,0E0,0E0,0E0,0E0,0E0,0E0,0E0,0E0,0E0,0E0,0E0,0E0,0E0,0E0,0E0,0E0,0E0,0E0,0E0,0E0,0E0,0E0,0E0,0E0,0E0,0E0,0E0,0E0,0E0,0E0,0E0,0E0,0E0,0E0,0E0,0E0,0E0,0E0,0E0,0E0,0E0,0E0,0E0,0E0,0E0,0E0,0E0,0E0,0E0,0E0,0E0,0E0,0E0,0E0,0E0,0E0,0E0,0E0,0E0,0E0,0E0,0E0,0E0,0E0,0E0,0E0,0E0,0E0,0E0,0E0,0E0,0E0,0E0,0E0,0E0,0E0,0E0,0E0,0E0,0E0,0E0,0E0,0E0,0E0,0E0,0E0,0E0,0E0,0E0,0E0,0E0,0E0,0E0,0E0,0E0,0E0,0E0,0E0,0E0,0E0,0E0,0E0,0E0,0E0,0E0,0E0,0E0,0E0,0E0,0E0,0E0,0E0,0E0,0E0,0E0,0E0,0E0,0E0,0E0,0E0,0E0,0E0,0E0,0E0,0E0,0E0,0E0,0E0,0E0,0E0,0E0,0E0,0E0,0E0,0E0,0E0,0E0,0E0,0E0,0E0,0E0,0E0,0E0,0E0,0E0,0E0,0E0,0E0,0E0,0E0,0E0,0E0,0E0,0E0,0E0,0E0,0E0,0E0,0E0,0E0,0E0,0E0,0E0,0E0,0E0,0E0,0E0,0E0,0E0,0E0,0E0,0E0,0E0,0E0,0E0,0E0,0E0,0E0,0E0,0E0,0E0,0E0,0E0,0E0,0E0,0E0,0E0,0E0,0E0,0E0,0E0,0E0,0E0,0E0,0E0,0E0,0E0,0E0,0E0,0E0,0E0,0E0,0E0,0E0,0E0,0E0,0E0,0E0,0E0,0E0,0E0,0E0,0E0,0E0,0E0,0E0,0E0,0E0,0E0,0E0,0E0,0E0,0E0,0E0,0E0,0E0,0E0,0E0,0E0,0E0,0E0,0E0,0E0,0E0,0E0,0E0,0E0,0E0,0E0,0E0,0E0,0E0,0E0,0E0,0E0,0E0,0E0,0E0,0E0,0E0,0E0,0E0,0E0,0E0,0E0,0E0,0E0,0E0,0E0,0E0,0E0,0E0,0E0,0E0,0E0,0E0,0E0,0E0,0E0,0E0,0E0,0E0,0E0,0E0,0E0,0E0,0E0,0E0,0E0,0E0,0E0,0E0,0E0,0E0,0E0,0E0,0E0,0E0,0E0],"parents":[2147483647,0,0,1,1,2,2,3,3,4,4,5,5,6,6,7,7,8,8,9,9,10,10,11,11,12,12,13,13,14,14,15,15,16,16,17,17,18,18,19,19,20,20,21,21,22,22,23,23,24,24,25,25,26,26,27,27,28,28,31,31,32,32,33,33,34,34,35,35,36,36,37,37,38,38,39,39,40,40,41,41,42,42,43,43,44,44,45,45,46,46,47,47,48,48,49,49,50,50,51,51,52,52,53,53,54,54,57,57,58,58,59,59,60,60,61,61,62,62,63,63,64,64,65,65,66,66,67,67,68,68,69,69,71,71,72,72,73,73,74,74,75,75,76,76,77,77,79,79,80,80,81,81,82,82,83,83,84,84,85,85,86,86,87,87,88,88,89,89,91,91,92,92,93,93,94,94,95,95,96,96,97,97,98,98,100,100,101,101,102,102,103,103,104,104,107,107,111,111,112,112,113,113,114,114,115,115,116,116,117,117,118,118,119,119,120,120,121,121,122,122,123,123,124,124,125,125,127,127,128,128,129,129,130,130,131,131,132,132,133,133,134,134,136,136,137,137,138,138,140,140,141,141,142,142,144,144,145,145,146,146,147,147,148,148,149,149,150,150,151,151,152,152,153,153,157,157,158,158,159,159,160,160,161,161,162,162,163,163,164,164,165,165,166,166,167,167,168,168,169,169,170,170,171,171,172,172,173,173,179,179,180,180,181,181,182,182,185,185,189,189,190,190,191,191,192,192,194,194,197,197,198,198,199,199,200,200,201,201,202,202,203,203,204,204,205,205,206,206,207,207,208,208,209,209,210,210,211,211,212,212,213,213,214,214,215,215,216,216,217,217,218,218,223,223,224,224,226,226,227,227,228,228,229,229,230,230,231,231,232,232,233,233,235,235,236,236,237,237,238,238,239,239,240,240,241,241,242,242,243,243,244,244,245,245,246,246,247,247,248,248,249,249,250,250,251,251,252,252,253,253,254,254,256,256,257,257,258,258,259,259,261,261,262,262,263,263,264,264,265,265,266,266,268,268,269,269,270,270,271,271,272,272,273,273,274,274,279,279,280,280,281,281,282,282,284,284,285,285,286,286,287,287,288,288,289,289,290,290,291,291,292,292,293,293,294,294,295,295,296,296,304,304,305,305,306,306,307,307,309,309,310,310,311,311,312,312,313,313,315,315,316,316,318,318,320,320,321,321,323,323,324,324,329,329,330,330,331,331,332,332,333,333,334,334,335,335,336,336,338,338,339,339,340,340,341,341,342,342,343,343,344,344,345,345,346,346,347,347,348,348,349,349,350,350,351,351,352,352,353,353,354,354,355,355,356,356,357,357,358,358,359,359,361,361,362,362,363,363,364,364,365,365,366,366,367,367,369,369,370,370,371,371,372,372,373,373,374,374,375,375,376,376,379,379,380,380,381,381,382,382,383,383,384,384,385,385,386,386,387,387,388,388,389,389,390,390,391,391,392,392,393,393,394,394,395,395,396,396,397,397,398,398,400,400,401,401,402,402,403,403,405,405,406,406,407,407,408,408,409,409,410,410,411,411,412,412,413,413,414,414,415,415,416,416,417,417,418,418,419,419,421,421,422,422,423,423,424,424,425,425,426,426,427,427,428,428,429,429,430,430,432,432,435,435,436,436,438,438,439,439,441,441,442,442,443,443,444,444,445,445,447,447,448,448,450,450,453,453,457,457,458,458,459,459,463,463,465,465,467,467,469,469,470,470,474,474,475,475,476,476,477,477,478,478,479,479,480,480,481,481,482,482,483,483,484,484,485,485,486,486,487,487,488,488,489,489,492,492,493,493,494,494,495,495,500,500,501,501,503,503,506,506,508,508,509,509,515,515,516,516,517,517,521,521,526,526,527,527,528,528],"right_children":[2,4,6,8,10,12,14,16,18,20,22,24,26,28,30,32,34,36,38,40,42,44,46,48,50,52,54,56,58,-1,-1,60,62,64,66,68,70,72,74,76,78,80,82,84,86,88,90,92,94,96,98,100,102,104,106,-1,-1,108,110,112,114,116,118,120,122,124,126,128,130,132,-1,134,136,138,140,142,144,146,-1,148,150,152,154,156,158,160,162,164,166,168,-1,170,172,174,176,178,180,182,184,-1,186,188,190,192,194,-1,-1,196,-1,-1,-1,198,200,202,204,206,208,210,212,214,216,218,220,222,224,226,-1,228,230,232,234,236,238,240,242,-1,244,246,248,-1,250,252,254,-1,256,258,260,262,264,266,268,270,272,274,-1,-1,-1,276,278,280,282,284,286,288,290,292,294,296,298,300,302,304,306,308,-1,-1,-1,-1,-1,310,312,314,316,-1,-1,318,-1,-1,-1,320,322,324,326,-1,328,-1,-1,330,332,334,336,338,340,342,344,346,348,350,352,354,356,358,360,362,364,366,368,370,372,-1,-1,-1,-1,374,376,-1,378,380,382,384,386,388,390,392,-1,394,396,398,400,402,404,406,408,410,412,414,416,418,420,422,424,426,428,430,432,-1,434,436,438,440,-1,442,444,446,448,450,452,-1,454,456,458,460,462,464,466,-1,-1,-1,-1,468,470,472,474,-1,476,478,480,482,484,486,488,490,492,494,496,498,500,-1,-1,-1,-1,-1,-1,-1,502,504,506,508,-1,510,512,514,516,518,-1,520,522,-1,524,-1,526,528,-1,530,532,-1,-1,-1,-1,534,536,538,540,542,544,546,548,-1,550,552,554,556,558,560,562,564,566,568,570,572,574,576,578,580,582,584,586,588,590,592,-1,594,596,598,600,602,604,606,-1,608,610,612,614,616,618,620,622,-1,-1,624,626,628,630,632,634,636,638,640,642,644,646,648,650,652,654,656,658,660,662,-1,664,666,668,670,-1,672,674,676,678,680,682,684,686,688,690,692,694,696,698,700,-1,702,704,706,708,710,712,714,716,718,720,-1,722,-1,-1,724,726,-1,728,730,-1,732,734,736,738,740,-1,742,744,-1,746,-1,-1,748,-1,-1,-1,750,752,754,-1,-1,-1,756,-1,758,-1,760,-1,762,764,-1,-1,-1,766,768,770,772,774,776,778,780,782,784,786,788,790,792,794,796,-1,-1,798,800,802,804,-1,-1,-1,-1,806,808,-1,810,-1,-1,812,-1,814,816,-1,-1,-1,-1,-1,818,820,822,-1,-1,-1,824,-1,-1,-1,-1,826,828,830,-1,-1,-1,-1,-1,-1,-1,-1,-1,-1,-1,-1,-1,-1,-1,-1,-1,-1,-1,-1,-1,-1,-1,-1,-1,-1,-1,-1,-1,-1,-1,-1,-1,-1,-1,-1,-1,-1,-1,-1,-1,-1,-1,-1,-1,-1,-1,-1,-1,-1,-1,-1,-1,-1,-1,-1,-1,-1,-1,-1,-1,-1,-1,-1,-1,-1,-1,-1,-1,-1,-1,-1,-1,-1,-1,-1,-1,-1,-1,-1,-1,-1,-1,-1,-1,-1,-1,-1,-1,-1,-1,-1,-1,-1,-1,-1,-1,-1,-1,-1,-1,-1,-1,-1,-1,-1,-1,-1,-1,-1,-1,-1,-1,-1,-1,-1,-1,-1,-1,-1,-1,-1,-1,-1,-1,-1,-1,-1,-1,-1,-1,-1,-1,-1,-1,-1,-1,-1,-1,-1,-1,-1,-1,-1,-1,-1,-1,-1,-1,-1,-1,-1,-1,-1,-1,-1,-1,-1,-1,-1,-1,-1,-1,-1,-1,-1,-1,-1,-1,-1,-1,-1,-1,-1,-1,-1,-1,-1,-1,-1,-1,-1,-1,-1,-1,-1,-1,-1,-1,-1,-1,-1,-1,-1,-1,-1,-1,-1,-1,-1,-1,-1,-1,-1,-1,-1,-1,-1,-1,-1,-1,-1,-1,-1,-1,-1,-1,-1,-1,-1,-1,-1,-1,-1,-1,-1,-1,-1,-1,-1,-1,-1,-1,-1,-1,-1,-1,-1,-1,-1,-1,-1,-1,-1,-1,-1,-1,-1,-1,-1,-1,-1,-1,-1,-1,-1,-1,-1,-1,-1,-1,-1,-1,-1,-1,-1,-1,-1,-1,-1,-1,-1,-1,-1,-1,-1,-1,-1,-1,-1,-1,-1,-1,-1,-1,-1,-1,-1,-1,-1,-1,-1,-1,-1,-1,-1,-1,-1,-1,-1,-1,-1],"split_conditions":[8E0,4E0,2.7E1,3.1717E4,5E0,1.5E1,7.5E1,3.236E3,3.7058E4,4.69E2,1.278E3,1E1,1.9E1,4E1,1.5E2,1.501E3,1.25E3,3.6536E4,4.3285E4,2.6E1,3.236E3,4.26E2,2.317E3,3.001E3,1.5E1,9.07E2,2.9E1,3.7E1,2.628E3,3.6783457E-1,4.7536254E-1,2E0,6.605E3,1.4E1,1.1E1,5.01E2,2.11E2,4.1938E4,2.98E2,4.3084E4,2.317E3,3.4053E4,1.25E3,1.145E3,6E0,4.417E3,1.9E1,1.3E1,4.3285E4,3.87E2,4.553E3,7.17E2,1.1E1,4.414E3,2.1E1,2.4567007E-1,2.782418E-1,1.012E3,7.1E1,1.6E1,1.6E1,3.0549E4,3.0531E4,5E0,2.9E1,8.14E2,2.1E1,4.418E3,3.1E1,1.24E3,3.1733507E-1,3.736E4,5E1,1.02E2,4.8E2,2.161E3,4.5143E4,6.608E3,1.9215074E-1,2.2E1,3.5309E4,1.3E1,1.2E1,4.21E2,2.1E1,4.2E1,1.8E1,1.85E3,1.01E2,6E0,1.851078E-1,1.278E3,1.278E3,4.3209E4,6.8E1,2.816E3,1.278E3,1.278E3,4.91E3,2.2449791E-1,5.3E1,9.26E2,9.4E2,1.4E1,6.61E3,2.239817E-1,2.4999665E-1,1.15E3,3.1874925E-1,2.7715775E-1,6.458797E-2,9.4E2,7.45E2,3E0,1.947E3,6.469E3,2.3E1,1.182E3,4.1E1,7.51E2,8.24E2,8.24E2,4.5E1,2E0,6E0,3E0,2.316763E-1,2.5E1,4E0,4E0,4.4E1,3.2E1,2.4E1,2.1E1,9.9E1,2.2796957E-1,2.3E1,2.2E1,3.5E1,3.1670326E-1,1.501E3,1.226E3,3.736E4,1.3898315E-1,1.1E1,5.87E2,2.233E3,1.6E1,4.5E1,1.6E1,3.7E1,1.117E3,9.93E2,8.18E2,1.682089E-1,1.14452116E-1,2.9930616E-2,1.58E2,1.238E3,3.236E3,1.39E2,5E0,1.117E3,3.8E1,2.102E3,6.8E1,1.094E3,2.36E2,4.17E2,8.53E2,2.834E3,3.98E2,1.85E3,2.85E2,4.949689E-2,2.0075522E-1,5.5471897E-2,7.327042E-2,1.8165004E-1,8E0,2.092E3,4.1E1,1.85E3,1.7740043E-1,1.9886135E-1,3.1423E4,3.990749E-2,5.9086293E-2,1.7024122E-1,1.8E1,3.5E1,1.242E3,1.012E3,2.4031198E-1,1.278E3,2.9930616E-2,1.2891781E-1,7.45E2,2.317E3,1.49E2,9.4E2,1.08E2,3.78E2,3.1E1,3E1,2.9E1,2.5E1,3.1512E4,1.31E2,6.606E3,1.49E2,6.607E3,4E0,2.91E2,3E0,3.62E2,2E0,7.33E2,1.5E1,1.462446E-1,9.65736E-3,1.4781375E-1,1.24931864E-1,4E0,8.18E2,1.7816457E-1,4.43E2,3.75E2,1.93E2,2.6E1,9E0,7E0,1.3E1,3.5309E4,2.3155168E-1,1.026E3,4E0,1.28E2,5.59E2,8E0,4.2E1,5.32E2,1.6E1,2.813E3,3.38E2,1.125E3,1.113E3,4.18E2,2E0,2.1E1,2.2E1,1.019E3,1.25E3,3.56E2,2E0,2.6391983E-2,1.011E3,4.0217E4,1.15E3,1.842E3,1.4926225E-1,1.23E3,1.242E3,8.24E2,5.34E2,1.5E1,2.813E3,-2.5E-2,2.186E3,1.1E1,1.222E3,1.125E3,1.6E1,1.116E3,5E0,1.5710618E-1,1.1156815E-1,1.306001E-1,1.6658007E-1,1.501E3,1.3E1,2.02E2,4.53E2,6.5573804E-2,1.25E3,1.116E3,1.456E3,2.99E2,3.5303E4,2.8E1,2.7E1,2E1,3E0,6E0,1.385E3,7E0,2.834E3,1.3833562E-1,1.5816739E-1,1.06672004E-1,2.9930616E-2,1.3261518E-1,5.672564E-2,1.5662268E-1,2.6E1,3E1,2.827E3,4.418E3,1.492825E-1,5.711E3,6.606E3,2.025E3,8E0,1.182E3,1.8521829E-1,3.5E1,1.309E3,2.9930616E-2,8.14E2,2.21184E-1,1.013E3,1.278E3,2.159312E-1,1.15E3,4E0,5.693501E-2,2.154585E-1,7.229551E-2,9.65736E-3,1.08E2,1E1,1.212E3,9E0,4.2E1,3.894E3,3.4E1,2.8E1,-4.0000003E-2,1.4E1,1.4E1,5.94E2,3E0,3.87E2,3E0,3.5E1,5.06E2,5.703E3,5.17E2,4E0,3.1506E4,2.99E2,3.1E1,4.553E3,3E1,2.5E1,3E1,4.27E3,3.6E1,3.0549E4,2.3E1,2.3795882E-1,4E0,1.113E3,1.216E3,2E0,5.71E3,1.1E1,8E0,6.1604645E-2,7.17E2,8.14E2,1.221E3,9.93E2,3E0,3E0,3E0,1E1,-2.5E-2,1.3482153E-1,5.32E2,1.123E3,1.01E3,4.1E1,2.72E2,2.4E1,3.4053E4,1.04E2,7.51E2,2.806E3,2.79E2,9.36E2,4.73E2,5.19E2,1.024E3,2.3E1,4.21E2,1.023E3,4.17E2,5.708E3,1.6966043E-1,3.661E4,2E0,2.78E2,2.821E3,1.5907578E-1,5E0,2E0,4E0,5.702E3,1.4E1,3.38E2,1.7E2,4.8E2,4.74E2,5.83E2,3.43E2,4.8417E4,4.16E2,2.828E3,4E1,6.1742134E-2,7.04E2,7.04E2,5.71E3,6.609E3,3.894E3,2.4E1,1.1E1,3.0549E4,4E0,4.04E2,2.6391983E-2,6.1E1,2.9930616E-2,1.10676445E-1,4.58E2,2.71E2,1.04967594E-1,1.216E3,4.2E1,2.6391983E-2,5.77E2,3.0549E4,4.99E2,3.1512E4,2.628E3,7.286787E-2,4.81E2,3.159E4,1.08744286E-1,2.827E3,1.4556779E-1,8.7214E-2,1.773E3,1.2236916E-1,4.431472E-2,-2.5E-2,6.76E2,1.236E3,1.111E3,1.01312995E-1,1.4486039E-2,4.1951347E-2,5.51E2,1.4584336E-1,1.216E3,1.12508915E-1,4E0,1.2873653E-1,6.03E2,1.113E3,9.65736E-3,5.2087974E-2,9.65736E-3,1.212E3,8.5E2,1.233E3,5.51E2,3.6E1,1.04E3,2.2E1,8E0,2.665E3,1.518E3,4.4E1,2.804E3,3.15E2,6.11E2,4.58E2,4.03E2,1.3731848E-1,9.65736E-3,7E0,7.8E1,7E0,3.5453E4,1.282511E-1,-2.5E-2,2.9930616E-2,1.3457234E-1,4.412E3,5.51E2,1.3899522E-1,3.47E2,1.5035628E-1,1.6289212E-1,1.4E1,1.0099455E-1,5.7E1,1.212E3,9.65736E-3,1.427838E-1,2.9930616E-2,2.9930616E-2,1.4262465E-1,1.223E3,1.014E3,2.02E2,1.441392E-1,1.5210007E-1,1.7863776E-1,4.8E2,1.8191469E-1,8.8914394E-2,1.8983899E-1,-3.3333335E-2,1.233E3,1.8E1,1.212E3,1.0695287E-1,9.65736E-3,1.2863837E-1,1.9038478E-1,1.387603E-3,3.7979938E-2,8.745755E-2,1.1659362E-1,2.2652233E-2,3.318855E-2,3.502784E-2,5.1167924E-2,1.833941E-2,4.945625E-2,3.992997E-2,6.52117E-2,1.3548358E-1,1.964452E-1,4.5772392E-2,6.632804E-2,4.6300203E-2,5.496911E-2,-3.75E-2,3.4759294E-2,7.12147E-2,5.7612557E-2,5.5092495E-2,7.0746645E-2,5.995019E-2,7.964804E-2,7.272529E-2,8.616475E-2,9.5874846E-2,1.1537897E-1,7.996415E-2,5.706188E-2,8.834801E-2,1.6059828E-1,1.02706544E-1,7.825025E-2,1.0735054E-1,1.5526018E-1,5.4543264E-2,7.133575E-2,5.764244E-2,4.3676656E-2,6.458797E-2,2.376527E-1,7.024556E-2,1.3198724E-1,1.1572542E-1,9.65736E-3,5.1199008E-2,7.077481E-2,1.7565584E-1,9.434274E-2,1.1798479E-1,1.9639103E-1,2.3482473E-1,5.693501E-2,9.65736E-3,1.15660325E-1,4.949689E-2,1.3604794E-1,3.4759294E-2,-2.842641E-3,9.65736E-3,6.025497E-2,9.65736E-3,5.7666566E-2,2.1084035E-2,3.8042292E-2,1.184436E-1,4.5339804E-2,7.413738E-2,8.674584E-2,5.0341617E-2,1.9176472E-2,1.0130657E-1,7.0506334E-2,1.2653239E-1,9.334638E-2,5.1360883E-2,1.4486039E-2,8.8288315E-2,4.882748E-2,3.287077E-3,5.6810535E-2,8.1094556E-2,3.4759294E-2,1.287648E-2,6.301239E-2,1.19034134E-1,3.5981383E-2,6.2746696E-2,4.475322E-2,4.815593E-2,2.7595317E-2,2.9930616E-2,2.1981966E-1,6.774145E-2,8.9418724E-2,7.634818E-2,1.0891267E-1,8.052682E-2,1.3860975E-1,5.951975E-2,1.1683259E-1,1.3006376E-1,1.7481485E-1,8.59414E-2,5.585443E-2,1.1266994E-1,9.492095E-2,1.4603877E-1,1.12739764E-1,1.4077407E-1,8.294691E-2,2.1745609E-1,1.618533E-1,1.6040932E-1,1.1332214E-1,-5.6080804E-3,6.652441E-2,-4.4999998E-2,-2.017132E-2,1.1819973E-1,3.7424024E-2,4.91434E-2,-3.3333335E-2,1.4000905E-1,1.0180261E-1,9.515454E-2,5.853892E-2,2.9930616E-2,1.0705318E-1,3.49692E-2,5.985083E-2,8.262921E-2,6.668719E-2,6.947988E-2,9.389945E-2,-3.75E-2,8.6718164E-2,2.215738E-2,5.6758236E-2,7.7387914E-2,9.928654E-2,1.1077813E-1,1.7866516E-1,3.314885E-2,4.9450807E-2,4.270384E-2,6.095965E-2,8.943751E-2,3.2158192E-2,9.830541E-2,6.909898E-2,-4.283011E-4,9.485724E-2,5.971083E-2,-1.3692215E-2,5.3612858E-2,2.3175864E-2,8.645488E-2,1.4574352E-1,6.165466E-3,-2.6730303E-2,1.704217E-2,3.708215E-2,2.952282E-2,4.5654073E-2,8.208758E-2,5.8663923E-2,1.1135149E-1,8.878974E-2,1.3749734E-1,6.623078E-2,1.9400762E-1,5.5471897E-2,9.776325E-2,5.0490487E-2,8.560899E-2,4.681941E-2,3.860436E-2,-1.00346925E-2,6.355362E-2,1.1487601E-1,2.9930616E-2,1.1642412E-1,4.1711155E-2,1.0428369E-1,4.9677316E-2,9.445602E-2,1.10384144E-1,7.184064E-2,7.324109E-2,-2.5E-2,1.8827032E-1,1.2204186E-1,1.1903274E-1,2.9930616E-2,4.6808157E-2,8.130189E-2,6.530436E-2,4.3912333E-2,3.342233E-2,7.651532E-2,9.989106E-2,5.6435067E-2,8.7424144E-2,1.04512E-1,6.961278E-2,3.181472E-2,1.2572157E-1,6.1034262E-2,8.640585E-2,-2.5E-2,9.328208E-2,6.900183E-2,4.6786442E-2,7.8756206E-2,8.982464E-2,6.798133E-2,6.175193E-2,1.2745886E-1,2.6391983E-2,9.617769E-2,4.91434E-2,-2.5E-2,1.4097168E-1,8.715137E-2,1.0230284E-1,6.869754E-2,7.5138554E-2,1.2041285E-1,9.064438E-2,1.3398044E-1,1.0778721E-1,8.2395054E-2,9.005561E-2,2.8023949E-2,1.2198311E-1,1.01608835E-1,8.3894506E-2,-2.5E-2,1.2702513E-1,8.9550175E-2,1.0948495E-1,1.3641518E-1,8.530173E-2,1.3026743E-1,8.596971E-2,1.0627496E-1,1.1409073E-1,1.4216352E-1,1.2765728E-1,1.5013133E-1,1.3759463E-1,1.18517116E-1,2.9930616E-2,1.7737718E-1,1.07328944E-1,6.808122E-2,1.3405815E-1,1.0933661E-1,1.3900807E-1,9.13157E-2,1.10551715E-1,6.319282E-2,1.349838E-1,9.65736E-3,1.10040285E-1,1.5985698E-1,-2.5E-2,5.5471897E-2,-2.5E-2,8.003991E-2,9.209306E-2,1.2417563E-1,1.5657936E-1,1.2769894E-1,5.9396267E-2,1.3784012E-1,1.4500427E-1,1.7381988E-1,1.3833837E-1,7.460687E-2,1.225514E-1,1.5771104E-1,2.9930616E-2,1.711316E-1,2.9930616E-2,1.7880256E-1,7.396253E-2,1.9948621E-1,1.3946016E-1,2.9930616E-2,1.0938535E-1,1.7634524E-1,2.1916087E-1,1.9257537E-1],"split_indices":[6,6,6,0,6,6,6,10,0,8,0,6,6,6,6,2,0,0,0,9,10,8,10,2,9,10,9,9,10,0,0,6,2,9,9,10,10,0,10,0,10,0,0,0,6,2,9,9,0,10,2,8,9,2,6,0,0,2,6,9,9,0,0,9,9,8,9,2,9,2,0,0,8,10,10,2,0,2,0,9,0,9,9,8,9,9,9,10,10,9,0,0,0,0,9,2,0,0,0,0,9,10,10,9,2,0,0,0,0,0,0,10,10,6,10,0,9,0,10,8,8,8,9,6,9,6,0,9,6,6,9,9,9,9,10,0,9,9,9,0,2,2,0,0,9,10,0,9,9,9,10,2,8,8,0,0,0,10,0,10,10,9,2,9,10,10,10,8,8,8,2,8,10,10,0,0,0,0,0,9,10,9,10,0,0,0,0,0,0,9,9,0,2,0,0,0,0,10,10,10,10,10,10,9,9,9,9,0,8,2,10,2,6,8,9,8,6,8,9,0,0,0,0,9,8,0,8,10,8,9,9,9,9,0,0,2,6,10,8,9,9,8,9,2,10,2,2,8,6,9,9,2,0,10,9,0,2,0,0,10,0,0,2,8,8,9,2,0,10,9,2,2,9,2,9,0,0,0,0,2,9,0,8,0,0,2,10,8,0,9,9,10,9,6,10,6,2,0,0,0,0,0,0,0,9,9,2,2,0,2,2,0,9,0,0,9,0,0,8,0,2,0,0,0,9,0,0,0,0,10,9,10,9,9,0,9,9,0,9,9,8,6,10,6,9,10,2,8,6,0,8,8,2,9,9,10,0,9,0,9,0,9,2,2,6,2,9,9,0,8,8,2,8,6,6,6,9,0,0,8,2,2,9,10,10,0,10,8,2,8,8,8,8,2,9,8,2,8,2,0,0,9,8,2,0,10,6,6,2,9,10,10,8,8,8,8,0,8,2,9,0,10,10,2,2,0,9,9,0,10,10,0,10,0,0,8,10,0,0,9,0,8,0,10,0,10,0,8,0,0,2,0,0,10,0,0,0,8,2,2,0,0,0,8,0,2,0,9,0,8,2,0,0,0,10,8,2,8,9,10,9,9,0,10,9,2,8,8,8,8,0,0,6,9,9,0,0,0,0,0,2,8,0,8,0,0,9,0,10,0,0,0,0,0,0,2,2,0,0,0,0,8,0,0,0,0,2,9,2,0,0,0,0,0,0,0,0,0,0,0,0,0,0,0,0,0,0,0,0,0,0,0,0,0,0,0,0,0,0,0,0,0,0,0,0,0,0,0,0,0,0,0,0,0,0,0,0,0,0,0,0,0,0,0,0,0,0,0,0,0,0,0,0,0,0,0,0,0,0,0,0,0,0,0,0,0,0,0,0,0,0,0,0,0,0,0,0,0,0,0,0,0,0,0,0,0,0,0,0,0,0,0,0,0,0,0,0,0,0,0,0,0,0,0,0,0,0,0,0,0,0,0,0,0,0,0,0,0,0,0,0,0,0,0,0,0,0,0,0,0,0,0,0,0,0,0,0,0,0,0,0,0,0,0,0,0,0,0,0,0,0,0,0,0,0,0,0,0,0,0,0,0,0,0,0,0,0,0,0,0,0,0,0,0,0,0,0,0,0,0,0,0,0,0,0,0,0,0,0,0,0,0,0,0,0,0,0,0,0,0,0,0,0,0,0,0,0,0,0,0,0,0,0,0,0,0,0,0,0,0,0,0,0,0,0,0,0,0,0,0,0,0,0,0,0,0,0,0,0,0,0,0,0,0,0,0,0,0,0,0,0,0,0,0,0,0,0,0,0,0,0,0,0,0,0,0,0,0,0,0,0,0,0,0,0,0,0,0,0,0,0,0,0,0,0,0,0,0,0,0,0],"split_type":[0,0,0,0,0,0,0,0,0,0,0,0,0,0,0,0,0,0,0,0,0,0,0,0,0,0,0,0,0,0,0,0,0,0,0,0,0,0,0,0,0,0,0,0,0,0,0,0,0,0,0,0,0,0,0,0,0,0,0,0,0,0,0,0,0,0,0,0,0,0,0,0,0,0,0,0,0,0,0,0,0,0,0,0,0,0,0,0,0,0,0,0,0,0,0,0,0,0,0,0,0,0,0,0,0,0,0,0,0,0,0,0,0,0,0,0,0,0,0,0,0,0,0,0,0,0,0,0,0,0,0,0,0,0,0,0,0,0,0,0,0,0,0,0,0,0,0,0,0,0,0,0,0,0,0,0,0,0,0,0,0,0,0,0,0,0,0,0,0,0,0,0,0,0,0,0,0,0,0,0,0,0,0,0,0,0,0,0,0,0,0,0,0,0,0,0,0,0,0,0,0,0,0,0,0,0,0,0,0,0,0,0,0,0,0,0,0,0,0,0,0,0,0,0,0,0,0,0,0,0,0,0,0,0,0,0,0,0,0,0,0,0,0,0,0,0,0,0,0,0,0,0,0,0,0,0,0,0,0,0,0,0,0,0,0,0,0,0,0,0,0,0,0,0,0,0,0,0,0,0,0,0,0,0,0,0,0,0,0,0,0,0,0,0,0,0,0,0,0,0,0,0,0,0,0,0,0,0,0,0,0,0,0,0,0,0,0,0,0,0,0,0,0,0,0,0,0,0,0,0,0,0,0,0,0,0,0,0,0,0,0,0,0,0,0,0,0,0,0,0,0,0,0,0,0,0,0,0,0,0,0,0,0,0,0,0,0,0,0,0,0,0,0,0,0,0,0,0,0,0,0,0,0,0,0,0,0,0,0,0,0,0,0,0,0,0,0,0,0,0,0,0,0,0,0,0,0,0,0,0,0,0,0,0,0,0,0,0,0,0,0,0,0,0,0,0,0,0,0,0,0,0,0,0,0,0,0,0,0,0,0,0,0,0,0,0,0,0,0,0,0,0,0,0,0,0,0,0,0,0,0,0,0,0,0,0,0,0,0,0,0,0,0,0,0,0,0,0,0,0,0,0,0,0,0,0,0,0,0,0,0,0,0,0,0,0,0,0,0,0,0,0,0,0,0,0,0,0,0,0,0,0,0,0,0,0,0,0,0,0,0,0,0,0,0,0,0,0,0,0,0,0,0,0,0,0,0,0,0,0,0,0,0,0,0,0,0,0,0,0,0,0,0,0,0,0,0,0,0,0,0,0,0,0,0,0,0,0,0,0,0,0,0,0,0,0,0,0,0,0,0,0,0,0,0,0,0,0,0,0,0,0,0,0,0,0,0,0,0,0,0,0,0,0,0,0,0,0,0,0,0,0,0,0,0,0,0,0,0,0,0,0,0,0,0,0,0,0,0,0,0,0,0,0,0,0,0,0,0,0,0,0,0,0,0,0,0,0,0,0,0,0,0,0,0,0,0,0,0,0,0,0,0,0,0,0,0,0,0,0,0,0,0,0,0,0,0,0,0,0,0,0,0,0,0,0,0,0,0,0,0,0,0,0,0,0,0,0,0,0,0,0,0,0,0,0,0,0,0,0,0,0,0,0,0,0,0,0,0,0,0,0,0,0,0,0,0,0,0,0,0,0,0,0,0,0,0,0,0,0,0,0,0,0,0,0,0,0,0,0,0,0,0,0,0,0,0,0,0,0,0,0,0,0,0,0,0,0,0,0,0,0,0,0,0,0,0,0,0,0,0,0,0,0,0,0,0,0,0,0,0,0,0,0,0,0,0,0,0,0,0,0,0,0,0,0,0,0,0,0,0,0,0,0,0,0,0,0,0,0,0,0,0,0,0,0,0,0,0,0,0],"sum_hessian":[5.8634E4,5.005E4,8.584E3,4.0962E4,9.088E3,7.017E3,1.567E3,2.5308E4,1.5654E4,3.509E3,5.579E3,4.92E3,2.097E3,1.241E3,3.26E2,2.3441E4,1.867E3,5.377E3,1.0277E4,1.326E3,2.183E3,1.82E3,3.759E3,1.975E3,2.945E3,1.026E3,1.071E3,6.03E2,6.38E2,2.16E2,1.1E2,1.8113E4,5.328E3,1.407E3,4.6E2,4.969E3,4.08E2,7.781E3,2.496E3,8.02E2,5.24E2,1.753E3,4.3E2,4.79E2,1.341E3,3.04E3,7.19E2,1.522E3,4.53E2,9.59E2,1.986E3,2.6E2,7.66E2,5.73E2,4.98E2,3.87E2,2.16E2,5.3E2,1.08E2,1.2257E4,5.856E3,4.565E3,7.63E2,1E3,4.07E2,3.2E2,1.4E2,2.117E3,2.852E3,2.58E2,1.5E2,3.291E3,4.49E3,4.43E2,2.053E3,7.34E2,6.8E1,5.12E2,1.2E1,1.07E3,6.83E2,3.06E2,1.24E2,1.57E2,3.22E2,6.05E2,7.36E2,2.455E3,5.85E2,6.1E2,1.09E2,4.31E2,1.091E3,4.18E2,3.5E1,1.14E2,8.45E2,1.588E3,3.98E2,2.47E2,1.3E1,1.36E2,6.3E2,4.17E2,1.56E2,1.93E2,3.05E2,3E0,5.27E2,1.07E2,1E0,7.065E3,5.192E3,2.324E3,3.532E3,2.164E3,2.401E3,6.67E2,9.6E1,1.98E2,8.02E2,3.61E2,4.6E1,2.66E2,5.4E1,1.19E2,2.1E1,1.546E3,5.71E2,2.683E3,1.69E2,5.9E1,1.99E2,1.04E3,2.251E3,2.3E1,4.467E3,2.03E2,2.4E2,1.85E2,1.868E3,1.8E2,5.54E2,4.5E1,2.3E1,4.34E2,7.8E1,5.33E2,5.37E2,1.73E2,5.1E2,1.56E2,1.5E2,9.5E1,2.9E1,1.56E2,1E0,1.08E2,2.14E2,5.52E2,5.3E1,2.9E2,4.46E2,1.748E3,7.07E2,2.01E2,3.84E2,1.65E2,4.45E2,6.2E1,3.69E2,3.64E2,7.27E2,4.16E2,2E0,3.4E1,1E0,3E0,1.11E2,7.3E1,7.72E2,3.79E2,1.209E3,1.75E2,2.23E2,1.1E1,2E0,2E0,1.34E2,2.7E1,6.03E2,1.44E2,2.73E2,1.54E2,2E0,1E0,2E0,9.53E2,6.112E3,1.753E3,3.439E3,1.763E3,5.61E2,2.793E3,7.39E2,1.301E3,8.63E2,1.556E3,8.45E2,2.01E2,4.66E2,4.3E1,5.3E1,1.77E2,2.1E1,7.24E2,7.8E1,3.07E2,5.4E1,4.5E1,1E0,1.79E2,8.7E1,2.2E1,3.2E1,9.2E1,2.7E1,8.67E2,6.79E2,1.94E2,3.77E2,7.03E2,1.98E3,1.41E2,2.8E1,4.3E1,1.6E1,1.39E2,6E1,8.42E2,1.98E2,2.55E2,1.996E3,3.282E3,1.185E3,1.12E2,9.1E1,1.88E2,5.2E1,1.131E3,7.37E2,1.51E2,2.9E1,4.18E2,1.36E2,2E0,2.1E1,1.97E2,2.37E2,3.9E1,3.9E1,3.43E2,1.9E2,4.62E2,7.5E1,9.9E1,7.4E1,1E0,5.09E2,2E0,1.54E2,1.44E2,6E0,7.8E1,1.7E1,6E0,1.02E2,1.67E2,4.7E1,3.77E2,1.75E2,4E0,4.9E1,1.2E1,2.78E2,1.42E2,3.04E2,1.395E3,3.53E2,5.04E2,2.03E2,1.37E2,6.4E1,3.03E2,8.1E1,2E0,1.63E2,1.23E2,3.22E2,6.1E1,1E0,3.65E2,4E0,6.5E1,2.99E2,4.15E2,3.12E2,2.32E2,1.84E2,2.2E1,5.1E1,1.53E2,6.19E2,2.58E2,1.21E2,5.51E2,6.58E2,1E0,1E1,4E0,2.3E1,4.32E2,1.71E2,2E0,1.42E2,2E0,2.71E2,1E0,1E0,7.21E2,2.32E2,4.857E3,1.255E3,3.23E2,1.43E3,1.52E2,3.287E3,4E0,1.759E3,6E0,5.55E2,1.842E3,9.51E2,5.87E2,1.52E2,1.19E3,1.11E2,7.55E2,1.08E2,9.92E2,5.64E2,6E0,8.39E2,2.1E1,1.8E2,2.6E2,2.06E2,7E0,3.6E1,1.2E1,4.1E1,6E0,1.71E2,4E0,1.7E1,3.6E1,6.88E2,2.4E1,5.4E1,2.37E2,7E1,1E1,4.4E1,1E1,1.2E1,4E0,2.8E1,1E0,2.6E1,5.13E2,3.54E2,1.1E1,6.68E2,1.23E2,7.1E1,1.15E2,2.62E2,1.59E2,5.44E2,1.215E3,7.65E2,7.7E1,6.4E1,3.1E1,1.2E1,1.1E1,5E0,6.9E1,7E1,5E1,1E1,3.06E2,5.36E2,1.88E2,1E1,1.71E2,8.4E1,1.231E3,7.65E2,1.729E3,1.553E3,5.36E2,6.49E2,3.1E1,8.1E1,2.8E1,6.3E1,1.08E2,8E1,3.4E1,1.8E1,7.44E2,3.87E2,6.64E2,7.3E1,8.9E1,6.2E1,1.3E1,1.6E1,9.7E1,3.21E2,2E0,1.34E2,1E0,2E1,1.78E2,1.9E1,6.5E1,1.72E2,3.7E1,2E0,1.08E2,2.35E2,1.59E2,3.1E1,4.07E2,5.5E1,7E0,6.8E1,9.2E1,7E0,6.8E1,6E0,4.87E2,2.2E1,1E0,1E0,5.3E1,1.01E2,6.8E1,7.6E1,3E0,3E0,5E0,7.3E1,4E0,1.3E1,3.67E2,1E1,7.4E1,1.01E2,1E0,3E0,1E0,4.8E1,2.4E2,3.8E1,1.34E2,8E0,7.7E1,2.27E2,1.51E2,1.244E3,1.88E2,1.65E2,4.3E2,7.4E1,9.7E1,1.06E2,2.5E1,1.12E2,1E0,6.3E1,1.53E2,1.5E2,2E0,7.9E1,1E0,1E0,1.6E2,3E0,1.39E2,1.6E2,1.86E2,2.29E2,2.93E2,1.9E1,8E0,2.24E2,2.1E1,1E0,5E1,1E0,1E0,1.52E2,2.4E2,3.79E2,5.4E1,2.04E2,2.77E2,2.74E2,1.94E2,4.64E2,4E0,6E0,2E0,2.1E1,7.8E1,3.54E2,1E0,1E0,9E0,1.33E2,8.9E1,6.32E2,1.36E2,9.6E1,8.01E2,4.056E3,6.1E2,6.45E2,2.65E2,5.8E1,1.171E3,2.59E2,1.31E2,2.1E1,2.428E3,8.59E2,1.398E3,3.61E2,3E0,3E0,2.19E2,3.36E2,1.264E3,5.78E2,2.42E2,7.09E2,3.48E2,2.39E2,8.2E1,7E1,5.4E2,6.5E2,7.2E1,3.9E1,6.17E2,1.38E2,6.2E1,4.6E1,8E2,1.92E2,1.26E2,4.38E2,1E0,5E0,8.17E2,2.2E1,2E1,1E0,2.9E1,1.51E2,1.2E1,2.48E2,1.86E2,2E1,5E0,2E0,1E0,3.5E1,2E0,1E1,3E0,3E0,1E0,1.7E2,1E0,3E0,1.1E1,6E0,3E1,6E0,5.4E2,1.48E2,9E0,1.5E1,2.14E2,2.3E1,4.5E1,2.5E1,7E0,3E0,3.2E1,1.2E1,2E0,8E0,9E0,3E0,2E0,2E0,2.6E1,2E0,3.69E2,1.44E2,1.11E2,2.43E2,1E0,1E1,5.09E2,1.59E2,8.9E1,3.4E1,2.1E1,5E1,1.9E1,9.6E1,9.2E1,1.7E2,1.38E2,2.1E1,3.26E2,2.18E2,1.37E2,1.078E3,7.52E2,1.3E1,2.6E1,5.1E1,4.2E1,2.2E1,2.9E1,2E0,9E0,3E0,7E0,4E0,3E0,2E0,3.8E1,3.1E1,3.5E1,3.5E1,1E0,9E0,2.4E1,2.82E2,7E1,4.66E2,5.6E1,1.32E2,3E0,1.68E2,6.4E1,2E1,3.72E2,8.59E2,7.09E2,5.6E1,1.051E3,6.78E2,7.54E2,7.99E2,2.15E2,3.21E2,2.71E2,3.78E2,7E0,2.4E1,4.1E1,4E1,1.3E1,1.5E1,2.2E1,4.1E1,8.6E1,2.2E1,3.8E1,4.2E1,1.8E1,1.6E1,4.57E2,2.87E2,2.21E2,1.66E2,6.55E2,9E0,7.2E1,1E0,8.4E1,5E0,5.3E1,9E0,1E1,3E0,1E1,6E0,1E0,9.6E1,9E0,3.12E2,5E0,1.29E2,1.64E2,1.4E1,1.8E1,1E0,8E0,1.64E2,3.6E1,1E0,1.3E1,9.5E1,2.16E2,1.9E1,7E0,1.52E2,2.6E1,5E0,3.61E2,4.6E1,4E0,3E0,6.2E1,6E0,6E0,1E0,3.97E2,9E1,1.8E1,3.5E1,6.5E1,3.6E1,4E0,6.4E1,2E0,3E0,3E0,1E0,3E0,3.64E2,3.5E1,3.9E1,1.1E1,9E1,1E1,3.8E1,2.17E2,2.3E1,3.4E1,4E0,6E1,7.4E1,7E0,1E0,4E1,3.7E1,6E1,1.67E2,2.3E1,1.28E2,7.4E1,1.17E3,1.49E2,3.9E1,7.3E1,9.2E1,2.47E2,1.83E2,1E0,7.3E1,6.9E1,2.8E1,4.7E1,5.9E1,6E0,1.9E1,5.8E1,5E0,1.52E2,1E0,1.7E1,1.33E2,1E0,1E0,1E0,2E0,2.1E1,1.18E2,3.4E1,1.52E2,4E0,1.5E1,5.6E1,1.68E2,8E0,1.3E1,4.1E1,1.99E2,1E0,3.78E2,1E0,5.3E1,2E0,1.92E2,2E1,1E0,8E0,7E1,1.06E2,2.48E2],"tree_param":{"num_deleted":"0","num_feature":"11","num_nodes":"831","size_leaf_vector":"0"}},{"base_weights":[8.6533886E-1,7.021808E-1,1.8179024E0,6.322523E-1,1.0169586E0,1.5560633E0,2.630864E0,5.2576566E-1,8.0386937E-1,8.845275E-1,1.0999604E0,1.4450008E0,1.8333595E0,2.4305413E0,3.6405525E0,4.7711092E-1,7.009688E-1,1.0469979E0,7.3076564E-1,9.7427815E-1,8.295833E-1,1.0034347E0,1.1445378E0,1.3229306E0,1.5351065E0,1.7525223E0,1.9474165E0,2.237112E0,2.783828E0,3.2922268E0,4.288225E0,4.182443E-1,5.952184E-1,6.5207064E-1,9.882708E-1,7.74496E-1,1.0993439E0,6.5878093E-1,1.0069574E0,9.135915E-1,1.0640423E0,7.325965E-1,8.649556E-1,8.9978665E-1,1.081512E0,1.3873227E0,1.1147087E0,1.2824923E0,1.4406147E0,1.4974132E0,1.7048671E0,1.546654E0,1.7835633E0,1.752432E0,2.027171E0,2.1030054E0,2.412869E0,2.7997184E0,-3.3940887E-1,3.3440425E0,2.5462508E-1,4.852738E-2,4.316826E0,3.6302167E-1,4.7521004E-1,5.412593E-1,7.078456E-1,7.556649E-1,5.51924E-1,8.9652884E-1,1.7000126E0,6.368189E-1,1.0551383E0,1.0138394E0,1.3074962E0,8.2358694E-1,4.7220612E-1,1.3407304E0,7.135842E-1,8.040527E-1,9.4949156E-1,8.499033E-1,1.0850677E0,6.449608E-1,8.2960963E-1,8.95115E-1,7.907326E-1,8.661651E-1,1.1348622E0,9.7343063E-1,1.1730103E0,1.0446682E-1,1.4447088E0,1.0647655E0,1.2141839E0,1.2455178E0,1.370054E0,1.4074354E0,1.7509773E-1,1.3721387E0,1.5305903E0,1.572154E0,1.7934157E0,1.7500774E0,1.3589085E0,1.7614529E0,1.9566858E-1,1.6298008E0,2.0348792E-1,2.3469277E-1,1.994321E-1,2.0122557E0,2.2879357E0,2.6246102E0,2.348012E-1,3.091731E-1,2.736523E0,-5.458328E-2,1.3993153E-2,3.350929E-1,9.523771E-2,4.3884158E-1,2.801809E-1,4.5899838E-1,2.7988672E-1,6.289761E-1,3.7502265E-1,4.7891656E-1,5.927424E-1,6.532466E-1,7.641741E-1,6.55605E-1,9.228703E-1,4.899279E-1,6.708457E-1,7.811025E-1,1.0940608E0,1.9254034E0,1.0711502E0,1.3918477E0,6.137126E-1,7.613301E-1,1.2029955E0,8.4395504E-1,1.0749369E0,1.0840366E0,1.4027478E0,6.425291E-1,8.9014786E-1,2.1424863E0,4.6538976E-1,2.894416E-1,1.0160602E0,6.091248E-1,9.1996044E-1,8.430194E-1,6.476366E-1,9.269538E-1,1.21830456E-1,8.56995E-1,2.4411408E-2,1.1388811E0,1.0015572E0,6.070871E-1,7.2627795E-1,7.9803646E-1,1.1037188E-1,8.586152E-1,1.0562286E0,7.0494133E-1,8.573143E-1,8.1490684E-1,9.786118E-1,8.216611E-1,1.2203377E0,9.35632E-1,1.2102895E-1,1.2325593E0,1.0877603E0,1.3730266E0,1.6604857E0,9.84163E-1,1.1027005E0,1.1786193E0,1.4228731E0,1.135912E0,1.2828002E0,1.4585636E0,1.2939067E0,1.252397E0,1.4443363E-1,1.4043534E0,1.2212334E0,1.4123008E0,1.5620285E0,5.7591414E-1,1.5793447E-1,1.095372E0,1.8073529E-1,1.7862176E0,3.5958624E-1,1.00283206E-1,1.4166223E-1,1.6282858E0,1.7944013E0,1.7678963E0,1.4191028E0,7.79159E-2,2.0216734E0,9.8934877E-1,2.3021829E-1,2.685851E-1,8.6262476E-1,7.474497E-2,2.7428699E0,3.7159613E-1,1.0571089E0,2.52576E-1,4.8521885E-1,5.2264035E-1,1.4155418E0,3.1040534E-1,4.564878E-1,5.9394807E-1,4.4133836E-1,5.2174306E-1,6.809447E-1,7.818015E-1,6.0449904E-1,8.45873E-1,6.764678E-1,6.3046855E-1,1.0890222E0,8.7623024E-1,1.1933876E0,6.1340415E-1,4.7083744E-1,6.42772E-1,1.5728339E0,6.6385E-1,8.8051814E-1,1.2495592E0,9.529618E-1,9.74331E-1,2.023389E0,1.2626804E-1,8.465161E-1,7.0428455E-1,2.0760665E0,5.1270545E-1,6.6518396E-1,5.759539E-1,8.334377E-1,1.3028187E0,8.821964E-1,7.472009E-1,8.918935E-1,1.0340918E0,1.2717978E0,1.212268E0,8.70169E-1,1.330225E0,1.8711156E0,5.1365304E-1,7.523731E-1,1.7981318E0,8.067124E-1,2.2930307E0,6.254218E-2,4.0321267E-1,6.063903E-1,1.29607E0,2.3853888E-1,7.653965E-1,5.525186E-1,8.268451E-1,1.1466048E0,7.539903E-1,9.108585E-1,5.05683E-1,9.958687E-1,9.712086E-1,8.4726393E-1,8.64262E-2,2.4682237E-2,1.1138186E0,1.4140147E-1,7.498927E-1,1.057338E0,4.546922E-1,6.352606E-1,5.861424E-1,7.819384E-1,7.708618E-1,1.0747188E0,9.2841524E-1,7.532991E-1,1.1438597E0,9.1190106E-1,4.5508492E-1,7.272965E-1,8.2129663E-1,1.0653908E0,8.6356014E-1,7.7832973E-1,9.835933E-1,3.1200815E-2,9.758087E-2,4.7345284E-1,4.0789517E-3,1.23660564E-1,6.8830615E-1,9.479451E-1,1.1828381E0,1.4208458E-1,8.794054E-1,1.15735E0,1.422202E-1,1.072213E0,8.984155E-2,1.7082001E-1,1.0540193E0,8.613159E-1,1.2281361E0,1.0193295E0,1.1105206E0,1.250027E0,1.18916E-1,1.5182959E0,4.9063116E-1,1.1460071E0,1.4040211E0,1.2174443E0,1.2422282E0,1.530558E-1,1.2397065E0,1.4358451E0,1.2644279E-1,4.6197098E-2,1.0626307E0,1.4184485E-1,4.5427997E-2,1.2706076E-1,1.2206857E0,1.5293207E0,1.7148304E0,1.5219202E0,5.74857E-4,8.581226E-2,5.74857E-4,1.2502113E-1,1.8906681E-1,1.3677946E-1,-1.5675366E-3,5.5505473E-2,1.8979564E0,1.534413E0,1.8896404E-1,1.7290052E0,1.835557E-1,1.349479E-1,9.803375E-1,1.5633421E0,1.888237E-1,2.0991895E0,1.3366394E-1,-2.626145E-3,1.2728415E0,-3.891209E-2,2.7499592E-1,1.4782791E-1,2.9872385E-1,4.421414E-1,8.8877666E-1,1.2490999E0,1.8994476E-1,2.801056E-1,4.176125E-1,8.192164E-1,4.4099882E-1,7.08778E-1,1.2556055E0,1.7558682E0,4.0730947E-1,2.7558416E-1,5.87055E-1,3.8684854E-1,5.8099985E-1,9.695577E-1,4.1578403E-1,5.287408E-1,5.758054E-1,3.7128943E-1,7.9806495E-1,5.7779527E-1,7.266491E-1,9.910299E-1,5.687214E-1,6.774665E-1,7.8825104E-1,1.0833211E0,5.820123E-1,7.537564E-1,3.716111E-1,6.71545E-1,8.3177316E-1,1.3813059E0,7.147361E-1,9.2657435E-1,1.4016026E0,9.828293E-1,6.530845E-1,4.3041942E-1,4.5672366E-1,6.7388785E-1,6.02588E-1,7.4905384E-1,2.0560156E-1,1.0058328E0,1.0247275E0,6.2280107E-1,1.0299125E0,6.738168E-1,9.589602E-1,1.3579357E0,8.22275E-1,1.1184424E0,9.17449E-3,1.0873083E-1,2.1050348E0,9.649552E-2,5.1657916E-3,9.648283E-2,7.999319E-1,6.520024E-3,2.8434087E-2,2.4529128E-1,1.7332955E-1,5.4744774E-1,8.337121E-1,5.297168E-1,6.308254E-1,-2.881741E-2,9.125618E-1,5.623871E-1,1.0517547E0,1.4154363E0,5.8989197E-1,1.0211375E0,7.6771164E-1,5.0058216E-1,9.604432E-1,8.0062467E-1,1.3462775E0,1.0056777E0,1.3851687E0,9.17984E-1,3.4203678E-1,1.2429557E0,3.634415E-1,9.44955E-1,6.249212E-1,1.3858445E0,1.885228E0,3.781153E-2,3.5416475E-1,6.257588E-1,5.7685304E-1,1.0766861E0,4.3824115E-1,2.2342057E0,7.198775E-1,9.5255876E-1,2.3647034E-1,6.089703E-2,3.4386703E-1,4.7064817E-1,6.562941E-1,3.4419173E-1,1.2481775E0,1.7851524E-1,1.5703932E0,1.9496538E-1,6.62879E-1,9.767128E-1,6.1288244E-1,4.615963E-1,8.824992E-1,3.343769E-1,1.0332227E0,1.7367126E-1,3.2975018E-1,7.928128E-2,1.2273579E0,8.579254E-1,6.961172E-2,4.203141E-1,1.074621E0,6.4796777E-3,9.047876E-1,1.0807133E0,4.712006E-2,8.620526E-1,8.389225E-1,1.1328349E0,8.610244E-2,5.5542666E-2,1.4361931E-1,1.0275578E0,4.817598E-1,-2.734041E-2,6.473854E-1,4.5549503E-1,3.1613472E-1,6.822304E-2,8.9638543E-1,6.582298E-2,1.1091938E-1,7.491013E-1,1.1052777E-1,2.4705017E-2,8.1257683E-1,1.338662E0,6.836973E-1,9.16242E-1,8.4431E-1,1.1938276E-1,4.557738E-2,9.419141E-2,6.657672E-3,4.9455377E-1,6.8394107E-1,8.9043576E-1,8.900287E-1,7.09551E-1,1.1321761E-1,4.3824397E-2,2.0581894E-1,8.6936995E-2,6.445646E-1,8.2004744E-1,7.982934E-1,1.0145037E0,9.17449E-3,5.096982E-1,7.4608964E-1,5.438602E-3,9.661903E-1,8.0274487E-1,1.1020384E0,1.3113807E0,8.921236E-1,5.1798495E-3,9.8597366E-1,1.249039E0,4.1966847E-1,1.2134098E-1,1.1123881E0,8.143647E-1,5.3829604E-1,9.4219524E-1,1.3314478E0,1.0415757E0,9.389662E-1,1.13864E0,1.1289421E0,7.2630256E-1,1.1423471E0,1.3277966E0,1.537774E-1,6.1767913E-2,7.1655646E-2,-3.1949762E-2,1.2255695E-1,1.0604464E0,1.4128926E0,1.553251E-1,1.22681E0,7.2419636E-2,2.2099484E-2,1.2576174E0,1.2640724E-1,9.488347E-2,1.1546265E0,1.6616748E-1,1.1259983E0,3.4933697E-2,1.2319285E0,5.135869E-1,1.5775879E-1,1.3109024E0,1.8728049E-1,1.6372035E-1,1.4471444E0,1.596084E0,5.336308E-2,1.9182172E-1,1.324824E0,1.6093443E-1,8.5320614E-2,1.7333751E0,3.914939E-1,1.1505191E0,4.835912E-2,1.5975444E-1,2.1025315E-1,6.0012E-2,-3.7499834E-2,1.9471209E-1,5.2683856E-2,2.723516E-2,5.7372868E-2,3.595151E-2,-2.9372877E-2,8.95675E-2,1.3150993E-1,6.1020534E-2,2.4655512E-2,1.7827721E-2,2.3852495E-2,3.242248E-2,4.6370998E-2,3.397387E-2,1.300788E-1,7.172747E-2,5.011046E-2,3.344361E-2,6.911508E-2,1.1310127E-1,1.322053E-1,7.741082E-2,1.608287E-1,2.1993314E-1,3.3308376E-2,4.5583617E-2,3.7075594E-2,2.5572283E-2,5.455322E-2,8.910856E-2,3.5777647E-2,5.664092E-2,6.296613E-2,5.3115387E-2,1.001743E-1,2.5948215E-2,4.786612E-2,3.775658E-2,4.9350202E-2,7.2013296E-2,5.476405E-2,6.843392E-2,4.8504267E-2,2.9788068E-2,7.37906E-2,1.0229289E-1,5.2308142E-2,6.593737E-2,7.344403E-2,4.108483E-2,1.4290465E-1,7.297638E-2,6.284617E-2,5.357259E-2,5.6875367E-2,8.078917E-2,7.2483614E-2,1.0524049E-1,1.11290276E-1,5.966233E-2,4.8913553E-2,6.301432E-2,7.899482E-2,6.266319E-2,2.8323477E-2,4.1744836E-2,7.530127E-2,5.495583E-2,8.6479925E-2,-2.9417401E-2,7.4370414E-2,1.4875786E-1,9.833362E-2,6.7693025E-2,9.648155E-2,7.2155654E-2,1.585891E-1,8.834917E-2,5.5720843E-2,1.0412826E-1,8.1699945E-2,6.2031932E-2,3.938146E-2,6.6140905E-2,5.4196257E-2,4.2398404E-2,1.7468456E-2,7.021968E-2,8.098024E-2,5.749696E-2,8.9882456E-2,6.941677E-2,1.2585677E-1,3.4974348E-2,1.1329291E-1,5.8343537E-2,4.4154894E-2,6.497844E-2,1.1901563E-1,8.524201E-2,7.223162E-2,5.475812E-2,2.8115734E-2,9.905616E-2,1.0241499E-1,1.438508E-1,8.584472E-2,3.803758E-2,1.5374805E-1,1.0511708E-1,2.5940236E-1,1.8812628E-1,3.5724375E-2,9.3196504E-2,-2.4877323E-2,3.1106425E-2,5.5684336E-2,-2.9470935E-2,8.693365E-3,8.466169E-2,4.5955118E-2,6.875067E-2,7.4901536E-2,2.1051483E-2,9.687432E-2,4.8892464E-2,-1.654788E-2,7.0976995E-2,3.3946242E-2,1.08675875E-1,1.4374098E-1,5.0415374E-2,9.529132E-2,3.2266997E-2,1.0766976E-1,3.28878E-2,5.886789E-2,8.0100924E-2,1.9949485E-2,6.740473E-2,4.023862E-3,9.646137E-2,9.749214E-2,7.353067E-2,6.520024E-3,1.357748E-1,4.926138E-2,1.0209649E-1,1.092664E-1,1.4825341E-1,7.656621E-2,1.2985633E-1,8.404083E-3,4.2842697E-2,1.1767378E-1,1.6443336E-1,2.0108722E-2,4.245099E-2,5.629432E-2,9.910207E-2,7.3108904E-2,3.0742472E-2,1.3482781E-1,2.171357E-1,1.9404297E-1,1.24027945E-1,-4.21956E-3,4.1895565E-2,5.705164E-2,9.3277894E-2,5.26353E-2,1.13569036E-1,9.8364346E-2,1.3378184E-1,1.8880624E-2,1.0944102E-1,1.18495025E-1,2.2753899E-1,6.789948E-2,1.07885234E-1,7.9541706E-2,1.0275344E-1,2.7764378E-2,4.058154E-2,5.738751E-2,4.3665674E-2,1.0710906E-1,6.217282E-2,1.5430185E-2,5.7241548E-2,9.699132E-2,1.2643516E-1,3.9991975E-2,1.6804723E-1,1.1075511E-2,4.329369E-2,8.595924E-2,5.5740792E-2,3.7947003E-2,9.8803245E-2,4.8229937E-2,7.105577E-2,3.9156523E-2,6.5872215E-2,8.052682E-2,9.5204614E-2,5.0244987E-2,1.7524296E-2,1.0840925E-1,4.2120144E-2,-2.420187E-3,4.5176785E-2,1.5765867E-1,5.6281168E-2,4.04805E-2,9.0459436E-2,6.519165E-2,3.6176093E-2,1.1654075E-1,8.33776E-3,9.689301E-2,6.9007814E-2,1.1083408E-1,8.005384E-2,2.463252E-2,8.671045E-2,9.4046354E-2,3.258985E-2,1.0699717E-1,1.263641E-1,6.1470307E-2,1.0526567E-1,2.8599266E-2,5.1042464E-2,5.5096794E-2,6.8187706E-2,7.3169502E-3,4.775776E-2,7.775458E-3,3.6601044E-2,6.3921423E-3,9.220036E-2,7.061373E-2,8.533352E-2,9.985546E-2,7.2405316E-2,1.414027E-1,1.0266999E-1,6.084029E-2,7.187433E-2,9.2361204E-2,6.0139657E-3,8.8230535E-2,4.220146E-3,7.8291E-2,3.5624415E-2,1.6098509E-2,6.96644E-2,6.316128E-2,1.0043144E-1,8.113525E-2,1.0715791E-1,5.6957036E-2,8.5256256E-2,2.5573049E-2,5.2997917E-3,7.347958E-2,4.243086E-2,6.840634E-2,8.865204E-2,3.4049958E-2,8.316122E-2,9.514623E-2,1.1454164E-1,5.8578838E-2,1.8761842E-2,7.9656325E-2,4.2526163E-2,5.815602E-2,9.725675E-2,5.079161E-2,8.846376E-2,7.4357755E-2,1.11837104E-1,1.4626066E-1,1.1778772E-1,8.048713E-2,1.0872161E-1,4.5769187E-3,1.0001711E-1,1.2591615E-1,4.7840666E-2,3.1184892E-3,5.2620877E-2,8.8053755E-2,1.1622798E-1,1.1967295E-1,7.335025E-2,3.930587E-2,9.996333E-2,7.130875E-2,9.86849E-2,1.164304E-1,1.4260034E-1,1.00783184E-1,1.210435E-1,8.81226E-2,1.0875579E-1,1.2431552E-1,1.0341825E-1,9.222644E-2,1.1544912E-1,7.962993E-2,3.602637E-2,1.2120012E-1,9.9878214E-2,1.2274828E-1,1.4423613E-1,9.8099254E-2,1.1806653E-1,1.3024811E-1,1.5987167E-1,-3.3144604E-2,5.644337E-2,7.331365E-2,1.2343352E-1,1.289243E-1,7.0248894E-2,8.2014374E-2,1.3960399E-1,1.1636229E-1,2.620027E-2,1.4587864E-1,1.1614227E-1,6.684465E-2,2.4504007E-3,5.112764E-2,1.3538025E-1,1.4512701E-1,2.1390332E-2,1.512882E-1,1.668906E-1,8.186021E-2,1.3864553E-1,1.6468458E-1,1.8203382E-1,7.634917E-2,1.64396E-2,4.317365E-2,1.2942366E-1],"categories":[],"categories_nodes":[],"categories_segments":[],"categories_sizes":[],"default_left":[1,1,0,0,0,0,0,0,0,0,0,0,0,0,0,1,0,0,0,0,0,0,0,0,0,0,0,0,0,0,0,0,0,0,0,0,0,0,0,0,0,0,0,0,0,0,0,0,0,0,0,0,0,0,0,0,0,0,0,0,0,0,0,0,0,0,0,0,0,0,0,0,0,0,0,0,0,0,0,0,0,0,0,0,0,0,0,0,0,0,0,0,0,0,0,0,0,0,0,0,0,0,0,0,0,0,0,0,0,0,0,0,0,0,0,0,0,0,0,0,0,0,0,0,0,0,0,0,0,0,0,0,0,0,0,0,0,0,0,0,0,0,0,0,0,0,0,0,0,0,0,0,0,0,0,0,0,0,0,0,0,0,0,0,0,0,0,0,0,0,0,0,0,0,0,0,0,0,0,0,0,0,0,0,0,0,0,0,0,0,0,0,0,0,0,0,0,0,0,0,0,0,0,0,0,0,0,0,0,0,0,0,0,0,0,0,0,0,0,0,0,0,0,0,0,0,0,0,0,0,0,0,0,0,0,0,0,0,0,0,0,0,0,0,0,0,0,0,0,0,0,1,0,0,0,0,0,0,0,0,0,0,0,0,0,0,0,0,0,0,0,0,0,0,0,0,0,0,0,0,0,0,0,0,0,0,0,0,0,0,0,0,0,0,0,0,0,0,0,0,0,0,0,0,0,0,0,0,0,0,0,0,0,0,0,0,0,0,0,0,0,0,0,0,0,0,0,0,0,0,0,0,0,0,0,0,0,0,0,0,0,0,0,0,0,0,0,0,0,0,0,0,0,0,0,0,0,0,0,0,0,0,0,0,0,0,0,0,0,0,0,0,0,0,0,0,0,0,0,0,0,0,0,0,0,0,0,0,0,0,0,0,0,0,0,0,0,0,0,0,0,0,0,0,0,0,0,0,0,1,0,0,1,0,0,0,0,0,0,0,0,0,0,0,0,0,0,0,0,0,0,0,0,0,0,0,0,0,0,0,0,0,0,0,0,0,0,0,0,0,0,0,0,0,0,0,0,0,0,0,0,0,0,0,0,0,0,0,0,0,0,0,0,0,0,0,0,0,0,0,0,0,0,0,0,0,0,0,0,0,0,0,0,0,0,0,0,0,0,0,0,0,0,0,0,0,0,0,0,0,0,0,0,0,0,0,0,0,0,0,0,0,0,0,0,0,0,0,0,0,0,0,0,0,0,0,0,0,0,0,0,0,0,0,0,0,0,0,0,0,0,0,0,0,0,0,0,0,0,0,0,0,0,0,0,0,0,0,0,0,0,0,0,0,0,0,0,0,0,0,0,0,0,0,0,0,0,0,0,0,0,0,0,0,0,0,0,0,0,0,0,0,0,0,0,0,0,0,0,0,0,0,0,0,0,0,0,0,0,0,0,0,0,0,0,0,0,0,0,0,0,0,0,0,0,0,0,0,0,0,0,0,0,0,0,0,0,0,0,0,0,0,0,0,0,0,0,0,0,0,0,0,0,0,0,0,0,0,0,0,0,0,0,0,0,0,0,0,0,0,0,0,0,0,0,0,0,0,0,0,0,0,0,0,0,0,0,0,0,0,0,0,0,0,0,0,0,0,0,0,0,0,0,0,0,0,0,0,0,0,0,0,0,0,0,0,0,0,0,0,0,0,0,0,0,0,0,0,0,0,0,0,0,0,0,0,0,0,0,0,0,0,0,0,0,0,0,0,0,0,0,0,0,0,0,0,0,0,0,0,0,0,0,0,0,0,0,0,0,0,0,0,0,0,0,0,0,0,0,0,0,0,0,0,0,0,0,0,0,0,0,0,0,0,0,0,0,0,0,0,0,0,0,0,0,0,0,0,0,0,0,0,0,0,0,0,0,0,0,0,0,0,0,0,0,0,0,0,0,0,0,0,0,0,0,0,0,0,0,0,0,0,0,0,0,0,0,0,0,0,0,0,0,0,0,0,0,0,0,0,0,0,0,0,0,0,0,0,0,0,0,0,0,0,0,0,0,0,0,0,0,0,0,0,0,0,0,0,0,0,0,0,0,0,0,0,0,0,0,0,0,0,0,0,0,0,0,0,0,0,0,0,0,0,0,0,0,0,0,0,0,0,0,0,0,0,0,0,0,0,0,0,0,0,0,0,0,0,0,0,0,0,0,0,0,0,0,0,0],"id":1,"left_children":[1,3,5,7,9,11,13,15,17,19,21,23,25,27,29,31,33,35,37,39,41,43,45,47,49,51,53,55,57,59,61,63,65,67,69,71,73,75,77,79,81,83,85,87,89,91,93,95,97,99,101,103,105,107,109,111,113,115,117,119,-1,-1,121,123,125,127,129,131,133,135,137,139,141,143,145,147,149,151,153,155,157,159,161,163,165,167,169,171,173,175,177,-1,179,181,183,185,187,189,-1,191,193,195,197,199,201,203,-1,205,-1,-1,-1,207,209,211,-1,-1,213,-1,-1,-1,-1,-1,-1,215,217,219,221,223,225,227,229,231,233,235,237,239,241,243,245,247,249,251,253,255,257,259,261,263,265,267,269,-1,271,273,275,277,279,281,-1,283,-1,285,287,289,291,293,-1,295,297,299,301,303,305,307,309,311,-1,313,315,317,319,321,323,325,327,329,331,333,335,337,-1,339,341,343,345,347,-1,349,-1,351,353,-1,-1,355,357,359,361,-1,363,365,-1,-1,367,-1,369,371,373,375,377,379,381,383,385,387,389,391,393,395,397,399,401,403,405,407,409,411,413,415,417,419,421,423,425,427,429,-1,431,433,435,437,439,441,443,445,447,449,451,453,455,457,459,461,463,465,467,469,471,473,-1,475,477,479,481,483,485,487,489,491,493,495,497,499,501,-1,-1,503,-1,505,507,509,511,513,515,517,519,521,523,525,527,529,531,533,535,537,539,541,-1,-1,543,-1,-1,545,547,549,-1,551,553,-1,555,-1,-1,557,559,561,563,565,567,-1,569,571,573,575,577,579,-1,581,583,-1,-1,585,-1,-1,-1,587,589,591,593,-1,-1,-1,-1,-1,-1,-1,-1,595,597,-1,599,-1,-1,601,603,-1,605,-1,-1,607,-1,-1,-1,609,611,613,615,617,619,621,623,625,627,629,631,633,635,637,639,641,643,645,647,649,651,653,655,657,659,661,663,665,667,669,671,673,675,677,679,681,683,685,687,689,691,693,695,697,699,-1,701,703,705,707,709,711,713,715,717,-1,-1,719,-1,-1,-1,721,-1,-1,-1,723,725,727,729,731,-1,733,735,737,739,741,743,745,747,749,751,753,755,757,759,761,763,765,767,769,771,773,-1,775,777,779,781,783,785,787,789,-1,-1,791,793,795,797,799,-1,801,803,805,807,809,811,813,815,817,-1,819,-1,821,823,-1,825,827,-1,829,831,-1,833,835,837,-1,-1,-1,839,841,-1,843,845,847,-1,849,-1,-1,851,-1,-1,853,855,857,859,861,-1,-1,-1,-1,863,865,867,869,871,-1,-1,873,-1,875,877,879,881,-1,883,885,-1,887,889,891,893,895,-1,897,899,901,-1,903,905,907,909,911,913,915,917,919,921,923,925,-1,-1,-1,-1,-1,927,929,931,933,-1,-1,935,-1,-1,937,-1,939,-1,941,943,-1,945,-1,-1,947,949,-1,-1,951,-1,-1,953,955,957,-1,-1,-1,-1,-1,-1,-1,-1,-1,-1,-1,-1,-1,-1,-1,-1,-1,-1,-1,-1,-1,-1,-1,-1,-1,-1,-1,-1,-1,-1,-1,-1,-1,-1,-1,-1,-1,-1,-1,-1,-1,-1,-1,-1,-1,-1,-1,-1,-1,-1,-1,-1,-1,-1,-1,-1,-1,-1,-1,-1,-1,-1,-1,-1,-1,-1,-1,-1,-1,-1,-1,-1,-1,-1,-1,-1,-1,-1,-1,-1,-1,-1,-1,-1,-1,-1,-1,-1,-1,-1,-1,-1,-1,-1,-1,-1,-1,-1,-1,-1,-1,-1,-1,-1,-1,-1,-1,-1,-1,-1,-1,-1,-1,-1,-1,-1,-1,-1,-1,-1,-1,-1,-1,-1,-1,-1,-1,-1,-1,-1,-1,-1,-1,-1,-1,-1,-1,-1,-1,-1,-1,-1,-1,-1,-1,-1,-1,-1,-1,-1,-1,-1,-1,-1,-1,-1,-1,-1,-1,-1,-1,-1,-1,-1,-1,-1,-1,-1,-1,-1,-1,-1,-1,-1,-1,-1,-1,-1,-1,-1,-1,-1,-1,-1,-1,-1,-1,-1,-1,-1,-1,-1,-1,-1,-1,-1,-1,-1,-1,-1,-1,-1,-1,-1,-1,-1,-1,-1,-1,-1,-1,-1,-1,-1,-1,-1,-1,-1,-1,-1,-1,-1,-1,-1,-1,-1,-1,-1,-1,-1,-1,-1,-1,-1,-1,-1,-1,-1,-1,-1,-1,-1,-1,-1,-1,-1,-1,-1,-1,-1,-1,-1,-1,-1,-1,-1,-1,-1,-1,-1,-1,-1,-1,-1,-1,-1,-1,-1,-1,-1,-1,-1,-1,-1,-1,-1,-1,-1,-1,-1,-1,-1,-1,-1,-1,-1,-1,-1,-1,-1,-1,-1,-1,-1,-1,-1,-1,-1,-1,-1,-1,-1,-1,-1,-1,-1,-1,-1,-1,-1,-1,-1,-1,-1,-1,-1,-1,-1,-1,-1,-1,-1,-1,-1,-1,-1,-1,-1,-1,-1,-1,-1,-1,-1,-1,-1,-1,-1,-1,-1,-1,-1,-1,-1,-1,-1,-1,-1,-1,-1,-1,-1,-1,-1,-1,-1],"loss_changes":[9.123492E3,1.10275E3,1.8233555E3,7.491758E2,9.916406E1,1.9740918E2,4.138828E2,2.1546289E2,2.7835156E2,1.6525146E1,2.2930176E1,4.9039062E1,1.3681152E1,1.1315527E2,6.348877E1,1.3752295E2,7.662256E1,5.0899414E1,2.3944727E2,6.267578E0,6.8692627E0,1.3399292E1,2.6125488E1,7.5705566E0,1.45E1,4.2387695E0,8.266113E0,2.1653809E1,3.1422852E1,2.9833984E-1,1.0630859E1,4.1440186E1,3.9660156E1,4.8374878E1,5.058258E1,2.204721E1,5.2798096E1,2.942749E2,2.4335376E2,2.3825684E0,1.4640503E0,4.489502E0,2.8670654E0,5.0949097E0,8.826538E0,6.6314087E0,1.5638672E1,3.0915527E0,2.6638184E0,6.998047E0,2.7860107E0,3.3887634E0,1.7089844E-1,4.5807495E0,9.1796875E-1,6.321533E0,4.8413086E-1,2.8149414E0,4.7216862E-1,2.6733398E-1,0E0,0E0,2.8588867E-1,5.3498474E1,1.0002258E2,1.402771E1,6.0545654E0,3.8025635E1,1.7328918E1,1.5310852E1,1.0694153E1,6.0718384E0,7.4249115E0,2.1512695E1,1.7252686E1,6.07334E1,5.020233E1,5.852307E2,2.8111694E1,6.9740295E-1,2.4875488E0,1.4186859E-2,1.0119629E0,5.292206E-1,1.5164948E0,5.7264404E0,2.0803528E0,3.1046448E0,1.4869995E0,3.0575867E0,1.4057617E0,0E0,3.1646729E0,5.876953E0,6.7247314E0,2.8458252E0,1.0108032E0,7.941284E-1,0E0,5.601196E-1,4.197998E0,5.159912E-1,7.345581E-1,2.8251343E0,2.8504944E-1,7.988281E-1,0E0,2.26297E0,0E0,0E0,0E0,3.5926514E0,1.552124E0,9.013123E0,0E0,0E0,4.401123E0,0E0,0E0,0E0,0E0,0E0,0E0,1.6260437E2,2.008786E1,2.138805E2,2.0614502E1,8.478302E0,1.491217E1,6.3518677E0,6.901428E0,1.5088745E1,9.8302E0,3.4308777E0,1.9702515E1,4.6726685E0,4.4918213E0,4.086014E0,4.975128E-2,3.712738E0,1.6709595E0,4.155693E-1,2.8855743E0,2.0052185E0,1.1429565E1,6.2948914E0,1.8400879E1,1.902179E1,2.801421E2,2.6768188E0,3.9031616E1,0E0,2.1000226E2,7.414612E0,8.443207E0,2.7957916E-1,1.7208824E0,1.1344604E0,0E0,1.28211975E-2,0E0,3.8336182E-1,1.9585724E0,6.600113E-1,2.8267288E-1,1.0662537E0,0E0,6.100342E0,1.5370331E0,8.4757996E-1,1.0735626E0,1.6604614E-1,3.8049316E-1,7.7253723E-1,1.311966E0,5.9002686E-1,0E0,1.230896E0,2.3315735E0,2.4690857E0,1.4833374E0,5.425415E0,1.4853027E1,3.3432617E0,1.7627258E0,1.2356262E0,4.454468E0,1.0734863E0,6.6345215E-2,3.1929016E-1,0E0,3.1817627E-1,2.8308868E0,6.4744263E0,5.6696777E0,4.7778374E-1,0E0,1.3425455E0,0E0,3.4214783E-1,2.2875613E-1,0E0,0E0,1.6190796E0,9.057617E-1,2.1243286E-1,2.8975067E0,0E0,5.975342E-1,1.4459498E0,0E0,0E0,3.0627236E0,0E0,4.9804688E-1,1.3861176E1,1.1720184E1,5.434967E0,9.186798E0,3.4062134E1,1.4396606E1,7.317993E0,1.5612244E1,1.844101E0,3.1929626E0,1.0807617E1,1.26345825E1,2.6955566E0,1.6875305E0,6.4797363E0,3.2698822E0,1.4328308E1,4.715866E0,5.3460083E0,4.058792E0,1.2291718E0,3.6212463E0,2.9439392E0,4.5071373E0,2.4874802E0,6.748108E0,2.4770966E0,2.1080093E0,6.979432E-1,2.980896E0,0E0,1.3607817E0,3.7573123E-1,2.6785622E0,1.4968567E0,5.334366E0,1.2249408E0,4.7333145E-1,1.1690826E0,7.3787117E-1,6.121826E-1,1.6084595E0,1.0337402E1,9.478485E0,3.9812622E0,3.597763E0,2.0160461E1,9.727783E-1,1.1114014E1,4.138846E1,1.8404095E2,4.2449707E1,4.9118805E-1,0E0,1.2292419E1,1.7687073E1,1.4402344E1,1.4608452E1,4.400177E0,3.3065186E0,8.448029E0,6.7028656E0,9.7382355E-1,3.8780212E-1,2.6015568E-1,8.10256E-1,1.5678711E0,7.3947144E-1,0E0,0E0,4.3493652E-1,0E0,3.6460686E-1,3.0685425E-1,8.806119E-1,1.06170654E-1,5.886011E-1,3.3024597E-1,8.845215E-1,2.3279381E-1,2.5144592E1,3.6151428E0,8.330841E-1,6.932602E-1,2.7375412E-1,7.4900055E-1,1.1042633E0,9.6977234E-1,5.585785E-1,1.0283508E0,3.6431885E-1,0E0,0E0,7.775426E-2,0E0,0E0,8.019171E-1,2.4697876E-1,1.1721497E0,0E0,6.0638046E-1,1.439743E0,0E0,3.3605309E0,0E0,0E0,5.612671E0,6.625107E0,1.0370178E1,7.857483E0,2.7684326E0,2.394043E0,0E0,9.798126E-1,1.3271093E0,5.45166E-1,2.727295E0,1.4813232E0,5.550308E-1,0E0,8.340454E-2,1.8918304E0,0E0,0E0,4.6544075E-1,0E0,0E0,0E0,5.279541E-1,3.2507324E-1,2.8173828E-1,3.6738281E0,0E0,0E0,0E0,0E0,0E0,0E0,0E0,0E0,1.3735962E-1,3.515625E-2,0E0,8.642578E-2,0E0,0E0,1.5537853E0,1.1108704E0,0E0,9.094238E-2,0E0,0E0,5.174584E0,0E0,0E0,0E0,7.92984E0,1.4808716E1,2.0168915E0,6.9140015E0,6.000328E-1,3.9750671E0,1.1096611E0,2.503437E0,9.920349E0,4.3389587E0,5.7273865E0,2.6802979E0,1.9372864E0,2.9730377E0,7.138916E0,5.743164E0,8.3226013E-1,8.28743E-2,2.6717224E0,1.95121E0,2.6667786E0,2.870041E0,6.076599E0,2.2439117E0,2.83844E-1,5.7090263E0,7.2576904E-1,3.1703033E0,6.5240173E0,8.045349E-1,7.3334503E-1,7.7482605E-1,6.5143967E-1,1.1332825E1,1.8905659E0,1.2652664E0,1.162178E0,3.694275E0,4.3277893E0,1.0369186E0,4.008484E-1,7.7741146E-2,3.3562317E0,1.1068115E0,2.8651276E0,1.1352158E0,0E0,1.7154427E0,2.9397964E-1,6.5211487E-1,2.910492E0,2.411995E-1,4.926033E-1,8.1274414E-1,9.841957E-1,4.701996E-2,0E0,0E0,9.193268E-1,0E0,0E0,0E0,1.7758608E-2,0E0,0E0,0E0,8.913193E-1,1.1294403E0,9.96109E-1,1.2672691E0,8.8552666E-1,0E0,3.355751E-1,1.5120258E0,4.538765E-1,5.168152E-1,9.536176E-1,4.5359802E-1,6.0150146E-1,8.0563784E-1,7.74765E-1,1.2071533E0,1.4837799E0,9.003174E0,4.1045227E0,2.9477348E0,1.2001294E-1,2.2910156E0,6.335735E-2,1.0258942E0,1.1572685E0,1.1708862E1,4.058838E-1,0E0,6.797344E0,5.760193E0,1.2976685E1,4.9525146E0,1.2396071E1,7.501953E0,3.065918E1,1.412207E1,0E0,0E0,6.6932526E0,4.8512573E0,1.5808228E1,9.489235E0,1.6990356E0,0E0,3.587036E-1,4.9619627E0,2.8404617E0,1.2535095E-1,4.6316376E0,3.4003754E0,7.69516E-1,8.213167E-1,2.9369354E0,0E0,3.5644078E-1,0E0,1.433466E0,1.2621078E0,0E0,1.1674976E-1,8.9273834E-1,0E0,2.4162903E0,9.577942E-2,0E0,3.9918518E-1,7.874565E-1,6.625366E-1,0E0,0E0,0E0,9.072571E-1,6.1652184E-2,0E0,1.8965912E-1,9.169698E-2,9.043479E-2,0E0,6.0217476E-1,0E0,0E0,3.9161682E-1,0E0,0E0,6.4056396E0,1.3695374E0,2.6463318E-1,6.321945E-1,6.0276985E-1,0E0,0E0,0E0,0E0,4.3897676E-1,9.241638E-1,4.562149E-1,1.0731583E0,1.3361244E0,0E0,0E0,9.329408E-3,0E0,1.0992699E0,1.2827759E0,2.3544502E-1,3.296814E-1,0E0,8.615208E-2,1.3122559E-3,0E0,2.6345825E-1,7.337494E-1,1.1099243E-1,1.346283E-1,1.6328812E-1,0E0,8.085213E-1,2.3228455E-1,3.560927E-1,0E0,3.2796326E0,2.0594902E0,3.426279E0,1.5163116E0,4.487671E0,4.5059204E-2,3.8634033E0,2.7537537E0,1.4804688E0,3.79282E-1,8.194275E-1,1.2750244E0,0E0,0E0,0E0,0E0,0E0,1.5994263E-1,3.3341675E0,7.845061E-1,9.5996094E-1,0E0,0E0,7.2402954E-3,0E0,0E0,1.277504E0,0E0,2.4775505E-1,0E0,5.929718E-1,2.8657722E-1,0E0,9.2012024E-1,0E0,0E0,2.4777832E0,6.9836426E-1,0E0,0E0,1.7540741E-1,0E0,0E0,5.7128906E-2,3.8136452E-1,9.907589E-1,0E0,0E0,0E0,0E0,0E0,0E0,0E0,0E0,0E0,0E0,0E0,0E0,0E0,0E0,0E0,0E0,0E0,0E0,0E0,0E0,0E0,0E0,0E0,0E0,0E0,0E0,0E0,0E0,0E0,0E0,0E0,0E0,0E0,0E0,0E0,0E0,0E0,0E0,0E0,0E0,0E0,0E0,0E0,0E0,0E0,0E0,0E0,0E0,0E0,0E0,0E0,0E0,0E0,0E0,0E0,0E0,0E0,0E0,0E0,0E0,0E0,0E0,0E0,0E0,0E0,0E0,0E0,0E0,0E0,0E0,0E0,0E0,0E0,0E0,0E0,0E0,0E0,0E0,0E0,0E0,0E0,0E0,0E0,0E0,0E0,0E0,0E0,0E0,0E0,0E0,0E0,0E0,0E0,0E0,0E0,0E0,0E0,0E0,0E0,0E0,0E0,0E0,0E0,0E0,0E0,0E0,0E0,0E0,0E0,0E0,0E0,0E0,0E0,0E0,0E0,0E0,0E0,0E0,0E0,0E0,0E0,0E0,0E0,0E0,0E0,0E0,0E0,0E0,0E0,0E0,0E0,0E0,0E0,0E0,0E0,0E0,0E0,0E0,0E0,0E0,0E0,0E0,0E0,0E0,0E0,0E0,0E0,0E0,0E0,0E0,0E0,0E0,0E0,0E0,0E0,0E0,0E0,0E0,0E0,0E0,0E0,0E0,0E0,0E0,0E0,0E0,0E0,0E0,0E0,0E0,0E0,0E0,0E0,0E0,0E0,0E0,0E0,0E0,0E0,0E0,0E0,0E0,0E0,0E0,0E0,0E0,0E0,0E0,0E0,0E0,0E0,0E0,0E0,0E0,0E0,0E0,0E0,0E0,0E0,0E0,0E0,0E0,0E0,0E0,0E0,0E0,0E0,0E0,0E0,0E0,0E0,0E0,0E0,0E0,0E0,0E0,0E0,0E0,0E0,0E0,0E0,0E0,0E0,0E0,0E0,0E0,0E0,0E0,0E0,0E0,0E0,0E0,0E0,0E0,0E0,0E0,0E0,0E0,0E0,0E0,0E0,0E0,0E0,0E0,0E0,0E0,0E0,0E0,0E0,0E0,0E0,0E0,0E0,0E0,0E0,0E0,0E0,0E0,0E0,0E0,0E0,0E0,0E0,0E0,0E0,0E0,0E0,0E0,0E0,0E0,0E0,0E0,0E0,0E0,0E0,0E0,0E0,0E0,0E0,0E0,0E0,0E0,0E0,0E0,0E0,0E0,0E0,0E0,0E0,0E0,0E0,0E0,0E0,0E0,0E0,0E0,0E0,0E0,0E0,0E0,0E0,0E0,0E0,0E0,0E0,0E0,0E0,0E0,0E0,0E0,0E0,0E0,0E0,0E0,0E0,0E0,0E0,0E0,0E0,0E0,0E0,0E0,0E0,0E0,0E0,0E0,0E0,0E0,0E0,0E0,0E0,0E0,0E0,0E0,0E0,0E0,0E0,0E0,0E0,0E0,0E0,0E0,0E0,0E0,0E0,0E0,0E0,0E0,0E0,0E0,0E0,0E0,0E0,0E0,0E0,0E0],"parents":[2147483647,0,0,1,1,2,2,3,3,4,4,5,5,6,6,7,7,8,8,9,9,10,10,11,11,12,12,13,13,14,14,15,15,16,16,17,17,18,18,19,19,20,20,21,21,22,22,23,23,24,24,25,25,26,26,27,27,28,28,29,29,30,30,31,31,32,32,33,33,34,34,35,35,36,36,37,37,38,38,39,39,40,40,41,41,42,42,43,43,44,44,45,45,46,46,47,47,48,48,49,49,50,50,51,51,52,52,53,53,54,54,55,55,56,56,57,57,58,58,59,59,62,62,63,63,64,64,65,65,66,66,67,67,68,68,69,69,70,70,71,71,72,72,73,73,74,74,75,75,76,76,77,77,78,78,79,79,80,80,81,81,82,82,83,83,84,84,85,85,86,86,87,87,88,88,89,89,90,90,92,92,93,93,94,94,95,95,96,96,97,97,99,99,100,100,101,101,102,102,103,103,104,104,105,105,107,107,111,111,112,112,113,113,116,116,123,123,124,124,125,125,126,126,127,127,128,128,129,129,130,130,131,131,132,132,133,133,134,134,135,135,136,136,137,137,138,138,139,139,140,140,141,141,142,142,143,143,144,144,145,145,146,146,147,147,148,148,149,149,150,150,152,152,153,153,154,154,155,155,156,156,157,157,159,159,161,161,162,162,163,163,164,164,165,165,167,167,168,168,169,169,170,170,171,171,172,172,173,173,174,174,175,175,177,177,178,178,179,179,180,180,181,181,182,182,183,183,184,184,185,185,186,186,187,187,188,188,189,189,191,191,192,192,193,193,194,194,195,195,197,197,199,199,200,200,203,203,204,204,205,205,206,206,208,208,209,209,212,212,214,214,215,215,216,216,217,217,218,218,219,219,220,220,221,221,222,222,223,223,224,224,225,225,226,226,227,227,228,228,229,229,230,230,231,231,232,232,233,233,234,234,235,235,236,236,237,237,238,238,239,239,240,240,241,241,242,242,243,243,244,244,246,246,247,247,248,248,249,249,250,250,251,251,252,252,253,253,254,254,255,255,256,256,257,257,258,258,259,259,260,260,261,261,262,262,263,263,264,264,265,265,266,266,267,267,269,269,270,270,271,271,272,272,273,273,274,274,275,275,276,276,277,277,278,278,279,279,280,280,281,281,282,282,285,285,287,287,288,288,289,289,290,290,291,291,292,292,293,293,294,294,295,295,296,296,297,297,298,298,299,299,300,300,301,301,302,302,303,303,304,304,305,305,308,308,311,311,312,312,313,313,315,315,316,316,318,318,321,321,322,322,323,323,324,324,325,325,326,326,328,328,329,329,330,330,331,331,332,332,333,333,335,335,336,336,339,339,343,343,344,344,345,345,346,346,355,355,356,356,358,358,361,361,362,362,364,364,367,367,371,371,372,372,373,373,374,374,375,375,376,376,377,377,378,378,379,379,380,380,381,381,382,382,383,383,384,384,385,385,386,386,387,387,388,388,389,389,390,390,391,391,392,392,393,393,394,394,395,395,396,396,397,397,398,398,399,399,400,400,401,401,402,402,403,403,404,404,405,405,406,406,407,407,408,408,409,409,410,410,411,411,412,412,413,413,414,414,415,415,416,416,418,418,419,419,420,420,421,421,422,422,423,423,424,424,425,425,426,426,429,429,433,433,437,437,438,438,439,439,440,440,441,441,443,443,444,444,445,445,446,446,447,447,448,448,449,449,450,450,451,451,452,452,453,453,454,454,455,455,456,456,457,457,458,458,459,459,460,460,461,461,462,462,463,463,465,465,466,466,467,467,468,468,469,469,470,470,471,471,472,472,475,475,476,476,477,477,478,478,479,479,481,481,482,482,483,483,484,484,485,485,486,486,487,487,488,488,489,489,491,491,493,493,494,494,496,496,497,497,499,499,500,500,502,502,503,503,504,504,508,508,509,509,511,511,512,512,513,513,515,515,518,518,521,521,522,522,523,523,524,524,525,525,530,530,531,531,532,532,533,533,534,534,537,537,539,539,540,540,541,541,542,542,544,544,545,545,547,547,548,548,549,549,550,550,551,551,553,553,554,554,555,555,557,557,558,558,559,559,560,560,561,561,562,562,563,563,564,564,565,565,566,566,567,567,568,568,574,574,575,575,576,576,577,577,580,580,583,583,585,585,587,587,588,588,590,590,593,593,594,594,597,597,600,600,601,601,602,602],"right_children":[2,4,6,8,10,12,14,16,18,20,22,24,26,28,30,32,34,36,38,40,42,44,46,48,50,52,54,56,58,60,62,64,66,68,70,72,74,76,78,80,82,84,86,88,90,92,94,96,98,100,102,104,106,108,110,112,114,116,118,120,-1,-1,122,124,126,128,130,132,134,136,138,140,142,144,146,148,150,152,154,156,158,160,162,164,166,168,170,172,174,176,178,-1,180,182,184,186,188,190,-1,192,194,196,198,200,202,204,-1,206,-1,-1,-1,208,210,212,-1,-1,214,-1,-1,-1,-1,-1,-1,216,218,220,222,224,226,228,230,232,234,236,238,240,242,244,246,248,250,252,254,256,258,260,262,264,266,268,270,-1,272,274,276,278,280,282,-1,284,-1,286,288,290,292,294,-1,296,298,300,302,304,306,308,310,312,-1,314,316,318,320,322,324,326,328,330,332,334,336,338,-1,340,342,344,346,348,-1,350,-1,352,354,-1,-1,356,358,360,362,-1,364,366,-1,-1,368,-1,370,372,374,376,378,380,382,384,386,388,390,392,394,396,398,400,402,404,406,408,410,412,414,416,418,420,422,424,426,428,430,-1,432,434,436,438,440,442,444,446,448,450,452,454,456,458,460,462,464,466,468,470,472,474,-1,476,478,480,482,484,486,488,490,492,494,496,498,500,502,-1,-1,504,-1,506,508,510,512,514,516,518,520,522,524,526,528,530,532,534,536,538,540,542,-1,-1,544,-1,-1,546,548,550,-1,552,554,-1,556,-1,-1,558,560,562,564,566,568,-1,570,572,574,576,578,580,-1,582,584,-1,-1,586,-1,-1,-1,588,590,592,594,-1,-1,-1,-1,-1,-1,-1,-1,596,598,-1,600,-1,-1,602,604,-1,606,-1,-1,608,-1,-1,-1,610,612,614,616,618,620,622,624,626,628,630,632,634,636,638,640,642,644,646,648,650,652,654,656,658,660,662,664,666,668,670,672,674,676,678,680,682,684,686,688,690,692,694,696,698,700,-1,702,704,706,708,710,712,714,716,718,-1,-1,720,-1,-1,-1,722,-1,-1,-1,724,726,728,730,732,-1,734,736,738,740,742,744,746,748,750,752,754,756,758,760,762,764,766,768,770,772,774,-1,776,778,780,782,784,786,788,790,-1,-1,792,794,796,798,800,-1,802,804,806,808,810,812,814,816,818,-1,820,-1,822,824,-1,826,828,-1,830,832,-1,834,836,838,-1,-1,-1,840,842,-1,844,846,848,-1,850,-1,-1,852,-1,-1,854,856,858,860,862,-1,-1,-1,-1,864,866,868,870,872,-1,-1,874,-1,876,878,880,882,-1,884,886,-1,888,890,892,894,896,-1,898,900,902,-1,904,906,908,910,912,914,916,918,920,922,924,926,-1,-1,-1,-1,-1,928,930,932,934,-1,-1,936,-1,-1,938,-1,940,-1,942,944,-1,946,-1,-1,948,950,-1,-1,952,-1,-1,954,956,958,-1,-1,-1,-1,-1,-1,-1,-1,-1,-1,-1,-1,-1,-1,-1,-1,-1,-1,-1,-1,-1,-1,-1,-1,-1,-1,-1,-1,-1,-1,-1,-1,-1,-1,-1,-1,-1,-1,-1,-1,-1,-1,-1,-1,-1,-1,-1,-1,-1,-1,-1,-1,-1,-1,-1,-1,-1,-1,-1,-1,-1,-1,-1,-1,-1,-1,-1,-1,-1,-1,-1,-1,-1,-1,-1,-1,-1,-1,-1,-1,-1,-1,-1,-1,-1,-1,-1,-1,-1,-1,-1,-1,-1,-1,-1,-1,-1,-1,-1,-1,-1,-1,-1,-1,-1,-1,-1,-1,-1,-1,-1,-1,-1,-1,-1,-1,-1,-1,-1,-1,-1,-1,-1,-1,-1,-1,-1,-1,-1,-1,-1,-1,-1,-1,-1,-1,-1,-1,-1,-1,-1,-1,-1,-1,-1,-1,-1,-1,-1,-1,-1,-1,-1,-1,-1,-1,-1,-1,-1,-1,-1,-1,-1,-1,-1,-1,-1,-1,-1,-1,-1,-1,-1,-1,-1,-1,-1,-1,-1,-1,-1,-1,-1,-1,-1,-1,-1,-1,-1,-1,-1,-1,-1,-1,-1,-1,-1,-1,-1,-1,-1,-1,-1,-1,-1,-1,-1,-1,-1,-1,-1,-1,-1,-1,-1,-1,-1,-1,-1,-1,-1,-1,-1,-1,-1,-1,-1,-1,-1,-1,-1,-1,-1,-1,-1,-1,-1,-1,-1,-1,-1,-1,-1,-1,-1,-1,-1,-1,-1,-1,-1,-1,-1,-1,-1,-1,-1,-1,-1,-1,-1,-1,-1,-1,-1,-1,-1,-1,-1,-1,-1,-1,-1,-1,-1,-1,-1,-1,-1,-1,-1,-1,-1,-1,-1,-1,-1,-1,-1,-1,-1,-1,-1,-1,-1,-1,-1,-1,-1,-1,-1,-1,-1,-1,-1,-1,-1,-1,-1,-1,-1,-1,-1,-1,-1,-1,-1,-1,-1,-1,-1,-1,-1,-1,-1,-1,-1,-1,-1,-1,-1,-1,-1,-1,-1,-1,-1,-1,-1,-1,-1,-1,-1,-1,-1,-1,-1,-1,-1,-1,-1,-1,-1,-1,-1,-1],"split_conditions":[8E0,4E0,2.15E1,3.1717E4,5E0,1.4E1,7.2E1,1.501E3,3.5453E4,4.69E2,1.278E3,1E1,1.8E1,4E1,1.4833333E2,2E0,6.605E3,3.4053E4,4.3285E4,2.6E1,1.242E3,6E0,1.309E3,2.828E3,1.661E3,9E0,1.8E1,3.2E1,7.1333336E1,6.606E3,1.016E3,1.24E3,3E0,3.0549E4,3.0531E4,4.417E3,1.7E1,4.1938E4,4.6772E4,1.248E3,1.125E3,2.2E1,3.5651E4,5.703E3,2.2E1,5E0,2.822E3,3.1E1,4.3285E4,1.1E1,4.91E3,5.1E2,5E0,2.823E3,2.52E2,1.661E3,1.93E2,2.52E2,4.7E1,1.48E2,2.5462508E-1,4.852738E-2,4.03E2,1.212E3,1.309E3,1.24E3,1.242E3,6.469E3,2.3E1,3.27E3,4.26E2,2.36E2,1.7E1,4E0,4E0,3.6536E4,5E1,1.501E3,2.2E1,1.028E3,4.3084E4,7.8E1,4.17E2,1.23E3,4.6E1,3.4053E4,1.232E3,3E1,1.145E3,1.501E3,6E2,1.0446682E-1,1.5E1,3.159E4,4.3285E4,1.278E3,4.81E2,4.554E3,1.7509773E-1,6.75E2,1.278E3,2E0,4E0,5.712E3,1.217E3,1.278E3,1.9566858E-1,1.233E3,2.0348792E-1,2.3469277E-1,1.994321E-1,1.014E3,2E0,3.003E3,2.348012E-1,3.091731E-1,1.012E3,-5.458328E-2,1.3993153E-2,3.350929E-1,9.523771E-2,4.3884158E-1,2.801809E-1,1.182E3,3E1,1.278E3,1.6E1,1.027E3,1.6E1,4.89E2,1.309E3,3.7E1,2.5E1,2.166E3,1.661E3,1.182E3,5.328E3,4E0,4.4E1,2.2E1,3.2861E4,8E0,3.2934E4,7E0,4.418E3,2.802E3,1.661E3,2.813E3,3.7005E4,4.3209E4,2.1E1,2.894416E-1,4.3316E4,1.123E3,4.8417E4,1.15E3,1.278E3,3.5453E4,1.21830456E-1,4.53E2,2.4411408E-2,4.3285E4,4.21E2,9E0,1.15E3,1.231E3,1.1037188E-1,1.309E3,2.167E3,7E0,4.3285E4,6.19E2,5.701E3,3.3E1,3E0,6E0,1.2102895E-1,1.24E3,1.238E3,8.14E2,5.77E2,4.94E2,3.5651E4,5.702E3,1E1,2.02E2,1.309E3,1.021E3,4.0217E4,4.3209E4,1.4443363E-1,1.278E3,6.76E2,2.9E1,1.309E3,5.709E3,1.5793447E-1,5.328E3,1.8073529E-1,4.3058E4,6.605E3,1.00283206E-1,1.4166223E-1,1.182E3,5.328E3,7.86E2,1.238E3,7.79159E-2,1.8E1,9.72E2,2.3021829E-1,2.685851E-1,3.5651E4,7.474497E-2,7.1E1,1.12E3,1.5E1,1E1,1.238E3,1.4E1,1.1E1,2.025E3,3.144E3,1.182E3,2.8E1,2.025E3,2.025E3,1.182E3,1.24E3,1.278E3,2.2E1,2E0,5.701E3,3E0,4.61E2,3.1513E4,5.102E3,3.9E1,3.62E2,1.9E1,1.278E3,3.631E3,4E0,3.0549E4,3.1507E4,1.2626804E-1,4.8E1,3.2934E4,1.01E3,3.64E2,3.2934E4,3E0,3.2934E4,4E0,3.1E1,5.708E3,2.81E3,2.78E2,5.71E3,3.4868E4,2E0,3.4868E4,5E1,1.9E1,3.5516E4,2.801E3,4.0886E4,1.51E3,6.254218E-2,2.813E3,4.3084E4,2.2E1,1.511E3,1.026E3,6.74E2,4.8077E4,4.5E1,1E1,1.212E3,7E0,2E1,3.159E4,3.5456E4,8.64262E-2,2.4682237E-2,2.8E1,1.4140147E-1,3.894E3,1.145E3,1.229E3,1.228E3,5.86E2,1.235E3,2.02E2,1.682E3,1.278E3,3.3E1,8E0,2.168E3,1.213E3,4.7612E4,4.1938E4,4.7612E4,2.02E2,1.3E1,1.12E3,3.1200815E-2,9.758087E-2,2.02E2,4.0789517E-3,1.23660564E-1,1.238E3,1.25E3,4.1E1,1.4208458E-1,5.8E1,6.85E2,1.422202E-1,1.216E3,8.984155E-2,1.7082001E-1,3.1467E4,1.115E3,2.801E3,4.3084E4,5.59E2,3.0531E4,1.18916E-1,4E1,6.89E2,1.126E3,2.9E1,2.827E3,1.011E3,1.530558E-1,3.5453E4,3.9E1,1.2644279E-1,4.6197098E-2,1.25E3,1.4184485E-1,4.5427997E-2,1.2706076E-1,9.15E2,7.18E2,1.121E3,2.8E1,5.74857E-4,8.581226E-2,5.74857E-4,1.2502113E-1,1.8906681E-1,1.3677946E-1,-1.5675366E-3,5.5505473E-2,1E1,1.121E3,1.8896404E-1,6.469E3,1.835557E-1,1.349479E-1,5.34E2,3E0,1.888237E-1,4.3316E4,1.3366394E-1,-2.626145E-3,3.0531E4,-3.891209E-2,2.7499592E-1,1.4782791E-1,2.02E2,1.129E3,1.58E2,6.74E2,1.215E3,1.232E3,1.23E3,5.83E2,1.25E3,3.7E1,8.14E2,2E1,8E0,4.74E2,3.2E1,3.9E1,1.018E3,3.8E1,1.212E3,1.127E3,1.278E3,5.86E2,2.9E1,2.9E1,1.212E3,1.212E3,1.212E3,1.7E1,2.3E1,1.7E1,1.4E1,4.91E3,1.24E3,5.708E3,4.91E3,1.212E3,2.79E2,5.17E2,2E0,2E0,2.79E2,3E0,3.18E2,2E0,2.99E2,4.55E2,2.0560156E-1,3.3E1,1.16E3,2.5E1,3.86E2,4.08E2,2E1,2.9E1,5E1,6.606E3,9.17449E-3,1.0873083E-1,6.607E3,9.649552E-2,5.1657916E-3,9.648283E-2,3.2861E4,6.520024E-3,2.8434087E-2,2.4529128E-1,1E1,5.1E1,2.69E2,3.5E1,7E0,-2.881741E-2,4.03E2,1E1,4.418E3,5.65E2,2.1E1,5E1,2E0,2.91E2,1.111E3,3.62E2,1.212E3,3.4868E4,6E0,3.64E2,1.112E3,3.4E1,2.63E2,3.5141E4,3.4768E4,4.6E1,3.5309E4,3.781153E-2,3.5456E4,3.9E1,4.418E3,2.4E1,1.248E3,3.661E4,5.702E3,4E0,2.3647034E-1,6.089703E-2,1.1E1,4.3064E4,3.01E2,4.3203E4,2E0,1.7851524E-1,4E0,3.5E1,4.7612E4,4.7612E4,9E0,9.15E2,2.9E1,3.43E2,4E1,1.7367126E-1,1.129E3,7.928128E-2,1.016E3,1.011E3,6.961172E-2,1.15E3,4.1938E4,6.4796777E-3,3.1031E4,5.707E3,4.712006E-2,2E0,3.86E2,5.711E3,8.610244E-2,5.5542666E-2,1.4361931E-1,1.212E3,5.77E2,-2.734041E-2,1.12E3,1.109E3,1.233E3,6.822304E-2,3E0,6.582298E-2,1.1091938E-1,1.24E3,1.1052777E-1,2.4705017E-2,1.125E3,8.18E2,1.6E1,9.93E2,1.237E3,1.1938276E-1,4.557738E-2,9.419141E-2,6.657672E-3,1.219E3,1.021E3,1.6E1,2.7E1,2.813E3,1.1321761E-1,4.3824397E-2,1.2E1,8.6936995E-2,7.33E2,6.89E2,3.2E1,4.2E1,9.17449E-3,6.61E3,7E0,5.438602E-3,1.12E3,1.3E1,1.109E3,1.11E3,1.126E3,5.1798495E-3,2.3E1,9.93E2,1.123E3,1.2134098E-1,1.5E1,2.79E2,7E0,1.6E1,1.6E1,7E0,3.4E1,4.5143E4,8E0,4.093E4,4.03E2,2.7E1,1.537774E-1,6.1767913E-2,7.1655646E-2,-3.1949762E-2,1.2255695E-1,1.8E1,1.3E1,1.116E3,2.025E3,7.2419636E-2,2.2099484E-2,1.02E3,1.2640724E-1,9.488347E-2,4.8077E4,1.6616748E-1,6.74E2,3.4933697E-2,1.212E3,2.4E1,1.5775879E-1,1.238E3,1.8728049E-1,1.6372035E-1,9.93E2,2.166E3,5.336308E-2,1.9182172E-1,2.2E1,1.6093443E-1,8.5320614E-2,3.2E1,1.9E1,6E0,4.835912E-2,1.5975444E-1,2.1025315E-1,6.0012E-2,-3.7499834E-2,1.9471209E-1,5.2683856E-2,2.723516E-2,5.7372868E-2,3.595151E-2,-2.9372877E-2,8.95675E-2,1.3150993E-1,6.1020534E-2,2.4655512E-2,1.7827721E-2,2.3852495E-2,3.242248E-2,4.6370998E-2,3.397387E-2,1.300788E-1,7.172747E-2,5.011046E-2,3.344361E-2,6.911508E-2,1.1310127E-1,1.322053E-1,7.741082E-2,1.608287E-1,2.1993314E-1,3.3308376E-2,4.5583617E-2,3.7075594E-2,2.5572283E-2,5.455322E-2,8.910856E-2,3.5777647E-2,5.664092E-2,6.296613E-2,5.3115387E-2,1.001743E-1,2.5948215E-2,4.786612E-2,3.775658E-2,4.9350202E-2,7.2013296E-2,5.476405E-2,6.843392E-2,4.8504267E-2,2.9788068E-2,7.37906E-2,1.0229289E-1,5.2308142E-2,6.593737E-2,7.344403E-2,4.108483E-2,1.4290465E-1,7.297638E-2,6.284617E-2,5.357259E-2,5.6875367E-2,8.078917E-2,7.2483614E-2,1.0524049E-1,1.11290276E-1,5.966233E-2,4.8913553E-2,6.301432E-2,7.899482E-2,6.266319E-2,2.8323477E-2,4.1744836E-2,7.530127E-2,5.495583E-2,8.6479925E-2,-2.9417401E-2,7.4370414E-2,1.4875786E-1,9.833362E-2,6.7693025E-2,9.648155E-2,7.2155654E-2,1.585891E-1,8.834917E-2,5.5720843E-2,1.0412826E-1,8.1699945E-2,6.2031932E-2,3.938146E-2,6.6140905E-2,5.4196257E-2,4.2398404E-2,1.7468456E-2,7.021968E-2,8.098024E-2,5.749696E-2,8.9882456E-2,6.941677E-2,1.2585677E-1,3.4974348E-2,1.1329291E-1,5.8343537E-2,4.4154894E-2,6.497844E-2,1.1901563E-1,8.524201E-2,7.223162E-2,5.475812E-2,2.8115734E-2,9.905616E-2,1.0241499E-1,1.438508E-1,8.584472E-2,3.803758E-2,1.5374805E-1,1.0511708E-1,2.5940236E-1,1.8812628E-1,3.5724375E-2,9.3196504E-2,-2.4877323E-2,3.1106425E-2,5.5684336E-2,-2.9470935E-2,8.693365E-3,8.466169E-2,4.5955118E-2,6.875067E-2,7.4901536E-2,2.1051483E-2,9.687432E-2,4.8892464E-2,-1.654788E-2,7.0976995E-2,3.3946242E-2,1.08675875E-1,1.4374098E-1,5.0415374E-2,9.529132E-2,3.2266997E-2,1.0766976E-1,3.28878E-2,5.886789E-2,8.0100924E-2,1.9949485E-2,6.740473E-2,4.023862E-3,9.646137E-2,9.749214E-2,7.353067E-2,6.520024E-3,1.357748E-1,4.926138E-2,1.0209649E-1,1.092664E-1,1.4825341E-1,7.656621E-2,1.2985633E-1,8.404083E-3,4.2842697E-2,1.1767378E-1,1.6443336E-1,2.0108722E-2,4.245099E-2,5.629432E-2,9.910207E-2,7.3108904E-2,3.0742472E-2,1.3482781E-1,2.171357E-1,1.9404297E-1,1.24027945E-1,-4.21956E-3,4.1895565E-2,5.705164E-2,9.3277894E-2,5.26353E-2,1.13569036E-1,9.8364346E-2,1.3378184E-1,1.8880624E-2,1.0944102E-1,1.18495025E-1,2.2753899E-1,6.789948E-2,1.07885234E-1,7.9541706E-2,1.0275344E-1,2.7764378E-2,4.058154E-2,5.738751E-2,4.3665674E-2,1.0710906E-1,6.217282E-2,1.5430185E-2,5.7241548E-2,9.699132E-2,1.2643516E-1,3.9991975E-2,1.6804723E-1,1.1075511E-2,4.329369E-2,8.595924E-2,5.5740792E-2,3.7947003E-2,9.8803245E-2,4.8229937E-2,7.105577E-2,3.9156523E-2,6.5872215E-2,8.052682E-2,9.5204614E-2,5.0244987E-2,1.7524296E-2,1.0840925E-1,4.2120144E-2,-2.420187E-3,4.5176785E-2,1.5765867E-1,5.6281168E-2,4.04805E-2,9.0459436E-2,6.519165E-2,3.6176093E-2,1.1654075E-1,8.33776E-3,9.689301E-2,6.9007814E-2,1.1083408E-1,8.005384E-2,2.463252E-2,8.671045E-2,9.4046354E-2,3.258985E-2,1.0699717E-1,1.263641E-1,6.1470307E-2,1.0526567E-1,2.8599266E-2,5.1042464E-2,5.5096794E-2,6.8187706E-2,7.3169502E-3,4.775776E-2,7.775458E-3,3.6601044E-2,6.3921423E-3,9.220036E-2,7.061373E-2,8.533352E-2,9.985546E-2,7.2405316E-2,1.414027E-1,1.0266999E-1,6.084029E-2,7.187433E-2,9.2361204E-2,6.0139657E-3,8.8230535E-2,4.220146E-3,7.8291E-2,3.5624415E-2,1.6098509E-2,6.96644E-2,6.316128E-2,1.0043144E-1,8.113525E-2,1.0715791E-1,5.6957036E-2,8.5256256E-2,2.5573049E-2,5.2997917E-3,7.347958E-2,4.243086E-2,6.840634E-2,8.865204E-2,3.4049958E-2,8.316122E-2,9.514623E-2,1.1454164E-1,5.8578838E-2,1.8761842E-2,7.9656325E-2,4.2526163E-2,5.815602E-2,9.725675E-2,5.079161E-2,8.846376E-2,7.4357755E-2,1.11837104E-1,1.4626066E-1,1.1778772E-1,8.048713E-2,1.0872161E-1,4.5769187E-3,1.0001711E-1,1.2591615E-1,4.7840666E-2,3.1184892E-3,5.2620877E-2,8.8053755E-2,1.1622798E-1,1.1967295E-1,7.335025E-2,3.930587E-2,9.996333E-2,7.130875E-2,9.86849E-2,1.164304E-1,1.4260034E-1,1.00783184E-1,1.210435E-1,8.81226E-2,1.0875579E-1,1.2431552E-1,1.0341825E-1,9.222644E-2,1.1544912E-1,7.962993E-2,3.602637E-2,1.2120012E-1,9.9878214E-2,1.2274828E-1,1.4423613E-1,9.8099254E-2,1.1806653E-1,1.3024811E-1,1.5987167E-1,-3.3144604E-2,5.644337E-2,7.331365E-2,1.2343352E-1,1.289243E-1,7.0248894E-2,8.2014374E-2,1.3960399E-1,1.1636229E-1,2.620027E-2,1.4587864E-1,1.1614227E-1,6.684465E-2,2.4504007E-3,5.112764E-2,1.3538025E-1,1.4512701E-1,2.1390332E-2,1.512882E-1,1.668906E-1,8.186021E-2,1.3864553E-1,1.6468458E-1,1.8203382E-1,7.634917E-2,1.64396E-2,4.317365E-2,1.2942366E-1],"split_indices":[6,6,6,0,6,6,6,2,0,8,0,6,6,6,6,6,2,0,0,9,0,6,0,2,3,9,9,9,6,2,2,0,6,0,0,2,9,0,0,2,0,9,0,2,9,9,2,9,0,9,0,8,5,2,8,3,8,8,8,6,0,0,8,0,0,0,0,0,9,0,8,8,9,6,6,0,8,2,9,2,0,9,8,2,9,0,2,9,0,2,8,0,9,0,0,0,8,2,0,8,0,9,9,2,2,0,0,2,0,0,0,2,9,2,0,0,2,0,0,0,0,0,0,0,9,0,9,2,9,8,0,9,9,2,3,0,0,6,9,9,0,9,0,9,2,2,3,2,0,0,9,0,0,2,0,0,0,0,0,8,0,0,8,9,0,2,0,0,2,9,0,8,2,9,9,9,0,0,0,8,8,8,0,2,9,0,0,2,0,0,0,0,8,9,0,2,0,0,0,0,2,0,0,0,0,8,2,0,9,0,0,0,0,0,6,0,9,9,0,9,9,0,0,0,9,0,0,0,0,0,9,6,2,6,8,0,2,9,8,9,0,0,6,0,0,0,9,0,2,8,0,6,0,6,9,2,2,8,2,0,6,0,9,9,0,2,0,2,0,2,0,9,2,2,8,0,9,9,0,9,9,0,0,0,0,9,0,0,0,2,2,8,2,0,3,0,9,9,2,2,0,0,0,0,9,0,0,0,0,0,0,2,0,9,0,9,8,0,2,0,0,0,2,2,0,8,0,0,9,8,2,9,2,2,0,0,9,0,0,0,0,0,0,8,8,2,9,0,0,0,0,0,0,0,0,9,2,0,0,0,0,8,9,0,0,0,0,0,0,0,0,0,0,8,8,2,0,0,8,0,9,8,9,9,8,9,9,2,9,0,2,0,8,9,9,2,0,0,9,9,9,9,0,0,2,0,0,8,8,6,6,8,6,8,6,8,8,0,9,0,9,8,8,9,9,9,2,0,0,2,0,0,0,0,0,0,0,9,9,8,9,9,0,8,9,2,8,9,9,6,8,2,8,2,0,9,8,2,9,8,0,0,9,0,0,0,9,2,9,2,0,2,6,0,0,9,0,8,0,9,0,6,9,0,0,9,8,9,8,9,0,0,0,2,2,0,0,0,0,0,2,0,9,8,2,0,0,0,0,8,0,2,0,2,0,9,0,0,0,0,0,2,8,9,8,2,0,0,0,0,2,2,9,9,2,0,0,9,0,8,8,9,9,0,2,6,0,0,9,0,2,2,0,9,8,2,0,9,8,6,9,9,6,9,0,9,0,8,9,0,0,0,0,0,9,9,2,0,0,0,2,0,0,0,0,8,0,0,9,0,0,0,0,8,2,0,0,9,0,0,9,6,9,0,0,0,0,0,0,0,0,0,0,0,0,0,0,0,0,0,0,0,0,0,0,0,0,0,0,0,0,0,0,0,0,0,0,0,0,0,0,0,0,0,0,0,0,0,0,0,0,0,0,0,0,0,0,0,0,0,0,0,0,0,0,0,0,0,0,0,0,0,0,0,0,0,0,0,0,0,0,0,0,0,0,0,0,0,0,0,0,0,0,0,0,0,0,0,0,0,0,0,0,0,0,0,0,0,0,0,0,0,0,0,0,0,0,0,0,0,0,0,0,0,0,0,0,0,0,0,0,0,0,0,0,0,0,0,0,0,0,0,0,0,0,0,0,0,0,0,0,0,0,0,0,0,0,0,0,0,0,0,0,0,0,0,0,0,0,0,0,0,0,0,0,0,0,0,0,0,0,0,0,0,0,0,0,0,0,0,0,0,0,0,0,0,0,0,0,0,0,0,0,0,0,0,0,0,0,0,0,0,0,0,0,0,0,0,0,0,0,0,0,0,0,0,0,0,0,0,0,0,0,0,0,0,0,0,0,0,0,0,0,0,0,0,0,0,0,0,0,0,0,0,0,0,0,0,0,0,0,0,0,0,0,0,0,0,0,0,0,0,0,0,0,0,0,0,0,0,0,0,0,0,0,0,0,0,0,0,0,0,0,0,0,0,0,0,0,0,0,0,0,0,0,0,0,0,0,0,0,0,0,0,0,0,0,0,0,0,0,0,0,0,0,0,0,0,0,0,0,0,0,0,0,0,0,0,0,0,0,0,0,0,0,0,0,0,0,0,0,0,0,0,0,0,0,0,0],"split_type":[0,0,0,0,0,0,0,0,0,0,0,0,0,0,0,0,0,0,0,0,0,0,0,0,0,0,0,0,0,0,0,0,0,0,0,0,0,0,0,0,0,0,0,0,0,0,0,0,0,0,0,0,0,0,0,0,0,0,0,0,0,0,0,0,0,0,0,0,0,0,0,0,0,0,0,0,0,0,0,0,0,0,0,0,0,0,0,0,0,0,0,0,0,0,0,0,0,0,0,0,0,0,0,0,0,0,0,0,0,0,0,0,0,0,0,0,0,0,0,0,0,0,0,0,0,0,0,0,0,0,0,0,0,0,0,0,0,0,0,0,0,0,0,0,0,0,0,0,0,0,0,0,0,0,0,0,0,0,0,0,0,0,0,0,0,0,0,0,0,0,0,0,0,0,0,0,0,0,0,0,0,0,0,0,0,0,0,0,0,0,0,0,0,0,0,0,0,0,0,0,0,0,0,0,0,0,0,0,0,0,0,0,0,0,0,0,0,0,0,0,0,0,0,0,0,0,0,0,0,0,0,0,0,0,0,0,0,0,0,0,0,0,0,0,0,0,0,0,0,0,0,0,0,0,0,0,0,0,0,0,0,0,0,0,0,0,0,0,0,0,0,0,0,0,0,0,0,0,0,0,0,0,0,0,0,0,0,0,0,0,0,0,0,0,0,0,0,0,0,0,0,0,0,0,0,0,0,0,0,0,0,0,0,0,0,0,0,0,0,0,0,0,0,0,0,0,0,0,0,0,0,0,0,0,0,0,0,0,0,0,0,0,0,0,0,0,0,0,0,0,0,0,0,0,0,0,0,0,0,0,0,0,0,0,0,0,0,0,0,0,0,0,0,0,0,0,0,0,0,0,0,0,0,0,0,0,0,0,0,0,0,0,0,0,0,0,0,0,0,0,0,0,0,0,0,0,0,0,0,0,0,0,0,0,0,0,0,0,0,0,0,0,0,0,0,0,0,0,0,0,0,0,0,0,0,0,0,0,0,0,0,0,0,0,0,0,0,0,0,0,0,0,0,0,0,0,0,0,0,0,0,0,0,0,0,0,0,0,0,0,0,0,0,0,0,0,0,0,0,0,0,0,0,0,0,0,0,0,0,0,0,0,0,0,0,0,0,0,0,0,0,0,0,0,0,0,0,0,0,0,0,0,0,0,0,0,0,0,0,0,0,0,0,0,0,0,0,0,0,0,0,0,0,0,0,0,0,0,0,0,0,0,0,0,0,0,0,0,0,0,0,0,0,0,0,0,0,0,0,0,0,0,0,0,0,0,0,0,0,0,0,0,0,0,0,0,0,0,0,0,0,0,0,0,0,0,0,0,0,0,0,0,0,0,0,0,0,0,0,0,0,0,0,0,0,0,0,0,0,0,0,0,0,0,0,0,0,0,0,0,0,0,0,0,0,0,0,0,0,0,0,0,0,0,0,0,0,0,0,0,0,0,0,0,0,0,0,0,0,0,0,0,0,0,0,0,0,0,0,0,0,0,0,0,0,0,0,0,0,0,0,0,0,0,0,0,0,0,0,0,0,0,0,0,0,0,0,0,0,0,0,0,0,0,0,0,0,0,0,0,0,0,0,0,0,0,0,0,0,0,0,0,0,0,0,0,0,0,0,0,0,0,0,0,0,0,0,0,0,0,0,0,0,0,0,0,0,0,0,0,0,0,0,0,0,0,0,0,0,0,0,0,0,0,0,0,0,0,0,0,0,0,0,0,0,0,0,0,0,0,0,0,0,0,0,0,0,0,0,0,0,0,0,0,0,0,0,0,0,0,0,0,0,0,0,0,0,0,0,0,0,0,0,0,0,0,0,0,0,0,0,0,0,0,0,0,0,0,0,0,0,0,0,0,0,0,0,0,0,0,0,0,0,0,0,0,0,0,0,0,0,0,0,0,0,0,0,0,0,0,0,0,0,0,0,0,0,0,0,0,0,0,0,0,0,0,0,0,0,0,0,0,0,0,0,0,0,0,0,0,0,0,0,0,0,0,0,0,0,0,0,0,0,0,0,0,0,0,0,0,0,0,0,0,0,0,0,0,0,0,0,0,0,0,0,0,0,0,0,0,0,0,0,0,0,0,0,0,0,0,0,0,0,0,0,0,0,0,0,0,0,0,0,0,0,0,0,0,0,0,0,0,0,0,0,0,0,0,0],"sum_hessian":[5.871E4,5.0126E4,8.584E3,4.1017E4,9.109E3,6.495E3,2.089E3,2.5314E4,1.5703E4,3.514E3,5.595E3,4.642E3,1.853E3,1.746E3,3.43E2,1.9815E4,5.499E3,3.627E3,1.2076E4,1.328E3,2.186E3,1.775E3,3.82E3,1.978E3,2.664E3,1.094E3,7.59E2,1.133E3,6.13E2,2.27E2,1.16E2,1.3227E4,6.588E3,4.702E3,7.97E2,5.87E2,3.04E3,9.582E3,2.494E3,7.99E2,5.29E2,5.9E2,1.596E3,7.68E2,1.007E3,4.13E2,3.407E3,1.481E3,4.97E2,2.188E3,4.76E2,1.5E2,9.44E2,2.27E2,5.32E2,6.5E2,4.83E2,6.1E2,3E0,2.09E2,1.8E1,1E0,1.15E2,6.72E3,6.507E3,4.458E3,2.13E3,2.308E3,2.394E3,7.08E2,8.9E1,3.96E2,1.91E2,2.159E3,8.81E2,5.086E3,4.496E3,1.165E3,1.329E3,2.03E2,5.96E2,5.1E1,4.78E2,3.14E2,2.76E2,1.127E3,4.69E2,6.76E2,9.2E1,4.67E2,5.4E2,6.2E1,3.51E2,2.276E3,1.131E3,1.052E3,4.29E2,4.54E2,4.3E1,4.67E2,1.721E3,1.98E2,2.78E2,6.8E1,8.2E1,8.47E2,9.7E1,1.63E2,6.4E1,4.3E1,4.89E2,4.44E2,2.06E2,1.04E2,3.79E2,1E2,5.1E2,2E0,1E0,2.08E2,1E0,1.08E2,7E0,3.117E3,3.603E3,2.565E3,3.942E3,2.021E3,2.437E3,1.088E3,1.042E3,1.447E3,8.61E2,1.577E3,8.17E2,4.5E2,2.58E2,6.4E1,2.5E1,1E1,3.86E2,6.6E1,1.25E2,5.75E2,1.584E3,2.67E2,6.14E2,1.37E3,3.716E3,1.7E1,4.479E3,2E2,9.65E2,8.85E2,4.44E2,1.59E2,4.4E1,5.54E2,4.2E1,5E1,1E0,2.83E2,1.95E2,2.2E2,9.4E1,2.51E2,2.5E1,9.24E2,2.03E2,2.1E2,2.59E2,4.7E2,2.06E2,2.2E1,7E1,4.07E2,6E1,3.1E2,2.3E2,2.69E2,8.2E1,7.37E2,1.539E3,9.72E2,1.59E2,2.75E2,7.77E2,1.9E2,2.39E2,9.4E1,3.6E2,3.78E2,8.9E1,3.71E2,1.35E3,2E0,1.96E2,7E0,2.71E2,6.6E1,2E0,1.4E1,6.8E1,1.78E2,6.69E2,9.4E1,6.9E1,4E0,4.4E2,3E0,2.03E2,1E2,4E0,2E0,5.08E2,2.721E3,3.96E2,3.182E3,4.21E2,2.261E3,3.04E2,2.201E3,1.741E3,4.94E2,1.527E3,1.354E3,1.083E3,2.95E2,7.93E2,5.35E2,5.07E2,1.37E3,7.7E1,7.38E2,1.23E2,2.07E2,1.37E3,7.94E2,2.3E1,2.1E2,2.4E2,1.19E2,1.39E2,7E0,5.7E1,1.1E1,1.4E1,6E0,4E0,1.34E2,2.52E2,2.1E1,4.5E1,9.3E1,3.2E1,1.96E2,3.79E2,1.317E3,2.67E2,1.64E2,1.03E2,5.35E2,7.9E1,6.33E2,7.37E2,3.11E2,3.405E3,1.5E1,2E0,3.111E3,1.368E3,7.09E2,2.56E2,2.32E2,6.53E2,3.18E2,1.26E2,7.4E1,8.5E1,3.3E1,1.1E1,3.49E2,2.05E2,4.9E1,1E0,2.64E2,1.9E1,3.8E1,1.57E2,3.7E1,1.83E2,3E1,6.4E1,2.32E2,1.9E1,5.51E2,3.73E2,1.22E2,8.1E1,1.9E1,1.91E2,2.25E2,3.4E1,1.92E2,2.78E2,2.04E2,2E0,1.4E1,8E0,1E0,6.9E1,2.2E1,3.85E2,2.51E2,5.9E1,6.1E1,1.69E2,2.28E2,4.1E1,6E0,7.6E1,4.65E2,2.72E2,6.09E2,9.3E2,5.06E2,4.66E2,5E1,1.09E2,5E0,2.7E2,2.65E2,5.12E2,5.2E1,1.38E2,1.8E2,5.9E1,9.2E1,2E0,1.8E1,3.6E2,6E0,8.3E1,1.45E2,2.26E2,2.72E2,1.078E3,1E0,1E0,1E0,6E0,5E1,1.6E1,1E0,1E0,4.1E1,1.37E2,2.61E2,4.08E2,7.8E1,1.6E1,1.9E1,5E1,1.71E2,2.69E2,2E0,1E0,3E0,1E0,5.04E2,4E0,1.341E3,1.38E3,2.14E2,1.82E2,9.74E2,2.208E3,3.52E2,6.9E1,1.574E3,6.87E2,2.1E2,9.4E1,5.79E2,1.622E3,6.03E2,1.138E3,4.8E2,1.4E1,1.186E3,3.41E2,9.94E2,3.6E2,5.04E2,5.79E2,2.37E2,5.8E1,5.38E2,2.55E2,4.34E2,1.01E2,2.32E2,2.75E2,1.89E2,1.181E3,4.3E1,3.4E1,1.79E2,5.59E2,5.9E1,6.4E1,1.68E2,3.9E1,1.284E3,8.6E1,5.81E2,2.13E2,1.1E1,1.2E1,1.9E1,1.91E2,1.37E2,1.03E2,3.5E1,8.4E1,8.1E1,5.8E1,1E0,6E0,5.2E1,5E0,2E0,1.2E1,5E0,1E0,1E0,3E0,1.3E1,1.21E2,1.1E2,1.42E2,2E1,1E0,3.3E1,1.2E1,3.2E1,6.1E1,1.2E1,2E1,1.79E2,1.7E1,2.11E2,1.68E2,1.06E2,1.211E3,2E2,6.7E1,6E0,1.58E2,1.4E1,8.9E1,4E1,4.95E2,7.8E1,1E0,2.63E2,3.7E2,4.8E2,2.57E2,7.6E1,2.35E2,2.138E3,1.267E3,1.4E1,1E0,1.658E3,1.453E3,1.148E3,2.2E2,6.49E2,6E1,7E0,2.49E2,1.59E2,7.3E1,3.89E2,2.64E2,2.85E2,3.3E1,1.08E2,1.8E1,7E0,6.7E1,9E0,7.6E1,8E0,2.5E1,1E1,1E0,2.23E2,1.26E2,9E0,1.96E2,2E1,2.44E2,2.2E1,1.6E1,8E0,1.49E2,3.6E1,1E0,1.69E2,1.4E1,9E0,2.1E1,3E1,3.4E1,1.1E1,2.21E2,1.8E1,1E0,4.32E2,1.19E2,2.65E2,1.08E2,2E1,1.02E2,6E0,7.5E1,2E0,1.7E1,1.55E2,3.6E1,1.35E2,9E1,3E1,4E0,2E0,1.9E2,7E1,2.08E2,3.3E1,1.71E2,1E0,7E0,2E1,2E0,3.37E2,4.8E1,1.6E2,9.1E1,6E1,1E0,6.3E1,1.06E2,8E0,3.3E1,3.71E2,9.4E1,5.6E1,2.16E2,3.88E2,2.21E2,5.61E2,3.69E2,4.81E2,2.5E1,2.02E2,2.64E2,1.06E2,3E0,4E0,1E0,1.33E2,1.37E2,2.63E2,2E0,5.01E2,1.1E1,1E0,5.1E1,1.63E2,1.7E1,2.9E1,3E1,1.6E1,2E0,1.42E2,3E0,1.8E2,4.6E1,8.2E1,1.9E2,5.47E2,5.31E2,1E0,4E1,4.1E1,9.6E1,3E0,4.05E2,5E0,1.4E1,2E0,4.8E1,2.68E2,1E0,1E0,2E0,1.37E2,1.204E3,5.3E2,8.5E2,1E0,2.13E2,1.64E2,1.8E1,1.63E2,8.11E2,1.14E3,1.068E3,2.18E2,1.34E2,1E1,5.9E1,1.004E3,5.7E2,6.62E2,2.5E1,1.83E2,2.7E1,7.4E1,2E1,2.32E2,3.47E2,2.77E2,1.345E3,5.33E2,7E1,9.82E2,1.56E2,2.37E2,2.43E2,1.3E1,1E0,4.44E2,7.42E2,2.91E2,5E1,7.94E2,2E2,1.39E2,2.21E2,4.01E2,1.03E2,3.51E2,2.28E2,2.3E2,7E0,2E1,3.8E1,1.85E2,3.53E2,1.42E2,1.13E2,3.53E2,8.1E1,9.4E1,7E0,8.3E1,1.49E2,2.1E2,6.5E1,6.7E1,1.22E2,7.05E2,4.76E2,4.2E1,1E0,6E0,2.8E1,1.9E1,1.6E2,4.68E2,9.1E1,4.2E1,1.7E1,9E0,5.5E1,2.4E1,1.44E2,3.6E1,3E0,3.52E2,9.32E2,5E0,8.1E1,6.5E1,5.16E2,5.3E1,1.6E2,8E0,4E0,1.4E1,5E0,2.7E1,1.64E2,6.9E1,6.8E1,7.1E1,3.2E1,2E0,3.3E1,1.9E1,6.5E1,7.4E1,7E0,5E0,5.3E1,1.3E1,3.9E1,2E0,3E0,3E0,1E1,1.2E2,1E0,2E0,1.08E2,1.01E2,4.1E1,1.5E1,5E0,2.8E1,5E0,2E0,1E1,2E0,3E1,5.9E1,2E0,4E0,8E0,1.8E1,2E0,3.1E1,1.48E2,7E0,1E1,1E0,2.1E2,4.2E1,1.26E2,1E0,1.05E2,3.6E1,1.175E3,5.3E1,1.47E2,5E1,1.7E1,2E0,4E0,1.39E2,1.9E1,5E0,9E0,1.1E1,7.8E1,2.9E1,1.1E1,4.75E2,2E1,7E1,8E0,3.7E1,2.26E2,3.16E2,5.4E1,4.42E2,3.8E1,1.93E2,6.4E1,5.6E1,2E1,1E1,2.25E2,1.922E3,2.16E2,4.13E2,8.54E2,8.04E2,8.54E2,3.56E2,1.097E3,8.6E1,1.062E3,1.21E2,9.9E1,3.9E1,6.1E2,1E0,6E0,1.85E2,6.4E1,5.3E1,1.06E2,2E0,7.1E1,1.69E2,2.2E2,1.97E2,6.7E1,1.41E2,1.44E2,1.5E1,1.8E1,9.9E1,9E0,2E0,5E0,5E0,4E0,8E0,6.8E1,3E0,2.2E1,9E0,1E0,1.69E2,5.4E1,1.12E2,1.4E1,2E0,1.94E2,1.6E1,4E0,1.71E2,7.3E1,1E1,1.39E2,6E0,3E1,4.9E1,1.2E2,1E0,1.3E1,2E0,7E0,1E0,2.9E1,1.62E2,5.9E1,1.36E2,2.96E2,9.3E1,2.6E1,9E1,1.75E2,1.07E2,1E0,1.9E1,1E0,4E0,1.3E1,4E0,1.51E2,1.3E1,2.3E1,9.8E1,3.7E1,4.8E1,4.2E1,1E0,1E0,4.8E1,2.2E1,7.2E1,1.36E2,3E0,3E1,1.21E2,5E1,5E0,2E0,1.6E1,4E0,7E0,3.3E2,1.2E1,3.6E1,9E0,1.51E2,3.8E1,5.3E1,4.5E1,1.5E1,1E0,6.2E1,1.04E2,2E0,2E0,6E0,6.9E1,3.02E2,1.4E1,8E1,4.4E1,1.2E1,3.8E1,1.78E2,1.45E2,2.43E2,1.9E2,3.1E1,4.09E2,1.52E2,1.79E2,1.9E2,5.7E1,4.24E2,2E1,5E0,1.31E2,7.1E1,1.47E2,1.17E2,8.8E1,4.9E1,1.7E2,9.3E1,1E0,1E0,9E0,4.92E2,4.7E1,4E0,1.4E1,1.5E1,1.5E1,1E0,2.9E1,1.13E2,2E0,1E0,3E0,4.3E1,5.45E2,2E0,2.58E2,2.73E2,6E0,3.5E1,2.13E2,1.92E2,1E0,4E0,3E0,1.1E1],"tree_param":{"num_deleted":"0","num_feature":"11","num_nodes":"959","size_leaf_vector":"0"}},{"base_weights":[7.794024E-1,6.3257676E-1,1.6327513E0,5.691147E-1,9.145372E-1,1.4394798E0,2.516258E0,4.730239E-1,7.2361773E-1,8.042263E-1,9.8345625E-1,1.2968528E0,1.7116708E0,2.3447115E0,3.5765543E0,4.466635E-1,7.9930466E-1,8.966844E-1,6.32419E-1,8.732701E-1,7.6157874E-1,9.039599E-1,1.0207313E0,1.1880734E0,1.377792E0,1.5970556E0,1.8121331E0,2.068105E0,2.5619202E0,3.3360677E0,4.1869082E0,5.789441E-1,3.8637358E-1,6.7135644E-1,1.1894642E0,8.5159767E-1,1.4739935E0,5.4939187E-1,8.92999E-1,8.5880566E-1,1.0383649E0,7.2743046E-1,8.9650744E-1,1.0293456E0,8.521029E-1,9.6890134E-1,1.2373935E0,1.2784795E0,1.155015E0,1.5128866E0,1.3467773E0,1.7077897E0,1.5377873E0,2.1654306E-1,1.7800037E0,2.1905727E0,1.9472886E0,2.627937E0,2.2611628E-1,3.4272796E-1,2.6556477E-1,4.2804846E-1,1.9002934E0,8.95706E-1,5.4738647E-1,3.4113917E-1,4.8874852E-1,6.90825E-1,4.2244023E-1,1.025595E0,1.311105E0,6.4104825E-1,1.0051063E0,7.574524E-1,2.643578E0,7.162037E-1,4.2620888E-1,2.999469E-1,1.0209994E0,8.72103E-1,6.7316556E-1,1.177608E-1,8.847845E-1,6.73864E-1,8.086667E-1,7.849588E-1,1.1813374E0,9.1565204E-1,1.1027002E0,7.9379445E-1,8.984021E-1,1.1021992E0,9.4442934E-1,1.3099557E-1,1.1918375E0,1.2566378E0,1.5030044E0,1.0365633E0,1.2003667E0,1.5169603E0,3.527352E-2,1.2565707E0,1.3710963E0,3.514531E-2,1.7103931E-1,1.3798553E-1,1.5695946E0,1.9510792E-1,1.7155721E0,2.3443174E0,2.0291953E0,1.1458296E0,1.9622698E-1,2.5708497E0,2.8839629E0,4.610101E-2,2.2263844E-1,8.0864984E-1,1.7316041E0,3.8472643E-1,5.8451426E-1,3.03447E-1,3.7748364E-1,4.4728878E-1,5.788042E-1,6.2753373E-1,7.4473405E-1,1.7770515E-1,4.8891827E-1,1.166309E0,8.9107686E-1,1.339982E-1,8.7277865E-1,1.0897484E0,5.0286734E-1,8.4905404E-1,1.0623794E0,1.6892217E-1,6.4712363E-1,2.664147E-1,7.6823366E-1,5.622384E-1,7.8808725E-1,1.6324303E0,4.1546687E-1,1.6164186E0,2.6863372E-1,2.5737748E-1,8.5992855E-1,8.5316944E-1,9.823077E-1,7.643019E-2,6.935677E-1,9.331782E-1,4.9592286E-1,7.175913E-1,6.408074E-1,1.0235313E0,7.3478836E-1,7.9368806E-1,2.849923E-1,1.2549917E-1,8.6394705E-2,7.52798E-1,9.641779E-1,1.3284199E-1,1.0749738E0,7.498003E-1,8.911268E-1,1.0595071E0,8.8637346E-1,9.7603625E-1,1.184189E0,8.9228666E-1,1.0093099E0,1.0403037E0,1.2318823E0,1.382577E0,1.2272167E0,1.635847E-1,1.129962E0,1.1837062E0,1.009527E-1,1.1599678E0,1.2718649E0,1.6333312E0,1.460673E-1,1.4629369E0,1.2222154E0,1.264791E0,1.409299E0,4.7208783E-1,1.572396E0,1.7172822E0,6.52358E-2,2.480642E-1,1.9704092E0,5.4772425E-1,2.056445E0,1.7342168E-1,-4.1288815E-2,2.594028E-1,1.8073591E0,2.9334003E-1,1.8010349E0,6.4702326E-1,9.251698E-1,1.1958297E0,2.0031736E0,7.328292E-1,3.7331602E-1,7.39262E-1,5.696362E-1,3.8149938E-1,2.5762087E-1,6.0384893E-1,3.6776143E-1,4.0167186E-1,4.8652837E-1,5.1521E-1,6.08398E-1,1.8776058E-1,6.345738E-1,1.0100599E-1,7.280034E-1,2.1229853E-1,-3.089713E-2,4.367457E-1,7.1113184E-2,1.2234434E-1,9.211159E-1,-4.343593E-3,9.0030277E-1,4.7068462E-1,1.0681098E0,7.870857E-1,1.2228488E0,5.674383E-1,3.9330208E-1,8.835212E-1,7.6985955E-1,1.0786465E0,8.383665E-1,3.8058618E-1,7.8998035E-1,-5.2243706E-2,1.6747876E-1,5.2281874E-1,6.736225E-1,5.5093694E-1,8.192367E-1,1.9927953E0,9.229932E-1,5.5146044E-1,3.868444E-1,3.7992377E-2,1.7115931E-1,1.8394436E-1,6.3685036E-1,1.1680331E0,6.6406846E-1,9.883414E-1,8.295284E-1,9.931806E-1,3.0453289E-2,4.6459984E-2,-2.078263E-1,2.5038922E-1,7.125967E-2,4.9288115E-1,9.869007E-1,7.781327E-4,5.6454577E-2,6.915717E-1,8.0699474E-1,6.489204E-1,3.811961E-1,1.0501747E0,8.029516E-1,-2.7233219E-2,7.372679E-1,7.3144794E-1,8.626116E-1,7.2825537E-3,4.2591102E-2,7.903756E-1,2.3397861E-2,1.0029137E-1,7.7188455E-2,9.691438E-1,1.1214296E0,1.0045149E0,7.345813E-1,5.5905044E-1,9.1893874E-2,1.9861473E-2,1.0749089E-1,5.2912796E-1,8.899235E-1,1.4868388E0,9.4867164E-1,1.0814458E0,1.2764956E0,1.1306653E0,8.7597543E-1,8.34039E-1,1.0513828E0,1.0860506E0,5.5896175E-1,1.1601412E0,1.2934746E-1,1.2867622E-1,1.7033784E0,1.1603698E0,1.2935882E0,2.677319E-1,1.3407764E-1,1.5098578E-1,1.0116467E0,4.8108563E-2,1.1642774E0,7.361854E-1,1.2802128E0,4.782123E-2,1.637905E-1,2.7547974E-2,1.4778873E0,1.3848957E0,1.1650863E0,1.1982952E0,1.4078187E0,1.4589707E0,1.3627988E-1,1.0885856E-2,5.9927322E-2,8.888354E-2,1.576542E-1,1.6591772E0,1.7787509E-1,2.114377E0,1.4342917E0,-3.6966484E-2,9.767423E-2,2.0630233E-1,5.6116205E-2,1.11607555E-2,2.3197615E-1,2.3849535E-1,1.0904768E0,5.9182245E-1,8.59302E-1,1.6289364E-1,8.970306E-1,2.1978526E-1,8.692012E-1,2.0331345E-1,4.323296E-2,8.096457E-1,