{"learner":{"attributes":{"best_iteration":"9","best_ntree_limit":"10"},"feature_names":[],"feature_types":[],"gradient_booster":{"model":{"gbtree_model_param":{"num_parallel_tree":"1","num_trees":"10","size_leaf_vector":"0"},"tree_info":[0,0,0,0,0,0,0,0,0,0],"trees":[{"base_weights":[1.1914226E0,9.4720924E-1,2.5409787E0,8.587761E-1,1.4157813E0,2.157069E0,3.8348355E0,7.010588E-1,1.0201055E0,1.3555673E0,1.5865451E0,1.9427567E0,2.5791404E0,3.3570552E0,4.6976724E0,6.3087577E-1,9.193004E-1,9.208399E-1,1.2775521E0,1.4838291E0,1.299346E0,1.4368757E0,1.6631573E0,1.8407747E0,2.108076E0,2.439306E0,2.770575E0,3.2198057E0,3.7003276E-1,4.3850384E0,5.311336E-1,5.822145E-1,8.923344E-1,1.6840158E0,8.797325E-1,6.5346944E-1,9.858478E-1,1.1977513E0,1.8089709E0,1.2590737E0,1.5144173E0,1.2639645E0,1.5324084E0,9.0753734E-2,1.4440308E0,1.6543528E0,3.6845613E-1,1.9646004E0,1.7912868E0,1.9982251E0,2.1708553E0,2.5661736E0,2.3755875E0,2.9450163E-1,2.6746871E0,3.2860389E0,2.7865982E-1,4.3899986E-1,1.85036E0,7.830742E-1,5.2879757E-1,1.0198063E0,8.505677E-1,2.713649E0,1.5236477E0,7.5496113E-1,1.0533012E0,7.97417E-1,5.923133E-1,7.7343065E-1,1.0249655E0,2.0232615E0,1.12724E0,1.3358392E0,2.053598E0,1.0240604E0,1.3706656E0,1.6837531E0,1.4351225E0,1.1963887E0,1.3160574E0,1.0910656E0,1.5606755E0,-1.8027754E-1,7.229551E-2,1.5182004E0,1.3775052E0,1.8581477E0,1.5992639E0,2.1004064E0,1.8829442E0,1.7262888E0,1.9527704E0,2.1172526E0,1.889366E0,2.0588894E0,2.2108176E0,4.431472E-2,2.569021E-1,2.2509766E0,2.4668248E0,2.155789E0,2.6896852E-1,3.3901963E-1,3.1447965E-1,2.332393E-1,4.431472E-2,1.0828153E0,7.348418E-1,4.626576E-1,6.602701E-1,8.270006E-1,1.0819011E0,9.914514E-1,8.0840117E-1,2.0789133E-1,3.0021086E-1,1.296212E0,1.8693912E0,6.4280415E-1,1.0514513E0,1.0105547E0,1.507918E0,1.1200539E0,7.638113E-1,4.7062448E-1,6.669759E-1,7.0504355E-1,1.1268815E0,8.6745584E-1,1.1024312E0,1.3312948E0,2.1918373E0,1.0272253E0,1.4850764E0,8.4780324E-1,1.5248297E0,1.5399348E0,2.209442E0,2.6391983E-2,1.0372852E0,1.7734962E0,1.3111717E-1,1.6063735E0,1.8258138E0,1.4088752E0,1.6980865E0,1.3061497E0,1.1536255E0,1.2702591E0,1.3647503E0,8.196045E-1,1.18421726E-1,1.506994E0,1.6966467E0,-3.3333335E-2,3.287077E-3,1.096479E0,1.5449128E0,1.0803916E0,1.3928416E0,1.8892713E-1,1.4895154E0,1.5355582E0,1.7160658E0,2.1053495E0,7.5269884E-1,-2.5E-2,1.8864485E0,1.8040713E0,1.6398478E0,1.6966244E0,2.0383198E0,1.8791826E0,2.1722138E-1,1.9753922E0,1.788629E0,2.1360872E0,1.9134723E-1,2.5732815E-1,2.1821468E0,2.4418361E-1,2.1702936E0,2.2457157E-1,2.5093596E0,2.201128E-1,4.431472E-2,7.647437E-1,1.2346883E0,6.589254E-1,9.0854347E-1,3.7736174E-1,5.140605E-1,1.104653E0,5.86026E-1,9.2127025E-1,7.504883E-1,9.9610233E-1,1.2507186E0,8.3381975E-1,1.0767298E0,7.553505E-1,9.1690534E-1,1.1900202E0,1.9070002E-1,1.505593E0,2.2067757E0,5.9227437E-1,8.6686385E-1,8.8759303E-1,1.1294262E0,8.963622E-1,1.2461419E0,1.37914E0,1.699335E0,7.01349E-1,1.16072476E-1,3.7768805E-1,7.8434587E-1,4.1169697E-1,6.8302894E-1,7.430586E-1,6.0676914E-1,1.6041573E0,6.8626046E-1,6.6630936E-1,1.501077E0,7.1195304E-1,1.0556678E0,1.2665354E0,1.0231298E0,2.0563228E-1,1.1778479E0,2.7571838E0,2.00123E0,7.065359E-1,1.102025E0,1.228554E0,1.6910607E0,5.820278E-1,1.045009E0,1.7097514E0,1.1410712E0,1.6450043E-1,1.1575485E0,2.3420427E0,1.7962092E0,8.1945896E-1,1.0844462E-1,9.67003E-1,1.9538175E-1,1.761141E0,1.4206685E0,2.1265996E0,1.7248503E0,1.3727254E0,1.549821E0,1.4874803E-1,1.9703765E0,1.5799013E0,1.2802467E0,1.0438856E0,1.1914158E0,1.3839052E0,1.2242063E0,1.3419133E0,1.5192276E0,9.65736E-3,8.6435145E-1,1.4574072E0,1.7848304E-1,1.5923029E0,1.9106285E-1,1.1997602E0,6.004865E-1,1.7193271E-1,1.4946893E0,4.3419504E-1,1.1121768E-1,6.22246E-1,1.396444E-1,1.587763E-1,6.021271E-1,1.492071E0,1.6383399E-1,1.4162948E0,1.7358817E0,1.9100236E0,2.1745222E0,1.0324746E-1,9.65736E-3,1.5533774E0,1.9064935E0,1.7356035E-1,1.8777889E0,1.581195E0,1.7601136E0,1.3915479E0,1.7787151E-1,1.6058251E0,2.0608087E0,1.9130167E0,7.327042E-2,1.0334076E-1,1.9870783E-1,4.431472E-2,1.792712E-1,8.9629315E-2,2.14237E-1,2.0921924E0,2.237901E0,2.2399966E-1,1.9452773E0,9.9632806E-1,2.5129268E-1,9.090026E-1,6.0451126E-1,8.3370256E-1,1.2821394E0,5.9448206E-1,8.2121587E-1,7.150161E-1,1.023939E0,7.553135E-1,3.651982E-1,4.1876888E-1,5.975349E-1,1.6128062E0,1.0099386E0,8.70047E-1,5.293502E-1,7.6544017E-1,9.85988E-1,9.65736E-3,7.552519E-1,9.0436834E-1,1.096459E0,1.0654655E0,1.4220303E0,7.415207E-1,9.575722E-1,1.4010838E0,1.010903E0,7.275822E-1,9.2515063E-1,7.554449E-1,9.915747E-1,7.8585535E-1,1.3004327E0,1.5565728E-1,9.118017E-1,2.546273E0,1.8619723E0,5.7904387E-1,1.258488E0,9.5122105E-1,7.1707255E-1,9.085941E-1,5.86636E-1,1.1632869E0,9.522733E-1,1.3272234E0,8.533097E-1,1.7564467E0,1.1816007E0,1.4346689E0,1.0059943E0,1.8118683E-1,1.3738191E-1,9.65736E-3,7.4754916E-2,2.8655365E-1,5.35282E-1,6.9067013E-1,9.023232E-1,2.0877975E-1,4.389884E-1,5.462763E-1,8.397041E-1,7.280233E-1,1.2776664E0,5.629749E-1,6.912299E-1,2.3864136E0,6.243547E-1,5.913666E-1,8.222978E-1,1.5853479E0,5.2339596E-1,1.8473259E0,1.1348865E0,1.0098919E0,6.525713E-1,9.7374797E-1,1.2525417E0,1.8703247E0,1.2329704E0,9.3618673E-1,1.1742051E0,5.453452E-1,1.2600554E0,3.2329621E0,1.8935225E0,1.749723E0,2.2695763E0,6.556479E-1,8.775086E-1,1.3815831E0,1.0267227E0,1.6739327E0,1.1894262E0,1.8520942E0,1.3327085E0,8.526757E-2,2.4500029E-1,1.1229892E-1,6.719973E-1,1.287648E-2,1.7284749E0,1.2474937E0,4.7206548E-1,1.2252984E0,4.7888987E-2,2.3990571E0,1.6767379E0,1.3297856E0,1.9825083E0,1.0427731E0,5.216486E-1,9.65736E-3,1.1217741E0,1.392285E0,1.8705935E0,1.4424419E0,9.9315965E-1,2.1636395E-1,8.003991E-2,1.7409782E-1,8.347572E-1,3.287077E-2,1.3752729E0,1.487142E0,1.8271737E-1,2.1382241E-1,1.5089032E-1,1.1314603E-1,1.7267226E-1,1.2143172E0,1.4247864E0,2.6391983E-2,1.0472258E0,1.1393803E0,1.2748108E0,1.190595E0,1.4147654E-1,1.1723355E0,1.3026725E0,1.0940567E0,1.355468E0,1.3855233E0,1.8182422E-1,6.2486374E-1,1.0795244E0,6.426846E-2,1.4657347E0,1.6427424E0,1.1692982E0,7.7409583E-1,1.3376075E-1,2.3561077E-1,1.00845054E-1,1.4987823E-1,9.65736E-3,9.65736E-3,5.5471897E-2,9.963281E-2,-2.5E-2,8.7765884E-1,-2.5E-2,1.4771382E0,1.9212562E0,1.5368593E-1,9.4914114E-1,1.672074E-1,1.8960727E0,1.9256316E-1,9.65736E-3,2.2628207E0,1.9344917E-1,1.6109998E0,9.1993546E-1,5.5471897E-2,1.9077468E-1,1.589601E-1,1.9011895E-1,1.5033818E0,1.6594312E-1,1.8228638E0,1.5814235E0,1.4680485E0,4.5533323E-1,1.6990982E-1,1.0166544E-1,1.8832633E0,2.1427193E0,2.9930616E-2,1.9296548E-1,2.1032284E-1,1.3815054E-1,8.9629315E-2,2.2408743E-1,1.457097E0,2.023719E0,1.1951859E-1,2.9930616E-2,2.4030447E-2,9.550012E-2,3.1232266E-2,6.397756E-2,6.477657E-2,1.100413E-1,1.543718E-1,1.1320535E-1,6.339871E-2,4.330314E-2,1.2833545E-1,7.50302E-2,1.1494829E-1,6.517119E-2,8.0873884E-2,1.1951158E-1,1.01172246E-1,6.7199335E-2,2.3802059E-2,4.089358E-2,3.7795473E-2,7.931617E-2,8.23329E-2,5.7081502E-2,1.2088847E-1,1.682481E-1,8.962622E-2,1.11554004E-1,7.690572E-2,1.02473915E-1,3.5689943E-2,5.8809996E-2,5.465539E-2,9.006736E-2,7.95594E-2,1.1158209E-1,7.7483825E-2,4.681941E-2,9.3613766E-2,4.035428E-2,1.1097658E-1,4.9677316E-2,9.3546845E-2,1.22890234E-1,1.2745044E-1,1.5982412E-1,3.342233E-2,7.632178E-2,7.463872E-2,1.0591934E-1,8.3912715E-2,1.4369139E-1,1.0831012E-1,8.178323E-2,6.685635E-2,7.833966E-2,8.370953E-2,1.0332111E-1,7.6444924E-2,5.0341617E-2,1.0593696E-1,9.094738E-2,1.3674295E-1,5.9832264E-2,7.7760935E-2,1.3726953E-1,3.990749E-2,1.03707746E-1,1.16844654E-1,2.6751873E-1,1.4739351E-1,2.2034855E-1,4.6181347E-2,6.3150994E-2,1.0432893E-1,1.5564305E-1,8.735295E-2,1.0566423E-1,5.271511E-2,7.722091E-2,7.959136E-2,9.914817E-2,6.0303133E-2,9.65736E-3,1.032538E-1,1.2601055E-1,7.058161E-2,1.0176418E-1,1.2292626E-1,1.5683334E-1,7.339545E-2,9.385817E-2,1.1379323E-1,1.8664438E-1,1.1369038E-1,1.9363645E-1,2.9930616E-2,1.441522E-1,4.3732733E-2,1.1475241E-1,3.1013846E-2,1.1300898E-2,5.9948694E-2,2.3561077E-2,8.9647725E-2,6.4287804E-2,1.1418227E-1,8.388438E-2,-3.3333335E-2,2.2339378E-2,3.3163354E-2,4.912013E-2,5.866117E-2,2.6026666E-2,6.9301486E-2,9.050145E-2,7.15546E-2,1.15399264E-1,1.5491475E-1,4.312661E-2,5.3362973E-2,6.453264E-2,5.5970788E-2,7.4264765E-2,2.7749988E-1,1.3109414E-1,2.3273459E-2,9.927014E-2,6.960823E-2,4.5013238E-2,1.1543254E-1,7.179362E-2,2.6391983E-2,1.6934814E-1,8.23765E-2,3.427507E-2,1.3933197E-1,3.2250008E-1,1.0072269E-1,1.2679335E-1,9.856947E-2,1.7181937E-1,5.459413E-2,7.313026E-2,8.766516E-2,1.1134551E-1,1.4933223E-1,1.1621364E-1,1.1725527E-1,2.8485298E-1,1.1376065E-1,1.44819E-1,1.04334705E-1,7.974138E-2,1.1504685E-1,1.8128215E-1,-3.75E-2,8.9379355E-2,1.0358801E-1,1.480469E-1,2.3307602E-1,3.3932576E-1,1.5064336E-1,2.412436E-1,2.331867E-1,1.4047183E-1,2.5112024E-1,2.0143418E-1,5.4781664E-2,7.0174955E-2,5.7896752E-2,9.459584E-2,1.1112992E-1,1.6632502E-1,8.686622E-2,1.1077426E-1,8.433468E-2,1.7546542E-1,1.0526731E-1,1.2571685E-1,1.6358201E-1,2.0963793E-1,2.4447702E-1,1.2718771E-1,3.69167E-2,-3.75E-2,9.65736E-3,7.155292E-2,1.2781253E-1,1.7724597E-1,1.1049167E-1,1.451765E-1,-2.5E-2,5.5307098E-2,3.5981383E-2,1.2695292E-1,2.0423894E-1,2.5472066E-1,9.65736E-3,1.7231002E-1,1.8193711E-1,9.479874E-2,1.5212737E-1,2.2066663E-1,1.1733731E-1,5.2087974E-2,7.2939876E-3,6.807969E-2,2.9930616E-2,1.2525646E-1,-2.5E-2,1.4260758E-1,7.2601795E-2,1.879577E-1,1.1736977E-1,1.4914538E-1,1.4801261E-1,6.122717E-2,-3.3333335E-2,1.7245954E-1,-2.5E-2,2.9930616E-2,1.3486367E-1,1.4999376E-1,1.5793991E-1,1.3083272E-1,1.0655834E-1,1.2506472E-1,1.4500862E-1,6.682663E-2,9.9399015E-2,1.1241986E-1,1.0629182E-1,1.2750296E-1,1.3596982E-1,1.16611116E-1,2.4622668E-2,1.2359788E-1,1.1296411E-1,1.2441931E-1,1.3625628E-1,1.1405599E-1,1.287648E-2,1.1235948E-1,1.2784684E-1,1.3968693E-1,1.205755E-1,1.4761591E-1,8.035314E-2,2.0064628E-2,2.9930616E-2,1.1757069E-1,1.012296E-1,1.4791414E-1,7.9553284E-2,1.6589099E-1,1.2262108E-1,4.949689E-2,8.570885E-2,9.65736E-3,7.2939876E-3,4.431472E-2,1.3368784E-1,-2.5E-2,1.3031407E-1,1.5040435E-1,2.4687746E-1,1.4786498E-1,1.2247831E-1,-1.0228428E-2,1.9997649E-1,1.4728402E-1,5.693501E-2,2.2769797E-1,1.6300711E-1,4.431472E-2,-2.5E-2,1.20392255E-1,1.0170946E-1,1.5184864E-1,1.6912009E-1,1.9483337E-1,1.1946773E-1,1.6472308E-1,1.5610458E-1,1.05559744E-1,6.301239E-2,1.287648E-2,1.2768966E-1,1.9267106E-1,2.1670905E-1,1.4295878E-1,1.5794156E-1,-2.5E-2,4.431472E-2,2.0379369E-1],"categories":[],"categories_nodes":[],"categories_segments":[],"categories_sizes":[],"default_left":[1,1,0,0,0,0,0,0,0,0,0,0,0,0,0,1,0,0,0,0,0,0,0,0,0,0,0,0,0,0,0,0,0,0,0,0,0,0,0,0,0,0,0,0,0,0,0,0,0,0,0,0,0,0,0,0,0,0,0,0,0,0,0,0,0,0,0,0,0,0,0,0,0,0,0,0,0,0,0,0,0,0,0,0,0,0,0,0,0,0,0,0,0,0,0,0,0,0,0,0,0,0,0,0,0,0,0,0,0,0,0,0,0,0,0,0,0,0,0,1,0,0,0,0,0,0,0,0,0,0,0,0,0,0,0,0,0,0,0,0,0,0,0,0,0,0,0,0,0,0,0,0,0,0,0,0,0,0,0,0,0,0,0,0,0,0,0,0,0,0,0,0,0,0,0,0,0,0,0,0,0,0,0,0,0,0,0,0,0,0,0,0,0,0,0,0,0,0,0,0,0,0,0,0,0,0,0,0,0,0,0,0,0,0,0,0,0,0,0,0,0,0,0,0,0,0,0,0,0,0,0,0,0,0,0,0,0,0,0,0,0,0,0,0,0,0,0,0,0,0,0,0,0,0,0,0,0,0,0,0,0,0,0,0,0,0,0,0,0,0,0,0,0,0,0,0,0,0,0,0,0,0,0,0,0,0,0,0,0,0,0,0,0,0,0,0,0,0,0,0,0,0,0,0,0,0,0,0,0,0,0,0,0,0,0,0,0,0,0,0,0,0,0,0,0,0,0,0,0,0,0,0,0,0,0,0,0,0,0,0,0,0,0,0,0,0,0,0,0,0,0,0,0,0,0,0,0,0,0,0,0,0,0,0,0,0,0,0,0,0,0,0,0,0,0,0,0,0,0,0,0,0,0,0,0,0,0,0,0,0,0,0,0,0,0,0,0,0,0,0,0,0,0,0,0,0,0,0,0,0,0,0,0,0,0,0,0,0,0,0,0,0,0,0,0,0,0,0,0,0,0,0,0,0,0,0,0,0,0,0,0,0,0,0,0,0,0,0,0,0,0,0,0,0,0,0,0,0,0,0,0,0,0,0,0,0,0,0,0,0,0,0,0,0,0,0,0,0,0,0,0,0,0,0,0,0,0,0,0,0,0,0,0,0,0,0,0,0,0,0,0,0,0,0,0,0,0,0,0,0,0,0,0,0,0,0,0,0,0,0,0,0,0,0,0,0,0,0,0,0,0,0,0,0,0,0,0,0,0,0,0,0,0,0,0,0,0,0,0,0,0,0,0,0,0,0,0,0,0,0,0,0,0,0,0,0,0,0,0,0,0,0,0,0,0,0,0,0,0,0,0,0,0,0,0,0,0,0,0,0,0,0,0,0,0,0,0,0,0,0,0,0,0,0,0,0,0,0,0,0,0,0,0,0,0,0,0,0,0,0,0,0,0,0,0,0,0,0,0,0,0,0,0,0,0,0,0,0,0,0,0,0,0,0,0,0,0,0,0,0,0,0,0,0,0,0,0,0,0,0,0,0,0,0,0,0,0,0,0,0,0,0,0,0,0,0,0,0,0,0,0,0,0,0,0,0,0,0,0,0,0,0,0,0,0,0,0,0,0,0,0,0,0,0,0,0,0,0,0,0,0,0,0,0,0,0,0,0,0,0,0,0,0,0,0,0,0,0,0,0,0,0,0,0,0,0,0,0,0,0,0,0,0,0,0,0,0,0,0,0,0,0,0,0,0,0,0,0,0,0,0,0,0,0,0,0,0,0,0,0,0,0,0,0,0,0,0,0,0,0,0,0,0,0,0,0,0,0,0,0,0,0,0,0,0,0,0,0,0,0,0,0,0,0,0,0,0,0,0,0,0],"id":0,"left_children":[1,3,5,7,9,11,13,15,17,19,21,23,25,27,29,31,33,35,37,39,41,43,45,47,49,51,53,55,-1,57,-1,59,61,63,65,67,69,71,73,75,77,79,81,83,85,87,-1,89,91,93,95,97,99,-1,101,103,-1,-1,105,107,109,111,113,115,117,119,121,123,125,127,129,131,133,135,137,139,141,143,145,147,149,151,153,155,-1,157,159,161,163,165,167,169,171,173,175,177,179,-1,-1,181,183,185,-1,-1,-1,-1,-1,187,189,191,193,195,197,199,201,-1,-1,203,205,207,209,211,213,215,217,219,221,223,225,227,229,231,233,235,237,239,241,243,245,-1,247,249,-1,251,253,255,257,259,261,263,265,267,-1,269,271,-1,-1,273,275,277,279,-1,281,283,285,287,289,-1,291,293,295,297,299,301,-1,303,305,307,-1,-1,309,-1,311,-1,313,-1,-1,315,317,319,321,323,325,327,329,331,333,335,337,339,341,343,345,347,-1,349,351,353,355,357,359,361,363,365,367,369,-1,371,373,375,377,379,381,383,385,387,389,391,393,395,397,-1,399,401,403,405,407,409,411,413,415,417,419,-1,421,423,425,427,-1,429,-1,431,433,435,437,439,441,-1,443,445,447,449,451,453,455,457,459,-1,461,463,-1,465,-1,467,469,-1,471,473,-1,475,-1,-1,477,479,-1,481,483,485,487,-1,-1,489,491,-1,493,495,497,499,-1,501,503,505,-1,-1,-1,-1,-1,-1,-1,507,509,-1,511,513,-1,515,517,519,521,523,525,527,529,531,533,535,537,539,541,543,545,547,549,-1,551,553,555,557,559,561,563,565,567,569,571,573,575,577,579,-1,581,583,585,587,589,591,593,595,597,599,601,603,605,607,609,611,613,-1,-1,-1,-1,615,617,619,621,623,625,627,629,631,633,635,637,639,641,643,645,647,649,651,653,655,657,659,661,663,665,667,669,671,673,675,677,679,681,683,685,687,689,691,693,695,697,-1,699,-1,701,-1,703,705,707,709,-1,711,713,715,717,719,721,-1,723,725,727,729,731,-1,-1,-1,733,735,737,739,-1,-1,-1,-1,-1,741,743,-1,745,747,749,751,-1,753,755,757,759,761,-1,763,765,-1,767,769,771,773,-1,775,-1,-1,-1,-1,-1,-1,-1,777,-1,779,781,-1,783,-1,785,-1,-1,787,-1,789,791,-1,-1,-1,-1,793,-1,795,797,799,801,-1,-1,803,805,-1,-1,-1,-1,-1,-1,807,809,-1,-1,-1,-1,-1,-1,-1,-1,-1,-1,-1,-1,-1,-1,-1,-1,-1,-1,-1,-1,-1,-1,-1,-1,-1,-1,-1,-1,-1,-1,-1,-1,-1,-1,-1,-1,-1,-1,-1,-1,-1,-1,-1,-1,-1,-1,-1,-1,-1,-1,-1,-1,-1,-1,-1,-1,-1,-1,-1,-1,-1,-1,-1,-1,-1,-1,-1,-1,-1,-1,-1,-1,-1,-1,-1,-1,-1,-1,-1,-1,-1,-1,-1,-1,-1,-1,-1,-1,-1,-1,-1,-1,-1,-1,-1,-1,-1,-1,-1,-1,-1,-1,-1,-1,-1,-1,-1,-1,-1,-1,-1,-1,-1,-1,-1,-1,-1,-1,-1,-1,-1,-1,-1,-1,-1,-1,-1,-1,-1,-1,-1,-1,-1,-1,-1,-1,-1,-1,-1,-1,-1,-1,-1,-1,-1,-1,-1,-1,-1,-1,-1,-1,-1,-1,-1,-1,-1,-1,-1,-1,-1,-1,-1,-1,-1,-1,-1,-1,-1,-1,-1,-1,-1,-1,-1,-1,-1,-1,-1,-1,-1,-1,-1,-1,-1,-1,-1,-1,-1,-1,-1,-1,-1,-1,-1,-1,-1,-1,-1,-1,-1,-1,-1,-1,-1,-1,-1,-1,-1,-1,-1,-1,-1,-1,-1,-1,-1,-1,-1,-1,-1,-1,-1,-1,-1,-1,-1,-1,-1,-1,-1,-1,-1,-1,-1,-1,-1,-1,-1,-1,-1,-1,-1,-1,-1,-1,-1,-1,-1,-1,-1,-1,-1,-1,-1,-1,-1,-1,-1,-1,-1,-1,-1,-1,-1,-1,-1,-1,-1,-1,-1,-1,-1,-1,-1,-1,-1,-1,-1,-1,-1,-1,-1,-1,-1,-1,-1,-1,-1,-1,-1,-1,-1,-1,-1,-1,-1,-1],"loss_changes":[2.576643E4,2.7422656E3,5.9424844E3,1.4165156E3,1.0591797E2,8.308867E2,1.1137852E3,4.308662E2,7.024219E2,5.4152344E1,2.895996E1,9.951758E1,7.64668E1,7.133594E1,1.6357422E2,2.7069434E2,2.0584766E2,3.4478906E2,3.226328E2,1.4338867E1,4.271582E1,8.855225E0,2.597461E1,1.9773438E1,1.1750977E1,8.496094E0,1.3951172E1,2.7283203E1,0E0,6.0546875E-2,0E0,1.9244531E2,1.6931152E1,5.1345764E1,1.4033936E2,3.377246E1,1.3203223E2,3.8550098E2,1.1276636E2,6.175537E0,2.54458E1,1.4995605E1,7.142212E0,1.1584104E0,2.4875488E0,1.7191895E1,0E0,7.9663086E0,2.5251953E1,7.15625E0,2.0390625E0,2.434082E0,8.26123E0,0E0,8.3984375E-1,5.461914E0,0E0,0E0,1.0013762E0,5.376587E1,1.23188965E2,8.922485E0,1.4192505E1,1.8150635E0,2.0616821E1,1.2552124E2,5.1393066E1,1.1689148E1,2.4526123E1,5.9392456E1,1.6371582E2,5.808911E1,2.1821826E2,3.0343628E1,4.9111084E1,7.01355E-1,2.3000488E0,4.278076E0,7.4084473E0,8.1623535E0,4.1713867E0,1.9261551E-1,2.289795E0,1.7407484E-1,0E0,3.138794E0,7.735596E-1,1.4998779E0,7.9387207E0,1.0467529E0,5.5617676E0,1.0172363E1,1.3524414E1,1.19104E0,4.44458E-1,4.255371E-1,5.5249023E0,0E0,0E0,2.784912E0,8.6328125E-1,1.2764282E0,0E0,0E0,0E0,0E0,0E0,2.422345E1,4.231128E1,4.124768E1,1.5610156E2,7.799988E-1,7.690979E0,6.8585815E0,1.0520508E1,0E0,0E0,9.405548E0,1.0669861E1,3.0689087E1,1.22854E1,6.5923584E1,3.3752441E0,1.0080414E0,8.036987E0,1.2773468E1,7.2997437E0,3.417859E1,6.8282135E1,1.2960571E2,1.1638574E2,9.259552E0,3.9633423E1,1.1440967E2,6.867456E1,4.5281982E0,1.550647E1,4.3634644E0,2.3245605E1,0E0,8.7265015E-2,1.3100586E0,0E0,9.942871E0,3.1343994E0,4.480957E0,4.180023E0,2.019165E0,4.9396973E0,5.5231934E0,2.4416504E0,4.018278E-1,0E0,4.0806885E0,9.7662354E-1,0E0,0E0,7.651367E-1,9.4281006E-1,1.1273956E-1,4.413452E-1,0E0,2.0082092E0,1.7077637E0,4.7009277E-1,1.1566162E0,4.5099425E-1,0E0,1.5783691E0,1.8791504E0,3.819336E0,2.5336304E0,2.293213E0,1.8179016E0,0E0,5.664673E-1,4.251709E-1,5.834961E-2,0E0,0E0,3.330078E-1,0E0,1.5712891E0,0E0,5.7836914E-1,0E0,0E0,3.4031525E0,5.60968E0,2.323169E1,2.1309753E1,1.6081116E1,4.664099E1,3.1051086E1,6.5102905E1,1.22680664E-1,2.9463196E-1,2.8197632E0,4.959015E0,1.6543427E0,6.504944E0,5.5224E0,6.906555E0,5.939499E0,0E0,3.364563E-1,1.9313049E0,1.9121155E1,5.699066E0,1.6159668E0,3.097229E0,3.0067993E1,2.4635498E1,1.5404663E0,7.710266E-1,2.630949E-1,0E0,6.3653564E-1,1.0395264E1,4.4438934E0,4.362091E0,5.042053E0,3.124817E0,3.0701195E1,2.5951538E1,2.3074654E1,2.5924774E1,4.2545044E1,3.124585E1,5.7317383E1,7.905078E1,0E0,3.9405289E0,3.620215E1,1.7423462E1,7.3507996E0,8.051318E1,8.465027E0,4.023462E1,3.8045893E0,8.4516525E-1,4.63208E0,5.3204803E0,0E0,1.1144371E0,1.0239746E1,8.312408E0,8.526497E-1,0E0,6.9997025E-1,0E0,6.761963E0,4.477234E-1,8.2258606E-1,1.0301514E0,3.5080566E0,1.7504272E0,0E0,7.2395325E-1,1.0091019E0,3.2823486E0,7.3965454E-1,3.3295898E0,6.421509E-1,2.5021973E0,2.2629395E0,3.7176208E0,0E0,4.688263E-2,1.887207E0,0E0,7.8881836E-1,0E0,3.1412888E-1,8.043916E-1,0E0,1.6807251E0,6.85032E-2,0E0,1.5542481E0,0E0,0E0,1.3933551E0,1.4176025E0,0E0,5.6890106E-1,1.5109863E0,2.95578E0,1.6206055E0,0E0,0E0,1.2400818E-1,2.0996094E-2,0E0,2.0129395E-1,1.3955078E0,4.5874023E-1,2.6977386E0,0E0,8.607483E-2,3.8757324E0,1.5703735E0,0E0,0E0,0E0,0E0,0E0,0E0,0E0,2.1582031E-1,3.9697266E-1,0E0,7.6571655E-1,5.8098555E-2,0E0,2.4773178E0,6.657047E-1,1.2708435E0,1.0501282E1,1.0102722E1,2.0076721E1,9.482208E0,2.172522E1,1.6701775E0,1.9087524E1,4.1813385E1,1.8474365E1,9.2111206E-1,5.90271E0,9.772614E0,3.4216675E1,3.9575577E-1,5.459862E-1,0E0,2.9504395E-1,3.1544342E0,9.8880005E-1,1.0175247E0,6.405945E-1,8.318863E-1,1.0335999E0,2.3498535E-3,3.4632874E0,3.211792E0,8.5736084E-1,8.03833E-2,1.4355164E0,3.1081448E0,3.5040283E0,0E0,3.5754204E-2,1.4923553E0,9.92836E-1,1.33012085E1,1.1332245E0,1.6979065E0,1.5406494E0,2.1622314E0,1.4263153E-1,6.091675E0,1.1827774E0,1.6386108E0,1.490332E1,3.9311829E0,2.2189392E1,5.255432E-1,1.2687912E0,0E0,0E0,0E0,0E0,1.1639333E-1,2.2432184E-1,4.931793E0,5.701233E0,8.5878706E-1,3.8785095E0,1.2662926E0,3.59581E-1,3.027588E0,3.6977577E0,1.1805267E0,1.748352E0,5.9741364E0,2.6540031E0,1.758191E1,2.8243408E1,2.9824333E0,8.345032E0,6.555954E1,5.9121704E-1,5.23053E0,1.6718323E1,1.8367676E1,1.1063965E1,1.01092224E2,5.5614746E1,5.6837402E1,3.164209E1,4.183486E0,2.320488E0,1.491333E0,4.199585E0,3.0465881E1,4.1922607E0,3.1252441E0,3.6619568E0,6.080664E1,3.8352295E1,1.6043396E0,3.8181763E0,2.3409668E1,1.2652588E1,0E0,1.7550892E0,0E0,2.3148966E-1,0E0,9.436035E-1,4.6376038E-1,8.9865375E-1,8.064842E-1,0E0,1.2974609E1,2.251175E0,5.5652466E0,5.7413025E0,1.3856697E-1,7.358663E-1,0E0,1.6295433E-1,3.5196838E0,4.4506836E-1,7.521057E-1,1.5049963E0,0E0,0E0,0E0,5.7719226E0,3.009269E-1,1.4272461E0,1.4804382E0,0E0,0E0,0E0,0E0,0E0,6.5582275E-1,2.0741882E0,0E0,4.7250366E-1,5.7806396E0,2.2438354E0,2.267212E0,0E0,4.5367432E-1,2.183838E0,1.6516266E0,1.5709229E0,4.498291E-2,0E0,5.209198E-1,9.836292E-2,0E0,1.0072632E0,2.0071411E-1,4.5488358E-2,3.6706257E-1,0E0,1.3647753E-1,0E0,0E0,0E0,0E0,0E0,0E0,0E0,2.4055917E0,0E0,1.064331E0,9.539261E-1,0E0,3.0234451E0,0E0,2.4526062E0,0E0,0E0,3.5230713E0,0E0,1.4626312E-1,2.2944598E0,0E0,0E0,0E0,0E0,8.867798E-1,0E0,2.4017334E-1,1.9540405E-1,1.5106201E-3,2.0426786E-1,0E0,0E0,2.2818604E0,3.2456055E0,0E0,0E0,0E0,0E0,0E0,0E0,3.9446182E0,9.171448E-1,0E0,0E0,0E0,0E0,0E0,0E0,0E0,0E0,0E0,0E0,0E0,0E0,0E0,0E0,0E0,0E0,0E0,0E0,0E0,0E0,0E0,0E0,0E0,0E0,0E0,0E0,0E0,0E0,0E0,0E0,0E0,0E0,0E0,0E0,0E0,0E0,0E0,0E0,0E0,0E0,0E0,0E0,0E0,0E0,0E0,0E0,0E0,0E0,0E0,0E0,0E0,0E0,0E0,0E0,0E0,0E0,0E0,0E0,0E0,0E0,0E0,0E0,0E0,0E0,0E0,0E0,0E0,0E0,0E0,0E0,0E0,0E0,0E0,0E0,0E0,0E0,0E0,0E0,0E0,0E0,0E0,0E0,0E0,0E0,0E0,0E0,0E0,0E0,0E0,0E0,0E0,0E0,0E0,0E0,0E0,0E0,0E0,0E0,0E0,0E0,0E0,0E0,0E0,0E0,0E0,0E0,0E0,0E0,0E0,0E0,0E0,0E0,0E0,0E0,0E0,0E0,0E0,0E0,0E0,0E0,0E0,0E0,0E0,0E0,0E0,0E0,0E0,0E0,0E0,0E0,0E0,0E0,0E0,0E0,0E0,0E0,0E0,0E0,0E0,0E0,0E0,0E0,0E0,0E0,0E0,0E0,0E0,0E0,0E0,0E0,0E0,0E0,0E0,0E0,0E0,0E0,0E0,0E0,0E0,0E0,0E0,0E0,0E0,0E0,0E0,0E0,0E0,0E0,0E0,0E0,0E0,0E0,0E0,0E0,0E0,0E0,0E0,0E0,0E0,0E0,0E0,0E0,0E0,0E0,0E0,0E0,0E0,0E0,0E0,0E0,0E0,0E0,0E0,0E0,0E0,0E0,0E0,0E0,0E0,0E0,0E0,0E0,0E0,0E0,0E0,0E0,0E0,0E0,0E0,0E0,0E0,0E0,0E0,0E0,0E0,0E0,0E0,0E0,0E0,0E0,0E0,0E0,0E0,0E0,0E0,0E0,0E0,0E0,0E0,0E0,0E0,0E0,0E0,0E0,0E0,0E0,0E0,0E0,0E0,0E0,0E0,0E0,0E0,0E0,0E0,0E0,0E0,0E0,0E0,0E0,0E0,0E0,0E0,0E0,0E0,0E0,0E0,0E0,0E0,0E0,0E0,0E0,0E0,0E0,0E0,0E0,0E0,0E0,0E0,0E0,0E0,0E0,0E0,0E0,0E0,0E0,0E0,0E0,0E0,0E0,0E0,0E0,0E0,0E0,0E0,0E0,0E0,0E0,0E0,0E0,0E0,0E0,0E0,0E0,0E0,0E0,0E0,0E0],"parents":[2147483647,0,0,1,1,2,2,3,3,4,4,5,5,6,6,7,7,8,8,9,9,10,10,11,11,12,12,13,13,14,14,15,15,16,16,17,17,18,18,19,19,20,20,21,21,22,22,23,23,24,24,25,25,26,26,27,27,29,29,31,31,32,32,33,33,34,34,35,35,36,36,37,37,38,38,39,39,40,40,41,41,42,42,43,43,44,44,45,45,47,47,48,48,49,49,50,50,51,51,52,52,54,54,55,55,58,58,59,59,60,60,61,61,62,62,63,63,64,64,65,65,66,66,67,67,68,68,69,69,70,70,71,71,72,72,73,73,74,74,75,75,76,76,77,77,78,78,79,79,80,80,81,81,82,82,83,83,85,85,86,86,87,87,88,88,89,89,90,90,91,91,92,92,93,93,94,94,95,95,96,96,99,99,100,100,101,101,107,107,108,108,109,109,110,110,111,111,112,112,113,113,114,114,117,117,118,118,119,119,120,120,121,121,122,122,123,123,124,124,125,125,126,126,127,127,128,128,129,129,130,130,131,131,132,132,133,133,134,134,135,135,136,136,137,137,138,138,140,140,141,141,143,143,144,144,145,145,146,146,147,147,148,148,149,149,150,150,151,151,153,153,154,154,157,157,158,158,159,159,160,160,162,162,163,163,164,164,165,165,166,166,168,168,169,169,170,170,171,171,172,172,173,173,175,175,176,176,177,177,180,180,182,182,184,184,187,187,188,188,189,189,190,190,191,191,192,192,193,193,194,194,195,195,196,196,197,197,198,198,199,199,200,200,201,201,202,202,203,203,205,205,206,206,207,207,208,208,209,209,210,210,211,211,212,212,213,213,214,214,215,215,217,217,218,218,219,219,220,220,221,221,222,222,223,223,224,224,225,225,226,226,227,227,228,228,229,229,230,230,232,232,233,233,234,234,235,235,236,236,237,237,238,238,239,239,240,240,241,241,242,242,244,244,245,245,246,246,247,247,249,249,251,251,252,252,253,253,254,254,255,255,256,256,258,258,259,259,260,260,261,261,262,262,263,263,264,264,265,265,266,266,268,268,269,269,271,271,273,273,274,274,276,276,277,277,279,279,282,282,283,283,285,285,286,286,287,287,288,288,291,291,292,292,294,294,295,295,296,296,297,297,299,299,300,300,301,301,309,309,310,310,312,312,313,313,315,315,316,316,317,317,318,318,319,319,320,320,321,321,322,322,323,323,324,324,325,325,326,326,327,327,328,328,329,329,330,330,331,331,332,332,334,334,335,335,336,336,337,337,338,338,339,339,340,340,341,341,342,342,343,343,344,344,345,345,346,346,347,347,348,348,350,350,351,351,352,352,353,353,354,354,355,355,356,356,357,357,358,358,359,359,360,360,361,361,362,362,363,363,364,364,365,365,366,366,371,371,372,372,373,373,374,374,375,375,376,376,377,377,378,378,379,379,380,380,381,381,382,382,383,383,384,384,385,385,386,386,387,387,388,388,389,389,390,390,391,391,392,392,393,393,394,394,395,395,396,396,397,397,398,398,399,399,400,400,401,401,402,402,403,403,404,404,405,405,406,406,407,407,408,408,409,409,410,410,411,411,412,412,414,414,416,416,418,418,419,419,420,420,421,421,423,423,424,424,425,425,426,426,427,427,428,428,430,430,431,431,432,432,433,433,434,434,438,438,439,439,440,440,441,441,447,447,448,448,450,450,451,451,452,452,453,453,455,455,456,456,457,457,458,458,459,459,461,461,462,462,464,464,465,465,466,466,467,467,469,469,477,477,479,479,480,480,482,482,484,484,487,487,489,489,490,490,495,495,497,497,498,498,499,499,500,500,503,503,504,504,511,511,512,512],"right_children":[2,4,6,8,10,12,14,16,18,20,22,24,26,28,30,32,34,36,38,40,42,44,46,48,50,52,54,56,-1,58,-1,60,62,64,66,68,70,72,74,76,78,80,82,84,86,88,-1,90,92,94,96,98,100,-1,102,104,-1,-1,106,108,110,112,114,116,118,120,122,124,126,128,130,132,134,136,138,140,142,144,146,148,150,152,154,156,-1,158,160,162,164,166,168,170,172,174,176,178,180,-1,-1,182,184,186,-1,-1,-1,-1,-1,188,190,192,194,196,198,200,202,-1,-1,204,206,208,210,212,214,216,218,220,222,224,226,228,230,232,234,236,238,240,242,244,246,-1,248,250,-1,252,254,256,258,260,262,264,266,268,-1,270,272,-1,-1,274,276,278,280,-1,282,284,286,288,290,-1,292,294,296,298,300,302,-1,304,306,308,-1,-1,310,-1,312,-1,314,-1,-1,316,318,320,322,324,326,328,330,332,334,336,338,340,342,344,346,348,-1,350,352,354,356,358,360,362,364,366,368,370,-1,372,374,376,378,380,382,384,386,388,390,392,394,396,398,-1,400,402,404,406,408,410,412,414,416,418,420,-1,422,424,426,428,-1,430,-1,432,434,436,438,440,442,-1,444,446,448,450,452,454,456,458,460,-1,462,464,-1,466,-1,468,470,-1,472,474,-1,476,-1,-1,478,480,-1,482,484,486,488,-1,-1,490,492,-1,494,496,498,500,-1,502,504,506,-1,-1,-1,-1,-1,-1,-1,508,510,-1,512,514,-1,516,518,520,522,524,526,528,530,532,534,536,538,540,542,544,546,548,550,-1,552,554,556,558,560,562,564,566,568,570,572,574,576,578,580,-1,582,584,586,588,590,592,594,596,598,600,602,604,606,608,610,612,614,-1,-1,-1,-1,616,618,620,622,624,626,628,630,632,634,636,638,640,642,644,646,648,650,652,654,656,658,660,662,664,666,668,670,672,674,676,678,680,682,684,686,688,690,692,694,696,698,-1,700,-1,702,-1,704,706,708,710,-1,712,714,716,718,720,722,-1,724,726,728,730,732,-1,-1,-1,734,736,738,740,-1,-1,-1,-1,-1,742,744,-1,746,748,750,752,-1,754,756,758,760,762,-1,764,766,-1,768,770,772,774,-1,776,-1,-1,-1,-1,-1,-1,-1,778,-1,780,782,-1,784,-1,786,-1,-1,788,-1,790,792,-1,-1,-1,-1,794,-1,796,798,800,802,-1,-1,804,806,-1,-1,-1,-1,-1,-1,808,810,-1,-1,-1,-1,-1,-1,-1,-1,-1,-1,-1,-1,-1,-1,-1,-1,-1,-1,-1,-1,-1,-1,-1,-1,-1,-1,-1,-1,-1,-1,-1,-1,-1,-1,-1,-1,-1,-1,-1,-1,-1,-1,-1,-1,-1,-1,-1,-1,-1,-1,-1,-1,-1,-1,-1,-1,-1,-1,-1,-1,-1,-1,-1,-1,-1,-1,-1,-1,-1,-1,-1,-1,-1,-1,-1,-1,-1,-1,-1,-1,-1,-1,-1,-1,-1,-1,-1,-1,-1,-1,-1,-1,-1,-1,-1,-1,-1,-1,-1,-1,-1,-1,-1,-1,-1,-1,-1,-1,-1,-1,-1,-1,-1,-1,-1,-1,-1,-1,-1,-1,-1,-1,-1,-1,-1,-1,-1,-1,-1,-1,-1,-1,-1,-1,-1,-1,-1,-1,-1,-1,-1,-1,-1,-1,-1,-1,-1,-1,-1,-1,-1,-1,-1,-1,-1,-1,-1,-1,-1,-1,-1,-1,-1,-1,-1,-1,-1,-1,-1,-1,-1,-1,-1,-1,-1,-1,-1,-1,-1,-1,-1,-1,-1,-1,-1,-1,-1,-1,-1,-1,-1,-1,-1,-1,-1,-1,-1,-1,-1,-1,-1,-1,-1,-1,-1,-1,-1,-1,-1,-1,-1,-1,-1,-1,-1,-1,-1,-1,-1,-1,-1,-1,-1,-1,-1,-1,-1,-1,-1,-1,-1,-1,-1,-1,-1,-1,-1,-1,-1,-1,-1,-1,-1,-1,-1,-1,-1,-1,-1,-1,-1,-1,-1,-1,-1,-1,-1,-1,-1,-1,-1,-1,-1,-1,-1,-1,-1,-1,-1,-1,-1,-1,-1,-1,-1,-1,-1,-1,-1,-1,-1,-1,-1,-1,-1,-1,-1,-1,-1,-1,-1,-1,-1,-1,-1,-1,-1,-1],"split_conditions":[1E1,5E0,3.9E1,3.894E3,8E0,1.9E1,9.8E1,3.1E1,3.1E1,4.83E2,2.6E1,1.4E1,2.7E1,7E1,2.37E2,3E0,3.12E2,3E0,6.601E3,1.01E3,4.533E3,1.9E1,8.3E1,4.27E2,3.2E1,4.16E2,3.12E2,6.602E3,3.7003276E-1,1.434E3,5.311336E-1,4.83E2,4.83E2,6.9E1,1.642E3,1.245E3,2.47E2,2.64E2,2.86E2,6E0,1.542E3,6E0,1.109E3,9E0,6.07E2,4.21E2,3.6845613E-1,1.527E3,4.533E3,5.328E3,1.224E3,1.9E1,2.823E3,2.9450163E-1,3.5E2,4.04E2,2.7865982E-1,4.3899986E-1,1.12E3,3.12E2,2.431E3,1.01E3,1.145E3,1.169E3,4.6E1,2.014E3,1.25E3,8.931E3,2E0,4.1938E4,6.469E3,5E0,1.512E3,5.355E3,5E0,8E0,1.001E3,1.245E3,2.49E3,6.46E2,2.8E1,3.6E1,5.355E3,5E0,7.229551E-2,1.005E3,9E0,4.3335E4,4.426E3,7.4E1,4E0,7.01E2,1.24E3,1.5E1,6.05E2,3.2393E4,1.503E3,4.431472E-2,2.569021E-1,1.233E3,4.51E2,3.6E1,2.6896852E-1,3.3901963E-1,3.1447965E-1,2.332393E-1,4.431472E-2,3E0,2.431E3,1.5E1,2.544E3,1.004E3,2.431E3,1.12E3,2.632E3,2.0789133E-1,3.0021086E-1,2.431E3,8.13E2,3E0,3E0,2.431E3,8.53E2,5E0,1.68E2,1.512E3,6.46E2,1.3E1,1.01E2,1.512E3,5.28E2,1.505E3,3.1511E4,3E0,5E0,4.64E2,2.47E2,1.973E3,6.61E3,2.6391983E-2,1.12E3,3.63E2,1.3111717E-1,1.021E3,1.259E3,3.7E1,2.6E1,1.129E3,1.8E1,6.46E2,2.887E3,8.53E2,1.18421726E-1,2.258E3,4E1,-3.3333335E-2,3.287077E-3,1.004E3,1.115E3,5.36E2,1.17E2,1.8892713E-1,6.9E1,2.431E3,2.81E2,2.8E1,3.5141E4,-2.5E-2,5.5E1,3.2E1,3.7E1,3.5E1,2.52E2,1.289E3,2.1722138E-1,5.355E3,7E0,1E1,1.9134723E-1,2.5732815E-1,4.426E3,2.4418361E-1,7.63E2,2.2457157E-1,1.064E3,2.201128E-1,4.431472E-2,3.301E3,1.209E3,1.245E3,1.3E1,3.05E2,1.642E3,1.124E3,1.201E3,1.12E3,7E0,4E0,1.8E1,4E0,1.122E3,1.249E3,1.4E1,1.011E3,1.9070002E-1,7.28E2,2.99E2,6E1,7.01E2,3.333E3,3.27E3,1.145E3,2.544E3,1.284E3,1.284E3,4.28E3,1.16072476E-1,2E0,1.8E1,4.27E3,1.4E1,4.3082E4,1.512E3,2.92E2,3.001E3,2.17E2,4.6772E4,9.31E2,2.1E1,3.19E2,1.9E1,2.0563228E-1,2E0,1.14E2,4.8E1,3.4053E4,1.501E3,4.31E2,3.5307E4,4.27E2,9.16E2,1.5E1,6.613E3,1.6450043E-1,4.5E1,4.0985E4,5.36E2,2.5E1,1.0844462E-1,1.146E3,1.9538175E-1,1.525E3,3.363E3,4.0931E4,6.9E1,1.701E3,4.51E2,1.4874803E-1,6.614E3,1.12E3,3.4225E4,1.064E3,3.1719E4,1.103E3,2.49E3,5.28E2,2.665E3,9.65736E-3,9.16E2,2E1,1.7848304E-1,4.0931E4,1.9106285E-1,1.525E3,2.544E3,1.7193271E-1,4.784E4,3.5651E4,1.1121768E-1,4.0447E4,1.396444E-1,1.587763E-1,4.5143E4,6.4E1,1.6383399E-1,1.48E2,5.355E3,4.8421E4,4.3082E4,1.0324746E-1,9.65736E-3,1.3E1,7.3E1,1.7356035E-1,1.005E3,2.264E3,3.4225E4,1.3E1,1.7787151E-1,1.002E3,3.4E1,9.7E1,7.327042E-2,1.0334076E-1,1.9870783E-1,4.431472E-2,1.792712E-1,8.9629315E-2,2.14237E-1,4.425E3,1.109E3,2.2399966E-1,2.4E1,6.93E2,2.5129268E-1,9.7E1,2.8E1,1.22E3,1.212E3,1.687E3,2.21E2,2.544E3,1.12E3,4E0,1.642E3,1.252E3,1.145E3,1.006E3,1E1,1.113E3,1.12E3,2.2E1,1.84E3,9.65736E-3,2.665E3,3.144E3,6.615E3,4E0,4E0,5.03E2,2E1,1.2E1,1.129E3,1.24E3,4E0,4.51E3,1.203E3,1.001E3,2E0,1.5565728E-1,4.9E1,1.064E3,1.642E3,2E0,6.4E1,4E0,7.28E2,4.51E2,3.631E3,1.169E3,4.421E3,4E1,1.11E3,1.006E3,5E1,1.12E3,3.4E1,1.8118683E-1,1.3738191E-1,9.65736E-3,7.4754916E-2,2.9E1,2.8E1,1.322E3,3.5141E4,2.74E2,1.4E1,3.736E4,1.557E3,2.49E3,4.13E2,3.3189E4,9E0,3.4053E4,8E0,1.69E2,4.011E3,4.2792E4,4.784E4,4.3082E4,1.8E1,6.601E3,1.6E1,2.823E3,4.45E2,2.86E2,1.53E3,3.5452E4,4.531E3,1.515E3,4.7E1,5E3,1.512E3,1.51E3,4.3082E4,2.43E2,1.01E2,2.86E2,2.43E2,2.9E2,3E0,5.621E3,3.04E2,8.526757E-2,4.51E2,1.1229892E-1,3.3E1,1.287648E-2,4E0,4E1,3.3E1,3.2E1,4.7888987E-2,5.355E3,3.5E2,4.32E2,5.355E3,4.46E2,3.1E1,9.65736E-3,8.8E1,7.9E1,6E0,1.4E1,6E0,2.1636395E-1,8.003991E-2,1.7409782E-1,7.2E1,7E0,7E0,4.27E2,1.8271737E-1,2.1382241E-1,1.5089032E-1,1.1314603E-1,1.7267226E-1,1.103E3,4.003E3,2.6391983E-2,2.49E3,2.431E3,1.201E3,1.2E1,1.4147654E-1,1.02E3,3.311E3,1.64E2,3.333E3,3.3E1,1.8182422E-1,7E0,2.9E1,6.426846E-2,1.18E2,1.3E1,3.8E1,1.003E3,1.3376075E-1,2.1E1,1.00845054E-1,1.4987823E-1,9.65736E-3,9.65736E-3,5.5471897E-2,9.963281E-2,-2.5E-2,2.2E1,-2.5E-2,5.36E2,5.46E2,1.5368593E-1,9.04E2,1.672074E-1,2.353E3,1.9256316E-1,9.65736E-3,9E0,1.9344917E-1,3.552E3,2.7E1,5.5471897E-2,1.9077468E-1,1.589601E-1,1.9011895E-1,7.18E2,1.6594312E-1,5E3,3.9E1,1.23E3,6.611E3,1.6990982E-1,1.0166544E-1,4.35E2,4.0931E4,2.9930616E-2,1.9296548E-1,2.1032284E-1,1.3815054E-1,8.9629315E-2,2.2408743E-1,3.5728E4,1.24E3,1.1951859E-1,2.9930616E-2,2.4030447E-2,9.550012E-2,3.1232266E-2,6.397756E-2,6.477657E-2,1.100413E-1,1.543718E-1,1.1320535E-1,6.339871E-2,4.330314E-2,1.2833545E-1,7.50302E-2,1.1494829E-1,6.517119E-2,8.0873884E-2,1.1951158E-1,1.01172246E-1,6.7199335E-2,2.3802059E-2,4.089358E-2,3.7795473E-2,7.931617E-2,8.23329E-2,5.7081502E-2,1.2088847E-1,1.682481E-1,8.962622E-2,1.11554004E-1,7.690572E-2,1.02473915E-1,3.5689943E-2,5.8809996E-2,5.465539E-2,9.006736E-2,7.95594E-2,1.1158209E-1,7.7483825E-2,4.681941E-2,9.3613766E-2,4.035428E-2,1.1097658E-1,4.9677316E-2,9.3546845E-2,1.22890234E-1,1.2745044E-1,1.5982412E-1,3.342233E-2,7.632178E-2,7.463872E-2,1.0591934E-1,8.3912715E-2,1.4369139E-1,1.0831012E-1,8.178323E-2,6.685635E-2,7.833966E-2,8.370953E-2,1.0332111E-1,7.6444924E-2,5.0341617E-2,1.0593696E-1,9.094738E-2,1.3674295E-1,5.9832264E-2,7.7760935E-2,1.3726953E-1,3.990749E-2,1.03707746E-1,1.16844654E-1,2.6751873E-1,1.4739351E-1,2.2034855E-1,4.6181347E-2,6.3150994E-2,1.0432893E-1,1.5564305E-1,8.735295E-2,1.0566423E-1,5.271511E-2,7.722091E-2,7.959136E-2,9.914817E-2,6.0303133E-2,9.65736E-3,1.032538E-1,1.2601055E-1,7.058161E-2,1.0176418E-1,1.2292626E-1,1.5683334E-1,7.339545E-2,9.385817E-2,1.1379323E-1,1.8664438E-1,1.1369038E-1,1.9363645E-1,2.9930616E-2,1.441522E-1,4.3732733E-2,1.1475241E-1,3.1013846E-2,1.1300898E-2,5.9948694E-2,2.3561077E-2,8.9647725E-2,6.4287804E-2,1.1418227E-1,8.388438E-2,-3.3333335E-2,2.2339378E-2,3.3163354E-2,4.912013E-2,5.866117E-2,2.6026666E-2,6.9301486E-2,9.050145E-2,7.15546E-2,1.15399264E-1,1.5491475E-1,4.312661E-2,5.3362973E-2,6.453264E-2,5.5970788E-2,7.4264765E-2,2.7749988E-1,1.3109414E-1,2.3273459E-2,9.927014E-2,6.960823E-2,4.5013238E-2,1.1543254E-1,7.179362E-2,2.6391983E-2,1.6934814E-1,8.23765E-2,3.427507E-2,1.3933197E-1,3.2250008E-1,1.0072269E-1,1.2679335E-1,9.856947E-2,1.7181937E-1,5.459413E-2,7.313026E-2,8.766516E-2,1.1134551E-1,1.4933223E-1,1.1621364E-1,1.1725527E-1,2.8485298E-1,1.1376065E-1,1.44819E-1,1.04334705E-1,7.974138E-2,1.1504685E-1,1.8128215E-1,-3.75E-2,8.9379355E-2,1.0358801E-1,1.480469E-1,2.3307602E-1,3.3932576E-1,1.5064336E-1,2.412436E-1,2.331867E-1,1.4047183E-1,2.5112024E-1,2.0143418E-1,5.4781664E-2,7.0174955E-2,5.7896752E-2,9.459584E-2,1.1112992E-1,1.6632502E-1,8.686622E-2,1.1077426E-1,8.433468E-2,1.7546542E-1,1.0526731E-1,1.2571685E-1,1.6358201E-1,2.0963793E-1,2.4447702E-1,1.2718771E-1,3.69167E-2,-3.75E-2,9.65736E-3,7.155292E-2,1.2781253E-1,1.7724597E-1,1.1049167E-1,1.451765E-1,-2.5E-2,5.5307098E-2,3.5981383E-2,1.2695292E-1,2.0423894E-1,2.5472066E-1,9.65736E-3,1.7231002E-1,1.8193711E-1,9.479874E-2,1.5212737E-1,2.2066663E-1,1.1733731E-1,5.2087974E-2,7.2939876E-3,6.807969E-2,2.9930616E-2,1.2525646E-1,-2.5E-2,1.4260758E-1,7.2601795E-2,1.879577E-1,1.1736977E-1,1.4914538E-1,1.4801261E-1,6.122717E-2,-3.3333335E-2,1.7245954E-1,-2.5E-2,2.9930616E-2,1.3486367E-1,1.4999376E-1,1.5793991E-1,1.3083272E-1,1.0655834E-1,1.2506472E-1,1.4500862E-1,6.682663E-2,9.9399015E-2,1.1241986E-1,1.0629182E-1,1.2750296E-1,1.3596982E-1,1.16611116E-1,2.4622668E-2,1.2359788E-1,1.1296411E-1,1.2441931E-1,1.3625628E-1,1.1405599E-1,1.287648E-2,1.1235948E-1,1.2784684E-1,1.3968693E-1,1.205755E-1,1.4761591E-1,8.035314E-2,2.0064628E-2,2.9930616E-2,1.1757069E-1,1.012296E-1,1.4791414E-1,7.9553284E-2,1.6589099E-1,1.2262108E-1,4.949689E-2,8.570885E-2,9.65736E-3,7.2939876E-3,4.431472E-2,1.3368784E-1,-2.5E-2,1.3031407E-1,1.5040435E-1,2.4687746E-1,1.4786498E-1,1.2247831E-1,-1.0228428E-2,1.9997649E-1,1.4728402E-1,5.693501E-2,2.2769797E-1,1.6300711E-1,4.431472E-2,-2.5E-2,1.20392255E-1,1.0170946E-1,1.5184864E-1,1.6912009E-1,1.9483337E-1,1.1946773E-1,1.6472308E-1,1.5610458E-1,1.05559744E-1,6.301239E-2,1.287648E-2,1.2768966E-1,1.9267106E-1,2.1670905E-1,1.4295878E-1,1.5794156E-1,-2.5E-2,4.431472E-2,2.0379369E-1],"split_indices":[6,6,6,0,6,6,6,9,9,8,9,6,6,6,6,6,8,6,2,2,2,8,9,8,9,8,8,2,0,8,0,8,8,8,10,2,10,8,10,6,2,6,0,6,8,8,0,2,2,0,2,8,2,0,8,8,0,0,0,8,10,2,0,0,9,2,2,0,6,0,0,6,10,0,6,9,2,2,10,8,9,9,0,10,0,2,9,0,2,9,10,8,0,6,8,0,2,0,0,0,8,6,0,0,0,0,0,6,10,9,10,2,10,0,10,0,0,10,10,6,6,10,8,9,10,10,8,10,10,10,8,2,0,6,6,8,10,10,2,0,0,10,0,2,2,9,9,0,9,8,10,8,0,10,9,0,0,2,2,10,10,0,9,10,10,9,0,0,8,9,9,9,10,8,0,0,9,10,0,0,2,0,8,0,0,0,0,2,2,2,9,10,10,2,2,0,9,6,9,6,2,2,9,2,0,10,8,9,8,0,0,0,10,0,0,0,0,6,9,0,9,0,10,8,2,8,0,10,9,10,9,0,6,8,9,0,2,8,0,8,8,10,2,0,9,0,10,9,0,0,0,10,10,0,9,2,8,0,2,0,0,0,0,2,10,8,0,0,8,9,0,0,0,10,10,0,0,0,0,0,0,0,0,9,0,10,0,0,0,0,0,6,0,0,2,10,0,6,0,8,9,10,0,0,0,0,0,0,0,2,0,0,9,0,0,10,10,0,0,0,10,10,0,9,10,2,0,2,9,2,0,9,10,0,0,0,2,6,6,8,9,9,0,0,6,2,2,2,6,0,9,0,10,6,9,6,10,8,0,0,2,9,2,2,9,0,9,0,0,0,0,9,9,10,0,8,9,0,10,10,8,0,9,0,10,10,2,0,0,0,9,2,9,2,8,10,10,0,2,2,9,0,10,2,0,10,10,10,10,8,6,0,8,0,8,0,9,0,6,9,9,9,0,0,8,10,0,8,9,0,10,10,9,9,6,0,0,0,8,6,6,8,0,0,0,0,0,2,2,0,10,10,2,9,0,8,10,10,0,9,0,6,9,0,10,9,9,2,0,9,0,0,0,0,0,0,0,10,0,10,8,0,8,0,10,0,0,10,0,2,10,0,0,0,0,8,0,0,9,0,2,0,0,8,0,0,0,0,0,0,0,0,0,0,0,0,0,0,0,0,0,0,0,0,0,0,0,0,0,0,0,0,0,0,0,0,0,0,0,0,0,0,0,0,0,0,0,0,0,0,0,0,0,0,0,0,0,0,0,0,0,0,0,0,0,0,0,0,0,0,0,0,0,0,0,0,0,0,0,0,0,0,0,0,0,0,0,0,0,0,0,0,0,0,0,0,0,0,0,0,0,0,0,0,0,0,0,0,0,0,0,0,0,0,0,0,0,0,0,0,0,0,0,0,0,0,0,0,0,0,0,0,0,0,0,0,0,0,0,0,0,0,0,0,0,0,0,0,0,0,0,0,0,0,0,0,0,0,0,0,0,0,0,0,0,0,0,0,0,0,0,0,0,0,0,0,0,0,0,0,0,0,0,0,0,0,0,0,0,0,0,0,0,0,0,0,0,0,0,0,0,0,0,0,0,0,0,0,0,0,0,0,0,0,0,0,0,0,0,0,0,0,0,0,0,0,0,0,0,0,0,0,0,0,0,0,0,0,0,0,0,0,0,0,0,0,0,0,0,0,0,0,0,0,0,0,0,0,0,0,0,0,0,0,0,0,0,0,0,0,0,0,0,0,0,0,0,0,0,0,0,0,0,0,0,0,0,0,0,0,0,0,0,0,0,0,0,0,0,0,0,0,0,0,0,0,0,0,0,0,0],"split_type":[0,0,0,0,0,0,0,0,0,0,0,0,0,0,0,0,0,0,0,0,0,0,0,0,0,0,0,0,0,0,0,0,0,0,0,0,0,0,0,0,0,0,0,0,0,0,0,0,0,0,0,0,0,0,0,0,0,0,0,0,0,0,0,0,0,0,0,0,0,0,0,0,0,0,0,0,0,0,0,0,0,0,0,0,0,0,0,0,0,0,0,0,0,0,0,0,0,0,0,0,0,0,0,0,0,0,0,0,0,0,0,0,0,0,0,0,0,0,0,0,0,0,0,0,0,0,0,0,0,0,0,0,0,0,0,0,0,0,0,0,0,0,0,0,0,0,0,0,0,0,0,0,0,0,0,0,0,0,0,0,0,0,0,0,0,0,0,0,0,0,0,0,0,0,0,0,0,0,0,0,0,0,0,0,0,0,0,0,0,0,0,0,0,0,0,0,0,0,0,0,0,0,0,0,0,0,0,0,0,0,0,0,0,0,0,0,0,0,0,0,0,0,0,0,0,0,0,0,0,0,0,0,0,0,0,0,0,0,0,0,0,0,0,0,0,0,0,0,0,0,0,0,0,0,0,0,0,0,0,0,0,0,0,0,0,0,0,0,0,0,0,0,0,0,0,0,0,0,0,0,0,0,0,0,0,0,0,0,0,0,0,0,0,0,0,0,0,0,0,0,0,0,0,0,0,0,0,0,0,0,0,0,0,0,0,0,0,0,0,0,0,0,0,0,0,0,0,0,0,0,0,0,0,0,0,0,0,0,0,0,0,0,0,0,0,0,0,0,0,0,0,0,0,0,0,0,0,0,0,0,0,0,0,0,0,0,0,0,0,0,0,0,0,0,0,0,0,0,0,0,0,0,0,0,0,0,0,0,0,0,0,0,0,0,0,0,0,0,0,0,0,0,0,0,0,0,0,0,0,0,0,0,0,0,0,0,0,0,0,0,0,0,0,0,0,0,0,0,0,0,0,0,0,0,0,0,0,0,0,0,0,0,0,0,0,0,0,0,0,0,0,0,0,0,0,0,0,0,0,0,0,0,0,0,0,0,0,0,0,0,0,0,0,0,0,0,0,0,0,0,0,0,0,0,0,0,0,0,0,0,0,0,0,0,0,0,0,0,0,0,0,0,0,0,0,0,0,0,0,0,0,0,0,0,0,0,0,0,0,0,0,0,0,0,0,0,0,0,0,0,0,0,0,0,0,0,0,0,0,0,0,0,0,0,0,0,0,0,0,0,0,0,0,0,0,0,0,0,0,0,0,0,0,0,0,0,0,0,0,0,0,0,0,0,0,0,0,0,0,0,0,0,0,0,0,0,0,0,0,0,0,0,0,0,0,0,0,0,0,0,0,0,0,0,0,0,0,0,0,0,0,0,0,0,0,0,0,0,0,0,0,0,0,0,0,0,0,0,0,0,0,0,0,0,0,0,0,0,0,0,0,0,0,0,0,0,0,0,0,0,0,0,0,0,0,0,0,0,0,0,0,0,0,0,0,0,0,0,0,0,0,0,0,0,0,0,0,0,0,0,0,0,0,0,0,0,0,0,0,0,0,0,0,0,0,0,0,0,0,0,0,0,0,0,0,0,0,0,0,0,0,0,0,0,0,0,0,0,0,0,0,0,0,0,0,0,0,0,0,0,0,0,0,0,0,0,0,0,0,0,0,0,0,0,0,0,0,0,0,0,0,0,0,0,0,0,0,0,0,0,0,0,0,0,0,0,0,0,0,0,0,0,0,0,0,0,0,0,0,0,0,0,0,0,0,0,0,0,0,0,0,0,0,0,0,0,0,0,0,0,0,0,0,0,0,0,0,0,0,0,0],"sum_hessian":[7.8186E4,6.6207E4,1.1979E4,5.5698E4,1.0509E4,9.24E3,2.739E3,2.8167E4,2.7531E4,7.776E3,2.733E3,6.132E3,3.108E3,1.766E3,9.73E2,2.1316E4,6.851E3,1.9873E4,7.658E3,2.362E3,5.414E3,9.32E2,1.801E3,3.8E3,2.332E3,1.804E3,1.304E3,1.269E3,4.97E2,6.5E2,3.23E2,1.7974E4,3.342E3,3.35E2,6.516E3,3.889E3,1.5984E4,6.661E3,9.97E2,2.88E2,2.074E3,4.706E3,7.08E2,5E0,9.27E2,1.795E3,6E0,1.074E3,2.726E3,8.6E2,1.472E3,5.9E2,1.214E3,4.52E2,8.52E2,1.095E3,1.74E2,6.48E2,2E0,3.773E3,1.4201E4,8.19E2,2.523E3,4.3E1,2.92E2,3.794E3,2.722E3,1.156E3,2.733E3,2.489E3,1.3495E4,5.22E2,6.139E3,3.42E2,6.55E2,9.6E1,1.92E2,6.55E2,1.419E3,2.059E3,2.647E3,4.5E1,6.63E2,4E0,1E0,4.28E2,4.99E2,3.75E2,1.42E3,3.94E2,6.8E2,1.952E3,7.74E2,4.02E2,4.58E2,4.01E2,1.071E3,1E0,5.89E2,5.24E2,6.9E2,2.8E1,8.24E2,6.17E2,4.78E2,1E0,1E0,5.2E2,3.253E3,9.451E3,4.75E3,2.03E2,6.16E2,5.76E2,1.947E3,1.6E1,2.7E1,1.79E2,1.13E2,2.755E3,1.039E3,2.491E3,2.31E2,1.06E2,1.05E3,1.042E3,1.691E3,2.088E3,4.01E2,4.453E3,9.042E3,1.04E2,4.18E2,4.801E3,1.338E3,9.7E1,2.45E2,1.55E2,5E2,2E0,9.4E1,2.1E1,1.71E2,4.32E2,2.23E2,1.296E3,1.23E2,5.69E2,1.49E3,1.378E3,1.269E3,1.4E1,3.1E1,4.84E2,1.79E2,2E0,2E0,2.8E1,4E2,2.8E1,4.71E2,3.42E2,3.3E1,9.28E2,4.92E2,3.92E2,2E0,1E0,6.79E2,1.017E3,9.35E2,1.99E2,5.75E2,8.2E1,3.2E2,2.37E2,2.21E2,2.53E2,1.48E2,7.2E1,9.99E2,1.47E2,3.77E2,1.2E2,5.7E2,2.7E1,1E0,1.7E2,3.5E2,2.267E3,9.86E2,3.557E3,5.894E3,6.78E2,4.072E3,8.6E1,1.17E2,4.13E2,2.03E2,2.06E2,3.7E2,1.313E3,6.34E2,1.55E2,2.4E1,5.7E1,5.6E1,2.251E3,5.04E2,3.39E2,7E2,1.681E3,8.1E2,1.43E2,8.8E1,1.1E1,9.5E1,5.4E1,9.96E2,8.18E2,2.24E2,7.42E2,9.49E2,4.1E1,2.047E3,1.81E2,2.2E2,2.441E3,2.012E3,2.941E3,6.101E3,1.6E1,8.8E1,1.02E2,3.16E2,9.1E2,3.891E3,5.99E2,7.39E2,4.3E1,5.4E1,1.63E2,8.2E1,1.19E2,3.6E1,3.75E2,1.25E2,2E1,7.4E1,5E0,1.6E1,2.31E2,2.01E2,5.1E1,1.72E2,1.04E3,2.56E2,7.3E1,5E1,4.4E1,5.25E2,3.89E2,1.101E3,3.89E2,9.89E2,1.114E3,1.55E2,1E0,1.3E1,4.16E2,6.8E1,1.26E2,5.3E1,2.2E1,6E0,8.2E1,3.18E2,2E0,2.6E1,3E0,4.68E2,2.9E1,4E0,6.63E2,2.65E2,3.5E1,4.57E2,1.1E2,2.82E2,1E0,1E0,4.3E1,6.36E2,5.4E2,4.77E2,6.38E2,2.97E2,4.6E1,1.53E2,3.2E1,5.43E2,7.9E1,3E0,4E0,2.33E2,1E0,2.2E2,2E0,2.51E2,3.97E2,6.02E2,2.81E2,9.6E1,2E0,5.68E2,8.7E1,8.3E1,3.9E1,3.11E2,1.626E3,6.41E2,3.71E2,6.15E2,1.09E2,3.448E3,2.755E3,3.139E3,1.04E2,5.74E2,6.75E2,3.397E3,2.9E1,5.7E1,1E0,1.16E2,2.21E2,1.92E2,1.01E2,1.02E2,1.22E2,8.4E1,5.9E1,3.11E2,1.133E3,1.8E2,2.04E2,4.3E2,3.5E1,1.2E2,5.1E1,6E0,2.5E1,3.1E1,2.209E3,4.2E1,3.19E2,1.85E2,3.15E2,2.4E1,5.83E2,1.17E2,1.5E2,1.531E3,8.8E1,7.22E2,1.22E2,2.1E1,6.2E1,2.6E1,1E0,1E1,3.6E1,1.8E1,5.59E2,4.37E2,9.8E1,7.2E2,1.22E2,1.02E2,7.24E2,1.8E1,6.3E2,3.19E2,2.2E1,1.9E1,1.209E3,8.38E2,2.3E1,1.58E2,1.11E2,1.09E2,4.03E2,2.038E3,1.425E3,5.87E2,1.52E2,2.789E3,3.877E3,2.224E3,1.1E1,7.7E1,6.4E1,3.8E1,1.67E2,1.49E2,7.05E2,2.05E2,8.22E2,3.069E3,4.5E1,5.54E2,5.07E2,2.32E2,2.3E1,2E1,4.3E1,1.1E1,2E0,1.61E2,7E1,1.2E1,3.2E1,4E0,3.43E2,3.2E1,3.8E1,8.7E1,1E1,1E1,1E0,4E0,5.6E1,1.75E2,1.89E2,1.2E1,4.9E1,2E0,1.68E2,4E0,2E0,1.038E3,2.14E2,4.2E1,3.4E1,1.6E1,1.3E1,3.1E1,3.67E2,1.58E2,2E0,3.87E2,6.87E2,4.14E2,5.9E1,3.3E2,6.05E2,3.84E2,6.2E1,1.052E3,1.11E2,4.4E1,8E0,5E0,5E0,4.11E2,1.1E2,1.6E1,7E0,1.5E1,4E0,2E0,3.17E2,1E0,1E0,1E0,2E0,1E0,3E0,1E0,6.45E2,1.8E1,2.6E1,9E0,3.35E2,1.22E2,1.09E2,1E0,2E2,8.2E1,3.8E1,5E0,1E0,6.35E2,4.1E1,4.36E2,3.3E2,3.08E2,2.13E2,8.4E1,4.2E1,4E0,2.6E1,6E0,1.79E2,3.64E2,1E0,7.8E1,3.89E2,8E0,2E0,6E2,1.6E1,8E1,1E0,1E0,6E0,8.1E1,1E1,7.3E1,2.5E1,1.4E1,1.1E2,2.01E2,1.304E3,3.22E2,8.3E1,5.58E2,4.5E1,3.26E2,2.75E2,3.4E2,2.4E1,8.5E1,8.84E2,2.564E3,2.486E3,2.69E2,3.29E2,2.81E3,1.8E1,8.6E1,2.81E2,2.93E2,4.12E2,2.63E2,8.65E2,2.532E3,1.3E1,1.6E1,2.6E1,3.1E1,1.07E2,9E0,2.07E2,1.4E1,1.87E2,5E0,6E1,4.1E1,6E1,4.2E1,7E0,1.15E2,3E1,5.4E1,5E0,5.4E1,2.23E2,8.8E1,5.57E2,5.76E2,1.04E2,7.6E1,1.95E2,9E0,2.29E2,2.01E2,7E0,2.8E1,1.6E1,1.04E2,2E0,4E0,3E0,2.2E1,1.7E1,1.4E1,6.86E2,1.523E3,2.7E1,1.5E1,1.89E2,1.3E2,4.4E1,1.41E2,1.38E2,1.77E2,2.3E1,1E0,2.53E2,3.3E2,2.7E1,9E1,1.11E2,3.9E1,6.42E2,8.89E2,1.5E1,7.3E1,6.84E2,3.8E1,1E0,1.21E2,5E0,1.6E1,3.1E1,5E0,1.4E1,4E0,1.02E2,4.57E2,8.8E1,3.49E2,2E0,9.6E1,2.38E2,4.82E2,1.06E2,1.6E1,3.5E1,6.7E1,7.06E2,1.8E1,1.3E1,5E0,4.7E2,1.6E2,9.3E1,2.26E2,1.5E1,7E0,1E1,9E0,6.92E2,5.17E2,1.98E2,6.4E2,2E0,2.1E1,5.8E1,1E2,8.5E1,2.6E1,6E1,4.9E1,3.92E2,1.1E1,8.69E2,1.169E3,8.45E2,5.8E2,1.56E2,4.31E2,9E1,6.2E1,1.937E3,8.52E2,2.184E3,1.693E3,2.147E3,7.7E1,3E0,8E0,4.1E1,3.6E1,1.2E1,5.2E1,2.4E1,1.4E1,6E1,1.07E2,7.2E1,7.7E1,2.15E2,4.9E2,4E1,1.65E2,4.22E2,4E2,1.044E3,2.025E3,5E0,4E1,1.89E2,3.65E2,2.73E2,2.34E2,1E1,2.22E2,1.7E1,3E0,1E0,1E1,1.7E1,1.44E2,4.5E1,2.5E1,1E0,1.1E1,2E0,3E1,1.05E2,2.38E2,1E0,3.1E1,1.5E1,2.3E1,3.1E1,5.6E1,7E0,3E0,3E0,7E0,1E0,3E0,1E0,5.5E1,2E0,1.73E2,3.3E1,1.56E2,4E0,8E0,2E0,2E0,1E0,1E0,8.65E2,1.73E2,1.36E2,7.8E1,7.8E1,2.89E2,1.52E2,6E0,2.37E2,1.5E2,4.45E2,2.42E2,2.26E2,1.88E2,3E0,5.6E1,3.9E2,2.15E2,2.75E2,1.09E2,2E0,6E1,3.79E2,6.73E2,4.2E1,6.9E1,5E0,3E0,1E0,4E0,1.4E1,3.97E2,3E0,1.07E2,1.4E1,2E0,6E0,1E0,3E0,1E0,2E0,1E0,9.3E1,5.52E2,6E0,1.2E1,7E0,2E0,9.5E1,2.7E1,2E0,1.98E2,3.7E1,1E0,1E0,4E0,1.2E1,3.18E2,1.11E2,1.02E2,1.5E1,6.9E1,3.2E1,1E1,2E0,2E0,1.4E1,1.65E2,3.5E2,1.4E1,1.5E1,1E0,1E0,7.9E1],"tree_param":{"num_deleted":"0","num_feature":"11","num_nodes":"811","size_leaf_vector":"0"}},{"base_weights":[1.0710174E0,8.5265034E-1,2.282929E0,7.7283865E-1,1.2758037E0,1.9385306E0,3.4381087E0,7.261095E-1,1.2011892E0,1.2184424E0,1.438606E0,1.7579576E0,2.3369572E0,3.0047615E0,4.213112E0,6.020384E-1,8.547678E-1,9.9190015E-1,1.5313388E0,1.4345337E0,1.1856848E0,1.4327815E0,3.4971702E-1,1.6732574E0,1.9353139E0,2.2389436E0,2.52972E0,2.8426704E0,3.2426012E0,3.9570844E0,4.7469488E-1,5.5126095E-1,8.441307E-1,6.1085993E-1,9.138001E-1,8.0077773E-1,1.1405542E0,1.0711743E0,1.6950396E0,1.5012332E0,1.1244144E0,1.1258011E0,1.3465406E0,1.3147664E0,1.4929303E0,1.9203436E0,1.6436836E0,2.2684715E0,1.907614E0,2.4161932E0,2.2005208E0,3.0988617E0,2.4948902E0,2.900782E0,2.500206E-1,3.2909532E0,2.6976353E-1,3.972279E0,2.6898136E0,1.1954803E0,5.3605336E-1,1.0995623E0,7.817577E-1,7.518176E-1,5.575679E-1,7.9950094E-1,1.0390674E0,7.2273695E-1,9.682524E-1,1.4435399E0,1.0742488E0,8.821469E-1,1.2223551E0,1.5020062E0,1.9306009E0,1.5956382E0,1.2890376E0,1.249974E-1,1.0400349E0,1.0520593E0,1.1788211E0,1.2968818E0,1.4595965E0,1.009152E-1,1.3185983E0,1.8070506E0,1.4644382E0,1.7135509E0,2.076226E0,1.5571675E0,1.7580554E0,2.4674666E-1,1.8421638E-1,1.8049425E0,1.9941274E0,4.209898E-2,2.4209929E0,2.237955E0,2.091811E0,3.131297E-1,7.3855594E-2,3.7301564E-1,2.499172E0,2.5946593E0,2.956098E-1,4.0364566E-1,3.2555276E-1,3.8018262E-1,4.1267082E-1,1.1194966E0,3.4272096E-1,1.0305014E0,1.6082332E0,6.2993926E-1,4.5735323E-1,1.2347239E0,9.440981E-1,7.1726245E-1,8.6550456E-1,6.5169376E-1,8.430841E-1,4.482101E-1,6.2292683E-1,6.7545587E-1,8.5023147E-1,1.2296228E0,9.6719426E-1,5.445068E-1,7.8284687E-1,8.40523E-1,1.0365832E0,2.8935054E-1,1.385382E0,9.51556E-1,1.1615303E0,5.132423E-1,9.187279E-1,1.3862166E0,1.1074233E0,1.6333293E0,1.3400508E0,2.1549828E0,1.7529063E0,1.5538996E0,1.9266032E0,1.2356299E0,1.6912432E-1,1.0986419E-1,8.3540684E-1,9.897475E-1,1.0998862E0,1.1009203E0,1.2235954E0,1.2551532E0,1.4046715E0,1.4657223E0,4.9997494E-1,-3.233179E-2,6.8680726E-2,1.5081078E0,1.2921971E0,1.934514E0,1.4808093E0,1.3957293E0,1.5730121E0,1.8422973E0,1.4365389E0,2.1890529E-1,1.814245E-1,1.4682863E0,1.6224096E0,1.6758177E0,1.814674E0,2.0097558E-1,1.7484672E0,1.9372765E0,2.0874372E-1,2.7933034E-1,2.356551E-1,1.6184422E0,2.2435753E0,1.9338247E0,2.2194355E0,9.567743E-2,-3.9725084E-2,2.6302978E-1,2.4351802E-1,2.605891E0,4.8863992E-2,7.980621E-3,1.3594676E0,1.1824528E0,7.6101524E-1,2.0664575E0,1.2852144E0,7.6995236E-1,5.321096E-1,7.784693E-1,4.4120657E-1,1.156139E0,1.520649E0,6.094617E-1,9.860938E-1,6.7136025E-1,7.947339E-1,9.795804E-1,8.2543534E-1,9.0271753E-1,5.903671E-1,1.7048039E-1,8.2906884E-1,2.948965E-1,4.769322E-1,5.4322815E-1,6.857796E-1,7.666821E-1,5.771821E-1,1.1677904E0,8.2004577E-1,1.795385E0,1.1399281E0,8.8356817E-1,1.1626244E0,4.978054E-1,6.598399E-1,7.1661234E-1,8.511159E-1,7.6372486E-1,9.913015E-1,9.3196255E-1,1.1109269E0,1.2271842E0,1.7651294E0,1.6388972E0,8.709327E-1,1.2037545E0,8.1169856E-1,2.3929894E-1,5.87156E-1,1.2689666E0,8.933953E-1,1.1959233E0,1.6314167E-1,8.525731E-1,1.1528928E0,1.1739683E0,1.6731452E0,1.4312156E0,1.1866903E0,2.095248E0,3.0437115E-1,1.1724807E0,1.8148292E0,1.2672622E0,1.5841048E0,1.9580093E-1,6.7721896E-2,1.0154605E0,1.3344816E0,6.037161E-1,1.0919473E0,1.2405105E-1,9.8065436E-1,9.651425E-1,1.1471943E0,1.1497446E0,1.0632324E0,1.365915E0,1.1965512E0,1.1841155E0,1.3091267E0,1.1055177E-1,1.4335434E-1,1.2958081E0,1.5052288E0,-3.1111112E-2,1.1444026E-1,1.7347772E-1,1.3468904E0,1.2506253E0,1.4212252E-1,1.9465841E0,3.6375906E-2,1.0656694E0,1.6731048E-1,1.5655564E0,1.3627846E0,1.4432687E0,1.6238844E0,2.1252597E-2,1.853034E0,1.5019554E-1,1.006099E0,1.5291896E0,1.3591707E0,1.5578922E0,1.6932964E0,4.756474E-1,1.678644E0,1.6546218E-1,1.8659489E0,1.4852247E-1,1.7697579E0,2.1206133E-1,1.8787833E0,5.572759E-1,1.8571897E-1,2.5330564E-1,2.2252326E0,2.0328526E0,1.704494E0,2.3101687E-1,1.9855237E-1,2.6921174E-1,2.0053582E0,4.209898E-2,1.5319638E-1,1.8769157E0,1.1194026E0,5.3687525E-1,9.203507E-1,2.1541748E0,7.5844735E-1,1.3618753E0,8.4689385E-1,7.279813E-1,1.0950038E0,4.4196016E-1,5.7081723E-1,6.1046875E-1,1.0738772E0,5.429257E-1,4.110812E-1,7.501764E-1,1.1762636E0,1.6729645E-1,1.265583E0,5.6558056E-3,6.322715E-1,9.5270133E-1,1.3343768E-1,6.812472E-1,4.355561E-1,7.300098E-1,8.949036E-1,8.7242025E-1,1.053918E0,7.634797E-1,9.1894007E-1,6.676629E-1,9.823708E-1,6.409253E-1,5.434138E-1,6.122361E-1,8.734366E-1,5.147227E-1,2.3315665E-1,3.8300923E-1,5.198872E-1,5.168297E-1,5.874061E-1,8.908204E-1,6.551791E-1,6.8842256E-1,9.40806E-1,4.7067955E-1,6.823104E-1,1.5807604E0,1.0822139E0,6.1718315E-1,8.6566335E-1,2.585813E-1,1.6886357E0,1.5018415E0,1.0790772E0,1.0774236E0,8.1768006E-1,1.5289474E0,1.0025532E0,2.6192713E-1,5.325895E-1,5.8981985E-1,8.636703E-1,7.071383E-1,1.6935788E-1,6.6208845E-1,9.303715E-1,5.815075E-1,8.1840855E-1,1.0275366E-1,2.9053623E-2,9.898973E-1,5.6382656E-1,1.0482918E0,1.3771555E-1,9.313641E-1,1.3950552E0,2.0363414E0,1.2103093E0,1.9791422E0,1.389248E0,7.391084E-1,1.0460216E0,1.1026582E0,1.3974019E0,6.713525E-1,1.014E0,2.774077E-1,9.601804E-3,7.9092383E-1,4.0238118E-1,1.351218E-1,5.443893E-2,5.1160634E-1,9.094452E-1,9.6642923E-1,1.4307423E0,1.1925961E-1,4.8240006E-1,1.2223452E-1,8.798464E-1,1.5302259E0,8.2862633E-1,1.7545425E0,1.3890159E0,1.4874376E0,7.355906E-1,1.2232769E0,7.386745E-1,2.2584054E0,1.9128745E0,1.681708E0,9.0377605E-1,1.40286E0,1.9179599E0,2.2800237E-2,1.2825689E0,1.4756799E-1,1.6681727E0,3.1022778E-1,1.0301303E0,1.3665107E0,8.696535E-2,8.086173E-3,6.6401905E-1,5.4932237E-2,1.1998025E-1,1.1065103E0,9.60315E-1,8.422722E-1,1.0320249E0,1.0997787E0,1.2089009E0,1.0213295E0,1.2120136E0,9.8993325E-1,1.1254555E0,1.3746986E0,4.1396294E-2,1.1462675E0,1.2564662E0,1.0868226E0,1.2428141E0,1.5665702E0,1.2855313E0,1.3244884E-1,8.2678753E-1,1.5107198E-1,7.2976047E-1,2.2436703E-2,1.3604989E0,1.2741636E0,1.0877362E0,2.1001147E-1,1.6525976E-1,1.1042608E-1,2.2410398E-2,1.5730517E-1,6.514501E-2,9.839608E-1,1.3701556E0,1.4965669E0,1.1949E0,1.7849282E0,1.5764001E-1,5.2698303E-2,1.8591337E-1,2.1252597E-2,1.05892144E-1,3.6722284E-2,1.5305297E-1,1.3644197E0,3.059785E-1,1.5201535E0,1.7699118E-1,1.7381258E0,1.533687E-1,-2.375E-2,9.509711E-2,1.6913286E-1,1.3470112E-1,1.9323956E0,1.6511868E-1,1.8274766E-1,1.6753863E-1,1.8817452E-1,7.638213E-2,1.7085511E-2,6.291311E-2,2.1960394E-1,2.421067E-1,2.0712605E0,1.3609904E-1,8.125509E-1,1.7981328E-1,4.0411082E-1,2.1452776E-1,1.947376E-1,3.747757E-2,1.3605931E-1,1.0291268E-1,1.0663972E-1,4.8678163E-2,7.1691625E-2,1.1385997E-1,1.8744946E-3,2.1965086E-1,1.0590514E-1,2.0502752E-2,1.1807485E-1,1.5579818E-1,3.4723427E-2,8.970543E-2,3.735108E-2,7.563688E-2,1.1564075E-1,5.6944847E-2,3.970664E-2,4.9111407E-2,7.2439246E-2,5.3650923E-2,9.9873416E-2,5.471837E-2,7.151433E-2,1.13041915E-1,3.46846E-2,7.686391E-2,3.3310298E-2,4.7730286E-2,4.980016E-3,7.844173E-2,1.341545E-1,1.1332571E-1,1.0332163E-1,1.5495573E-1,5.7403776E-3,6.437707E-2,1.0600491E-1,8.869383E-2,7.732436E-2,6.593234E-2,2.6591761E-2,4.8285816E-2,8.649523E-2,6.843511E-2,9.917114E-2,6.709075E-2,7.762989E-2,9.812602E-2,1.0062148E-1,1.2541609E-1,6.5058805E-2,8.0511265E-2,1.0172521E-1,8.762224E-2,7.416885E-2,-7.295145E-3,1.2681144E-1,9.073131E-2,4.798638E-2,6.919465E-2,5.023247E-2,7.238422E-2,1.10350646E-1,4.002516E-2,8.867403E-2,4.2506076E-2,4.1096915E-2,7.1510784E-2,2.9203057E-2,1.3063984E-2,3.2505702E-2,4.5772545E-2,4.776257E-2,6.534856E-2,5.1082313E-2,9.638568E-2,7.257181E-2,5.589793E-2,1.335405E-1,8.475854E-2,6.0569745E-2,7.313496E-2,8.8094115E-2,5.4031957E-2,1.0395942E-1,8.311962E-2,5.3784806E-2,3.5725404E-2,7.7367015E-2,4.7646184E-2,1.6293116E-1,1.1043657E-1,9.43321E-2,1.2565534E-1,7.5284615E-2,5.18724E-2,9.831433E-2,7.7944085E-2,1.6010888E-1,1.8444954E-1,1.07306235E-1,1.7654477E-1,3.460705E-2,1.14024185E-1,9.7725995E-2,1.4110307E-1,9.421466E-2,7.699208E-2,1.0424955E-1,1.5976737E-1,9.8666005E-2,1.7936312E-1,4.1949507E-2,-3.213113E-3,4.023474E-2,5.838989E-2,6.507338E-2,4.117977E-2,2.7583469E-2,9.781066E-2,7.177567E-2,3.973671E-2,5.8213502E-2,7.4160986E-2,1.1754545E-1,8.8316634E-2,6.561797E-2,4.1481763E-2,8.224769E-2,2.3630088E-2,9.298251E-2,1.5036446E-1,6.4038396E-2,2.0607743E-2,1.1956241E-1,9.515187E-2,5.7099003E-2,1.0373773E-1,1.030123E-1,1.5230474E-1,1.4224468E-1,2.1429494E-1,5.2335273E-2,1.2870152E-1,7.4886814E-2,2.0504622E-1,1.5041605E-1,5.9980568E-2,6.4424865E-2,8.844688E-2,7.962241E-2,1.21223465E-1,1.19904675E-1,9.9282086E-2,1.1640792E-1,1.7666654E-1,8.106301E-2,4.607841E-2,1.1148038E-1,7.783939E-2,3.1075288E-2,7.2013526E-3,9.458754E-2,2.1737931E-2,4.2962983E-2,5.1322877E-3,5.549955E-2,3.885731E-3,7.755214E-2,9.756169E-2,1.01019815E-1,4.580074E-2,1.4598054E-1,2.358297E-2,9.831267E-3,1.0170517E-1,4.9111858E-2,1.03755E-1,1.9637646E-1,1.1790724E-1,9.4856374E-2,3.3070996E-2,1.8253358E-1,1.4920631E-1,1.8325244E-1,1.2639038E-1,1.3819282E-1,1.7826769E-1,-3.943664E-2,8.8305056E-2,1.17315285E-1,1.5352838E-1,1.14394024E-1,1.6998868E-2,2.8586367E-1,1.9742422E-1,2.1362014E-1,1.71556E-1,2.0146035E-1,4.2904265E-2,5.9948713E-2,1.1478132E-1,1.7057727E-1,9.178944E-2,2.3951812E-1,1.766871E-1,1.3281862E-1,7.038694E-2,1.676988E-1,8.972957E-2,7.8608E-2,-3.2073826E-2,1.0972726E-1,7.7448584E-2,3.8666513E-2,1.3705736E-1,8.4658206E-2,3.756333E-2,8.42309E-2,1.2344807E-1,8.324986E-2,1.0055375E-1,7.168581E-2,9.003764E-2,1.10206835E-1,7.740564E-2,1.12038665E-1,8.988041E-2,1.3741933E-1,1.1614938E-1,9.467242E-2,1.13231875E-1,1.3643631E-1,1.1085208E-1,9.9567495E-2,3.3479042E-2,1.16141796E-1,1.015379E-1,1.3787536E-1,5.4341722E-2,1.250659E-1,1.12119846E-1,1.4795458E-1,1.2107494E-1,1.1485907E-1,8.086883E-2,8.7007344E-2,1.2662755E-1,1.0262499E-1,1.6729029E-1,1.4715874E-1,1.2624735E-1,3.89045E-2,1.0991726E-1,1.07668556E-1,-3.2896996E-2,3.6820807E-2,1.3701002E-1,9.748592E-2,1.2867512E-1,1.0999037E-1,2.67514E-3,2.2410398E-2,1.0121584E-1,1.3977511E-1,1.2665771E-1,1.0875896E-1,1.5339527E-1,1.2264935E-1,1.2969881E-3,1.8423297E-1,1.2391579E-1,1.0677486E-1,1.391512E-1,3.6722284E-2,9.17449E-3,1.6575068E-1,1.4825922E-1,1.0926657E-1,1.7458585E-1,2.0630018E-1,1.8529075E-1,2.0798258E-1,5.174287E-2,9.964868E-2,-2.375E-2,-7.293624E-3,6.791025E-2],"categories":[],"categories_nodes":[],"categories_segments":[],"categories_sizes":[],"default_left":[1,1,0,0,0,0,0,0,0,0,0,0,0,0,0,1,0,0,0,0,0,0,0,0,0,0,0,0,0,0,0,0,0,0,0,0,0,0,0,0,0,0,0,0,0,0,0,0,0,0,0,0,0,0,0,0,0,0,0,0,0,0,0,0,0,0,0,0,0,0,0,0,0,0,0,0,0,0,0,0,0,0,0,0,0,0,0,0,0,0,0,0,0,0,0,0,0,0,0,0,0,0,0,0,0,0,0,0,0,0,0,0,0,0,0,0,0,0,0,0,0,0,0,0,0,0,0,0,0,0,0,0,0,0,0,0,0,0,0,0,0,0,0,0,0,0,0,0,0,0,0,0,0,0,0,0,0,0,0,0,0,0,0,0,0,0,0,0,0,0,0,0,0,0,0,0,0,0,0,0,0,0,0,0,0,0,0,0,0,0,0,0,0,1,0,0,0,0,0,0,0,0,0,0,0,0,0,0,0,0,0,0,0,0,0,0,0,0,0,0,0,0,0,0,0,0,0,0,0,0,0,0,0,0,0,0,0,0,0,0,0,0,0,0,0,0,0,0,0,0,0,0,0,0,0,0,0,0,0,0,0,0,0,0,0,0,0,0,0,0,0,0,0,0,0,0,0,0,0,0,0,0,0,0,0,0,0,0,0,0,0,0,0,0,0,0,0,0,0,0,0,0,0,0,0,0,0,0,0,0,0,0,0,0,0,0,0,0,0,0,0,0,0,0,0,0,0,0,0,0,0,0,0,0,0,0,0,0,0,0,0,0,0,0,0,0,0,0,0,0,0,0,0,0,0,0,0,0,0,0,0,0,0,0,0,0,0,0,0,0,0,0,0,0,0,0,0,0,0,0,0,0,0,0,0,0,0,0,0,0,0,0,0,0,0,0,0,0,0,0,0,0,0,0,0,0,0,0,0,0,0,0,0,0,0,0,0,0,0,0,0,0,0,0,0,0,0,0,0,0,0,0,0,0,0,0,0,0,0,0,0,0,0,0,0,0,0,0,0,0,0,0,0,0,0,0,0,0,0,0,0,0,0,0,0,0,0,0,0,0,0,0,0,0,0,0,0,0,0,0,0,0,0,0,0,0,0,0,0,0,0,0,0,0,0,0,0,0,0,0,0,0,0,0,0,0,0,0,0,0,0,0,0,0,0,0,0,0,0,0,0,0,0,0,0,0,0,0,0,0,0,0,0,0,0,0,0,0,0,0,0,0,0,0,0,0,0,0,0,0,0,0,0,0,0,0,0,0,0,0,0,0,0,0,0,0,0,0,0,0,0,0,0,0,0,0,0,0,0,0,0,0,0,0,0,0,0,0,0,0,0,0,0,0,0,0,0,0,0,0,0,0,0,0,0,0,0,0,0,0,0,0,0,0,0,0,0,0,0,0,0,0,0,0,0,0,0,0,0,0,0,0,0,0,0,0,0,0,0,0,0,0,0,0,0,0,0,0,0,0,0,0,0,0,0,0,0,0,0,0,0,0,0,0,0,0,0,0,0,0,0,0,0,0,0,0,0,0,0,0,0,0,0,0,0,0,0,0,0,0,0,0,0,0,0,0,0,0,0,0,0,0,0,0,0,0,0,0,0,0,0,0,0,0,0,0,0,0,0,0,0,0,0,0,0,0,0,0,0,0,0,0,0,0,0,0,0,0,0,0,0,0,0,0,0,0,0,0,0,0,0,0,0,0,0,0,0,0,0,0,0,0,0,0,0,0,0,0,0,0,0,0,0,0,0,0,0,0,0,0,0,0,0,0,0,0,0,0,0,0,0,0,0,0,0,0,0,0,0,0,0,0,0,0,0,0,0,0,0],"id":1,"left_children":[1,3,5,7,9,11,13,15,17,19,21,23,25,27,29,31,33,35,37,39,41,43,-1,45,47,49,51,53,55,57,-1,59,61,63,65,67,69,71,73,75,77,79,81,83,85,87,89,91,93,95,97,99,101,103,-1,105,-1,107,109,111,113,115,117,119,121,123,125,127,129,131,133,135,137,139,141,143,145,-1,147,149,151,153,155,157,159,161,163,165,167,169,171,-1,-1,173,175,-1,177,179,181,-1,-1,183,185,187,-1,-1,-1,-1,-1,189,-1,191,193,195,197,199,201,203,205,207,209,211,213,215,217,219,221,223,225,227,229,-1,231,233,235,237,239,241,243,245,247,249,251,253,255,257,-1,-1,259,261,263,265,267,269,271,273,275,-1,-1,277,279,281,283,285,287,289,291,-1,-1,293,295,297,299,-1,301,303,-1,-1,-1,305,307,309,311,-1,-1,-1,-1,313,-1,-1,315,317,319,321,323,325,327,329,331,333,335,337,339,341,343,345,347,349,351,-1,353,355,357,359,361,363,365,367,369,371,373,375,377,379,381,383,385,387,389,391,393,395,397,399,401,403,405,407,409,411,413,415,-1,417,419,421,423,425,427,429,-1,431,433,435,437,-1,-1,439,441,443,445,-1,447,449,451,453,455,457,459,461,463,-1,-1,465,467,-1,-1,-1,469,471,-1,473,-1,475,-1,477,479,481,483,-1,485,-1,487,489,491,493,495,497,499,-1,501,-1,503,-1,505,507,-1,-1,509,511,513,-1,-1,-1,515,-1,-1,517,519,521,523,525,527,529,531,533,535,537,539,541,543,545,547,549,551,-1,553,-1,555,557,-1,559,561,563,565,567,569,571,573,575,577,579,581,583,585,587,589,591,593,595,597,599,601,603,605,607,609,611,613,615,617,-1,619,621,623,625,627,629,631,633,635,637,639,641,-1,643,645,647,649,-1,-1,651,653,655,-1,657,659,661,663,665,667,669,671,673,675,677,679,681,-1,683,685,-1,-1,687,689,691,693,-1,695,-1,697,699,701,703,705,707,709,711,713,715,717,719,721,723,725,-1,727,-1,729,731,733,735,-1,-1,737,-1,-1,739,741,743,745,747,749,751,753,755,757,759,-1,761,763,765,767,769,771,-1,773,-1,775,-1,777,779,781,-1,-1,-1,-1,-1,-1,783,785,787,789,791,-1,-1,-1,-1,-1,-1,-1,793,795,797,-1,799,-1,-1,-1,-1,-1,801,-1,-1,-1,-1,-1,-1,-1,-1,-1,803,-1,805,-1,807,-1,-1,-1,-1,-1,-1,-1,-1,-1,-1,-1,-1,-1,-1,-1,-1,-1,-1,-1,-1,-1,-1,-1,-1,-1,-1,-1,-1,-1,-1,-1,-1,-1,-1,-1,-1,-1,-1,-1,-1,-1,-1,-1,-1,-1,-1,-1,-1,-1,-1,-1,-1,-1,-1,-1,-1,-1,-1,-1,-1,-1,-1,-1,-1,-1,-1,-1,-1,-1,-1,-1,-1,-1,-1,-1,-1,-1,-1,-1,-1,-1,-1,-1,-1,-1,-1,-1,-1,-1,-1,-1,-1,-1,-1,-1,-1,-1,-1,-1,-1,-1,-1,-1,-1,-1,-1,-1,-1,-1,-1,-1,-1,-1,-1,-1,-1,-1,-1,-1,-1,-1,-1,-1,-1,-1,-1,-1,-1,-1,-1,-1,-1,-1,-1,-1,-1,-1,-1,-1,-1,-1,-1,-1,-1,-1,-1,-1,-1,-1,-1,-1,-1,-1,-1,-1,-1,-1,-1,-1,-1,-1,-1,-1,-1,-1,-1,-1,-1,-1,-1,-1,-1,-1,-1,-1,-1,-1,-1,-1,-1,-1,-1,-1,-1,-1,-1,-1,-1,-1,-1,-1,-1,-1,-1,-1,-1,-1,-1,-1,-1,-1,-1,-1,-1,-1,-1,-1,-1,-1,-1,-1,-1,-1,-1,-1,-1,-1,-1,-1,-1,-1,-1,-1,-1,-1,-1,-1,-1,-1,-1,-1,-1,-1,-1,-1,-1,-1,-1,-1,-1,-1,-1,-1,-1,-1,-1,-1,-1,-1,-1,-1,-1,-1,-1,-1,-1,-1,-1,-1,-1,-1,-1,-1,-1,-1,-1,-1,-1,-1,-1,-1,-1,-1,-1,-1,-1,-1,-1,-1,-1,-1,-1,-1,-1,-1,-1,-1,-1,-1,-1,-1,-1,-1],"loss_changes":[2.064354E4,2.2315234E3,4.731633E3,1.1123789E3,9.61875E1,6.561328E2,9.05541E2,8.000039E2,3.763711E2,5.3243164E1,2.7686523E1,9.168555E1,4.8353516E1,5.851758E1,1.1488672E2,3.1340723E2,3.5388867E2,9.426416E1,1.5788281E2,1.9348633E1,6.3466797E1,1.735205E1,0E0,2.8148438E1,1.4461426E1,7.649414E0,1.1219727E1,1.3703125E1,9.699707E0,2.1591797E0,0E0,2.0616455E2,6.963965E1,3.563794E1,2.8292188E2,1.8499817E1,3.625757E1,1.4896423E1,6.8126465E1,1.4650024E1,6.4941406E-1,1.8003418E1,8.353027E0,4.178711E0,1.3418701E1,1.1012695E1,3.5189453E1,8.264343E0,1.315332E1,2.1313477E0,1.7324219E0,1.5917664E0,7.2993164E0,7.4682617E0,0E0,3.840332E0,0E0,1.6044922E0,8.90065E0,3.1437134E1,1.5209961E2,1.7031372E1,1.8607666E1,1.1457825E1,2.4644287E1,6.466406E1,1.2826367E2,1.0351379E1,3.1784363E0,2.4240845E1,1.5472046E1,2.9291687E0,4.265381E0,1.6166016E1,2.4132568E1,4.921753E0,3.5382385E0,0E0,4.7332764E-1,5.074463E0,8.611328E0,3.980713E0,2.4943848E0,1.2162764E0,2.6741943E0,3.164978E0,1.0121094E1,4.486328E0,3.506836E0,1.0322754E1,4.6088867E0,0E0,0E0,6.5839844E0,1.3349609E0,0E0,1.2869873E0,4.0039062E-1,4.156494E0,0E0,0E0,1.7290285E0,1.1796875E0,2.1564941E0,0E0,0E0,0E0,0E0,0E0,1.1389842E0,0E0,1.343222E1,1.7622223E1,1.2837329E2,5.7847168E1,8.577881E0,5.1187134E0,6.63916E0,6.2489014E0,9.181E0,6.8474426E0,5.6190796E0,1.0547668E1,2.6578491E1,6.953613E1,1.2913135E2,1.112168E2,1.0557938E0,2.7814026E0,1.1766968E0,1.2825012E0,0E0,1.7298279E1,3.4537415E1,1.2317261E1,3.656988E-1,8.892517E-1,3.7881317E0,1.1724396E0,6.668579E0,3.7821045E0,9.814575E0,1.210498E1,2.442627E0,1.0282745E0,3.7594604E0,0E0,0E0,1.1239147E0,8.540039E-1,6.293579E0,7.1325684E-1,5.308838E0,2.015625E0,1.4208984E0,1.7078857E0,2.969468E0,0E0,0E0,1.5735474E0,2.6102295E0,1.2067566E0,1.8093567E0,3.5733643E0,1.8276367E0,1.9334717E0,4.0361023E-1,0E0,0E0,4.1551514E0,3.0969238E0,1.5183105E0,4.7993164E0,0E0,1.25E0,2.9221191E0,0E0,0E0,0E0,2.5119438E0,4.4335938E-1,9.6343994E-1,1.8835449E-1,0E0,0E0,0E0,0E0,2.0579224E0,0E0,0E0,2.5935173E-3,7.6194763E0,4.1129303E0,4.676605E0,1.6356049E0,5.193213E1,1.9072632E1,2.5945404E1,3.252832E1,2.0995789E0,1.612381E0,5.6959534E-1,2.9155579E0,2.6710815E0,4.1768494E0,2.2351074E0,5.954773E0,1.6282959E0,8.62381E-1,0E0,5.9589844E0,2.716545E0,4.2388153E0,8.229675E-1,7.039673E0,2.061023E1,1.5969696E1,2.076587E1,6.1644043E1,2.5334473E1,4.7578125E1,6.0606934E1,1.1896777E2,1.3947983E0,5.039177E-1,2.3844147E0,4.837311E0,6.699829E-1,1.0472603E0,2.2145004E0,1.3744354E0,1.022171E1,1.152948E1,2.9415894E0,1.2683075E1,1.4140259E1,2.1584702E0,1.1585653E-2,3.9711952E-1,3.917694E-2,8.582916E-1,2.5512238E0,0E0,3.452446E0,1.8639221E0,3.7762718E0,7.553955E0,8.331207E0,1.5878906E0,4.279297E0,0E0,4.090214E0,1.243457E1,5.6658936E-1,1.7402344E0,0E0,0E0,4.7703552E-1,1.178833E0,5.138397E-1,1.0174656E-1,0E0,1.192627E0,1.6618347E0,1.1690674E0,2.3284912E0,1.654419E0,1.7805786E0,3.151123E0,1.0021973E0,1.138794E0,0E0,0E0,3.846283E-1,7.541504E-1,0E0,0E0,0E0,7.182236E-1,1.0180664E0,0E0,1.0429688E0,0E0,3.0463982E-1,0E0,6.463623E-2,1.0585938E0,6.8722534E-1,5.9680176E-1,0E0,8.795166E-2,0E0,2.7797318E-1,3.630371E-1,1.4897461E0,2.6624756E0,1.5272217E0,1.2427833E0,5.864258E-1,0E0,7.08374E0,0E0,3.9709473E-1,0E0,2.0385742E-1,3.5752058E-3,0E0,0E0,8.8623047E-1,5.614624E-1,3.9677582E0,0E0,0E0,0E0,4.062065E0,0E0,0E0,1.0694733E0,3.085144E0,9.663353E-1,2.4692688E0,4.5692596E0,6.146667E-1,6.112976E-1,6.445885E-2,3.419165E1,1.35407715E1,3.4857788E0,2.000708E1,7.906067E0,3.1063232E0,1.0767822E2,4.244287E1,4.4056606E-1,9.3911743E-1,0E0,1.038414E0,0E0,2.671299E-1,1.4035645E0,0E0,1.9508057E0,3.0490875E-1,2.2299347E0,5.5798035E0,9.9583435E-1,9.255066E-1,2.7521057E0,1.0111084E0,1.9181385E0,7.582321E-1,1.6401672E0,1.6454926E0,1.1847034E1,2.9515991E0,6.416931E-1,9.5771694E-1,1.3623695E0,3.9337158E0,1.1536255E0,9.861908E-1,1.8474884E0,3.5559387E0,3.0317596E1,4.344208E0,5.338974E0,1.3359924E1,6.755066E-1,1.1648315E1,1.6132416E1,5.477295E1,0E0,1.317627E0,3.4161743E1,8.550757E1,3.9321045E1,2.0656738E1,1.9162476E1,1.624707E1,1.2181671E0,8.476639E-1,3.3929443E-1,8.0652046E-1,9.8117065E-1,0E0,2.7402496E-1,1.9004669E0,1.0121822E-1,9.311676E-3,0E0,0E0,2.0275497E0,4.1579866E-1,8.726959E-1,0E0,2.731453E0,5.2504883E0,9.43985E-1,1.0653267E0,7.4580383E-1,2.907898E0,4.0632324E0,9.331665E0,4.4312744E0,2.1292175E1,1.4447803E0,5.8494568E-2,1.1866093E-2,0E0,5.0535965E-1,9.2740655E-2,0E0,0E0,2.0406842E-1,1.0689392E0,4.2744827E-1,8.364792E-1,0E0,3.391011E0,0E0,1.6360722E0,5.771141E-1,1.0598316E0,3.4456177E0,3.2881775E0,4.4519043E0,3.6807146E0,3.7269592E-1,3.0321078E0,1.942926E1,2.6365967E0,4.556732E0,1.4653778E0,9.451965E0,1.6101074E1,0E0,4.6426392E-1,0E0,2.0770264E-1,1.1528655E0,4.375229E-1,5.5236816E-2,0E0,0E0,5.243726E-1,0E0,0E0,2.8821259E0,3.5905151E0,1.8528748E-1,2.670395E0,1.0389404E0,1.232727E0,1.8663025E-1,3.138855E0,7.4624634E-1,9.1430664E-2,1.8786621E-1,0E0,7.960205E-1,5.194702E0,1.8714752E0,1.0844727E0,5.2388E-1,2.0562744E-1,0E0,6.45483E-1,0E0,2.1906977E0,0E0,1.24320984E-1,7.875366E-1,1.08078E0,0E0,0E0,0E0,0E0,0E0,0E0,2.0169258E-1,6.392822E-1,6.251831E-1,1.4030609E0,6.6189575E-1,0E0,0E0,0E0,0E0,0E0,0E0,0E0,1.2710571E0,5.6709647E-3,5.091553E-1,0E0,3.383789E-1,0E0,0E0,0E0,0E0,0E0,1.8251953E0,0E0,0E0,0E0,0E0,0E0,0E0,0E0,0E0,0E0,5.475464E-1,0E0,1.7818017E0,0E0,4.4308305E-1,0E0,0E0,0E0,0E0,0E0,0E0,0E0,0E0,0E0,0E0,0E0,0E0,0E0,0E0,0E0,0E0,0E0,0E0,0E0,0E0,0E0,0E0,0E0,0E0,0E0,0E0,0E0,0E0,0E0,0E0,0E0,0E0,0E0,0E0,0E0,0E0,0E0,0E0,0E0,0E0,0E0,0E0,0E0,0E0,0E0,0E0,0E0,0E0,0E0,0E0,0E0,0E0,0E0,0E0,0E0,0E0,0E0,0E0,0E0,0E0,0E0,0E0,0E0,0E0,0E0,0E0,0E0,0E0,0E0,0E0,0E0,0E0,0E0,0E0,0E0,0E0,0E0,0E0,0E0,0E0,0E0,0E0,0E0,0E0,0E0,0E0,0E0,0E0,0E0,0E0,0E0,0E0,0E0,0E0,0E0,0E0,0E0,0E0,0E0,0E0,0E0,0E0,0E0,0E0,0E0,0E0,0E0,0E0,0E0,0E0,0E0,0E0,0E0,0E0,0E0,0E0,0E0,0E0,0E0,0E0,0E0,0E0,0E0,0E0,0E0,0E0,0E0,0E0,0E0,0E0,0E0,0E0,0E0,0E0,0E0,0E0,0E0,0E0,0E0,0E0,0E0,0E0,0E0,0E0,0E0,0E0,0E0,0E0,0E0,0E0,0E0,0E0,0E0,0E0,0E0,0E0,0E0,0E0,0E0,0E0,0E0,0E0,0E0,0E0,0E0,0E0,0E0,0E0,0E0,0E0,0E0,0E0,0E0,0E0,0E0,0E0,0E0,0E0,0E0,0E0,0E0,0E0,0E0,0E0,0E0,0E0,0E0,0E0,0E0,0E0,0E0,0E0,0E0,0E0,0E0,0E0,0E0,0E0,0E0,0E0,0E0,0E0,0E0,0E0,0E0,0E0,0E0,0E0,0E0,0E0,0E0,0E0,0E0,0E0,0E0,0E0,0E0,0E0,0E0,0E0,0E0,0E0,0E0,0E0,0E0,0E0,0E0,0E0,0E0,0E0,0E0,0E0,0E0,0E0,0E0,0E0,0E0,0E0,0E0,0E0,0E0,0E0,0E0,0E0,0E0,0E0,0E0,0E0,0E0,0E0,0E0,0E0,0E0,0E0,0E0,0E0,0E0,0E0,0E0,0E0,0E0,0E0,0E0,0E0,0E0,0E0,0E0,0E0,0E0,0E0,0E0,0E0,0E0,0E0,0E0,0E0,0E0,0E0,0E0,0E0,0E0,0E0,0E0,0E0,0E0,0E0,0E0,0E0,0E0,0E0,0E0,0E0,0E0],"parents":[2147483647,0,0,1,1,2,2,3,3,4,4,5,5,6,6,7,7,8,8,9,9,10,10,11,11,12,12,13,13,14,14,15,15,16,16,17,17,18,18,19,19,20,20,21,21,23,23,24,24,25,25,26,26,27,27,28,28,29,29,31,31,32,32,33,33,34,34,35,35,36,36,37,37,38,38,39,39,40,40,41,41,42,42,43,43,44,44,45,45,46,46,47,47,48,48,49,49,50,50,51,51,52,52,53,53,55,55,57,57,58,58,59,59,60,60,61,61,62,62,63,63,64,64,65,65,66,66,67,67,68,68,69,69,70,70,71,71,72,72,73,73,74,74,75,75,76,76,78,78,79,79,80,80,81,81,82,82,83,83,84,84,85,85,86,86,87,87,88,88,89,89,90,90,93,93,94,94,96,96,97,97,98,98,101,101,102,102,103,103,109,109,111,111,112,112,113,113,114,114,115,115,116,116,117,117,118,118,119,119,120,120,121,121,122,122,123,123,124,124,125,125,126,126,127,127,128,128,129,129,130,130,132,132,133,133,134,134,135,135,136,136,137,137,138,138,139,139,140,140,141,141,142,142,143,143,144,144,145,145,148,148,149,149,150,150,151,151,152,152,153,153,154,154,155,155,156,156,159,159,160,160,161,161,162,162,163,163,164,164,165,165,166,166,169,169,170,170,171,171,172,172,174,174,175,175,179,179,180,180,181,181,182,182,187,187,190,190,191,191,192,192,193,193,194,194,195,195,196,196,197,197,198,198,199,199,200,200,201,201,202,202,203,203,204,204,205,205,206,206,207,207,208,208,210,210,211,211,212,212,213,213,214,214,215,215,216,216,217,217,218,218,219,219,220,220,221,221,222,222,223,223,224,224,225,225,226,226,227,227,228,228,229,229,230,230,231,231,232,232,233,233,234,234,235,235,236,236,237,237,238,238,239,239,240,240,241,241,243,243,244,244,245,245,246,246,247,247,248,248,249,249,251,251,252,252,253,253,254,254,257,257,258,258,259,259,260,260,262,262,263,263,264,264,265,265,266,266,267,267,268,268,269,269,270,270,273,273,274,274,278,278,279,279,281,281,283,283,285,285,286,286,287,287,288,288,290,290,292,292,293,293,294,294,295,295,296,296,297,297,298,298,300,300,302,302,304,304,305,305,308,308,309,309,310,310,314,314,317,317,318,318,319,319,320,320,321,321,322,322,323,323,324,324,325,325,326,326,327,327,328,328,329,329,330,330,331,331,332,332,333,333,334,334,336,336,338,338,339,339,341,341,342,342,343,343,344,344,345,345,346,346,347,347,348,348,349,349,350,350,351,351,352,352,353,353,354,354,355,355,356,356,357,357,358,358,359,359,360,360,361,361,362,362,363,363,364,364,365,365,366,366,367,367,368,368,369,369,370,370,372,372,373,373,374,374,375,375,376,376,377,377,378,378,379,379,380,380,381,381,382,382,383,383,385,385,386,386,387,387,388,388,391,391,392,392,393,393,395,395,396,396,397,397,398,398,399,399,400,400,401,401,402,402,403,403,404,404,405,405,406,406,407,407,409,409,410,410,413,413,414,414,415,415,416,416,418,418,420,420,421,421,422,422,423,423,424,424,425,425,426,426,427,427,428,428,429,429,430,430,431,431,432,432,433,433,434,434,436,436,438,438,439,439,440,440,441,441,444,444,447,447,448,448,449,449,450,450,451,451,452,452,453,453,454,454,455,455,456,456,457,457,459,459,460,460,461,461,462,462,463,463,464,464,466,466,468,468,470,470,471,471,472,472,479,479,480,480,481,481,482,482,483,483,491,491,492,492,493,493,495,495,501,501,511,511,513,513,515,515],"right_children":[2,4,6,8,10,12,14,16,18,20,22,24,26,28,30,32,34,36,38,40,42,44,-1,46,48,50,52,54,56,58,-1,60,62,64,66,68,70,72,74,76,78,80,82,84,86,88,90,92,94,96,98,100,102,104,-1,106,-1,108,110,112,114,116,118,120,122,124,126,128,130,132,134,136,138,140,142,144,146,-1,148,150,152,154,156,158,160,162,164,166,168,170,172,-1,-1,174,176,-1,178,180,182,-1,-1,184,186,188,-1,-1,-1,-1,-1,190,-1,192,194,196,198,200,202,204,206,208,210,212,214,216,218,220,222,224,226,228,230,-1,232,234,236,238,240,242,244,246,248,250,252,254,256,258,-1,-1,260,262,264,266,268,270,272,274,276,-1,-1,278,280,282,284,286,288,290,292,-1,-1,294,296,298,300,-1,302,304,-1,-1,-1,306,308,310,312,-1,-1,-1,-1,314,-1,-1,316,318,320,322,324,326,328,330,332,334,336,338,340,342,344,346,348,350,352,-1,354,356,358,360,362,364,366,368,370,372,374,376,378,380,382,384,386,388,390,392,394,396,398,400,402,404,406,408,410,412,414,416,-1,418,420,422,424,426,428,430,-1,432,434,436,438,-1,-1,440,442,444,446,-1,448,450,452,454,456,458,460,462,464,-1,-1,466,468,-1,-1,-1,470,472,-1,474,-1,476,-1,478,480,482,484,-1,486,-1,488,490,492,494,496,498,500,-1,502,-1,504,-1,506,508,-1,-1,510,512,514,-1,-1,-1,516,-1,-1,518,520,522,524,526,528,530,532,534,536,538,540,542,544,546,548,550,552,-1,554,-1,556,558,-1,560,562,564,566,568,570,572,574,576,578,580,582,584,586,588,590,592,594,596,598,600,602,604,606,608,610,612,614,616,618,-1,620,622,624,626,628,630,632,634,636,638,640,642,-1,644,646,648,650,-1,-1,652,654,656,-1,658,660,662,664,666,668,670,672,674,676,678,680,682,-1,684,686,-1,-1,688,690,692,694,-1,696,-1,698,700,702,704,706,708,710,712,714,716,718,720,722,724,726,-1,728,-1,730,732,734,736,-1,-1,738,-1,-1,740,742,744,746,748,750,752,754,756,758,760,-1,762,764,766,768,770,772,-1,774,-1,776,-1,778,780,782,-1,-1,-1,-1,-1,-1,784,786,788,790,792,-1,-1,-1,-1,-1,-1,-1,794,796,798,-1,800,-1,-1,-1,-1,-1,802,-1,-1,-1,-1,-1,-1,-1,-1,-1,804,-1,806,-1,808,-1,-1,-1,-1,-1,-1,-1,-1,-1,-1,-1,-1,-1,-1,-1,-1,-1,-1,-1,-1,-1,-1,-1,-1,-1,-1,-1,-1,-1,-1,-1,-1,-1,-1,-1,-1,-1,-1,-1,-1,-1,-1,-1,-1,-1,-1,-1,-1,-1,-1,-1,-1,-1,-1,-1,-1,-1,-1,-1,-1,-1,-1,-1,-1,-1,-1,-1,-1,-1,-1,-1,-1,-1,-1,-1,-1,-1,-1,-1,-1,-1,-1,-1,-1,-1,-1,-1,-1,-1,-1,-1,-1,-1,-1,-1,-1,-1,-1,-1,-1,-1,-1,-1,-1,-1,-1,-1,-1,-1,-1,-1,-1,-1,-1,-1,-1,-1,-1,-1,-1,-1,-1,-1,-1,-1,-1,-1,-1,-1,-1,-1,-1,-1,-1,-1,-1,-1,-1,-1,-1,-1,-1,-1,-1,-1,-1,-1,-1,-1,-1,-1,-1,-1,-1,-1,-1,-1,-1,-1,-1,-1,-1,-1,-1,-1,-1,-1,-1,-1,-1,-1,-1,-1,-1,-1,-1,-1,-1,-1,-1,-1,-1,-1,-1,-1,-1,-1,-1,-1,-1,-1,-1,-1,-1,-1,-1,-1,-1,-1,-1,-1,-1,-1,-1,-1,-1,-1,-1,-1,-1,-1,-1,-1,-1,-1,-1,-1,-1,-1,-1,-1,-1,-1,-1,-1,-1,-1,-1,-1,-1,-1,-1,-1,-1,-1,-1,-1,-1,-1,-1,-1,-1,-1,-1,-1,-1,-1,-1,-1,-1,-1,-1,-1,-1,-1,-1,-1,-1,-1,-1,-1,-1,-1,-1,-1,-1,-1,-1,-1,-1,-1,-1,-1,-1,-1,-1,-1,-1,-1,-1,-1,-1,-1,-1,-1,-1,-1,-1,-1,-1,-1,-1,-1],"split_conditions":[1E1,5E0,3.9E1,2E0,8E0,2E1,9.8E1,3.894E3,5.355E3,2.218E3,8.3E1,1.5E1,3E1,6E1,2.37E2,3E0,3E0,4E0,5E0,2.811E3,2E0,2.6E1,3.4971702E-1,2.218E3,2.218E3,2.06E2,2.218E3,6.602E3,4.425E3,1.057E3,4.7469488E-1,3.12E2,2.218E3,1.227E3,2.2E1,3.5E1,2.256E3,2.5E1,3.5E1,5.33E2,3.33E2,6E0,6.469E3,1.9E1,2.218E3,2.9E1,2E0,2.808E3,2E0,1.9E1,3.2393E4,4.002E3,1.9E1,1.126E3,2.500206E-1,2.218E3,2.6976353E-1,1.41E2,2.243E3,3.8E1,1.125E3,5.33E2,4E0,1.9E1,2E0,6.469E3,1.501E3,2E0,1.212E3,3.009E3,1.24E3,2E0,3.4786E4,7E0,3.5452E4,4.7E1,4.2E1,1.249974E-1,3.5E1,2.5E1,2.4E1,3.8E1,6.9E1,9E0,2.218E3,4.83E2,2E0,8.931E3,1.261E3,3E1,3.4E1,2.4674666E-1,1.8421638E-1,4.21E2,1.8E1,4.209898E-2,2.218E3,2.26E2,2.814E3,3.131297E-1,7.3855594E-2,3.2393E4,2.99E2,1.125E3,2.956098E-1,4.0364566E-1,3.2555276E-1,3.8018262E-1,4.1267082E-1,1.222E3,3.4272096E-1,2.218E3,1.256E3,2.218E3,4.39E2,3.8E1,1E1,3E1,1.145E3,3.2933E4,2.99E2,4.28E3,2E1,5.328E3,8.931E3,3.12E2,3.5303E4,6.01E2,2.4E1,4E1,4.51E2,2.8935054E-1,3.631E3,2.46E2,5.337E3,3.1719E4,2.256E3,4E0,5E1,7E0,4.56E2,3.5141E4,4.9E1,1.5E1,4.0931E4,5.99E2,1.6912432E-1,1.0986419E-1,3.5307E4,2.98E2,1.24E3,7.18E2,4.46E2,1.24E3,1.109E3,2E1,7.2E1,-3.233179E-2,6.8680726E-2,1.115E3,2E0,4.8421E4,5.58E2,4.39E2,1.238E3,1.012E3,5.58E2,2.1890529E-1,1.814245E-1,3.2393E4,1.2E1,1.9E1,1.24E3,2.0097558E-1,1.6E1,2.243E3,2.0874372E-1,2.7933034E-1,2.356551E-1,2.1E1,2.218E3,7.63E2,6.606E3,9.567743E-2,-3.9725084E-2,2.6302978E-1,2.4351802E-1,8.931E3,4.8863992E-2,7.980621E-3,1.225E3,1.258E3,3E0,2E0,1.687E3,4E1,2E0,2.1E1,1.146E3,8E0,4.45E2,2E0,5E1,2.665E3,1.24E3,2.22E3,3E1,2E0,3.5728E4,1.7048039E-1,3.1466E4,4.245E3,1.4E1,2.22E3,4.39E2,5E3,5.355E3,4.83E2,3.2393E4,6.9E1,3.1198E4,5.328E3,3.5452E4,1.109E3,3.1E1,2.3879E4,1.212E3,4.35E2,5.5E1,5.337E3,6.607E3,3.1E1,5.328E3,2.281E3,3.1E1,3.894E3,4.64E2,3.306E3,4.0985E4,9.04E2,2.17E2,3.3E1,1.6314167E-1,4.5E1,6.611E3,3.202E3,6.61E3,4.7611E4,1.9E1,3.1511E4,3.0437115E-1,4E1,3.661E4,6.93E2,6E0,1.9580093E-1,6.7721896E-2,2E0,3.5141E4,3.8E1,4.1E1,1.2405105E-1,1.129E3,2.22E3,3.1719E4,2.665E3,9.25E2,4.426E3,5.355E3,4.35E2,1.242E3,1.1055177E-1,1.4335434E-1,1.9E1,4.8417E4,-3.1111112E-2,1.1444026E-1,1.7347772E-1,2.06E2,2.801E3,1.4212252E-1,1.501E3,3.6375906E-2,4.013E3,1.6731048E-1,4.425E3,1.003E3,1.23E3,2.243E3,2.1252597E-2,7.3E1,1.5019554E-1,1.112E3,7.3E1,4.8421E4,5E1,3.4225E4,3.2393E4,6.615E3,1.6546218E-1,3.736E4,1.4852247E-1,3.1719E4,2.1206133E-1,1.1E1,1.26E3,1.8571897E-1,2.5330564E-1,3.0531E4,4.8417E4,2.4E1,2.3101687E-1,1.9855237E-1,2.6921174E-1,1.001E3,4.209898E-2,1.5319638E-1,3.144E3,1.145E3,1.001E3,1.22E3,7.3E1,4E1,1.212E3,4.1E1,1.109E3,3.144E3,2.8E1,1.145E3,1.145E3,2E0,1.12E3,1.24E3,3E0,3.21E2,1.6729645E-1,4E0,5.6558056E-3,1.121E3,1.115E3,1.3343768E-1,1.129E3,2E1,1.145E3,2.665E3,1.12E3,3.6E1,1.233E3,6.56E2,1.8E1,6.14E2,9E0,4.7611E4,8.931E3,4.8421E4,1.9E1,7.51E2,2.822E3,3.3189E4,4.5143E4,6.46E2,1.501E3,2.22E3,4.245E3,6.48E2,6.48E2,5.621E3,2.81E3,1.2E1,3.1198E4,3.5452E4,2.585813E-1,3.2939E4,5E3,3.1466E4,5E3,4.45E2,5E0,4.5143E4,1.064E3,1.1E1,9.04E2,6.602E3,6.615E3,1.6935788E-1,3E0,1.23E3,3E0,1.169E3,1.0275366E-1,2.9053623E-2,4.27E3,4.39E2,1.687E3,1.3771555E-1,1.169E3,1.169E3,2.6E1,3.1E1,1.129E3,2.41E2,2.281E3,1.169E3,1.687E3,2.8E1,4.27E2,8.55E2,2.2E1,9.601804E-3,2.1E1,3.311E3,1.351218E-1,5.443893E-2,3.307E3,3E0,6.614E3,1.002E3,1.1925961E-1,4E0,1.2223452E-1,3.3E1,4E0,4.0985E4,3.757E4,3.1582E4,3.63E2,3.302E3,1.7E1,3.736E4,4.26E2,3.9E1,4.3335E4,1.53E3,6.61E3,3.736E4,2.2800237E-2,2.806E3,1.4756799E-1,4.6E1,2.665E3,2.7E1,1.064E3,8.696535E-2,8.086173E-3,3.1198E4,5.4932237E-2,1.1998025E-1,1.12E3,1.687E3,3.2E1,1.23E3,8.931E3,3.2933E4,7E0,1.202E3,4.8417E4,2.243E3,4.8417E4,4.1396294E-2,1.146E3,3.0215E4,3.4E1,1.064E3,2.91E2,6E0,1.3244884E-1,3.31E3,1.5107198E-1,6.605E3,2.2436703E-2,7E0,1.005E3,4.0447E4,2.1001147E-1,1.6525976E-1,1.1042608E-1,2.2410398E-2,1.5730517E-1,6.514501E-2,2.8E1,3.5307E4,1.109E3,6.614E3,3.736E4,1.5764001E-1,5.2698303E-2,1.8591337E-1,2.1252597E-2,1.05892144E-1,3.6722284E-2,1.5305297E-1,1.2E1,1.203E3,4.49E2,1.7699118E-1,7.39E2,1.533687E-1,-2.375E-2,9.509711E-2,1.6913286E-1,1.3470112E-1,2.251E3,1.6511868E-1,1.8274766E-1,1.6753863E-1,1.8817452E-1,7.638213E-2,1.7085511E-2,6.291311E-2,2.1960394E-1,2.421067E-1,2.812E3,1.3609904E-1,3.5307E4,1.7981328E-1,3.5651E4,2.1452776E-1,1.947376E-1,3.747757E-2,1.3605931E-1,1.0291268E-1,1.0663972E-1,4.8678163E-2,7.1691625E-2,1.1385997E-1,1.8744946E-3,2.1965086E-1,1.0590514E-1,2.0502752E-2,1.1807485E-1,1.5579818E-1,3.4723427E-2,8.970543E-2,3.735108E-2,7.563688E-2,1.1564075E-1,5.6944847E-2,3.970664E-2,4.9111407E-2,7.2439246E-2,5.3650923E-2,9.9873416E-2,5.471837E-2,7.151433E-2,1.13041915E-1,3.46846E-2,7.686391E-2,3.3310298E-2,4.7730286E-2,4.980016E-3,7.844173E-2,1.341545E-1,1.1332571E-1,1.0332163E-1,1.5495573E-1,5.7403776E-3,6.437707E-2,1.0600491E-1,8.869383E-2,7.732436E-2,6.593234E-2,2.6591761E-2,4.8285816E-2,8.649523E-2,6.843511E-2,9.917114E-2,6.709075E-2,7.762989E-2,9.812602E-2,1.0062148E-1,1.2541609E-1,6.5058805E-2,8.0511265E-2,1.0172521E-1,8.762224E-2,7.416885E-2,-7.295145E-3,1.2681144E-1,9.073131E-2,4.798638E-2,6.919465E-2,5.023247E-2,7.238422E-2,1.10350646E-1,4.002516E-2,8.867403E-2,4.2506076E-2,4.1096915E-2,7.1510784E-2,2.9203057E-2,1.3063984E-2,3.2505702E-2,4.5772545E-2,4.776257E-2,6.534856E-2,5.1082313E-2,9.638568E-2,7.257181E-2,5.589793E-2,1.335405E-1,8.475854E-2,6.0569745E-2,7.313496E-2,8.8094115E-2,5.4031957E-2,1.0395942E-1,8.311962E-2,5.3784806E-2,3.5725404E-2,7.7367015E-2,4.7646184E-2,1.6293116E-1,1.1043657E-1,9.43321E-2,1.2565534E-1,7.5284615E-2,5.18724E-2,9.831433E-2,7.7944085E-2,1.6010888E-1,1.8444954E-1,1.07306235E-1,1.7654477E-1,3.460705E-2,1.14024185E-1,9.7725995E-2,1.4110307E-1,9.421466E-2,7.699208E-2,1.0424955E-1,1.5976737E-1,9.8666005E-2,1.7936312E-1,4.1949507E-2,-3.213113E-3,4.023474E-2,5.838989E-2,6.507338E-2,4.117977E-2,2.7583469E-2,9.781066E-2,7.177567E-2,3.973671E-2,5.8213502E-2,7.4160986E-2,1.1754545E-1,8.8316634E-2,6.561797E-2,4.1481763E-2,8.224769E-2,2.3630088E-2,9.298251E-2,1.5036446E-1,6.4038396E-2,2.0607743E-2,1.1956241E-1,9.515187E-2,5.7099003E-2,1.0373773E-1,1.030123E-1,1.5230474E-1,1.4224468E-1,2.1429494E-1,5.2335273E-2,1.2870152E-1,7.4886814E-2,2.0504622E-1,1.5041605E-1,5.9980568E-2,6.4424865E-2,8.844688E-2,7.962241E-2,1.21223465E-1,1.19904675E-1,9.9282086E-2,1.1640792E-1,1.7666654E-1,8.106301E-2,4.607841E-2,1.1148038E-1,7.783939E-2,3.1075288E-2,7.2013526E-3,9.458754E-2,2.1737931E-2,4.2962983E-2,5.1322877E-3,5.549955E-2,3.885731E-3,7.755214E-2,9.756169E-2,1.01019815E-1,4.580074E-2,1.4598054E-1,2.358297E-2,9.831267E-3,1.0170517E-1,4.9111858E-2,1.03755E-1,1.9637646E-1,1.1790724E-1,9.4856374E-2,3.3070996E-2,1.8253358E-1,1.4920631E-1,1.8325244E-1,1.2639038E-1,1.3819282E-1,1.7826769E-1,-3.943664E-2,8.8305056E-2,1.17315285E-1,1.5352838E-1,1.14394024E-1,1.6998868E-2,2.8586367E-1,1.9742422E-1,2.1362014E-1,1.71556E-1,2.0146035E-1,4.2904265E-2,5.9948713E-2,1.1478132E-1,1.7057727E-1,9.178944E-2,2.3951812E-1,1.766871E-1,1.3281862E-1,7.038694E-2,1.676988E-1,8.972957E-2,7.8608E-2,-3.2073826E-2,1.0972726E-1,7.7448584E-2,3.8666513E-2,1.3705736E-1,8.4658206E-2,3.756333E-2,8.42309E-2,1.2344807E-1,8.324986E-2,1.0055375E-1,7.168581E-2,9.003764E-2,1.10206835E-1,7.740564E-2,1.12038665E-1,8.988041E-2,1.3741933E-1,1.1614938E-1,9.467242E-2,1.13231875E-1,1.3643631E-1,1.1085208E-1,9.9567495E-2,3.3479042E-2,1.16141796E-1,1.015379E-1,1.3787536E-1,5.4341722E-2,1.250659E-1,1.12119846E-1,1.4795458E-1,1.2107494E-1,1.1485907E-1,8.086883E-2,8.7007344E-2,1.2662755E-1,1.0262499E-1,1.6729029E-1,1.4715874E-1,1.2624735E-1,3.89045E-2,1.0991726E-1,1.07668556E-1,-3.2896996E-2,3.6820807E-2,1.3701002E-1,9.748592E-2,1.2867512E-1,1.0999037E-1,2.67514E-3,2.2410398E-2,1.0121584E-1,1.3977511E-1,1.2665771E-1,1.0875896E-1,1.5339527E-1,1.2264935E-1,1.2969881E-3,1.8423297E-1,1.2391579E-1,1.0677486E-1,1.391512E-1,3.6722284E-2,9.17449E-3,1.6575068E-1,1.4825922E-1,1.0926657E-1,1.7458585E-1,2.0630018E-1,1.8529075E-1,2.0798258E-1,5.174287E-2,9.964868E-2,-2.375E-2,-7.293624E-3,6.791025E-2],"split_indices":[6,6,6,5,6,6,6,0,0,3,9,6,6,6,6,6,6,6,6,2,5,9,0,3,3,8,3,2,2,8,0,8,3,2,9,9,3,9,9,8,8,6,0,8,3,9,5,2,5,8,0,2,8,2,0,3,0,6,3,9,2,8,6,9,6,0,2,6,0,2,0,6,0,5,0,9,9,0,9,9,9,9,9,6,3,8,5,0,2,9,9,0,0,8,6,0,3,8,2,0,0,0,8,2,0,0,0,0,0,2,0,3,2,3,8,9,9,9,0,0,8,0,9,0,0,8,0,8,9,9,8,0,0,8,0,0,3,6,8,9,8,0,8,9,0,8,0,0,0,8,0,8,8,0,0,9,8,0,0,2,5,0,8,8,0,2,8,0,0,0,6,8,0,0,9,3,0,0,0,6,3,8,2,0,0,0,0,0,0,0,2,2,6,6,0,9,6,9,0,9,8,9,9,0,0,3,9,6,0,0,0,0,9,3,8,0,0,8,0,8,0,0,0,0,9,3,0,8,9,0,2,9,0,3,9,0,8,2,0,8,8,9,0,9,2,2,2,0,9,0,0,8,0,0,6,0,0,9,0,9,9,0,0,3,0,0,8,2,0,8,0,0,0,9,0,0,0,0,8,2,0,2,0,2,0,2,2,0,3,0,0,0,2,0,0,9,0,0,2,0,0,0,0,0,5,2,0,0,0,0,9,0,0,0,2,0,0,0,0,2,0,0,9,0,9,0,0,9,0,0,6,0,0,9,8,0,6,0,2,2,0,0,9,0,0,0,9,0,8,9,8,9,0,0,0,9,8,2,0,0,8,2,3,0,8,8,0,2,9,0,0,0,0,0,0,0,8,6,0,0,9,8,2,2,0,6,0,6,0,0,0,0,8,0,0,0,0,9,9,0,8,3,0,0,9,8,8,9,0,9,2,0,0,2,6,2,8,0,6,0,9,9,0,0,0,8,2,9,0,8,9,0,2,2,0,0,2,0,9,0,9,0,0,0,0,0,0,0,0,9,0,0,0,6,2,0,3,0,0,0,0,9,0,8,9,0,2,0,2,0,9,2,0,0,0,0,0,0,0,9,0,0,2,0,0,0,0,0,0,0,0,9,2,8,0,0,0,0,0,0,0,3,0,0,0,0,0,0,0,0,0,2,0,0,0,0,0,0,0,0,0,0,0,0,0,0,0,0,0,0,0,0,0,0,0,0,0,0,0,0,0,0,0,0,0,0,0,0,0,0,0,0,0,0,0,0,0,0,0,0,0,0,0,0,0,0,0,0,0,0,0,0,0,0,0,0,0,0,0,0,0,0,0,0,0,0,0,0,0,0,0,0,0,0,0,0,0,0,0,0,0,0,0,0,0,0,0,0,0,0,0,0,0,0,0,0,0,0,0,0,0,0,0,0,0,0,0,0,0,0,0,0,0,0,0,0,0,0,0,0,0,0,0,0,0,0,0,0,0,0,0,0,0,0,0,0,0,0,0,0,0,0,0,0,0,0,0,0,0,0,0,0,0,0,0,0,0,0,0,0,0,0,0,0,0,0,0,0,0,0,0,0,0,0,0,0,0,0,0,0,0,0,0,0,0,0,0,0,0,0,0,0,0,0,0,0,0,0,0,0,0,0,0,0,0,0,0,0,0,0,0,0,0,0,0,0,0,0,0,0,0,0,0,0,0,0,0,0,0,0,0,0,0,0,0,0,0,0,0,0,0,0,0,0,0,0,0,0,0,0,0,0,0,0,0,0,0,0,0,0,0,0,0,0,0,0,0,0,0,0,0,0,0,0,0,0,0,0,0,0,0,0,0,0,0,0,0,0,0],"split_type":[0,0,0,0,0,0,0,0,0,0,0,0,0,0,0,0,0,0,0,0,0,0,0,0,0,0,0,0,0,0,0,0,0,0,0,0,0,0,0,0,0,0,0,0,0,0,0,0,0,0,0,0,0,0,0,0,0,0,0,0,0,0,0,0,0,0,0,0,0,0,0,0,0,0,0,0,0,0,0,0,0,0,0,0,0,0,0,0,0,0,0,0,0,0,0,0,0,0,0,0,0,0,0,0,0,0,0,0,0,0,0,0,0,0,0,0,0,0,0,0,0,0,0,0,0,0,0,0,0,0,0,0,0,0,0,0,0,0,0,0,0,0,0,0,0,0,0,0,0,0,0,0,0,0,0,0,0,0,0,0,0,0,0,0,0,0,0,0,0,0,0,0,0,0,0,0,0,0,0,0,0,0,0,0,0,0,0,0,0,0,0,0,0,0,0,0,0,0,0,0,0,0,0,0,0,0,0,0,0,0,0,0,0,0,0,0,0,0,0,0,0,0,0,0,0,0,0,0,0,0,0,0,0,0,0,0,0,0,0,0,0,0,0,0,0,0,0,0,0,0,0,0,0,0,0,0,0,0,0,0,0,0,0,0,0,0,0,0,0,0,0,0,0,0,0,0,0,0,0,0,0,0,0,0,0,0,0,0,0,0,0,0,0,0,0,0,0,0,0,0,0,0,0,0,0,0,0,0,0,0,0,0,0,0,0,0,0,0,0,0,0,0,0,0,0,0,0,0,0,0,0,0,0,0,0,0,0,0,0,0,0,0,0,0,0,0,0,0,0,0,0,0,0,0,0,0,0,0,0,0,0,0,0,0,0,0,0,0,0,0,0,0,0,0,0,0,0,0,0,0,0,0,0,0,0,0,0,0,0,0,0,0,0,0,0,0,0,0,0,0,0,0,0,0,0,0,0,0,0,0,0,0,0,0,0,0,0,0,0,0,0,0,0,0,0,0,0,0,0,0,0,0,0,0,0,0,0,0,0,0,0,0,0,0,0,0,0,0,0,0,0,0,0,0,0,0,0,0,0,0,0,0,0,0,0,0,0,0,0,0,0,0,0,0,0,0,0,0,0,0,0,0,0,0,0,0,0,0,0,0,0,0,0,0,0,0,0,0,0,0,0,0,0,0,0,0,0,0,0,0,0,0,0,0,0,0,0,0,0,0,0,0,0,0,0,0,0,0,0,0,0,0,0,0,0,0,0,0,0,0,0,0,0,0,0,0,0,0,0,0,0,0,0,0,0,0,0,0,0,0,0,0,0,0,0,0,0,0,0,0,0,0,0,0,0,0,0,0,0,0,0,0,0,0,0,0,0,0,0,0,0,0,0,0,0,0,0,0,0,0,0,0,0,0,0,0,0,0,0,0,0,0,0,0,0,0,0,0,0,0,0,0,0,0,0,0,0,0,0,0,0,0,0,0,0,0,0,0,0,0,0,0,0,0,0,0,0,0,0,0,0,0,0,0,0,0,0,0,0,0,0,0,0,0,0,0,0,0,0,0,0,0,0,0,0,0,0,0,0,0,0,0,0,0,0,0,0,0,0,0,0,0,0,0,0,0,0,0,0,0,0,0,0,0,0,0,0,0,0,0,0,0,0,0,0,0,0,0,0,0,0,0,0,0,0,0,0,0,0,0,0,0,0,0,0,0,0,0,0,0,0,0,0,0,0,0,0,0,0,0,0,0,0,0,0,0,0,0,0,0,0,0,0,0,0,0,0,0,0,0,0,0,0,0,0,0,0,0,0,0,0,0,0,0,0,0,0,0,0,0,0,0,0,0,0,0,0,0,0,0,0,0,0,0,0,0,0,0,0],"sum_hessian":[7.8012E4,6.6103E4,1.1909E4,5.5616E4,1.0487E4,9.176E3,2.733E3,5.0148E4,5.468E3,7.761E3,2.726E3,6.318E3,2.858E3,1.756E3,9.77E2,2.5532E4,2.4616E4,3.349E3,2.119E3,1.016E3,6.745E3,2.72E3,6E0,4.283E3,2.035E3,1.903E3,9.55E2,1.052E3,7.04E2,6.66E2,3.11E2,2.1108E4,4.424E3,4.799E3,1.9817E4,1.468E3,1.881E3,5.58E2,1.561E3,8.33E2,1.83E2,4.921E3,1.824E3,9.26E2,1.794E3,4.51E2,3.832E3,1.5E2,1.885E3,3.28E2,1.575E3,5E1,9.05E2,8.93E2,1.59E2,6.42E2,6.2E1,6.56E2,1E1,4.85E2,2.0623E4,8.65E2,3.559E3,1.313E3,3.486E3,1.0366E4,9.451E3,1.005E3,4.63E2,3.34E2,1.547E3,2.51E2,3.07E2,8.62E2,6.99E2,5.72E2,2.61E2,6.8E1,1.15E2,2.067E3,2.854E3,1.276E3,5.48E2,3E0,9.23E2,1.44E2,1.65E3,1.99E2,2.52E2,2.19E3,1.642E3,9.9E1,5.1E1,8.72E2,1.013E3,1E0,3.27E2,1.157E3,4.18E2,4.9E1,1E0,2E0,9.03E2,1.44E2,7.49E2,2.4E1,6.18E2,3.24E2,3.32E2,4E0,6E0,3.49E2,1.36E2,9.401E3,1.1222E4,4.59E2,4.06E2,2.016E3,1.543E3,6.3E2,6.83E2,1.307E3,2.179E3,3.013E3,7.353E3,2.584E3,6.867E3,2.56E2,7.49E2,1.66E2,2.97E2,1.1E1,3.23E2,6.48E2,8.99E2,2.4E1,2.27E2,1.22E2,1.85E2,4.71E2,3.91E2,3.04E2,3.95E2,5.13E2,5.9E1,2.34E2,2.7E1,8.6E1,2.9E1,9.07E2,1.16E3,1.051E3,1.803E3,9.29E2,3.47E2,5.44E2,4E0,2E0,1E0,1.06E2,8.17E2,1E2,4.4E1,1.019E3,6.31E2,1.32E2,6.7E1,1.71E2,8.1E1,9.37E2,1.253E3,6.82E2,9.6E2,1.81E2,6.91E2,6.43E2,3.7E2,4.2E1,2.85E2,1.3E1,1.144E3,1.94E2,2.24E2,1E0,1E0,2.83E2,6.2E2,1.43E2,1E0,1E0,3E0,2.21E2,1.28E2,5.4E1,8.2E1,3.864E3,5.537E3,5.35E2,1.0687E4,3.64E2,9.5E1,4.7E1,3.59E2,1.272E3,7.44E2,3.95E2,1.148E3,1.21E2,5.09E2,9E0,6.74E2,2.08E2,1.099E3,9.65E2,1.214E3,1.559E3,1.454E3,6.35E2,6.718E3,3.51E2,2.233E3,4.813E3,2.054E3,1.86E2,7E1,3.86E2,3.63E2,1.14E2,5.2E1,1.29E2,1.68E2,2.31E2,9.2E1,6.6E1,5.82E2,8E2,9.9E1,6E0,1.8E1,1.2E1,2.15E2,7.2E1,5E1,3.1E1,1.54E2,4E1,4.31E2,2.4E2,1.51E2,2.88E2,1.6E1,4E1,3.55E2,5.3E1,4.6E2,5.7E1,2E0,7.6E1,1.58E2,1.7E1,1.2E1,2.7E1,8.8E2,3.07E2,8.53E2,4.45E2,6.06E2,2.8E2,1.523E3,4.11E2,5.18E2,3.4E1,3.13E2,1.09E2,4.35E2,2E0,2E0,4E1,6.6E1,6.26E2,1.91E2,9.9E1,1E0,1.6E1,2.8E1,1.58E2,8.61E2,1.86E2,4.45E2,1E0,1.31E2,5.6E1,1.1E1,5.93E2,3.44E2,6.68E2,5.85E2,2E0,6.8E2,2.41E2,7.19E2,5.7E1,6.34E2,1.47E2,4.96E2,3E0,1E1,6E1,1.084E3,1.3E2,6.4E1,1.55E2,6.9E1,1.22E2,2.1E1,1E0,2E0,1.6E1,2.05E2,5.5E1,7.3E1,5E1,4E0,6.8E1,1.4E1,3.425E3,4.39E2,1.667E3,3.87E3,3.43E2,1.92E2,2.438E3,8.249E3,1.9E1,3.45E2,5.6E1,3.9E1,2E0,4.5E1,3.31E2,2.8E1,1.219E3,5.3E1,4.57E2,2.87E2,1.67E2,2.28E2,6.96E2,4.52E2,3.3E1,8.8E1,2.39E2,2.7E2,1.17E2,5.57E2,4.4E1,1.64E2,3.48E2,7.51E2,6.12E2,3.53E2,1.54E2,1.06E3,1.079E3,4.8E2,7.25E2,7.29E2,1.06E2,5.29E2,1.236E3,5.482E3,3.9E1,3.12E2,3.18E2,1.915E3,1.217E3,3.596E3,6.22E2,1.432E3,2.5E1,1.61E2,5.5E1,1.5E1,3.84E2,2E0,1.1E2,2.53E2,2.9E1,8.5E1,4.9E1,3E0,1.1E2,1.9E1,1.4E2,2.8E1,8.6E1,1.45E2,6E1,3.2E1,2.5E1,4.1E1,3.35E2,2.47E2,5.3E2,2.7E2,6.1E1,3.8E1,4E0,2E0,7E0,1.1E1,1E1,2E0,1E1,2.05E2,3.9E1,3.3E1,1.5E1,1.6E1,1.2E2,3.4E1,1.8E1,2.2E1,3.31E2,1E2,2.21E2,1.9E1,1.38E2,1.3E1,1.46E2,1.42E2,1.2E1,2.8E1,7.4E1,2.81E2,1E0,5.2E1,2.09E2,2.51E2,2E0,7.4E1,1.46E2,1.2E1,2E0,1.5E1,3E0,9E0,1.15E2,7.65E2,1.13E2,1.94E2,4.93E2,3.6E2,1.51E2,2.94E2,2.86E2,3.2E2,2.77E2,3E0,8.39E2,6.84E2,1.62E2,2.49E2,3.8E1,4.8E2,1.01E2,8E0,4.31E2,4E0,1E0,6.5E1,5.41E2,8.5E1,6.1E1,3.8E1,1.5E1,1E0,1.56E2,2E0,1.9E1,8.42E2,1.49E2,3.7E1,9.3E1,3.52E2,1E0,1.3E2,1E0,1E1,1E0,5.92E2,3.42E2,2E0,5.74E2,9.4E1,4.49E2,1.36E2,1E0,1E0,6.51E2,2.9E1,5.43E2,1.76E2,3.82E2,2.52E2,4.94E2,2E0,1E0,2E0,9.54E2,1.3E2,1.21E2,9E0,7E0,5.7E1,2E0,1.9E1,1.5E1,1E0,5.2E1,1.53E2,3E0,5.2E1,4E1,3.3E1,1E0,4.9E1,2E0,2E0,3.9E1,2.9E1,2E0,1.2E1,2.55E2,3.17E3,3.92E2,4.7E1,8.76E2,7.91E2,7.03E2,3.167E3,4.6E1,2.97E2,2.8E1,1.64E2,1.306E3,1.132E3,3.791E3,4.458E3,1E0,1.8E1,6.5E1,2.8E2,2.4E1,1.5E1,1E0,4.4E1,1.2E2,2.11E2,2.28E2,9.91E2,1.3E1,4E1,1.11E2,3.46E2,1.98E2,8.9E1,9.3E1,7.4E1,1.89E2,3.9E1,1.92E2,5.04E2,1.3E2,3.22E2,3E1,3E0,1.5E1,7.3E1,6E1,1.79E2,2.23E2,4.7E1,3.4E1,8.3E1,5.4E2,1.7E1,3.1E1,1.3E1,1.03E2,6.1E1,1.99E2,1.49E2,5.74E2,1.77E2,6.06E2,6E0,5.6E1,2.97E2,1.1E1,1.43E2,6.48E2,4.12E2,4.67E2,6.12E2,2.48E2,2.32E2,4.53E2,2.72E2,5.03E2,2.26E2,9.4E1,1.2E1,2.98E2,2.31E2,5.17E2,7.19E2,2.316E3,3.166E3,2.07E2,1.05E2,1.23E2,1.95E2,1.48E2,1.767E3,9.39E2,2.78E2,9.92E2,2.604E3,7.9E1,5.43E2,1.406E3,2.6E1,1.6E1,9E0,4.8E1,1.13E2,3.9E1,1.6E1,3E0,1.2E1,3.7E2,1.4E1,5.9E1,5.1E1,3.7E1,2.16E2,1.8E1,1.1E1,8.4E1,1E0,1.01E2,9E0,1.5E1,4E0,5.1E1,8.9E1,2.1E1,6.5E1,4E1,1.05E2,1.1E1,4.9E1,4E0,2.8E1,2E0,2.3E1,3.5E1,6E0,2.06E2,1.29E2,1.01E2,1.46E2,2.77E2,2.53E2,1.68E2,1.02E2,3.5E1,2.6E1,2.4E1,1.4E1,3E0,1E0,5E0,2E0,1E1,1E0,9E0,1E0,7.2E1,1.33E2,3.5E1,4E0,3.2E1,1E0,1E1,6E0,1.1E1,2.3E1,6E0,1.2E1,1.7E1,5E0,2.56E2,7.5E1,1.9E1,8.1E1,1.67E2,5.4E1,2E0,1.7E1,1.23E2,1.5E1,7E0,6E0,4.4E1,1.02E2,6.2E1,8E1,9E0,3E0,1.4E1,1.4E1,4.4E1,3E1,6.4E1,2.17E2,4.7E1,5E0,2.47E2,4E0,1E0,1E0,5.6E1,1.8E1,1E0,1.45E2,8E0,7E0,4E1,7.5E1,2.05E2,5.6E2,4E1,7.3E1,1.5E2,4.4E1,4.43E2,5E1,7.4E1,2.86E2,9.6E1,5.5E1,1.14E2,1.8E2,2.83E2,3E0,2.34E2,8.6E1,2.75E2,2E0,1.53E2,6.86E2,1.11E2,5.73E2,1.3E2,3.2E1,1.7E1,2.32E2,8E0,3E1,4.6E1,4.34E2,4E0,4E0,3E0,1E0,1E0,6.4E1,2.5E1,5.16E2,8.4E1,1E0,1E0,1.8E1,6.55E2,1.87E2,1.5E1,1.34E2,3.6E1,1E0,8.2E1,1.1E1,3.2E1,3.1E2,1E0,1E0,1.14E2,4.6E2,7E0,4.42E2,1.96E2,3.47E2,1.2E2,1E0,6E0,1E0,1E0,1E0],"tree_param":{"num_deleted":"0","num_feature":"11","num_nodes":"809","size_leaf_vector":"0"}},{"base_weights":[9.637068E-1,7.6751584E-1,2.058394E0,6.955944E-1,1.1489956E0,1.7485337E0,3.103382E0,5.778602E-1,8.328785E-1,1.0998694E0,1.2888889E0,1.5858823E0,2.1033928E0,2.7166855E0,3.807929E0,5.30169E-1,7.846233E-1,5.7558256E-1,8.908702E-1,1.2094771E0,1.0519075E0,3.0689844E-1,1.2838098E0,1.5129082E0,1.7367576E0,1.9855427E0,2.2479992E0,2.605845E0,2.9927748E-1,3.5655994E0,4.288962E-1,7.0128405E-1,4.7259614E-1,7.2313434E-1,8.625386E-1,4.8520258E-1,6.243515E-1,1.729825E0,8.754617E-1,1.1434427E0,1.315315E0,9.9742174E-1,1.0928997E0,1.3820531E0,1.2278854E0,1.4560697E0,1.5785987E0,1.9052048E0,1.6956136E0,2.0861266E0,1.9392064E0,2.3898287E0,2.1682992E0,2.7861319E0,2.4905884E0,3.5915658E0,2.7483978E0,1.2325289E0,6.7016184E-1,3.5231665E-1,5.128637E-1,7.9734373E-1,6.712942E-1,9.9680805E-1,8.1048757E-1,4.2460617E-1,6.210377E-1,1.0689231E0,6.152519E-1,2.0395472E0,1.3342191E0,6.9637907E-1,9.180574E-1,1.1976702E0,1.0230452E0,1.1644127E0,1.487774E0,9.527974E-1,1.0537555E0,1.1680663E0,1.0755166E0,9.882765E-2,1.3885726E0,8.920059E-2,1.232476E0,1.5547006E0,1.4198759E0,1.6278698E0,1.4739141E0,1.9179618E0,5.36768E-1,1.6784557E0,1.8905511E0,3.999403E-2,2.0887733E-1,1.878462E0,2.0160475E0,2.3220522E0,2.8438554E0,2.0846207E0,2.2536781E-1,2.7306777E-1,3.3445987E-1,2.6350793E-1,2.4224346E0,3.4384152E-1,3.7270504E-1,3.0487046E-1,4.846894E-1,2.076099E0,1.1278898E0,4.5926148E-1,7.212564E-1,2.9774407E-1,3.8568455E-1,4.6466854E-1,6.315646E-1,7.196241E-1,9.086936E-1,6.3079244E-1,7.492295E-1,8.9726794E-1,1.1737624E0,8.9992213E-1,7.85178E-1,3.5628572E-1,5.697937E-1,7.348073E-1,5.503937E-1,1.3867738E0,7.8507334E-1,6.038003E-1,8.898258E-1,8.4279394E-1,2.1547868E0,8.343087E-1,1.4839231E0,6.51165E-1,9.627219E-1,7.914948E-1,9.6867967E-1,1.1179162E0,1.2784001E0,9.138313E-1,1.0877372E0,1.3121063E0,1.1063044E0,1.3986605E0,1.6031631E0,1.044276E0,9.305589E-1,1.1239411E0,9.755468E-1,1.2057192E0,8.3105904E-1,1.0151398E0,1.1093649E0,-1.4239359E-1,6.5246694E-2,1.3349738E0,1.5189817E0,1.3335118E0,1.2172667E0,1.5719553E0,1.1454556E0,1.6086154E0,1.4013801E0,2.1156316E0,1.6175493E0,1.5615374E0,1.4011029E0,1.8181794E0,2.0540617E-1,1.5004681E-1,-6.0585465E-2,1.7967741E0,1.6467556E0,4.9293686E-2,1.8978469E-1,2.0524362E-1,1.8267637E0,2.619243E-1,1.9877539E0,3.5436484E-1,2.3311181E-1,3.3008167E-1,2.4779716E-1,2.0940952E0,1.0629122E0,2.254281E-1,2.5633034E-1,7.581589E-3,5.9570868E-2,3.752706E-2,2.113972E0,1.5899419E0,9.2423576E-1,4.1272473E-1,5.830753E-1,7.4516E-1,2.3219939E-1,3.065159E-1,1.3590394E-1,4.4597647E-1,3.5851935E-1,4.495803E-1,6.7370325E-1,9.8838323E-1,5.554907E-1,6.7577356E-1,8.050008E-1,1.1009741E0,8.3641315E-1,5.5189717E-1,6.9036233E-1,9.08813E-1,7.204941E-1,9.553352E-1,8.2222986E-1,1.0237381E0,1.3291879E0,7.8741115E-1,9.830158E-1,7.230275E-1,8.145584E-1,3.1637913E-1,4.7602037E-1,4.412385E-1,8.937624E-1,8.184909E-1,5.222497E-1,1.0855079E-1,5.4357177E-1,1.0346075E0,1.881996E-1,1.0195809E-1,5.69939E-2,5.610999E-1,6.479491E-1,1.1023021E0,7.11638E-1,5.6704247E-1,1.1168189E-1,2.8246963E-1,1.9455916E0,5.317512E-1,1.0264639E0,1.0038416E0,1.7500957E0,6.079314E-1,7.790827E-1,6.655575E-1,1.4200902E0,9.652626E-1,6.713025E-1,1.12414E0,9.046198E-1,1.0687512E0,1.2811881E0,1.2830701E0,6.88616E-1,1.1496869E0,8.598482E-1,9.757554E-1,1.1426852E0,1.21392E0,1.6453456E0,1.1220689E0,6.444297E-1,1.477518E0,1.1996664E-1,1.704477E-1,1.4533978E0,8.4625286E-1,1.1441756E0,8.558984E-1,9.5527595E-1,1.0933298E0,1.3640661E0,9.8599577E-1,3.7539577E-1,1.2331433E0,9.770463E-2,-3.03536E-2,8.554341E-1,7.5534755E-1,1.0378538E0,1.0350608E0,1.1378429E0,-2.8955659E-2,5.2233925E-3,1.3942734E0,1.1833454E0,1.6284994E0,1.3861644E0,5.6408715E-1,1.3455388E-1,1.2382915E0,1.1415712E0,1.1734741E0,1.5834826E0,-4.9016517E-2,1.2392234E0,1.6178416E0,1.4925221E-2,1.4212788E0,1.2891057E0,2.334167E-1,8.1836276E-2,1.5515885E0,1.6577683E-1,8.949887E-1,1.5907484E0,1.3187393E0,1.5079468E0,1.0313035E0,1.8345065E-1,5.971709E-2,1.8026249E-1,1.5807613E0,1.7192965E0,1.1058755E0,1.8363547E-1,2.010752E-1,1.6543278E0,9.089356E-2,-3.773883E-2,2.0047405E-1,2.2379646E0,-5.062433E-2,1.4779921E-1,1.0390567E-1,2.1822748E0,1.9303014E0,5.593421E-1,6.8750924E-1,1.0360904E0,5.55085E-1,3.9407414E-1,5.614373E-1,9.942792E-1,7.1612597E-1,1.1196111E0,1.3772003E-1,6.9066E-1,2.8108135E-1,3.3978018E-1,-1.8259669E-2,1.6903564E-1,4.1121876E-1,5.0370955E-1,2.733281E-1,3.724279E-1,6.611817E-1,4.347741E-1,8.7671876E-1,4.1062465E-1,1.0396496E0,8.065588E-1,3.507911E-1,6.032191E-1,6.9881755E-1,4.598134E-1,7.0551E-1,9.6858156E-1,1.1292084E0,4.939555E-1,5.3392476E-1,8.9061433E-1,4.808217E-1,6.467387E-1,8.1597435E-1,5.807051E-1,3.7563444E-4,9.1871744E-1,6.3647497E-1,7.70861E-1,9.1908723E-1,1.0768706E0,7.315973E-1,8.7901187E-1,6.656133E-1,1.0550475E-1,1.6466376E-1,1.2284766E0,-3.266683E-2,7.9598707E-1,9.8569505E-2,2.0080417E-2,1.064494E0,7.106321E-1,7.782139E-1,8.691829E-1,1.848946E-1,3.4278148E-1,2.3873523E-1,4.9314955E-1,3.903841E-1,5.972916E-1,1.1601776E0,7.683839E-1,7.679698E-1,9.7841495E-1,2.6849923E-1,5.4148532E-2,3.831364E-1,5.572348E-1,1.2571617E0,7.308479E-1,5.4569393E-1,9.1481555E-1,7.607799E-1,6.199656E-1,9.0554845E-1,1.216403E-1,4.8518986E-1,8.617753E-1,3.961582E-1,9.4764255E-2,-1.45304995E-2,1.972542E0,6.2476116E-1,5.002618E-2,1.114584E0,5.7633984E-1,1.6100365E0,6.194756E-1,1.9396757E-1,1.2478496E0,1.4512861E0,5.9448886E-1,9.414254E-1,7.144112E-1,1.2930828E0,5.4589945E-1,1.7621489E0,1.1497794E0,7.7520293E-1,1.0280387E0,5.82002E-1,8.684677E-1,1.4020034E0,1.056693E0,9.873548E-1,7.557978E-1,1.2221835E0,1.0405852E0,1.009572E0,1.3671991E-1,1.0232897E0,1.2938112E0,-3.1252146E-2,9.513478E-2,4.6454675E-2,1.1820346E-1,2.5455803E-3,8.7756795E-1,9.9104416E-1,1.5107028E-1,1.3144766E0,1.0423766E0,1.3339684E0,9.3570983E-1,4.397973E-2,1.6747975E-1,-8.289993E-2,1.1294441E0,2.1027784E-1,9.437589E-2,1.555512E0,1.2547672E0,1.5310282E-1,8.48431E-1,2.530279E-1,8.644272E-1,1.1907248E0,9.090571E-1,7.476662E-1,9.207677E-1,9.6353126E-1,7.5560826E-1,1.1273458E0,9.669849E-1,1.3998315E0,2.6559916E-1,9.4949013E-1,1.0879045E0,-4.666352E-2,6.442329E-1,1.1895474E-1,1.4407997E0,8.84592E-1,4.504413E-1,4.3305233E-1,8.76392E-1,9.991287E-1,1.1678118E0,1.0486958E0,6.236756E-1,1.2199146E0,1.1098012E0,1.9968687E0,1.3776973E0,1.06372E0,1.2994405E0,6.5517175E-1,1.6585814E0,1.4685259E0,1.189938E-1,7.29367E-1,-4.8516127E-3,1.1773546E0,1.3341234E0,4.745923E-2,1.1441288E-1,1.3662498E-1,8.440735E-1,1.6938419E0,1.5399464E0,9.1855525E-4,-8.271033E-3,1.1935241E-2,1.2792441E-1,4.6794493E-2,1.6226782E-1,1.4021635E-1,1.5874987E0,2.9764725E-2,1.2919846E0,1.6655103E0,1.4816718E-1,9.5678106E-2,1.2051451E0,1.2092816E0,1.6287832E0,9.523488E-1,1.34622E-1,1.5184437E-1,7.504494E-2,-5.912549E-2,1.7985778E-1,1.474311E0,1.6248536E-1,1.7403327E0,1.3274295E0,1.8984033E-1,1.532253E0,4.5407627E-2,1.6762741E-1,2.2441196E-1,6.450493E-2,6.083257E-2,2.213424E-1,2.2190908E-1,1.3784459E-1,6.1407175E-2,-3.4971982E-2,5.181681E-2,8.5655205E-2,7.574075E-2,1.1575679E-1,3.9494913E-2,7.666846E-2,4.8197594E-2,3.700138E-2,2.3986673E-2,5.696222E-2,7.314444E-2,1.321093E-1,9.975486E-2,6.827509E-2,1.0031841E-1,1.430615E-1,1.0779936E-2,7.750197E-2,2.924164E-2,7.90437E-2,3.9855484E-2,2.6814366E-2,9.655583E-2,3.3752937E-2,-2.4533764E-2,9.680095E-3,2.4318933E-2,8.63051E-3,4.9204644E-2,3.765898E-2,6.5306045E-2,4.545068E-2,3.7963364E-2,2.5645433E-2,3.922817E-2,2.7571736E-2,9.813236E-2,6.2369168E-2,3.5301235E-2,4.9026296E-2,7.27533E-2,1.0773671E-1,1.2131111E-4,4.9772833E-2,1.0182343E-1,1.5665261E-1,6.0420554E-2,8.8066004E-2,4.5707285E-2,2.8340438E-2,6.471059E-2,4.9833335E-2,7.3822916E-2,6.077518E-2,-1.1581583E-3,5.2155145E-2,5.311966E-2,7.351466E-2,1.0521938E-1,7.925429E-2,1.2712032E-1,1.0094305E-1,1.2922138E-2,5.9399664E-2,3.741881E-2,6.344589E-2,1.01340234E-1,8.3314024E-2,8.446916E-2,4.720295E-2,1.6128216E-3,6.63942E-2,9.126406E-2,7.30112E-2,3.175595E-2,6.0108233E-2,9.823386E-2,6.879097E-2,3.0080439E-3,6.482755E-2,8.912078E-2,7.200902E-2,9.412452E-2,7.0306845E-2,4.244005E-2,1.0952151E-1,1.112951E-1,6.818285E-2,1.080122E-1,8.104359E-2,7.222679E-2,-7.1211456E-4,3.250392E-2,1.2348326E-1,9.995359E-2,7.534119E-2,2.3334859E-2,1.1104784E-1,6.3790895E-2,7.481918E-2,8.008498E-2,6.1189312E-2,1.1736175E-1,8.0942035E-2,2.6507402E-2,-4.4673947E-3,4.1192494E-2,2.9583925E-2,9.246501E-3,3.5516355E-2,3.686136E-2,5.2279443E-2,6.764955E-2,3.5165664E-2,5.427764E-2,9.0423636E-2,4.955798E-2,1.2136852E-1,7.920589E-2,2.879923E-2,8.35967E-2,5.2136447E-2,6.0258795E-2,1.09289244E-1,-4.360618E-3,4.3545347E-2,2.0792045E-2,4.2147163E-2,6.511648E-2,5.2707136E-2,5.530079E-2,1.5170708E-1,1.000873E-1,2.6064822E-2,4.986421E-2,5.8787536E-2,3.5255135E-3,9.291258E-2,9.7877614E-2,7.105931E-2,4.615431E-2,6.302522E-2,1.0535424E-1,4.1677073E-2,7.4863434E-4,5.6132294E-2,9.194205E-2,4.6690878E-2,1.6655063E-2,6.989319E-2,-2.0769655E-3,-1.02609396E-4,1.3358414E-1,2.051642E-1,7.738969E-3,8.907079E-2,-4.0894616E-2,7.134716E-2,3.195011E-2,1.14100516E-1,5.458093E-3,8.235741E-2,7.457808E-2,1.9800161E-1,-4.1885924E-2,8.352654E-2,7.8032486E-2,2.5982904E-1,2.7433392E-1,9.722256E-2,7.704149E-2,5.5310756E-2,6.6432126E-2,1.0112184E-1,3.613575E-2,7.769789E-2,1.724019E-1,9.535491E-2,1.1635717E-1,4.8918348E-2,1.3396704E-1,2.755411E-1,4.3336578E-2,1.1635064E-1,8.072408E-2,4.440053E-2,1.1068361E-1,9.05092E-2,7.6562226E-2,5.467711E-2,1.0957056E-1,8.2094744E-2,1.02530144E-1,1.4914899E-1,1.6530369E-1,1.01625696E-1,8.802779E-2,1.09753184E-1,1.0342002E-1,6.78721E-2,1.44672E-1,9.793611E-2,1.6687974E-2,1.0426519E-1,1.05606474E-1,2.2361873E-2,1.1036575E-1,-4.125849E-2,1.4458065E-1,1.24824956E-1,-2.3199387E-2,3.5308197E-2,3.1523246E-2,8.912851E-2,9.9784814E-2,1.6552944E-2,-3.7349176E-2,6.0009718E-2,1.845381E-2,1.3294831E-1,8.683752E-2,1.1206978E-1,1.0971995E-1,1.454322E-1,8.223863E-2,1.21537864E-1,1.8693412E-2,-3.1128401E-2,1.0917258E-1,1.2962359E-1,1.0365418E-2,3.1789135E-2,9.958092E-2,1.5969644E-1,3.1321667E-2,1.2678574E-1,4.5148563E-2,1.0107589E-1,-3.5824936E-2,5.7620343E-2,1.3622144E-1,8.225102E-2,1.2501785E-1,1.0042852E-1,-3.6793396E-2,9.638879E-2,-9.349036E-3,7.644191E-2,1.1062355E-1,8.754488E-2,9.230639E-2,1.0029286E-1,-4.8950117E-4,8.004877E-2,8.837704E-2,1.14942886E-1,7.6391265E-2,1.03529595E-1,1.4860006E-1,9.278979E-2,4.3833874E-2,-3.994E-3,6.31097E-2,9.652871E-2,1.6872717E-2,1.0942109E-1,7.315587E-2,2.5483713E-2,1.5539555E-1,1.0866069E-1,5.6864757E-2,9.1954865E-2,5.4709155E-2,-1.6405017E-3,3.8438358E-3,5.1410586E-2,1.0408302E-1,5.6059558E-2,1.1165154E-1,9.734615E-2,9.670485E-2,1.3307977E-1,1.1058237E-1,9.8108344E-2,1.5602636E-2,7.127414E-2,1.2244848E-1,-2.9882789E-3,8.007514E-2,1.1230656E-1,3.814354E-2,2.1202683E-1,9.117575E-2,1.3937385E-1,9.523096E-2,1.2779392E-1,1.336234E-1,5.1256847E-2,7.238613E-2,1.55862E-2,1.7698242E-1,1.3664794E-1,5.988537E-2,1.4921749E-1,1.6514642E-2,8.6239174E-2,9.472727E-2,1.20039225E-1,7.7051505E-2,1.3507201E-1,5.0166722E-2,1.2322662E-1,1.701728E-1,2.7123336E-2,1.3844268E-1,1.5825896E-1,-7.509327E-3,1.6014002E-1,8.321662E-2,1.3021836E-1,1.6742831E-1,5.7812005E-2,4.51865E-2,-2.9240146E-2,1.3575791E-1,-8.338016E-3,8.206513E-3,1.2928341E-1,1.9041167E-1,1.5801512E-1,5.27036E-2,1.319102E-1,1.5561283E-1,1.1904228E-1,4.6962116E-2,1.7442344E-1,1.3882746E-1,5.3923476E-2,3.4757342E-2,-1.4167944E-2,1.6779356E-1,4.0192027E-2],"categories":[],"categories_nodes":[],"categories_segments":[],"categories_sizes":[],"default_left":[1,1,0,0,0,0,0,1,0,0,0,0,0,0,0,0,0,0,0,0,0,0,0,0,0,0,0,0,0,0,0,0,0,0,0,0,0,0,0,0,0,0,0,0,0,0,0,0,0,0,0,0,0,0,0,0,0,0,0,0,0,0,0,0,0,0,0,0,0,0,0,0,0,0,0,0,0,0,0,0,0,0,0,0,0,0,0,0,0,0,0,0,0,0,0,0,0,0,0,0,0,0,0,0,0,0,0,0,0,0,0,0,0,0,0,0,0,0,0,0,0,0,0,0,0,0,0,0,0,0,0,0,0,0,0,0,0,0,0,0,0,0,0,0,0,0,0,0,0,0,0,0,0,0,0,0,0,0,0,0,0,0,0,0,0,0,0,0,0,0,0,0,0,0,0,0,0,0,0,0,0,0,0,0,0,0,0,0,0,0,0,0,0,0,0,0,0,0,0,0,0,0,0,0,0,0,0,0,0,0,0,0,0,0,0,0,0,0,0,0,0,0,0,0,0,0,0,0,0,0,0,0,0,0,0,0,0,0,0,0,0,0,0,0,0,0,0,0,0,0,0,0,0,0,0,0,0,0,0,0,0,0,0,0,0,0,0,0,0,0,0,0,0,0,0,0,0,0,0,0,0,0,0,0,0,0,0,0,0,0,0,0,0,0,0,0,0,0,0,0,0,0,0,0,0,0,0,0,0,0,0,0,0,0,0,0,0,0,0,0,0,0,0,0,0,0,0,0,0,0,0,0,0,0,0,0,0,0,0,0,0,0,0,0,0,0,0,0,0,0,0,0,0,0,0,0,0,0,0,0,0,0,0,0,0,0,0,0,0,0,0,0,0,0,0,0,0,0,0,0,0,0,0,0,0,0,0,0,0,0,0,0,0,0,0,0,0,0,0,0,0,0,0,0,0,0,0,0,0,0,0,0,0,0,0,0,0,0,0,0,0,0,0,0,0,0,0,0,0,0,0,0,0,0,0,0,0,0,0,0,0,0,0,0,0,0,0,0,0,0,0,0,0,0,0,0,0,0,0,0,0,0,0,0,0,0,0,0,0,0,0,0,0,0,0,0,0,0,0,0,0,0,0,0,0,0,0,0,0,0,0,0,0,0,0,0,0,0,0,0,0,0,0,0,0,0,0,0,0,0,0,0,0,0,0,0,0,0,0,0,0,0,0,0,0,0,0,0,0,0,0,0,0,0,0,0,0,0,0,0,0,0,0,0,0,0,0,0,0,0,0,0,0,0,0,0,0,0,0,0,0,0,0,0,0,0,0,0,0,0,0,0,0,0,0,0,0,0,0,0,0,0,0,0,0,0,0,0,0,0,0,0,0,0,0,0,0,0,0,0,0,0,0,0,0,0,0,0,0,0,0,0,0,0,0,0,0,0,0,0,0,0,0,0,0,0,0,0,0,0,0,0,0,0,0,0,0,0,0,0,0,0,0,0,0,0,0,0,0,0,0,0,0,0,0,0,0,0,0,0,0,0,0,0,0,0,0,0,0,0,0,0,0,0,0,0,0,0,0,0,0,0,0,0,0,0,0,0,0,0,0,0,0,0,0,0,0,0,0,0,0,0,0,0,0,0,0,0,0,0,0,0,0,0,0,0,0,0,0,0,0,0,0,0,0,0,0,0,0,0,0,0,0,0,0,0,0,0,0,0,0,0,0,0,0,0,0,0,0,0,0,0,0,0,0,0,0,0,0,0,0,0,0,0,0,0,0,0,0,0,0,0,0,0,0,0,0,0,0,0,0,0,0,0,0,0,0,0,0,0,0,0,0,0,0,0,0,0,0,0,0,0,0,0,0,0,0,0,0,0,0,0,0,0,0,0,0,0,0,0,0,0,0,0,0,0,0,0,0,0,0,0,0,0,0,0,0,0,0,0,0,0,0,0,0,0,0,0,0,0,0,0,0,0,0,0,0,0,0,0,0,0,0,0,0,0,0,0,0,0,0,0,0,0,0,0,0,0,0,0,0,0,0,0,0,0,0,0,0,0,0,0,0,0,0,0,0,0,0],"id":2,"left_children":[1,3,5,7,9,11,13,15,17,19,21,23,25,27,29,31,33,35,37,